svm_type c_svc
kernel_type rbf
gamma 0.02
nr_class 2
total_sv 6
rho 0.611461
label 1 -1
probA -2.20102
probB 0.627952
nr_sv 2 4
SV
2.046591597611076 1:-0.98961538 2:0.32613766 3:0.37300689 4:-0.39938618 5:0.067244364 6:-0.96268901 7:0.041117008 8:-0.89284816 9:-0.99871798 10:0.88736489 11:-0.76406748 12:-0.99550092 13:0.95811555 14:-0.996062 15:-0.69207512 16:-0.52506463 17:-0.78242358 18:-0.95266218 19:-0.87064253 20:-0.81577334 21:-0.98531065 22:-0.81846895 23:-1 24:-1 25:-0.91282788 26:-0.75534 27:-0.97882166 28:-0.77593866 29:-0.79543239 30:-0.69764235 31:-0.96654413 32:-0.82795735 33:-0.99850422 34:-0.91999936 35:-0.96650718 36:-0.95698925 37:-0.98222222 38:-0.94244604 39:-0.96065574 40:-0.97693575 41:-0.94576271 42:-0.98876404 43:-0.97785978 44:-0.9800995 45:-0.98363636 46:-0.98746643 47:-0.99147122 48:-0.97520661 49:-0.98666667 50:-0.97520661 51:-0.99484979 52:-0.97761194 53:-0.96595745 54:-0.97727273 55:-0.9916318 56:-0.99329983 57:-0.99689441 58:-1 59:-0.99853641 60:0.54342544 61:-0.56674016 
1.335154159575035 1:-0.98903846 2:0.16379831 3:0.17599137 4:-0.3126007 5:-0.4261159 6:-1 7:0.41182886 8:-0.72324029 9:-0.99909903 10:0.96624739 11:-0.76514496 12:-0.99752629 13:0.93002736 14:-0.99812065 15:-0.68691342 16:-0.87578719 17:-0.83980676 18:-0.83559067 19:-0.84660923 20:-0.7923209 21:-0.96623754 22:-0.81725472 23:-1 24:-1 25:-0.95183694 26:-0.73117035 27:-1 28:-0.77528424 29:-0.81298286 30:-0.61869769 31:-0.85257149 32:-0.7253986 33:-0.97389376 34:-0.93666535 35:-0.96172249 36:-0.97849462 37:-0.94666667 38:-0.97841727 39:-0.94754098 40:-0.95057661 41:-0.89152542 42:-0.98127341 43:-0.9797048 44:-0.99253731 45:-0.99272727 46:-0.99641898 47:-0.97867804 48:-0.97796143 49:-0.96888889 50:-0.98347107 51:-0.99484979 52:-0.95522388 53:-0.99148936 54:-0.99242424 55:-0.9958159 56:-1 57:-1 58:-0.9964476 59:-1 60:0.30957364 61:-0.66474239 
-0.1767282395961075 1:1 2:-1 3:-0.98916636 4:0.42744515 5:0.68965579 6:-0.72551379 7:-0.38721302 8:-0.99403526 9:-0.83211841 10:1 11:0.37432832 12:0.66292403 13:1 14:0.39596761 15:0.93996162 16:-0.9348719 17:0.87751481 18:-0.94419013 19:0.86246131 20:-0.88119 21:0.94135396 22:-0.91913102 23:0.91869914 24:-0.87397351 25:0.90328762 26:-0.88484249 27:0.93814398 28:-0.91995592 29:1 30:-0.90893441 31:1 32:-0.94541557 33:1 34:-0.94181972 35:-0.93779904 36:-0.3046595 37:0.14666667 38:1 39:0.20655738 40:-0.35749588 41:0.26779661 42:1 43:1 44:1 45:1 46:1 47:1 48:1 49:1 50:1 51:1 52:-0.91791045 53:-0.97446809 54:-0.9469697 55:-0.9539749 56:-0.9798995 57:-0.98447205 58:-0.97868561 59:-0.99414563 60:0.14231442 61:0.42330152 
-0.2286548845476211 1:-0.13115385 2:-0.83909389 3:-0.6503676 4:-0.094812039 5:1 6:-0.031207109 7:-1 8:1 9:1 10:-1 11:1 12:1 13:-1 14:1 15:1 16:1 17:1 18:1 19:1 20:1 21:1 22:1 23:1 24:1 25:1 26:1 27:1 28:1 29:0.7647531 30:1 31:0.25735897 32:1 33:-0.18909171 34:1 35:1 36:1 37:1 38:0.97122302 39:1 40:1 41:1 42:0.06741573 43:-0.34870849 44:-0.21393035 45:-0.067272727 46:-0.55416294 47:-0.88059701 48:-0.99173554 49:-1 50:-1 51:-1 52:-1 53:-1 54:-1 55:-1 56:-1 57:-1 58:-1 59:-1 60:-0.35205296 61:-0.87041635 
-1.763054850801905 1:-0.75711538 2:-0.83909389 3:-0.88375425 4:1 5:0.68783249 6:0.87757871 7:-0.39734956 8:-1 9:-0.9506911 10:0.98520953 11:-0.89515566 12:-0.9544669 13:0.90880094 14:-0.94179239 15:-0.65595188 16:-1 17:-0.50395271 18:-1 19:-0.48498447 20:-0.95591563 21:-0.5502608 22:-1 23:-0.51791191 24:-0.94948721 25:-0.51269777 26:-0.9584576 27:-0.56951736 28:-1 29:-0.45393486 30:-0.96692904 31:-0.45112434 32:-1 33:-0.61465182 34:-1 35:-0.98325359 36:-0.97132616 37:-0.97333333 38:-1 39:-0.98688525 40:-1 41:-1 42:-1 43:-1 44:-1 45:-1 46:-1 47:-1 48:-0.98898072 49:-0.88888889 50:-0.25619835 51:-0.872103 52:1 53:1 54:0.66666667 55:-0.26359833 56:-0.68509213 57:-0.8757764 58:-0.93960924 59:-0.99487742 60:-1 61:0.28030509 
-1.213307782240477 1:-0.80019231 2:-0.83871347 3:-0.58833975 4:-0.26416452 5:0.91935773 6:-0.21716143 7:-0.84665893 8:-0.92810496 9:-0.87998387 10:0.1852601 11:-0.91074093 12:-0.79562675 13:0.79205275 14:-0.78698158 15:0.51023551 16:-0.89189627 17:0.63300269 18:-0.90168623 19:0.61157618 20:-0.85999472 21:0.62324366 22:-0.90056116 23:0.64039332 24:-0.8661401 25:0.61377343 26:-0.64529995 27:0.64375474 28:-0.68961164 29:0.5407325 30:-0.66610281 31:0.04212733 32:-0.8195672 33:-0.34405116 34:-0.77820549 35:-0.64832536 36:0.96415771 37:0.066666667 38:-0.35251799 39:-0.42295082 40:-0.7693575 41:-0.93898305 42:-0.97378277 43:-0.98708487 44:-0.82835821 45:-0.71454545 46:-0.87287377 47:-0.98720682 48:-1 49:-0.99555556 50:-1 51:-1 52:-0.99253731 53:-1 54:-1 55:-1 56:-1 57:-1 58:-1 59:-1 60:-0.28021609 61:-1 
