svm_type c_svc
kernel_type rbf
gamma 0.02
nr_class 2
total_sv 634
rho 6.80531
label 1 -1
probA -4.02274
probB 1.73148
nr_sv 317 317
SV
8 1:-1 2:-1 3:-1 4:0.44949371 5:-0.20917822 6:-0.99937486 7:0.52010151 8:-0.97399976 9:-1 10:0.059785102 11:-0.78928881 12:-1 13:-0.14411895 14:-1 15:-0.99654941 16:-0.99271086 17:-1 18:-1 19:-0.99362884 20:-0.98392301 21:-1 22:-1 23:-1 24:-1 25:-0.99367995 26:-0.98534198 27:-1 28:-1 29:-0.99040062 30:-0.98677013 31:-1 32:-1 33:-0.99426288 34:-0.98184426 35:-1 36:-1 37:-1 38:-1 39:-1 40:-1 41:-1 42:-1 43:-1 44:-1 45:-1 46:-1 47:-1 48:-1 49:-1 50:-1 51:-1 52:-1 53:-1 54:-1 55:-1 56:-1 57:-1 58:-1 59:-1 60:-0.99999979 61:-0.99999999 
8 1:-1 2:-1 3:-1 4:0.44949371 5:-0.20918323 6:-0.9994664 7:0.51721699 8:-0.95606388 9:-1 10:0.059574794 11:-0.78720555 12:-1 13:-0.14723649 14:-1 15:-0.99258152 16:-0.98771223 17:-1 18:-1 19:-0.99520066 20:-0.98389509 21:-1 22:-1 23:-1 24:-1 25:-0.99247899 26:-0.98328812 27:-1 28:-1 29:-0.99094872 30:-0.98671417 31:-1 32:-1 33:-0.99103584 34:-0.98183524 35:-1 36:-1 37:-1 38:-1 39:-1 40:-1 41:-1 42:-1 43:-1 44:-1 45:-1 46:-1 47:-1 48:-1 49:-1 50:-1 51:-1 52:-1 53:-1 54:-1 55:-1 56:-1 57:-1 58:-1 59:-1 60:-0.99999975 61:-0.99999999 
8 1:-1 2:-1 3:-1 4:0.44949371 5:-0.2091882 6:-0.99964559 7:0.5175968 8:-0.93109909 9:-1 10:0.059664015 11:-0.78979835 12:-1 13:-0.14209435 14:-1 15:-0.99582098 16:-0.97674355 17:-1 18:-1 19:-0.99606004 20:-0.98047043 21:-1 22:-1 23:-1 24:-1 25:-0.99252921 26:-0.98522785 27:-1 28:-1 29:-0.99258424 30:-0.98832963 31:-1 32:-1 33:-0.99174138 34:-0.982014 35:-1 36:-1 37:-1 38:-1 39:-1 40:-1 41:-1 42:-1 43:-1 44:-1 45:-1 46:-1 47:-1 48:-1 49:-1 50:-1 51:-1 52:-1 53:-1 54:-1 55:-1 56:-1 57:-1 58:-1 59:-1 60:-0.99999976 61:-0.99999999 
8 1:-1 2:-1 3:-1 4:0.44949371 5:-0.20918542 6:-0.99982278 7:0.52544535 8:-0.94278457 9:-1 10:0.059918935 11:-0.78653367 12:-1 13:-0.14437654 14:-1 15:-0.99770957 16:-0.97322225 17:-1 18:-1 19:-0.99630982 20:-0.9785228 21:-1 22:-1 23:-1 24:-1 25:-0.99496876 26:-0.98696532 27:-1 28:-1 29:-0.99115014 30:-0.98515357 31:-1 32:-1 33:-0.98761307 34:-0.97840056 35:-1 36:-1 37:-1 38:-1 39:-1 40:-1 41:-1 42:-1 43:-1 44:-1 45:-1 46:-1 47:-1 48:-1 49:-1 50:-1 51:-1 52:-1 53:-1 54:-1 55:-1 56:-1 57:-1 58:-1 59:-1 60:-0.99999976 61:-0.99999999 
8 1:-1 2:-1 3:-1 4:0.4494937 5:-0.20918453 6:-0.99990881 7:0.53182976 8:-0.94750179 9:-1 10:0.059751644 11:-0.78846672 12:-1 13:-0.14590281 14:-1 15:-0.99673565 16:-0.97516251 17:-1 18:-1 19:-0.99528791 20:-0.98221352 21:-1 22:-1 23:-1 24:-1 25:-0.99346136 26:-0.98366601 27:-1 28:-1 29:-0.99286915 30:-0.98371317 31:-1 32:-1 33:-0.99253487 34:-0.97892535 35:-1 36:-1 37:-1 38:-1 39:-1 40:-1 41:-1 42:-1 43:-1 44:-1 45:-1 46:-1 47:-1 48:-1 49:-1 50:-1 51:-1 52:-1 53:-1 54:-1 55:-1 56:-1 57:-1 58:-1 59:-1 60:-0.99999977 61:-0.99999999 
8 1:-1 2:-1 3:-1 4:0.44949373 5:-0.20914787 6:-0.98612911 7:0.34647291 8:-0.61939646 9:-1 10:0.52396281 11:-0.37769216 12:-1 13:0.42638236 14:-1 15:-0.93166905 16:-0.90739039 17:-0.94334758 18:-0.90258973 19:-0.94396902 20:-0.89405828 21:-0.94142126 22:-0.89186654 23:-0.94174264 24:-0.88981421 25:-0.94245958 26:-0.89096856 27:-0.94330509 28:-0.8921083 29:-0.93154064 30:-0.89659826 31:-0.93143954 32:-0.89069895 33:-0.92983395 34:-0.86126751 35:-1 36:-1 37:-1 38:-1 39:-1 40:-1 41:-1 42:-1 43:-1 44:-1 45:-1 46:-1 47:-1 48:-1 49:-1 50:-0.99999999 51:-1 52:-1 53:-1 54:-1 55:-1 56:-1 57:-1 58:-1 59:-1 60:-0.99999732 61:-0.99999969 
8 1:-1 2:-1 3:-1 4:0.44949372 5:-0.20914729 6:-0.98666638 7:0.34583974 8:-0.61914736 9:-1 10:0.52396294 11:-0.37769111 12:-1 13:0.42638214 14:-1 15:-0.93509142 16:-0.9089327 17:-0.94264404 18:-0.90472448 19:-0.93937505 20:-0.89475076 21:-0.9417606 22:-0.89231292 23:-0.94052537 24:-0.88845184 25:-0.94181706 26:-0.89268079 27:-0.94299483 28:-0.89250595 29:-0.93028324 30:-0.89709482 31:-0.93120038 32:-0.90475394 33:-0.92932501 34:-0.86393895 35:-1 36:-1 37:-1 38:-1 39:-1 40:-1 41:-1 42:-1 43:-1 44:-1 45:-1 46:-1 47:-1 48:-1 49:-1 50:-0.99999999 51:-1 52:-1 53:-1 54:-1 55:-1 56:-1 57:-1 58:-1 59:-1 60:-0.99999714 61:-0.99999969 
8 1:-1 2:-1 3:-1 4:0.44949372 5:-0.20915766 6:-0.98698407 7:0.34207696 8:-0.61973616 9:-1 10:0.52396183 11:-0.37769216 12:-1 13:0.42638137 14:-1 15:-0.92992926 16:-0.89582687 17:-0.94462514 18:-0.89474587 19:-0.94473461 20:-0.89328206 21:-0.94281293 22:-0.8909902 23:-0.94204998 24:-0.88955543 25:-0.94105914 26:-0.89233591 27:-0.94298585 28:-0.89223705 29:-0.92774065 30:-0.89639291 31:-0.93118711 32:-0.89235055 33:-0.93714104 34:-0.86423443 35:-1 36:-1 37:-1 38:-1 39:-1 40:-1 41:-1 42:-1 43:-1 44:-1 45:-1 46:-1 47:-1 48:-1 49:-1 50:-0.99999999 51:-1 52:-1 53:-1 54:-1 55:-1 56:-1 57:-1 58:-1 59:-1 60:-0.99999717 61:-0.9999997 
3.071115954228426 1:-1 2:-1 3:-1 4:0.44949372 5:-0.2091542 6:-0.987189 7:0.34316704 8:-0.6197875 9:-1 10:0.52396169 11:-0.37769095 12:-1 13:0.42638177 14:-1 15:-0.93184581 16:-0.88259827 17:-0.94990765 18:-0.88810006 19:-0.94809327 20:-0.88977227 21:-0.94552295 22:-0.88851901 23:-0.94255198 24:-0.88933679 25:-0.94149606 26:-0.89010118 27:-0.94365695 28:-0.89185952 29:-0.92992209 30:-0.89524094 31:-0.93254083 32:-0.89463916 33:-0.93664685 34:-0.86044036 35:-1 36:-1 37:-1 38:-1 39:-1 40:-1 41:-1 42:-1 43:-1 44:-1 45:-1 46:-1 47:-1 48:-1 49:-1 50:-0.99999999 51:-1 52:-1 53:-1 54:-1 55:-1 56:-1 57:-1 58:-1 59:-1 60:-0.99999704 61:-0.9999997 
8 1:-1 2:-1 3:-1 4:0.44949371 5:-0.20915907 6:-0.98734063 7:0.34315286 8:-0.61930649 9:-1 10:0.523962 11:-0.37769265 12:-1 13:0.42638162 14:-1 15:-0.92579946 16:-0.87971897 17:-0.94639195 18:-0.8857866 19:-0.94585916 20:-0.88669454 21:-0.94762359 22:-0.88672869 23:-0.94464868 24:-0.88785874 25:-0.94423604 26:-0.88880662 27:-0.94576438 28:-0.88931909 29:-0.93369609 30:-0.89601508 31:-0.93882649 32:-0.90500475 33:-0.93441073 34:-0.85785468 35:-1 36:-1 37:-1 38:-1 39:-1 40:-1 41:-1 42:-1 43:-1 44:-1 45:-1 46:-1 47:-1 48:-1 49:-1 50:-0.99999999 51:-1 52:-1 53:-1 54:-1 55:-1 56:-1 57:-1 58:-1 59:-1 60:-0.99999708 61:-0.99999969 
8 1:-1 2:-1 3:-1 4:0.44949369 5:-0.20915692 6:-0.98700639 7:0.34415444 8:-0.62021718 9:-1 10:0.52396278 11:-0.37769132 12:-1 13:0.42638149 14:-1 15:-0.93731045 16:-0.89961428 17:-0.94885999 18:-0.89859179 19:-0.9494509 20:-0.89497295 21:-0.94719692 22:-0.88988377 23:-0.94620814 24:-0.88996335 25:-0.94448266 26:-0.88956362 27:-0.94580184 28:-0.89001448 29:-0.93414893 30:-0.89572577 31:-0.93725742 32:-0.9068714 33:-0.93728766 34:-0.86447915 35:-1 36:-1 37:-1 38:-1 39:-1 40:-1 41:-1 42:-1 43:-1 44:-1 45:-1 46:-1 47:-1 48:-1 49:-1 50:-0.99999999 51:-1 52:-1 53:-1 54:-1 55:-1 56:-1 57:-1 58:-1 59:-1 60:-0.99999713 61:-0.99999968 
8 1:-1 2:-1 3:-1 4:0.44949369 5:-0.20915736 6:-0.98707683 7:0.34415234 8:-0.62015062 9:-1 10:0.52396217 11:-0.37769148 12:-1 13:0.42638153 14:-1 15:-0.93575128 16:-0.89970992 17:-0.94708769 18:-0.89742984 19:-0.94995366 20:-0.89370036 21:-0.94676438 22:-0.88814166 23:-0.94605421 24:-0.88960413 25:-0.94353486 26:-0.88805131 27:-0.94538897 28:-0.88965839 29:-0.93265985 30:-0.89538027 31:-0.93517565 32:-0.90816405 33:-0.93583138 34:-0.86635029 35:-1 36:-1 37:-1 38:-1 39:-1 40:-1 41:-1 42:-1 43:-1 44:-1 45:-1 46:-1 47:-1 48:-1 49:-1 50:-0.99999999 51:-1 52:-1 53:-1 54:-1 55:-1 56:-1 57:-1 58:-1 59:-1 60:-0.99999704 61:-0.99999969 
8 1:-1 2:-1 3:-1 4:0.44949369 5:-0.20915532 6:-0.98710841 7:0.3436521 8:-0.62020662 9:-1 10:0.52396196 11:-0.37769118 12:-1 13:0.42638166 14:-1 15:-0.93422432 16:-0.90116101 17:-0.94579999 18:-0.8987399 19:-0.94840742 20:-0.8949121 21:-0.9468898 22:-0.8893707 23:-0.9459748 24:-0.88959795 25:-0.94288016 26:-0.88800974 27:-0.94300646 28:-0.88947071 29:-0.93248989 30:-0.89533626 31:-0.93478498 32:-0.90807818 33:-0.93668691 34:-0.8625242 35:-1 36:-1 37:-1 38:-1 39:-1 40:-1 41:-1 42:-1 43:-1 44:-1 45:-1 46:-1 47:-1 48:-1 49:-1 50:-0.99999999 51:-1 52:-1 53:-1 54:-1 55:-1 56:-1 57:-1 58:-1 59:-1 60:-0.999997 61:-0.99999969 
8 1:-1 2:-1 3:-1 4:0.44949369 5:-0.20915736 6:-0.98706051 7:0.34419207 8:-0.61972929 9:-1 10:0.52396233 11:-0.37769183 12:-1 13:0.42638205 14:-1 15:-0.92785488 16:-0.89917684 17:-0.94262618 18:-0.8993988 19:-0.9454448 20:-0.89527993 21:-0.94608819 22:-0.89131795 23:-0.94578627 24:-0.88997179 25:-0.94366582 26:-0.88830691 27:-0.94405474 28:-0.88990667 29:-0.9345429 30:-0.89563799 31:-0.93697485 32:-0.90810058 33:-0.93861948 34:-0.86618615 35:-1 36:-1 37:-1 38:-1 39:-1 40:-1 41:-1 42:-1 43:-1 44:-1 45:-1 46:-1 47:-1 48:-1 49:-1 50:-0.99999999 51:-1 52:-1 53:-1 54:-1 55:-1 56:-1 57:-1 58:-1 59:-1 60:-0.99999696 61:-0.99999969 
8 1:-1 2:-1 3:-1 4:0.44949369 5:-0.20915932 6:-0.98698714 7:0.34480787 8:-0.61877522 9:-1 10:0.52396272 11:-0.37769317 12:-1 13:0.42638232 14:-1 15:-0.91782757 16:-0.89810608 17:-0.93910578 18:-0.89656524 19:-0.94391238 20:-0.89497763 21:-0.94474993 22:-0.89101225 23:-0.94613268 24:-0.88721396 25:-0.9448991 26:-0.88815568 27:-0.94437286 28:-0.88723617 29:-0.93483957 30:-0.89649343 31:-0.9365085 32:-0.90729435 33:-0.9304362 34:-0.86335672 35:-1 36:-1 37:-1 38:-1 39:-1 40:-1 41:-1 42:-1 43:-1 44:-1 45:-1 46:-1 47:-1 48:-1 49:-1 50:-0.99999999 51:-1 52:-1 53:-1 54:-1 55:-1 56:-1 57:-1 58:-1 59:-1 60:-0.99999687 61:-0.99999971 
8 1:-1 2:-1 3:-1 4:0.44949369 5:-0.20915986 6:-0.98692486 7:0.34508071 8:-0.61869676 9:-1 10:0.52396307 11:-0.37769177 12:-1 13:0.4263812 14:-1 15:-0.92108915 16:-0.89699085 17:-0.94085492 18:-0.89702973 19:-0.94475354 20:-0.89269369 21:-0.94303223 22:-0.8899549 23:-0.94247135 24:-0.88532733 25:-0.94593913 26:-0.88525269 27:-0.94249045 28:-0.90321989 29:-0.93169867 30:-0.88891417 31:-0.93224545 32:-0.8797735 33:-0.93530757 34:-0.86340507 35:-1 36:-1 37:-1 38:-1 39:-1 40:-1 41:-1 42:-1 43:-1 44:-1 45:-1 46:-1 47:-1 48:-1 49:-1 50:-0.99999999 51:-1 52:-1 53:-1 54:-1 55:-1 56:-1 57:-1 58:-1 59:-1 60:-0.99999677 61:-0.99999971 
8 1:-1 2:-1 3:-1 4:0.4494937 5:-0.20916026 6:-0.98715593 7:0.34455168 8:-0.61686605 9:-1 10:0.52396384 11:-0.37769229 12:-1 13:0.4263827 14:-1 15:-0.91755857 16:-0.87775611 17:-0.93994002 18:-0.88269167 19:-0.94403529 20:-0.88651042 21:-0.94382124 22:-0.88749412 23:-0.94532623 24:-0.88966665 25:-0.94482565 26:-0.89812918 27:-0.92856032 28:-0.89184831 29:-0.93603495 30:-0.90451513 31:-0.93586351 32:-0.9003942 33:-0.93629418 34:-0.8594307 35:-1 36:-1 37:-1 38:-1 39:-1 40:-1 41:-1 42:-1 43:-1 44:-1 45:-1 46:-1 47:-1 48:-1 49:-1 50:-0.99999999 51:-1 52:-1 53:-1 54:-1 55:-1 56:-1 57:-1 58:-1 59:-1 60:-0.99999701 61:-0.99999972 
8 1:-1 2:-1 3:-1 4:0.44949371 5:-0.2091586 6:-0.98737926 7:0.34310683 8:-0.61823499 9:-1 10:0.52396274 11:-0.3776919 12:-1 13:0.42638198 14:-1 15:-0.9293611 16:-0.88391796 17:-0.94784744 18:-0.88584436 19:-0.94883444 20:-0.88355349 21:-0.94724535 22:-0.88669686 23:-0.94335617 24:-0.88722868 25:-0.94340421 26:-0.89757674 27:-0.9381699 28:-0.90187296 29:-0.91487373 30:-0.90476341 31:-0.92302419 32:-0.88538885 33:-0.93705673 34:-0.86287272 35:-1 36:-1 37:-1 38:-1 39:-1 40:-1 41:-1 42:-1 43:-1 44:-1 45:-1 46:-1 47:-1 48:-1 49:-1 50:-0.99999999 51:-1 52:-1 53:-1 54:-1 55:-1 56:-1 57:-1 58:-1 59:-1 60:-0.99999658 61:-0.99999973 
8 1:-1 2:-1 3:-1 4:0.44949369 5:-0.20915537 6:-0.98660379 7:0.3441082 8:-0.61764392 9:-1 10:0.52396246 11:-0.37769261 12:-1 13:0.42638213 14:-1 15:-0.92212504 16:-0.89736418 17:-0.93883851 18:-0.89765032 19:-0.94018039 20:-0.89284209 21:-0.94108628 22:-0.89093112 23:-0.94549846 24:-0.89107467 25:-0.94395447 26:-0.88294982 27:-0.93251589 28:-0.887147 29:-0.93626616 30:-0.89660818 31:-0.93241544 32:-0.90745059 33:-0.93345324 34:-0.86013277 35:-1 36:-1 37:-1 38:-1 39:-1 40:-1 41:-1 42:-1 43:-1 44:-1 45:-1 46:-1 47:-1 48:-1 49:-1 50:-0.99999998 51:-1 52:-1 53:-1 54:-1 55:-1 56:-1 57:-1 58:-1 59:-1 60:-0.99999714 61:-0.99999972 
8 1:-1 2:-1 3:-1 4:0.44949369 5:-0.20915233 6:-0.98620838 7:0.34247038 8:-0.61765906 9:-1 10:0.52396305 11:-0.37769513 12:-1 13:0.42638236 14:-1 15:-0.9257563 16:-0.91137421 17:-0.94905926 18:-0.90896797 19:-0.94042366 20:-0.90006339 21:-0.94093208 22:-0.89343149 23:-0.94535778 24:-0.8918796 25:-0.94649097 26:-0.89811271 27:-0.93676919 28:-0.88733315 29:-0.93809719 30:-0.89659903 31:-0.93447709 32:-0.90833348 33:-0.93437984 34:-0.86120659 35:-1 36:-1 37:-1 38:-1 39:-1 40:-1 41:-1 42:-1 43:-1 44:-1 45:-1 46:-1 47:-1 48:-1 49:-1 50:-0.99999999 51:-1 52:-1 53:-1 54:-1 55:-1 56:-1 57:-1 58:-1 59:-1 60:-0.99999703 61:-0.99999972 
8 1:-1 2:-1 3:-1 4:0.44949369 5:-0.20914833 6:-0.98588484 7:0.33944076 8:-0.61866382 9:-1 10:0.5239619 11:-0.37768788 12:-1 13:0.42638217 14:-1 15:-0.93288335 16:-0.9116744 17:-0.94122887 18:-0.90276234 19:-0.94315683 20:-0.89553175 21:-0.94268802 22:-0.89460886 23:-0.94153185 24:-0.89072528 25:-0.94305145 26:-0.89930037 27:-0.94359906 28:-0.89067463 29:-0.92376387 30:-0.89101935 31:-0.93342868 32:-0.8968869 33:-0.92953028 34:-0.86050082 35:-1 36:-1 37:-1 38:-1 39:-1 40:-1 41:-1 42:-1 43:-1 44:-1 45:-1 46:-1 47:-1 48:-1 49:-1 50:-0.99999998 51:-1 52:-1 53:-1 54:-1 55:-1 56:-1 57:-1 58:-1 59:-1 60:-0.99999699 61:-0.9999997 
8 1:-1 2:-1 3:-1 4:0.44949368 5:-0.20915099 6:-0.98569164 7:0.34120424 8:-0.61948504 9:-1 10:0.52396348 11:-0.37769349 12:-1 13:0.42638179 14:-1 15:-0.93290118 16:-0.90990799 17:-0.94186055 18:-0.89956426 19:-0.94791327 20:-0.89098065 21:-0.94424252 22:-0.89007498 23:-0.94213606 24:-0.88907088 25:-0.94613099 26:-0.89825983 27:-0.94343044 28:-0.89662937 29:-0.92060096 30:-0.89219735 31:-0.93867506 32:-0.89235397 33:-0.93283663 34:-0.86056638 35:-1 36:-1 37:-1 38:-1 39:-1 40:-1 41:-1 42:-1 43:-1 44:-1 45:-1 46:-1 47:-1 48:-1 49:-1 50:-0.99999998 51:-1 52:-1 53:-1 54:-1 55:-1 56:-1 57:-1 58:-1 59:-1 60:-0.99999701 61:-0.9999997 
8 1:-1 2:-1 3:-1 4:0.44949368 5:-0.20915469 6:-0.98530234 7:0.3442405 8:-0.62009404 9:-1 10:0.52396079 11:-0.37769327 12:-1 13:0.42638188 14:-1 15:-0.92879359 16:-0.89539637 17:-0.94300689 18:-0.89586389 19:-0.94240939 20:-0.89104218 21:-0.94297128 22:-0.89151583 23:-0.94267119 24:-0.88895137 25:-0.94282189 26:-0.89780093 27:-0.93947985 28:-0.88918171 29:-0.93517737 30:-0.90270017 31:-0.9328062 32:-0.89067111 33:-0.93460354 34:-0.86174067 35:-1 36:-1 37:-1 38:-1 39:-1 40:-1 41:-1 42:-1 43:-1 44:-1 45:-1 46:-1 47:-1 48:-1 49:-1 50:-0.99999997 51:-1 52:-1 53:-1 54:-1 55:-1 56:-1 57:-1 58:-1 59:-1 60:-0.99999707 61:-0.99999971 
8 1:-1 2:-1 3:-1 4:0.44949368 5:-0.2091552 6:-0.98470192 7:0.34498958 8:-0.61940189 9:-1 10:0.52395967 11:-0.37769249 12:-1 13:0.4263805 14:-1 15:-0.90870801 16:-0.89039384 17:-0.93392859 18:-0.89273219 19:-0.94041576 20:-0.89313261 21:-0.94266131 22:-0.89019431 23:-0.94311026 24:-0.88897446 25:-0.94409787 26:-0.89813243 27:-0.93541656 28:-0.89190581 29:-0.9253182 30:-0.90557505 31:-0.93252625 32:-0.89371342 33:-0.93372319 34:-0.86000337 35:-1 36:-1 37:-1 38:-1 39:-1 40:-1 41:-1 42:-1 43:-1 44:-1 45:-1 46:-1 47:-1 48:-1 49:-1 50:-0.99999997 51:-1 52:-1 53:-1 54:-1 55:-1 56:-1 57:-1 58:-1 59:-1 60:-0.99999679 61:-0.9999997 
8 1:-1 2:-1 3:-1 4:0.44949368 5:-0.20915545 6:-0.9837975 7:0.34579406 8:-0.61927589 9:-1 10:0.52396443 11:-0.37768995 12:-1 13:0.42638169 14:-1 15:-0.90786403 16:-0.89174273 17:-0.93497899 18:-0.89207442 19:-0.94350522 20:-0.88935069 21:-0.94241694 22:-0.8891475 23:-0.94470318 24:-0.89012053 25:-0.9396583 26:-0.89633104 27:-0.93991971 28:-0.8892074 29:-0.91392186 30:-0.89911697 31:-0.92611862 32:-0.88348133 33:-0.93479398 34:-0.86320211 35:-1 36:-1 37:-1 38:-1 39:-1 40:-1 41:-1 42:-1 43:-1 44:-1 45:-1 46:-1 47:-1 48:-1 49:-1 50:-0.99999997 51:-1 52:-1 53:-1 54:-1 55:-1 56:-1 57:-1 58:-1 59:-1 60:-0.99999676 61:-0.99999969 
8 1:-1 2:-1 3:-1 4:0.44949368 5:-0.20915135 6:-0.98322118 7:0.3394977 8:-0.61841279 9:-1 10:0.52396245 11:-0.37769187 12:-1 13:0.42638237 14:-1 15:-0.92965334 16:-0.89988902 17:-0.94342665 18:-0.90088618 19:-0.94355751 20:-0.89397247 21:-0.94219581 22:-0.89371498 23:-0.94231778 24:-0.89111459 25:-0.94283783 26:-0.89825845 27:-0.94151234 28:-0.88997757 29:-0.91686041 30:-0.89645082 31:-0.91262743 32:-0.89150652 33:-0.93197473 34:-0.85840524 35:-1 36:-1 37:-1 38:-1 39:-1 40:-1 41:-1 42:-1 43:-1 44:-1 45:-1 46:-1 47:-1 48:-1 49:-1 50:-0.99999997 51:-1 52:-1 53:-1 54:-1 55:-1 56:-1 57:-1 58:-1 59:-1 60:-0.9999971 61:-0.99999969 
8 1:-1 2:-1 3:-1 4:0.44949368 5:-0.20915031 6:-0.98276853 7:0.33686433 8:-0.6189266 9:-1 10:0.52396289 11:-0.37769401 12:-1 13:0.42638157 14:-1 15:-0.93160432 16:-0.90893496 17:-0.94197932 18:-0.9018855 19:-0.94404221 20:-0.89471587 21:-0.94063044 22:-0.89273179 23:-0.94140304 24:-0.89307947 25:-0.94089156 26:-0.89814351 27:-0.93579629 28:-0.89008447 29:-0.92338738 30:-0.9000304 31:-0.91745637 32:-0.88996234 33:-0.93279737 34:-0.85894315 35:-1 36:-1 37:-1 38:-1 39:-1 40:-1 41:-1 42:-1 43:-1 44:-1 45:-1 46:-1 47:-1 48:-1 49:-1 50:-0.99999997 51:-1 52:-1 53:-1 54:-1 55:-1 56:-1 57:-1 58:-1 59:-1 60:-0.9999969 61:-0.99999967 
8 1:-1 2:-1 3:-1 4:0.44949368 5:-0.20914524 6:-0.98070791 7:0.32201908 8:-0.6145937 9:-1 10:0.52396263 11:-0.37769141 12:-1 13:0.42638193 14:-1 15:-0.93722732 16:-0.91100214 17:-0.95136138 18:-0.91142393 19:-0.95303171 20:-0.9164633 21:-0.9511719 22:-0.92028847 23:-0.9507933 24:-0.9206435 25:-0.95265385 26:-0.92494669 27:-0.9497958 28:-0.92188508 29:-0.93296374 30:-0.89192277 31:-0.93623876 32:-0.91803537 33:-0.93411783 34:-0.84387806 35:-1 36:-1 37:-1 38:-1 39:-1 40:-1 41:-1 42:-1 43:-1 44:-1 45:-1 46:-1 47:-1 48:-1 49:-1 50:-1 51:-1 52:-1 53:-1 54:-1 55:-1 56:-1 57:-1 58:-1 59:-1 60:-0.99999701 61:-0.99999971 
8 1:-1 2:-1 3:-1 4:0.44949369 5:-0.20915199 6:-0.98139263 7:0.33859183 8:-0.61928629 9:-1 10:0.52396652 11:-0.37769329 12:-1 13:0.42638464 14:-1 15:-0.92463335 16:-0.8947943 17:-0.94361697 18:-0.8952307 19:-0.94336063 20:-0.88945834 21:-0.93879354 22:-0.89176929 23:-0.94115648 24:-0.89104876 25:-0.94005873 26:-0.89808935 27:-0.94411478 28:-0.90435891 29:-0.91330056 30:-0.89252132 31:-0.90921284 32:-0.88344427 33:-0.91977074 34:-0.84138599 35:-1 36:-1 37:-1 38:-1 39:-1 40:-1 41:-1 42:-1 43:-1 44:-1 45:-1 46:-1 47:-1 48:-1 49:-1 50:-0.99999997 51:-1 52:-0.99999999 53:-1 54:-1 55:-1 56:-1 57:-1 58:-1 59:-1 60:-0.99999672 61:-0.99999963 
8 1:-1 2:-1 3:-1 4:0.44949369 5:-0.20915227 6:-0.98076663 7:0.33858055 8:-0.61947403 9:-1 10:0.52396153 11:-0.37769114 12:-1 13:0.42638024 14:-1 15:-0.91666622 16:-0.89308934 17:-0.93898804 18:-0.89549504 19:-0.94193566 20:-0.88966348 21:-0.9380192 22:-0.88862638 23:-0.93990562 24:-0.89201827 25:-0.94020982 26:-0.89826138 27:-0.94141337 28:-0.9030135 29:-0.92438254 30:-0.89364134 31:-0.91561971 32:-0.88273722 33:-0.91117401 34:-0.83403795 35:-1 36:-1 37:-1 38:-1 39:-1 40:-1 41:-1 42:-1 43:-1 44:-1 45:-1 46:-1 47:-1 48:-1 49:-1 50:-0.99999996 51:-1 52:-0.99999999 53:-1 54:-1 55:-1 56:-1 57:-1 58:-1 59:-1 60:-0.99999677 61:-0.99999962 
8 1:-1 2:-1 3:-1 4:0.44949369 5:-0.20915249 6:-0.97985682 7:0.33811275 8:-0.61964411 9:-1 10:0.52396445 11:-0.37769276 12:-1 13:0.42637994 14:-1 15:-0.92841685 16:-0.89173601 17:-0.94089647 18:-0.89001016 19:-0.94467536 20:-0.89028133 21:-0.93887272 22:-0.8920012 23:-0.93719064 24:-0.89227953 25:-0.9399107 26:-0.89761998 27:-0.93934024 28:-0.90495185 29:-0.9255787 30:-0.89299637 31:-0.91055316 32:-0.87554344 33:-0.91162888 34:-0.82817407 35:-1 36:-1 37:-1 38:-1 39:-1 40:-1 41:-1 42:-1 43:-1 44:-1 45:-1 46:-1 47:-1 48:-1 49:-1 50:-0.99999996 51:-0.99999999 52:-0.99999999 53:-1 54:-1 55:-1 56:-1 57:-1 58:-1 59:-1 60:-0.99999714 61:-0.99999959 
8 1:-1 2:-1 3:-1 4:0.44949369 5:-0.20915207 6:-0.97982835 7:0.33546868 8:-0.61912998 9:-1 10:0.52396038 11:-0.37769524 12:-1 13:0.42638095 14:-1 15:-0.92881525 16:-0.89627973 17:-0.94416087 18:-0.8916174 19:-0.9425562 20:-0.89117578 21:-0.93661515 22:-0.8935834 23:-0.93625591 24:-0.89262769 25:-0.9356085 26:-0.90022456 27:-0.93965716 28:-0.90592276 29:-0.92635205 30:-0.89927683 31:-0.92081796 32:-0.87888689 33:-0.91491739 34:-0.83051536 35:-1 36:-1 37:-1 38:-1 39:-1 40:-1 41:-1 42:-1 43:-1 44:-1 45:-1 46:-1 47:-1 48:-1 49:-1 50:-0.99999996 51:-0.99999999 52:-1 53:-1 54:-1 55:-1 56:-1 57:-1 58:-1 59:-1 60:-0.99999728 61:-0.99999959 
8 1:-1 2:-1 3:-1 4:0.44949371 5:-0.20915364 6:-0.98142386 7:0.34449991 8:-0.62038521 9:-1 10:0.52396437 11:-0.37769148 12:-1 13:0.42638042 14:-1 15:-0.93136836 16:-0.91048436 17:-0.93686845 18:-0.90062406 19:-0.93682195 20:-0.89200348 21:-0.9325732 22:-0.89449741 23:-0.93316684 24:-0.89039697 25:-0.93485103 26:-0.8926563 27:-0.93926937 28:-0.91641377 29:-0.92444843 30:-0.92102258 31:-0.92412221 32:-0.90554994 33:-0.9238317 34:-0.86297783 35:-1 36:-1 37:-1 38:-1 39:-1 40:-1 41:-1 42:-1 43:-1 44:-1 45:-1 46:-1 47:-1 48:-1 49:-1 50:-0.99999999 51:-1 52:-1 53:-1 54:-1 55:-1 56:-1 57:-1 58:-1 59:-1 60:-0.9999965 61:-0.99999956 
8 1:-1 2:-1 3:-1 4:0.44949371 5:-0.20915368 6:-0.9819295 7:0.34214728 8:-0.62041848 9:-1 10:0.52396142 11:-0.37769202 12:-1 13:0.42638134 14:-1 15:-0.92214936 16:-0.89726028 17:-0.9424107 18:-0.90703408 19:-0.93540722 20:-0.89157971 21:-0.93222373 22:-0.90030998 23:-0.93347081 24:-0.90287449 25:-0.93693899 26:-0.91375748 27:-0.93877097 28:-0.91479233 29:-0.92341025 30:-0.92063589 31:-0.92274636 32:-0.90221292 33:-0.92191154 34:-0.86607122 35:-1 36:-1 37:-1 38:-1 39:-1 40:-0.99999999 41:-1 42:-1 43:-1 44:-1 45:-1 46:-1 47:-1 48:-1 49:-1 50:-0.99999999 51:-1 52:-1 53:-1 54:-1 55:-1 56:-1 57:-1 58:-1 59:-1 60:-0.9999963 61:-0.99999959 
8 1:-1 2:-1 3:-1 4:0.44949371 5:-0.20915351 6:-0.98200177 7:0.34474454 8:-0.62035942 9:-1 10:0.52395923 11:-0.37769546 12:-1 13:0.42638366 14:-1 15:-0.92643885 16:-0.89564923 17:-0.9416928 18:-0.89809312 19:-0.9421852 20:-0.8869673 21:-0.93904878 22:-0.89423138 23:-0.93850169 24:-0.89583945 25:-0.94020145 26:-0.9038069 27:-0.94117238 28:-0.91022638 29:-0.92738381 30:-0.90910887 31:-0.92569223 32:-0.90406324 33:-0.92860558 34:-0.85129038 35:-1 36:-1 37:-1 38:-1 39:-1 40:-0.99999999 41:-1 42:-1 43:-1 44:-1 45:-1 46:-1 47:-1 48:-1 49:-1 50:-0.99999998 51:-1 52:-1 53:-1 54:-1 55:-1 56:-1 57:-1 58:-1 59:-1 60:-0.9999965 61:-0.99999958 
8 1:-1 2:-1 3:-1 4:0.44949371 5:-0.2091533 6:-0.98303924 7:0.34507932 8:-0.62021784 9:-1 10:0.52396232 11:-0.3776853 12:-1 13:0.42638178 14:-1 15:-0.92787652 16:-0.8911563 17:-0.94306078 18:-0.89232807 19:-0.94484677 20:-0.88759243 21:-0.93838209 22:-0.89112903 23:-0.93908312 24:-0.89301128 25:-0.9413303 26:-0.90080489 27:-0.94399288 28:-0.90475368 29:-0.9296774 30:-0.90708702 31:-0.92803468 32:-0.89047721 33:-0.92926631 34:-0.84871478 35:-1 36:-1 37:-1 38:-1 39:-1 40:-1 41:-1 42:-1 43:-1 44:-1 45:-1 46:-1 47:-1 48:-1 49:-1 50:-0.99999996 51:-0.99999999 52:-1 53:-1 54:-1 55:-1 56:-1 57:-1 58:-1 59:-1 60:-0.99999675 61:-0.99999961 
8 1:-1 2:-1 3:-1 4:0.44949372 5:-0.20915413 6:-0.98397402 7:0.3413251 8:-0.62009219 9:-1 10:0.52396253 11:-0.37769269 12:-1 13:0.42638195 14:-1 15:-0.92795976 16:-0.89469295 17:-0.94477356 18:-0.89782927 19:-0.94591727 20:-0.89283264 21:-0.943785 22:-0.89655761 23:-0.94254797 24:-0.89497038 25:-0.94252072 26:-0.89997314 27:-0.94419381 28:-0.90273155 29:-0.92886003 30:-0.90711709 31:-0.93088359 32:-0.89050724 33:-0.92936008 34:-0.84412719 35:-1 36:-1 37:-1 38:-1 39:-1 40:-1 41:-1 42:-1 43:-1 44:-1 45:-1 46:-1 47:-1 48:-1 49:-1 50:-0.99999995 51:-0.99999999 52:-1 53:-1 54:-1 55:-1 56:-1 57:-1 58:-1 59:-1 60:-0.99999701 61:-0.99999963 
8 1:-1 2:-1 3:-1 4:0.44949372 5:-0.20915532 6:-0.98491125 7:0.3388747 8:-0.61885609 9:-1 10:0.52396506 11:-0.37769249 12:-1 13:0.42638156 14:-1 15:-0.93519188 16:-0.90362306 17:-0.94877839 18:-0.90386965 19:-0.94860179 20:-0.90075851 21:-0.94434001 22:-0.89624551 23:-0.9384121 24:-0.89647015 25:-0.93971758 26:-0.90034524 27:-0.94175868 28:-0.90556833 29:-0.92779072 30:-0.90709105 31:-0.92243258 32:-0.89287793 33:-0.91952304 34:-0.82355763 35:-1 36:-1 37:-1 38:-1 39:-1 40:-1 41:-1 42:-1 43:-1 44:-1 45:-1 46:-1 47:-1 48:-1 49:-1 50:-0.99999997 51:-1 52:-1 53:-1 54:-1 55:-1 56:-1 57:-1 58:-1 59:-1 60:-0.99999708 61:-0.9999996 
8 1:-1 2:-1 3:-1 4:0.44949372 5:-0.20915547 6:-0.98522954 7:0.3390845 8:-0.618475 9:-1 10:0.52396526 11:-0.37769037 12:-1 13:0.42638237 14:-1 15:-0.92241366 16:-0.89564572 17:-0.9417044 18:-0.89972467 19:-0.9420727 20:-0.89527744 21:-0.94563189 22:-0.90138541 23:-0.9406728 24:-0.89709585 25:-0.93945667 26:-0.89966755 27:-0.94265294 28:-0.90238895 29:-0.92818438 30:-0.90790096 31:-0.923459 32:-0.89591939 33:-0.92143051 34:-0.82583764 35:-1 36:-1 37:-1 38:-1 39:-1 40:-1 41:-1 42:-1 43:-1 44:-1 45:-1 46:-1 47:-1 48:-1 49:-1 50:-0.99999998 51:-1 52:-1 53:-1 54:-1 55:-1 56:-1 57:-1 58:-1 59:-1 60:-0.99999685 61:-0.99999959 
8 1:-1 2:-1 3:-1 4:0.44949372 5:-0.20915626 6:-0.98574561 7:0.33848217 8:-0.6182787 9:-1 10:0.52396262 11:-0.37769079 12:-1 13:0.42638063 14:-1 15:-0.92922622 16:-0.89707874 17:-0.94212047 18:-0.89981483 19:-0.94560903 20:-0.89925432 21:-0.93633968 22:-0.90310541 23:-0.93941513 24:-0.89439004 25:-0.94433813 26:-0.90015446 27:-0.944457 28:-0.90470052 29:-0.93074224 30:-0.90766364 31:-0.91759172 32:-0.88538521 33:-0.91817771 34:-0.81608754 35:-1 36:-1 37:-1 38:-1 39:-1 40:-1 41:-1 42:-1 43:-1 44:-1 45:-1 46:-1 47:-1 48:-1 49:-1 50:-0.99999997 51:-1 52:-1 53:-1 54:-1 55:-1 56:-1 57:-1 58:-1 59:-1 60:-0.99999689 61:-0.9999996 
8 1:-1 2:-1 3:-1 4:0.44949371 5:-0.20915525 6:-0.98641655 7:0.3411915 8:-0.6193893 9:-1 10:0.52396165 11:-0.37769183 12:-1 13:0.42638113 14:-1 15:-0.92333408 16:-0.89708144 17:-0.93865429 18:-0.89567769 19:-0.93873741 20:-0.89260813 21:-0.9369139 22:-0.892331 23:-0.93729509 24:-0.89071205 25:-0.94121401 26:-0.89943042 27:-0.94511273 28:-0.90394519 29:-0.92985987 30:-0.90695664 31:-0.92000143 32:-0.87844426 33:-0.92330179 34:-0.81270908 35:-1 36:-1 37:-1 38:-1 39:-1 40:-1 41:-1 42:-1 43:-1 44:-1 45:-1 46:-1 47:-1 48:-1 49:-1 50:-0.99999997 51:-1 52:-0.99999999 53:-1 54:-1 55:-1 56:-1 57:-1 58:-1 59:-1 60:-0.99999698 61:-0.9999996 
8 1:-1 2:-1 3:-1 4:0.44949371 5:-0.20915543 6:-0.98683581 7:0.34166721 8:-0.61927527 9:-1 10:0.52396021 11:-0.37768914 12:-1 13:0.42638197 14:-1 15:-0.91992669 16:-0.88793731 17:-0.93687292 18:-0.89094976 19:-0.94018275 20:-0.88816971 21:-0.93864349 22:-0.88778617 23:-0.93979534 24:-0.88984994 25:-0.94146281 26:-0.89550499 27:-0.94314418 28:-0.89993038 29:-0.93032258 30:-0.90526322 31:-0.92775305 32:-0.87601189 33:-0.92496404 34:-0.81728496 35:-1 36:-1 37:-1 38:-1 39:-1 40:-1 41:-1 42:-1 43:-1 44:-1 45:-1 46:-1 47:-1 48:-1 49:-1 50:-0.99999996 51:-1 52:-1 53:-1 54:-1 55:-1 56:-1 57:-1 58:-1 59:-1 60:-0.99999681 61:-0.99999961 
8 1:-1 2:-1 3:-1 4:0.44949371 5:-0.20915572 6:-0.98720033 7:0.34230078 8:-0.61846194 9:-1 10:0.52396276 11:-0.37769527 12:-1 13:0.42638084 14:-1 15:-0.91952493 16:-0.88513253 17:-0.93930364 18:-0.88727126 19:-0.94196888 20:-0.88898747 21:-0.94067486 22:-0.8877993 23:-0.9410813 24:-0.88874873 25:-0.94330881 26:-0.89554659 27:-0.94396816 28:-0.89938211 29:-0.93257878 30:-0.8933796 31:-0.92044138 32:-0.87520722 33:-0.92384038 34:-0.8184456 35:-1 36:-1 37:-1 38:-1 39:-1 40:-1 41:-1 42:-1 43:-1 44:-1 45:-1 46:-1 47:-1 48:-1 49:-1 50:-0.99999996 51:-1 52:-1 53:-1 54:-1 55:-1 56:-1 57:-1 58:-1 59:-1 60:-0.99999656 61:-0.99999962 
8 1:-1 2:-1 3:-1 4:0.44949371 5:-0.20915618 6:-0.98736265 7:0.34271545 8:-0.61831207 9:-1 10:0.52396328 11:-0.37768628 12:-1 13:0.42638201 14:-1 15:-0.93234484 16:-0.89101137 17:-0.944249 18:-0.89339069 19:-0.94479765 20:-0.88798463 21:-0.94323019 22:-0.89003704 23:-0.9441715 24:-0.88880576 25:-0.94481304 26:-0.89495492 27:-0.94265015 28:-0.89871911 29:-0.93324377 30:-0.89472849 31:-0.920208 32:-0.87656499 33:-0.91896174 34:-0.82130595 35:-1 36:-1 37:-1 38:-1 39:-1 40:-1 41:-1 42:-1 43:-1 44:-1 45:-1 46:-1 47:-1 48:-1 49:-1 50:-0.99999997 51:-1 52:-1 53:-1 54:-1 55:-1 56:-1 57:-1 58:-1 59:-1 60:-0.99999666 61:-0.99999964 
8 1:-1 2:-1 3:-1 4:0.44949371 5:-0.20915875 6:-0.98737 7:0.34222995 8:-0.61710714 9:-1 10:0.52396286 11:-0.37769191 12:-1 13:0.42638156 14:-1 15:-0.93824416 16:-0.90995641 17:-0.94901131 18:-0.89602743 19:-0.94786883 20:-0.89163831 21:-0.94592055 22:-0.89193348 23:-0.94653765 24:-0.88972369 25:-0.9450436 26:-0.8958351 27:-0.94540697 28:-0.89987765 29:-0.93323917 30:-0.89575063 31:-0.92592672 32:-0.87623314 33:-0.91999409 34:-0.82605254 35:-1 36:-1 37:-1 38:-1 39:-1 40:-1 41:-1 42:-1 43:-1 44:-1 45:-1 46:-1 47:-1 48:-1 49:-1 50:-0.99999997 51:-1 52:-1 53:-1 54:-1 55:-1 56:-1 57:-1 58:-1 59:-1 60:-0.99999667 61:-0.99999964 
8 1:-1 2:-1 3:-1 4:0.44949371 5:-0.20916326 6:-0.98739454 7:0.34119894 8:-0.6118125 9:-1 10:0.52396237 11:-0.37769342 12:-1 13:0.42638285 14:-1 15:-0.93796917 16:-0.8962104 17:-0.95098123 18:-0.89461153 19:-0.95145638 20:-0.89290124 21:-0.94777311 22:-0.89297257 23:-0.94779818 24:-0.89444772 25:-0.94741701 26:-0.90174598 27:-0.94912626 28:-0.90600076 29:-0.93647433 30:-0.90517312 31:-0.92788218 32:-0.88015675 33:-0.92332957 34:-0.83165437 35:-1 36:-1 37:-1 38:-1 39:-1 40:-1 41:-1 42:-1 43:-1 44:-1 45:-1 46:-1 47:-1 48:-1 49:-1 50:-0.99999998 51:-1 52:-1 53:-1 54:-1 55:-1 56:-1 57:-1 58:-1 59:-1 60:-0.99999679 61:-0.99999964 
8 1:-1 2:-1 3:-1 4:0.44949371 5:-0.20915124 6:-0.9872939 7:0.34382165 8:-0.61991026 9:-1 10:0.52396015 11:-0.37769408 12:-1 13:0.42638152 14:-1 15:-0.93203145 16:-0.89145052 17:-0.94877829 18:-0.89201574 19:-0.94870528 20:-0.88961894 21:-0.94564664 22:-0.89021056 23:-0.94811166 24:-0.88849804 25:-0.94884065 26:-0.89482371 27:-0.947723 28:-0.89895046 29:-0.93456083 30:-0.89556952 31:-0.93472669 32:-0.87641317 33:-0.93381158 34:-0.82255735 35:-1 36:-1 37:-1 38:-1 39:-1 40:-1 41:-1 42:-1 43:-1 44:-1 45:-1 46:-1 47:-1 48:-1 49:-1 50:-0.99999997 51:-1 52:-1 53:-1 54:-1 55:-1 56:-1 57:-1 58:-1 59:-1 60:-0.99999719 61:-0.99999968 
8 1:-1 2:-1 3:-1 4:0.44949371 5:-0.20915443 6:-0.98736964 7:0.34318039 8:-0.61977537 9:-1 10:0.52396291 11:-0.37769403 12:-1 13:0.42638181 14:-1 15:-0.92445744 16:-0.88886065 17:-0.94506215 18:-0.89065907 19:-0.94614468 20:-0.89047033 21:-0.94309287 22:-0.8897898 23:-0.94614046 24:-0.88885466 25:-0.94641059 26:-0.89531197 27:-0.94473407 28:-0.89936119 29:-0.93128288 30:-0.89495758 31:-0.93206224 32:-0.87627727 33:-0.92507679 34:-0.82031537 35:-1 36:-1 37:-1 38:-1 39:-1 40:-1 41:-1 42:-1 43:-1 44:-1 45:-1 46:-1 47:-1 48:-1 49:-1 50:-0.99999997 51:-1 52:-1 53:-1 54:-1 55:-1 56:-1 57:-1 58:-1 59:-1 60:-0.99999724 61:-0.99999965 
8 1:-1 2:-1 3:-1 4:0.44949371 5:-0.20915489 6:-0.98739807 7:0.34329448 8:-0.6193427 9:-1 10:0.52396197 11:-0.37770031 12:-1 13:0.42638123 14:-1 15:-0.91815784 16:-0.89061202 17:-0.94168171 18:-0.89180962 19:-0.94292182 20:-0.89166354 21:-0.93826831 22:-0.89099325 23:-0.94464809 24:-0.88883249 25:-0.94620881 26:-0.89557317 27:-0.94516165 28:-0.89998244 29:-0.93021437 30:-0.89702621 31:-0.92812679 32:-0.87738756 33:-0.92724383 34:-0.82339769 35:-1 36:-1 37:-1 38:-1 39:-1 40:-1 41:-1 42:-1 43:-1 44:-1 45:-1 46:-1 47:-1 48:-1 49:-1 50:-0.99999997 51:-1 52:-1 53:-1 54:-1 55:-1 56:-1 57:-1 58:-1 59:-1 60:-0.99999714 61:-0.99999965 
8 1:-1 2:-1 3:-1 4:0.4494937 5:-0.20915308 6:-0.98737079 7:0.34319089 8:-0.6195082 9:-1 10:0.52396323 11:-0.37769385 12:-1 13:0.42638153 14:-1 15:-0.92380309 16:-0.89009413 17:-0.94246545 18:-0.89241322 19:-0.94310889 20:-0.89164791 21:-0.94175047 22:-0.89185663 23:-0.94535651 24:-0.88874612 25:-0.94647818 26:-0.89562776 27:-0.94619063 28:-0.90072988 29:-0.92975337 30:-0.89386328 31:-0.92224252 32:-0.87817621 33:-0.93326092 34:-0.86931681 35:-1 36:-1 37:-1 38:-1 39:-1 40:-1 41:-1 42:-1 43:-1 44:-1 45:-1 46:-1 47:-1 48:-1 49:-1 50:-0.99999998 51:-0.99999999 52:-0.99999999 53:-1 54:-1 55:-1 56:-1 57:-1 58:-1 59:-1 60:-0.99999737 61:-0.99999965 
8 1:-1 2:-1 3:-1 4:0.4494937 5:-0.2091577 6:-0.98732537 7:0.34428498 8:-0.61681813 9:-1 10:0.52396201 11:-0.37768833 12:-1 13:0.42638178 14:-1 15:-0.92597333 16:-0.89283952 17:-0.94492833 18:-0.89397793 19:-0.94424937 20:-0.8915853 21:-0.94129001 22:-0.8929902 23:-0.94524942 24:-0.88846221 25:-0.94699186 26:-0.89536474 27:-0.94487903 28:-0.90021676 29:-0.92886249 30:-0.89399157 31:-0.91679792 32:-0.87840061 33:-0.91679777 34:-0.82572028 35:-1 36:-1 37:-1 38:-1 39:-1 40:-1 41:-1 42:-1 43:-1 44:-1 45:-1 46:-1 47:-1 48:-1 49:-1 50:-0.99999998 51:-1 52:-1 53:-1 54:-1 55:-1 56:-1 57:-1 58:-1 59:-1 60:-0.99999673 61:-0.99999968 
8 1:-1 2:-1 3:-1 4:0.4494937 5:-0.20915788 6:-0.98730274 7:0.34444166 8:-0.6172749 9:-1 10:0.52396391 11:-0.37768763 12:-1 13:0.42638158 14:-1 15:-0.92894805 16:-0.89638825 17:-0.94955155 18:-0.89718726 19:-0.94387275 20:-0.89409293 21:-0.94303247 22:-0.8936587 23:-0.94560332 24:-0.88972292 25:-0.94738784 26:-0.89657373 27:-0.94152966 28:-0.90027571 29:-0.92800816 30:-0.89399157 31:-0.91581584 32:-0.87863298 33:-0.91620395 34:-0.82613671 35:-1 36:-1 37:-1 38:-1 39:-1 40:-1 41:-1 42:-1 43:-1 44:-1 45:-1 46:-1 47:-1 48:-1 49:-1 50:-0.99999997 51:-1 52:-1 53:-1 54:-1 55:-1 56:-1 57:-1 58:-1 59:-1 60:-0.99999672 61:-0.99999969 
8 1:-1 2:-1 3:-1 4:0.44949374 5:-0.20917208 6:-0.98664127 7:0.33901302 8:-0.61759403 9:-1 10:0.52396249 11:-0.37769166 12:-1 13:0.4263819 14:-1 15:-0.93673826 16:-0.88598467 17:-0.95373856 18:-0.92150345 19:-0.94702895 20:-0.89131428 21:-0.95137244 22:-0.92106623 23:-0.94377214 24:-0.89229939 25:-0.95034004 26:-0.9035677 27:-0.94891955 28:-0.92420569 29:-0.93794068 30:-0.91660148 31:-0.93712276 32:-0.91128515 33:-0.93828831 34:-0.86766269 35:-1 36:-1 37:-1 38:-1 39:-1 40:-1 41:-1 42:-1 43:-1 44:-1 45:-1 46:-1 47:-1 48:-1 49:-1 50:-1 51:-1 52:-1 53:-1 54:-1 55:-1 56:-1 57:-1 58:-1 59:-1 60:-0.99999678 61:-0.9999997 
8 1:-1 2:-1 3:-1 4:0.44949372 5:-0.20916639 6:-0.98719367 7:0.3416841 8:-0.61859909 9:-1 10:0.52396162 11:-0.37769151 12:-1 13:0.42638182 14:-1 15:-0.93241685 16:-0.8900887 17:-0.95373856 18:-0.92150345 19:-0.94641173 20:-0.89337548 21:-0.94898861 22:-0.894581 23:-0.94860379 24:-0.90213747 25:-0.94293062 26:-0.89833699 27:-0.95360359 28:-0.92755127 29:-0.9310737 30:-0.91156982 31:-0.94179487 32:-0.91915718 33:-0.93205702 34:-0.86166883 35:-1 36:-1 37:-1 38:-1 39:-1 40:-1 41:-1 42:-1 43:-1 44:-1 45:-1 46:-1 47:-1 48:-1 49:-1 50:-1 51:-1 52:-1 53:-1 54:-1 55:-1 56:-1 57:-1 58:-1 59:-1 60:-0.99999669 61:-0.99999972 
8 1:-1 2:-1 3:-1 4:0.44949371 5:-0.20916259 6:-0.98742943 7:0.342904 8:-0.61928544 9:-1 10:0.52396231 11:-0.37769198 12:-1 13:0.42638159 14:-1 15:-0.93035811 16:-0.89944126 17:-0.95369126 18:-0.91580575 19:-0.94601177 20:-0.9010117 21:-0.95124074 22:-0.89430191 23:-0.94665929 24:-0.89815399 25:-0.94434388 26:-0.89803574 27:-0.95360359 28:-0.92755127 29:-0.93589068 30:-0.91288997 31:-0.94179487 32:-0.91915718 33:-0.93658829 34:-0.86476209 35:-1 36:-1 37:-1 38:-1 39:-1 40:-1 41:-1 42:-1 43:-1 44:-1 45:-1 46:-1 47:-1 48:-1 49:-1 50:-0.99999999 51:-1 52:-1 53:-1 54:-1 55:-1 56:-1 57:-1 58:-1 59:-1 60:-0.99999682 61:-0.99999973 
8 1:-1 2:-1 3:-1 4:0.4494937 5:-0.2091489 6:-0.98744794 7:0.34312121 8:-0.61941789 9:-1 10:0.52396243 11:-0.37769225 12:-1 13:0.42638195 14:-1 15:-0.92550498 16:-0.90751724 17:-0.95373856 18:-0.92150345 19:-0.94467183 20:-0.90297973 21:-0.95137244 22:-0.92106623 23:-0.94340416 24:-0.89453202 25:-0.9408452 26:-0.89622263 27:-0.95360359 28:-0.92755127 29:-0.93186941 30:-0.90962747 31:-0.94179487 32:-0.91915718 33:-0.93491856 34:-0.86207367 35:-1 36:-1 37:-1 38:-1 39:-1 40:-1 41:-1 42:-1 43:-1 44:-1 45:-1 46:-1 47:-1 48:-1 49:-1 50:-1 51:-1 52:-1 53:-1 54:-1 55:-1 56:-1 57:-1 58:-1 59:-1 60:-0.99999695 61:-0.99999974 
8 1:-1 2:-1 3:-1 4:0.4494937 5:-0.2091554 6:-0.98742566 7:0.3433813 8:-0.61917126 9:-1 10:0.5239624 11:-0.37769161 12:-1 13:0.42638146 14:-1 15:-0.92513227 16:-0.90387179 17:-0.95373856 18:-0.92150345 19:-0.94531861 20:-0.90502117 21:-0.95137244 22:-0.92106623 23:-0.94231725 24:-0.89453876 25:-0.94461674 26:-0.90003302 27:-0.95360359 28:-0.92755127 29:-0.93537533 30:-0.9132423 31:-0.94179487 32:-0.91915718 33:-0.93596795 34:-0.86512778 35:-1 36:-1 37:-1 38:-1 39:-1 40:-1 41:-1 42:-1 43:-1 44:-1 45:-1 46:-1 47:-1 48:-1 49:-1 50:-1 51:-1 52:-1 53:-1 54:-1 55:-1 56:-1 57:-1 58:-1 59:-1 60:-0.99999709 61:-0.99999972 
8 1:-1 2:-1 3:-1 4:0.44949369 5:-0.20915851 6:-0.98722754 7:0.3439332 8:-0.61845606 9:-1 10:0.52396236 11:-0.3776921 12:-1 13:0.42638175 14:-1 15:-0.92374055 16:-0.90050338 17:-0.95373856 18:-0.92150345 19:-0.94827083 20:-0.90502157 21:-0.95137244 22:-0.92106623 23:-0.9421579 24:-0.89453062 25:-0.94542732 26:-0.90371639 27:-0.95081018 28:-0.92403338 29:-0.9365806 30:-0.91489761 31:-0.94161039 32:-0.91711429 33:-0.93594778 34:-0.86214341 35:-1 36:-1 37:-1 38:-1 39:-1 40:-1 41:-1 42:-1 43:-1 44:-1 45:-1 46:-1 47:-1 48:-1 49:-1 50:-0.99999999 51:-1 52:-1 53:-1 54:-1 55:-1 56:-1 57:-1 58:-1 59:-1 60:-0.99999664 61:-0.99999972 
8 1:-1 2:-1 3:-1 4:0.44949368 5:-0.2091603 6:-0.98689245 7:0.34467179 8:-0.61804092 9:-1 10:0.5239624 11:-0.37769234 12:-1 13:0.42638174 14:-1 15:-0.92174546 16:-0.89910346 17:-0.95373856 18:-0.92150345 19:-0.9498545 20:-0.90576691 21:-0.95137244 22:-0.92106623 23:-0.94187664 24:-0.89478545 25:-0.95265385 26:-0.92494669 27:-0.94285299 28:-0.90202211 29:-0.93784312 30:-0.92001205 31:-0.93730635 32:-0.91322269 33:-0.93687044 34:-0.86274791 35:-1 36:-1 37:-1 38:-1 39:-1 40:-1 41:-1 42:-1 43:-1 44:-1 45:-1 46:-1 47:-1 48:-1 49:-1 50:-0.99999999 51:-1 52:-1 53:-1 54:-1 55:-1 56:-1 57:-1 58:-1 59:-1 60:-0.99999704 61:-0.99999973 
8 1:-1 2:-1 3:-1 4:0.44949367 5:-0.20915725 6:-0.98636911 7:0.34431485 8:-0.61979892 9:-1 10:0.52396266 11:-0.37769202 12:-1 13:0.42638171 14:-1 15:-0.92818999 16:-0.9051292 17:-0.95373856 18:-0.92150345 19:-0.94386773 20:-0.8955309 21:-0.95137244 22:-0.92106623 23:-0.94356051 24:-0.89503782 25:-0.94948153 26:-0.90799513 27:-0.94879478 28:-0.9204693 29:-0.93631235 30:-0.91525507 31:-0.94012575 32:-0.91715401 33:-0.93515879 34:-0.86364086 35:-1 36:-1 37:-1 38:-1 39:-1 40:-1 41:-1 42:-1 43:-1 44:-1 45:-1 46:-1 47:-1 48:-1 49:-1 50:-1 51:-1 52:-1 53:-1 54:-1 55:-1 56:-1 57:-1 58:-1 59:-1 60:-0.99999706 61:-0.99999973 
8 1:-1 2:-1 3:-1 4:0.44949366 5:-0.20916454 6:-0.98561013 7:0.34738453 8:-0.61916957 9:-1 10:0.5239625 11:-0.37769177 12:-1 13:0.42638194 14:-1 15:-0.93595765 16:-0.89158082 17:-0.95373856 18:-0.92150345 19:-0.9482198 20:-0.89097571 21:-0.95137244 22:-0.92106623 23:-0.94489908 24:-0.8920095 25:-0.94823542 26:-0.90645771 27:-0.94864622 28:-0.9186546 29:-0.93817428 30:-0.91393943 31:-0.93837834 32:-0.91513411 33:-0.9360318 34:-0.86384398 35:-1 36:-1 37:-1 38:-1 39:-1 40:-1 41:-1 42:-1 43:-1 44:-1 45:-1 46:-1 47:-1 48:-1 49:-1 50:-1 51:-1 52:-1 53:-1 54:-1 55:-1 56:-1 57:-1 58:-1 59:-1 60:-0.99999712 61:-0.99999971 
8 1:-1 2:-1 3:-1 4:0.44949365 5:-0.20917618 6:-0.98457184 7:0.35395493 8:-0.61601932 9:-1 10:0.52396273 11:-0.37769165 12:-1 13:0.42638176 14:-1 15:-0.93825344 16:-0.91007171 17:-0.94677754 18:-0.88831386 19:-0.95414609 20:-0.92023527 21:-0.94471944 22:-0.89093741 23:-0.95165944 24:-0.92097682 25:-0.94681275 26:-0.89763539 27:-0.94317133 28:-0.89761756 29:-0.94213451 30:-0.92984239 31:-0.92938537 32:-0.89074697 33:-0.94117621 34:-0.86618325 35:-1 36:-1 37:-1 38:-1 39:-1 40:-1 41:-1 42:-1 43:-1 44:-1 45:-1 46:-1 47:-1 48:-1 49:-1 50:-0.99999999 51:-1 52:-1 53:-1 54:-1 55:-1 56:-1 57:-1 58:-1 59:-1 60:-0.99999714 61:-0.99999972 
8 1:-1 2:-1 3:-1 4:0.44949364 5:-0.20917597 6:-0.98383396 7:0.35521135 8:-0.61614069 9:-1 10:0.52396218 11:-0.37769245 12:-1 13:0.42638173 14:-1 15:-0.93093932 16:-0.88204464 17:-0.94682179 18:-0.88858929 19:-0.95414609 20:-0.92023527 21:-0.94692644 22:-0.89104572 23:-0.95165944 24:-0.92097682 25:-0.94499817 26:-0.89634802 27:-0.9445421 28:-0.89771968 29:-0.94213451 30:-0.92984239 31:-0.93025122 32:-0.89036424 33:-0.93561727 34:-0.86416516 35:-1 36:-1 37:-1 38:-1 39:-1 40:-1 41:-1 42:-1 43:-1 44:-1 45:-1 46:-1 47:-1 48:-1 49:-1 50:-0.99999999 51:-1 52:-1 53:-1 54:-1 55:-1 56:-1 57:-1 58:-1 59:-1 60:-0.9999972 61:-0.99999971 
8 1:-1 2:-1 3:-1 4:0.44949363 5:-0.20917938 6:-0.98233352 7:0.35977989 8:-0.6145783 9:-1 10:0.52396236 11:-0.37769245 12:-1 13:0.42638172 14:-1 15:-0.93063395 16:-0.88058647 17:-0.94894024 18:-0.89066447 19:-0.95414609 20:-0.92023527 21:-0.94582253 22:-0.89272764 23:-0.95165944 24:-0.92097682 25:-0.94717672 26:-0.89820509 27:-0.93729881 28:-0.89129255 29:-0.94213451 30:-0.92984239 31:-0.928539 32:-0.88651454 33:-0.93552804 34:-0.86447933 35:-1 36:-1 37:-1 38:-1 39:-1 40:-1 41:-1 42:-1 43:-1 44:-1 45:-1 46:-1 47:-1 48:-1 49:-1 50:-0.99999999 51:-1 52:-1 53:-1 54:-1 55:-1 56:-1 57:-1 58:-1 59:-1 60:-0.99999735 61:-0.9999997 
8 1:-1 2:-1 3:-1 4:0.44949362 5:-0.20917274 6:-0.98082909 7:0.35740433 8:-0.61673834 9:-1 10:0.52396248 11:-0.37769199 12:-1 13:0.42638168 14:-1 15:-0.93478721 16:-0.8939476 17:-0.94401238 18:-0.89892539 19:-0.95414609 20:-0.92023527 21:-0.94406244 22:-0.89770911 23:-0.95165944 24:-0.92097682 25:-0.94642522 26:-0.89861682 27:-0.94016543 28:-0.88846839 29:-0.94213451 30:-0.92984239 31:-0.93059665 32:-0.88509373 33:-0.93630218 34:-0.85826173 35:-1 36:-1 37:-1 38:-1 39:-1 40:-1 41:-1 42:-1 43:-1 44:-1 45:-1 46:-1 47:-1 48:-1 49:-1 50:-1 51:-1 52:-1 53:-1 54:-1 55:-1 56:-1 57:-1 58:-1 59:-1 60:-0.99999738 61:-0.99999972 
8 1:-1 2:-1 3:-1 4:0.44949361 5:-0.20915731 6:-0.97978665 7:0.34623844 8:-0.61929512 9:-1 10:0.52396261 11:-0.37769216 12:-1 13:0.42638189 14:-1 15:-0.92495477 16:-0.91104846 17:-0.94369898 18:-0.90799853 19:-0.95414609 20:-0.92023527 21:-0.94347664 22:-0.89966945 23:-0.95165944 24:-0.92097682 25:-0.94781431 26:-0.90069994 27:-0.94128689 28:-0.88767251 29:-0.94213451 30:-0.92984239 31:-0.93108019 32:-0.8837095 33:-0.93518356 34:-0.86241264 35:-1 36:-1 37:-1 38:-1 39:-1 40:-1 41:-1 42:-1 43:-1 44:-1 45:-1 46:-1 47:-1 48:-1 49:-1 50:-0.99999999 51:-1 52:-1 53:-1 54:-1 55:-1 56:-1 57:-1 58:-1 59:-1 60:-0.99999742 61:-0.99999973 
8 1:-1 2:-1 3:-1 4:0.44949361 5:-0.20916215 6:-0.97908026 7:0.35057616 8:-0.61718372 9:-1 10:0.52396219 11:-0.37769191 12:-1 13:0.42638172 14:-1 15:-0.91503217 16:-0.90791101 17:-0.94152818 18:-0.91401553 19:-0.95414609 20:-0.92023527 21:-0.94287151 22:-0.900933 23:-0.95165944 24:-0.92097682 25:-0.94561098 26:-0.89742033 27:-0.93945114 28:-0.88789327 29:-0.94213451 30:-0.92984239 31:-0.93182223 32:-0.88558392 33:-0.93477667 34:-0.86160199 35:-1 36:-1 37:-1 38:-1 39:-1 40:-1 41:-1 42:-1 43:-1 44:-1 45:-1 46:-1 47:-1 48:-1 49:-1 50:-1 51:-1 52:-1 53:-1 54:-1 55:-1 56:-1 57:-1 58:-1 59:-1 60:-0.99999757 61:-0.99999973 
8 1:-1 2:-1 3:-1 4:0.44949361 5:-0.20915499 6:-0.9787746 7:0.34446982 8:-0.61976976 9:-1 10:0.52396252 11:-0.37769242 12:-1 13:0.42638164 14:-1 15:-0.93917457 16:-0.91377153 17:-0.94896513 18:-0.91066356 19:-0.95414609 20:-0.92023527 21:-0.94123065 22:-0.89977577 23:-0.94588083 24:-0.89369985 25:-0.95265385 26:-0.92494669 27:-0.93920814 28:-0.88980275 29:-0.94213451 30:-0.92984239 31:-0.93116492 32:-0.88619088 33:-0.93442861 34:-0.86187253 35:-1 36:-1 37:-1 38:-1 39:-1 40:-1 41:-1 42:-1 43:-1 44:-1 45:-1 46:-1 47:-1 48:-1 49:-1 50:-1 51:-1 52:-1 53:-1 54:-1 55:-1 56:-1 57:-1 58:-1 59:-1 60:-0.99999765 61:-0.99999974 
8 1:-1 2:-1 3:-1 4:0.44949351 5:-0.20891763 6:-0.96183997 7:0.038407996 8:-0.28728347 9:-1 10:0.52396248 11:-0.37769199 12:-1 13:0.42638178 14:-1 15:-0.93725629 16:-0.91553826 17:-0.95373856 18:-0.92150345 19:-0.95414609 20:-0.92023527 21:-0.95137244 22:-0.92106623 23:-0.93826346 24:-0.91659813 25:-0.95154445 26:-0.91726181 27:-0.95360359 28:-0.92755127 29:-0.94213451 30:-0.92984239 31:-0.93083897 32:-0.91424936 33:-0.93729656 34:-0.87167506 35:-1 36:-1 37:-1 38:-1 39:-1 40:-1 41:-1 42:-1 43:-1 44:-1 45:-1 46:-1 47:-1 48:-1 49:-1 50:-1 51:-1 52:-1 53:-1 54:-1 55:-1 56:-1 57:-1 58:-1 59:-1 60:-0.99999899 61:-0.99999995 
8 1:-1 2:-1 3:-1 4:0.44949351 5:-0.20891491 6:-0.96252916 7:0.045243683 8:-0.29739517 9:-1 10:0.52396246 11:-0.37769198 12:-1 13:0.42638177 14:-1 15:-0.93261892 16:-0.91871039 17:-0.95373856 18:-0.92150345 19:-0.95414609 20:-0.92023527 21:-0.95137244 22:-0.92106623 23:-0.94348937 24:-0.90492845 25:-0.95265385 26:-0.92494669 27:-0.95360359 28:-0.92755127 29:-0.94213451 30:-0.92984239 31:-0.94179487 32:-0.91915718 33:-0.9325853 34:-0.87319098 35:-1 36:-1 37:-1 38:-1 39:-1 40:-1 41:-1 42:-1 43:-1 44:-1 45:-1 46:-1 47:-1 48:-1 49:-1 50:-1 51:-1 52:-1 53:-1 54:-1 55:-1 56:-1 57:-1 58:-1 59:-1 60:-0.99999885 61:-0.99999992 
8 1:-1 2:-1 3:-1 4:0.44949351 5:-0.20892618 6:-0.96268618 7:0.061888942 8:-0.32950303 9:-1 10:0.52396247 11:-0.37769202 12:-1 13:0.42638175 14:-1 15:-0.93168107 16:-0.91270233 17:-0.95373856 18:-0.92150345 19:-0.95414609 20:-0.92023527 21:-0.95137244 22:-0.92106623 23:-0.94237071 24:-0.90542895 25:-0.94567804 26:-0.9249059 27:-0.95360359 28:-0.92755127 29:-0.94213451 30:-0.92984239 31:-0.94179487 32:-0.91915718 33:-0.93359446 34:-0.87288657 35:-1 36:-1 37:-1 38:-1 39:-1 40:-1 41:-1 42:-1 43:-1 44:-1 45:-1 46:-1 47:-1 48:-1 49:-1 50:-1 51:-1 52:-1 53:-1 54:-1 55:-1 56:-1 57:-1 58:-1 59:-1 60:-0.999999 61:-0.99999992 
8 1:-1 2:-1 3:-1 4:0.44949351 5:-0.20894194 6:-0.9624699 7:0.083087891 8:-0.37106581 9:-1 10:0.52396245 11:-0.37769196 12:-1 13:0.42638171 14:-1 15:-0.94106213 16:-0.92059775 17:-0.95373856 18:-0.92150345 19:-0.95414609 20:-0.92023527 21:-0.91858145 22:-0.90392061 23:-0.95165944 24:-0.92097682 25:-0.95265385 26:-0.92494669 27:-0.93799982 28:-0.91280324 29:-0.93247176 30:-0.92971592 31:-0.94179487 32:-0.91915718 33:-0.93346812 34:-0.87291481 35:-1 36:-1 37:-1 38:-1 39:-1 40:-1 41:-1 42:-1 43:-1 44:-1 45:-1 46:-1 47:-1 48:-1 49:-1 50:-1 51:-1 52:-1 53:-1 54:-1 55:-1 56:-1 57:-1 58:-1 59:-1 60:-0.99999859 61:-0.99999991 
8 1:-1 2:-1 3:-1 4:0.44949351 5:-0.20894293 6:-0.96244107 7:0.083964896 8:-0.37349372 9:-1 10:0.52396246 11:-0.37769191 12:-1 13:0.42638181 14:-1 15:-0.93748042 16:-0.91742822 17:-0.95373856 18:-0.92150345 19:-0.95414609 20:-0.92023527 21:-0.92455359 22:-0.91017876 23:-0.95165944 24:-0.92097682 25:-0.95265385 26:-0.92494669 27:-0.92964934 28:-0.91227379 29:-0.94213451 30:-0.92984239 31:-0.94179487 32:-0.91915718 33:-0.93205917 34:-0.87244728 35:-1 36:-1 37:-1 38:-1 39:-1 40:-1 41:-1 42:-1 43:-1 44:-1 45:-1 46:-1 47:-1 48:-1 49:-1 50:-1 51:-1 52:-1 53:-1 54:-1 55:-1 56:-1 57:-1 58:-1 59:-1 60:-0.99999888 61:-0.99999992 
8 1:-1 2:-1 3:-1 4:0.44949351 5:-0.2089129 6:-0.96164543 7:0.0309402 8:-0.27330005 9:-1 10:0.52396247 11:-0.377692 12:-1 13:0.42638175 14:-1 15:-0.93538891 16:-0.91472893 17:-0.95373856 18:-0.92150345 19:-0.95414609 20:-0.92023527 21:-0.95137244 22:-0.92106623 23:-0.93249598 24:-0.91375925 25:-0.95265385 26:-0.92494669 27:-0.95360359 28:-0.92755127 29:-0.93854366 30:-0.92491657 31:-0.94179487 32:-0.91915718 33:-0.93236022 34:-0.87307544 35:-1 36:-1 37:-1 38:-1 39:-1 40:-1 41:-1 42:-1 43:-1 44:-1 45:-1 46:-1 47:-1 48:-1 49:-1 50:-1 51:-1 52:-1 53:-1 54:-1 55:-1 56:-1 57:-1 58:-1 59:-1 60:-0.99999872 61:-0.99999995 
8 1:-1 2:-1 3:-1 4:0.44949376 5:-0.20915585 6:-0.98153137 7:0.34061412 8:-0.61998796 9:-1 10:0.523963 11:-0.37769338 12:-1 13:0.42638024 14:-1 15:-0.92400896 16:-0.9078065 17:-0.94125352 18:-0.90995912 19:-0.94358327 20:-0.90315045 21:-0.94277714 22:-0.89933299 23:-0.94079313 24:-0.89436195 25:-0.93570948 26:-0.90144528 27:-0.93686453 28:-0.905535 29:-0.92060127 30:-0.90981063 31:-0.92343385 32:-0.90280042 33:-0.93491398 34:-0.86103538 35:-1 36:-1 37:-1 38:-1 39:-1 40:-1 41:-1 42:-1 43:-1 44:-1 45:-1 46:-1 47:-1 48:-1 49:-1 50:-0.99999999 51:-1 52:-1 53:-1 54:-1 55:-1 56:-1 57:-1 58:-1 59:-1 60:-0.99999735 61:-0.99999971 
8 1:-1 2:-1 3:-1 4:0.44949376 5:-0.20915442 6:-0.9816748 7:0.34234846 8:-0.61998166 9:-1 10:0.52396218 11:-0.37769325 12:-1 13:0.42638104 14:-1 15:-0.92694695 16:-0.90672947 17:-0.94132716 18:-0.90951804 19:-0.94241363 20:-0.90793187 21:-0.94141097 22:-0.90443249 23:-0.93966881 24:-0.90079649 25:-0.93980372 26:-0.89953656 27:-0.9382628 28:-0.9028012 29:-0.9229966 30:-0.90872532 31:-0.92261287 32:-0.9026036 33:-0.9331998 34:-0.85969315 35:-1 36:-1 37:-1 38:-1 39:-1 40:-1 41:-1 42:-1 43:-1 44:-1 45:-1 46:-1 47:-1 48:-1 49:-1 50:-0.99999999 51:-1 52:-1 53:-1 54:-1 55:-1 56:-1 57:-1 58:-1 59:-1 60:-0.99999742 61:-0.99999971 
8 1:-1 2:-1 3:-1 4:0.44949375 5:-0.20915506 6:-0.98181858 7:0.34162863 8:-0.61993849 9:-1 10:0.52396275 11:-0.37769343 12:-1 13:0.42638124 14:-1 15:-0.92624546 16:-0.9066277 17:-0.9412817 18:-0.91300583 19:-0.94329042 20:-0.90887885 21:-0.94012981 22:-0.90514595 23:-0.94068979 24:-0.90231669 25:-0.94038178 26:-0.89926744 27:-0.93848385 28:-0.90362254 29:-0.92456759 30:-0.90951021 31:-0.9240666 32:-0.9044995 33:-0.93602892 34:-0.86147675 35:-1 36:-1 37:-1 38:-1 39:-1 40:-1 41:-1 42:-1 43:-1 44:-1 45:-1 46:-1 47:-1 48:-1 49:-1 50:-0.99999999 51:-1 52:-1 53:-1 54:-1 55:-1 56:-1 57:-1 58:-1 59:-1 60:-0.9999974 61:-0.99999971 
8 1:-1 2:-1 3:-1 4:0.44949375 5:-0.20915651 6:-0.98191248 7:0.33998337 8:-0.61959391 9:-1 10:0.52396238 11:-0.37769212 12:-1 13:0.42638181 14:-1 15:-0.91842587 16:-0.90404698 17:-0.94115844 18:-0.91214347 19:-0.94440215 20:-0.90748804 21:-0.94056038 22:-0.90497113 23:-0.93940856 24:-0.90241755 25:-0.94304242 26:-0.89980194 27:-0.93732268 28:-0.90366956 29:-0.92306274 30:-0.91044926 31:-0.92433206 32:-0.90531815 33:-0.93642454 34:-0.86155115 35:-1 36:-1 37:-1 38:-1 39:-1 40:-1 41:-1 42:-1 43:-1 44:-1 45:-1 46:-1 47:-1 48:-1 49:-1 50:-0.99999999 51:-1 52:-1 53:-1 54:-1 55:-1 56:-1 57:-1 58:-1 59:-1 60:-0.99999722 61:-0.99999972 
8 1:-1 2:-1 3:-1 4:0.44949375 5:-0.20915619 6:-0.98200986 7:0.34037758 8:-0.61977923 9:-1 10:0.52396146 11:-0.3776921 12:-1 13:0.42638247 14:-1 15:-0.92795472 16:-0.90710572 17:-0.94132609 18:-0.91112551 19:-0.94402713 20:-0.90755756 21:-0.94140147 22:-0.90609586 23:-0.94176539 24:-0.90301126 25:-0.93587231 26:-0.89958612 27:-0.93814738 28:-0.90639978 29:-0.92760564 30:-0.91459721 31:-0.92307327 32:-0.90653294 33:-0.93753476 34:-0.85908508 35:-1 36:-1 37:-1 38:-1 39:-1 40:-1 41:-1 42:-1 43:-1 44:-1 45:-1 46:-1 47:-1 48:-1 49:-1 50:-1 51:-1 52:-1 53:-1 54:-1 55:-1 56:-1 57:-1 58:-1 59:-1 60:-0.99999718 61:-0.99999972 
8 1:-1 2:-1 3:-1 4:0.44949375 5:-0.20915851 6:-0.98214558 7:0.33782277 8:-0.61878918 9:-1 10:0.52396258 11:-0.37769164 12:-1 13:0.42638199 14:-1 15:-0.92705505 16:-0.90495872 17:-0.93833273 18:-0.90621923 19:-0.94304281 20:-0.90319335 21:-0.93860428 22:-0.90488567 23:-0.93979141 24:-0.8977442 25:-0.93730487 26:-0.89991418 27:-0.93813213 28:-0.90799859 29:-0.92256379 30:-0.91133284 31:-0.92812182 32:-0.90846271 33:-0.93865365 34:-0.86200145 35:-1 36:-1 37:-1 38:-1 39:-1 40:-1 41:-1 42:-1 43:-1 44:-1 45:-1 46:-1 47:-1 48:-1 49:-1 50:-0.99999999 51:-1 52:-1 53:-1 54:-1 55:-1 56:-1 57:-1 58:-1 59:-1 60:-0.99999711 61:-0.99999973 
8 1:-1 2:-1 3:-1 4:0.44949375 5:-0.20916251 6:-0.98231182 7:0.33352679 8:-0.61701502 9:-1 10:0.5239625 11:-0.3776918 12:-1 13:0.42638203 14:-1 15:-0.92675784 16:-0.90244065 17:-0.94274374 18:-0.90253674 19:-0.94108232 20:-0.89778629 21:-0.94634533 22:-0.90545041 23:-0.94267413 24:-0.90289256 25:-0.93796388 26:-0.90065817 27:-0.93802868 28:-0.90594534 29:-0.92769973 30:-0.91611343 31:-0.93684165 32:-0.90788193 33:-0.93921529 34:-0.86228516 35:-1 36:-1 37:-1 38:-1 39:-1 40:-1 41:-1 42:-1 43:-1 44:-1 45:-1 46:-1 47:-1 48:-1 49:-1 50:-0.99999999 51:-1 52:-1 53:-1 54:-1 55:-1 56:-1 57:-1 58:-1 59:-1 60:-0.99999721 61:-0.99999972 
8 1:-1 2:-1 3:-1 4:0.44949375 5:-0.20916978 6:-0.98278841 7:0.32655795 8:-0.61336024 9:-1 10:0.52396248 11:-0.3776929 12:-1 13:0.42638174 14:-1 15:-0.92844273 16:-0.89376587 17:-0.94425218 18:-0.89500219 19:-0.94345584 20:-0.89294605 21:-0.9420402 22:-0.8987046 23:-0.94369937 24:-0.8952909 25:-0.93693453 26:-0.90696543 27:-0.93838236 28:-0.91052065 29:-0.92565323 30:-0.91622105 31:-0.93955344 32:-0.90884521 33:-0.93330668 34:-0.85662413 35:-1 36:-1 37:-1 38:-1 39:-1 40:-1 41:-1 42:-1 43:-1 44:-1 45:-1 46:-1 47:-1 48:-1 49:-1 50:-0.99999999 51:-1 52:-1 53:-1 54:-1 55:-1 56:-1 57:-1 58:-1 59:-1 60:-0.9999972 61:-0.99999971 
8 1:-1 2:-1 3:-1 4:0.44949375 5:-0.20917203 6:-0.98350948 7:0.32596165 8:-0.6119331 9:-1 10:0.52396233 11:-0.37769198 12:-1 13:0.42638188 14:-1 15:-0.93391338 16:-0.87953714 17:-0.94794724 18:-0.88843928 19:-0.94778104 20:-0.89164528 21:-0.94295433 22:-0.89668887 23:-0.9455815 24:-0.89943697 25:-0.94279258 26:-0.90143513 27:-0.93849352 28:-0.90888004 29:-0.92667723 30:-0.91598486 31:-0.9395574 32:-0.90783002 33:-0.93771329 34:-0.85919709 35:-1 36:-1 37:-1 38:-1 39:-1 40:-1 41:-1 42:-1 43:-1 44:-1 45:-1 46:-1 47:-1 48:-1 49:-1 50:-0.99999999 51:-1 52:-1 53:-1 54:-1 55:-1 56:-1 57:-1 58:-1 59:-1 60:-0.99999713 61:-0.99999972 
8 1:-1 2:-1 3:-1 4:0.44949374 5:-0.20917356 6:-0.98441186 7:0.32695514 8:-0.61114517 9:-1 10:0.52396221 11:-0.37769041 12:-1 13:0.42638135 14:-1 15:-0.93289806 16:-0.87763401 17:-0.9489413 18:-0.88668474 19:-0.94764565 20:-0.89061286 21:-0.94350753 22:-0.89470933 23:-0.94117982 24:-0.8975935 25:-0.94411795 26:-0.89917061 27:-0.94129657 28:-0.90892517 29:-0.92878022 30:-0.91229602 31:-0.93996882 32:-0.91057958 33:-0.93707657 34:-0.85956165 35:-1 36:-1 37:-1 38:-1 39:-1 40:-1 41:-1 42:-1 43:-1 44:-1 45:-1 46:-1 47:-1 48:-1 49:-1 50:-0.99999999 51:-1 52:-1 53:-1 54:-1 55:-1 56:-1 57:-1 58:-1 59:-1 60:-0.99999715 61:-0.99999972 
8 1:-1 2:-1 3:-1 4:0.44949373 5:-0.20916842 6:-0.98584728 7:0.33456325 8:-0.61527403 9:-1 10:0.52396189 11:-0.37769216 12:-1 13:0.42637987 14:-1 15:-0.93133274 16:-0.88879289 17:-0.9441296 18:-0.89701225 19:-0.94380371 20:-0.90338145 21:-0.94296824 22:-0.90034186 23:-0.94363059 24:-0.90148052 25:-0.93977007 26:-0.8975236 27:-0.93896177 28:-0.9058765 29:-0.92885198 30:-0.912279 31:-0.9350033 32:-0.90119306 33:-0.93536415 34:-0.85589815 35:-1 36:-1 37:-1 38:-1 39:-1 40:-1 41:-1 42:-1 43:-1 44:-1 45:-1 46:-1 47:-1 48:-1 49:-1 50:-0.99999999 51:-1 52:-1 53:-1 54:-1 55:-1 56:-1 57:-1 58:-1 59:-1 60:-0.99999671 61:-0.99999973 
8 1:-1 2:-1 3:-1 4:0.44949373 5:-0.2091641 6:-0.98619816 7:0.33785944 8:-0.61766454 9:-1 10:0.52396341 11:-0.37769407 12:-1 13:0.42638057 14:-1 15:-0.93104712 16:-0.89657917 17:-0.94229855 18:-0.90521368 19:-0.93804429 20:-0.9037333 21:-0.94309367 22:-0.90160054 23:-0.94339034 24:-0.89180359 25:-0.93292219 26:-0.89883642 27:-0.93448169 28:-0.90231642 29:-0.92482845 30:-0.90802941 31:-0.93850717 32:-0.90772835 33:-0.92922586 34:-0.85835547 35:-1 36:-1 37:-1 38:-1 39:-1 40:-1 41:-1 42:-1 43:-1 44:-1 45:-1 46:-1 47:-1 48:-1 49:-1 50:-0.99999999 51:-1 52:-1 53:-1 54:-1 55:-1 56:-1 57:-1 58:-1 59:-1 60:-0.9999967 61:-0.99999973 
8 1:-1 2:-1 3:-1 4:0.44949373 5:-0.20915592 6:-0.9865549 7:0.34229922 8:-0.6199842 9:-1 10:0.52396189 11:-0.37769366 12:-1 13:0.42638199 14:-1 15:-0.93512278 16:-0.90853367 17:-0.94859914 18:-0.90727948 19:-0.94298694 20:-0.90332317 21:-0.94262661 22:-0.90143678 23:-0.94366701 24:-0.89137459 25:-0.93371954 26:-0.89440321 27:-0.93608201 28:-0.89829271 29:-0.92315925 30:-0.90228885 31:-0.93638785 32:-0.8987779 33:-0.93284469 34:-0.86092612 35:-1 36:-1 37:-1 38:-1 39:-1 40:-1 41:-1 42:-1 43:-1 44:-1 45:-1 46:-1 47:-1 48:-1 49:-1 50:-0.99999999 51:-1 52:-1 53:-1 54:-1 55:-1 56:-1 57:-1 58:-1 59:-1 60:-0.99999708 61:-0.99999972 
8 1:-1 2:-1 3:-1 4:0.44949373 5:-0.2091568 6:-0.98673106 7:0.34212732 8:-0.61954165 9:-1 10:0.52396164 11:-0.37769101 12:-1 13:0.42638177 14:-1 15:-0.93042334 16:-0.90679053 17:-0.93686286 18:-0.90621819 19:-0.94234906 20:-0.90178034 21:-0.94209388 22:-0.89847354 23:-0.94492201 24:-0.8905206 25:-0.93539299 26:-0.89050859 27:-0.93695536 28:-0.89529165 29:-0.92765724 30:-0.90512638 31:-0.93737266 32:-0.90586294 33:-0.93805108 34:-0.86619193 35:-1 36:-1 37:-1 38:-1 39:-1 40:-1 41:-1 42:-1 43:-1 44:-1 45:-1 46:-1 47:-1 48:-1 49:-1 50:-0.99999999 51:-1 52:-1 53:-1 54:-1 55:-1 56:-1 57:-1 58:-1 59:-1 60:-0.99999675 61:-0.99999972 
8 1:-1 2:-1 3:-1 4:0.44949372 5:-0.2091614 6:-0.9868478 7:0.34088504 8:-0.61819673 9:-1 10:0.52396218 11:-0.37769284 12:-1 13:0.42638312 14:-1 15:-0.91691597 16:-0.90176576 17:-0.94268391 18:-0.89824508 19:-0.94570617 20:-0.89399998 21:-0.94551393 22:-0.89429307 23:-0.94559963 24:-0.89069999 25:-0.93742232 26:-0.8857779 27:-0.94091931 28:-0.8934945 29:-0.92768315 30:-0.90199786 31:-0.9345814 32:-0.90567358 33:-0.94184073 34:-0.86933848 35:-1 36:-1 37:-1 38:-1 39:-1 40:-1 41:-1 42:-1 43:-1 44:-1 45:-1 46:-1 47:-1 48:-1 49:-1 50:-0.99999999 51:-1 52:-1 53:-1 54:-1 55:-1 56:-1 57:-1 58:-1 59:-1 60:-0.99999686 61:-0.99999973 
8 1:-1 2:-1 3:-1 4:0.44949372 5:-0.20916231 6:-0.98700815 7:0.34110219 8:-0.61867768 9:-1 10:0.5239624 11:-0.37769219 12:-1 13:0.42638178 14:-1 15:-0.9315872 16:-0.89224601 17:-0.94721925 18:-0.89334543 19:-0.94762905 20:-0.89132308 21:-0.94483651 22:-0.89215383 23:-0.94181424 24:-0.89225463 25:-0.94154549 26:-0.88398584 27:-0.94356198 28:-0.89171296 29:-0.93174329 30:-0.90163826 31:-0.93572005 32:-0.9047621 33:-0.94080236 34:-0.88025263 35:-1 36:-1 37:-1 38:-1 39:-1 40:-1 41:-1 42:-1 43:-1 44:-1 45:-1 46:-1 47:-1 48:-1 49:-1 50:-0.99999998 51:-1 52:-1 53:-1 54:-1 55:-1 56:-1 57:-1 58:-1 59:-1 60:-0.99999725 61:-0.99999972 
8 1:-1 2:-1 3:-1 4:0.44949372 5:-0.20916433 6:-0.98718854 7:0.34151208 8:-0.61694769 9:-1 10:0.52396265 11:-0.37769254 12:-1 13:0.42638172 14:-1 15:-0.91500382 16:-0.88892726 17:-0.93796064 18:-0.88978925 19:-0.94405714 20:-0.89295848 21:-0.9451923 22:-0.89259349 23:-0.95165944 24:-0.92097682 25:-0.94235833 26:-0.89376798 27:-0.94355968 28:-0.8858703 29:-0.93198122 30:-0.89300449 31:-0.93515644 32:-0.89531391 33:-0.93711202 34:-0.86273842 35:-1 36:-1 37:-1 38:-1 39:-1 40:-1 41:-1 42:-1 43:-1 44:-1 45:-1 46:-1 47:-1 48:-1 49:-1 50:-0.99999999 51:-1 52:-1 53:-1 54:-1 55:-1 56:-1 57:-1 58:-1 59:-1 60:-0.99999747 61:-0.99999973 
8 1:-1 2:-1 3:-1 4:0.4494937 5:-0.20916876 6:-0.99988432 7:0.53202268 8:-0.98278446 9:-1 10:0.060903564 11:-0.78395666 12:-1 13:-0.14344248 14:-1 15:-0.98213599 16:-0.97839676 17:-0.99375023 18:-0.97817015 19:-0.99746797 20:-0.97923081 21:-0.99695958 22:-0.98059034 23:-1 24:-1 25:-0.99408457 26:-0.97777072 27:-0.99550594 28:-0.97060682 29:-0.99532151 30:-0.97540846 31:-0.99666085 32:-0.98805267 33:-0.99742057 34:-0.98528236 35:-1 36:-1 37:-1 38:-1 39:-1 40:-1 41:-1 42:-1 43:-1 44:-1 45:-1 46:-1 47:-1 48:-1 49:-1 50:-1 51:-1 52:-1 53:-1 54:-1 55:-1 56:-1 57:-1 58:-1 59:-1 60:-0.99999978 61:-0.99999999 
8 1:-1 2:-1 3:-1 4:0.4494937 5:-0.20918502 6:-0.99990331 7:0.52725394 8:-0.85187297 9:-1 10:0.059699067 11:-0.78794731 12:-1 13:-0.14425135 14:-1 15:-0.99887994 16:-0.98606249 17:-0.99742868 18:-0.98415651 19:-0.99417845 20:-0.98151275 21:-0.99673631 22:-0.98079953 23:-0.99823068 24:-0.9779294 25:-1 26:-1 27:-0.99903537 28:-0.9937432 29:-1 30:-1 31:-0.99987332 32:-0.99897984 33:-1 34:-1 35:-1 36:-1 37:-1 38:-1 39:-1 40:-1 41:-1 42:-1 43:-1 44:-1 45:-1 46:-1 47:-1 48:-1 49:-1 50:-1 51:-1 52:-1 53:-1 54:-1 55:-1 56:-1 57:-1 58:-1 59:-1 60:-0.99999973 61:-0.99999999 
8 1:-1 2:-1 3:-1 4:0.4494937 5:-0.20916524 6:-0.99989233 7:0.533619 8:-0.99220048 9:-1 10:0.060467013 11:-0.78864173 12:-1 13:-0.14604244 14:-1 15:-0.98221754 16:-0.98761163 17:-0.99282605 18:-0.99313407 19:-0.99121691 20:-0.98535537 21:-0.99453729 22:-0.98118389 23:-0.99396917 24:-0.97615036 25:-1 26:-1 27:-0.99637246 28:-0.9707874 29:-0.99704752 30:-0.97555486 31:-0.99729434 32:-0.99150012 33:-0.98873097 34:-0.98391324 35:-1 36:-1 37:-1 38:-1 39:-1 40:-1 41:-1 42:-1 43:-1 44:-1 45:-1 46:-1 47:-1 48:-1 49:-1 50:-1 51:-1 52:-1 53:-1 54:-1 55:-1 56:-1 57:-1 58:-1 59:-1 60:-0.99999978 61:-0.99999999 
8 1:-1 2:-1 3:-1 4:0.4494937 5:-0.20916689 6:-0.99988953 7:0.5340124 8:-0.98726049 9:-1 10:0.060071887 11:-0.78523727 12:-1 13:-0.1279005 14:-1 15:-0.98053077 16:-0.98886844 17:-0.99902506 18:-0.99401785 19:-0.9913706 20:-0.98416473 21:-0.9958419 22:-0.98319825 23:-0.99386504 24:-0.97447222 25:-1 26:-1 27:-0.99717844 28:-0.97123383 29:-0.99692089 30:-0.97606036 31:-0.99536007 32:-0.99133999 33:-0.99341492 34:-0.98749836 35:-1 36:-1 37:-1 38:-1 39:-1 40:-1 41:-1 42:-1 43:-1 44:-1 45:-1 46:-1 47:-1 48:-1 49:-1 50:-1 51:-1 52:-1 53:-1 54:-1 55:-1 56:-1 57:-1 58:-1 59:-1 60:-0.99999978 61:-0.99999999 
8 1:-1 2:-1 3:-1 4:0.4494937 5:-0.20916718 6:-0.99989726 7:0.5337158 8:-0.99174077 9:-1 10:0.062171791 11:-0.79238777 12:-1 13:-0.14566689 14:-1 15:-0.98837432 16:-0.9838585 17:-0.99642062 18:-0.98127287 19:-0.99695652 20:-0.9798504 21:-1 22:-1 23:-0.99383277 24:-0.97671538 25:-0.99510975 26:-0.96932274 27:-1 28:-1 29:-0.995693 30:-0.97596156 31:-0.99473669 32:-0.99084574 33:-0.99808072 34:-0.9906456 35:-1 36:-1 37:-1 38:-1 39:-1 40:-1 41:-1 42:-1 43:-1 44:-1 45:-1 46:-1 47:-1 48:-1 49:-1 50:-1 51:-1 52:-1 53:-1 54:-1 55:-1 56:-1 57:-1 58:-1 59:-1 60:-0.99999978 61:-0.99999999 
8 1:-1 2:-1 3:-1 4:0.4494937 5:-0.20916794 6:-0.99991143 7:0.53345112 8:-0.99046891 9:-1 10:0.060157923 11:-0.78809837 12:-1 13:-0.14477135 14:-1 15:-0.99227454 16:-0.98400736 17:-0.99463963 18:-0.98424568 19:-0.99479094 20:-0.981444 21:-1 22:-1 23:-0.99432167 24:-0.9784229 25:-0.99621325 26:-0.96958822 27:-1 28:-1 29:-0.99721006 30:-0.97726493 31:-0.99590254 32:-0.99186283 33:-0.99453068 34:-0.99389841 35:-1 36:-1 37:-1 38:-1 39:-1 40:-1 41:-1 42:-1 43:-1 44:-1 45:-1 46:-1 47:-1 48:-1 49:-1 50:-1 51:-1 52:-1 53:-1 54:-1 55:-1 56:-1 57:-1 58:-1 59:-1 60:-0.99999977 61:-0.99999999 
8 1:-1 2:-1 3:-1 4:0.4494937 5:-0.20916816 6:-0.99990781 7:0.53323004 8:-0.98619089 9:-1 10:0.059170108 11:-0.78606923 12:-1 13:-0.14548393 14:-1 15:-0.9816143 16:-0.98695394 17:-0.9919292 18:-0.98602882 19:-1 20:-1 21:-0.99524577 22:-0.98373743 23:-1 24:-1 25:-0.99340935 26:-0.97791234 27:-0.99669054 28:-0.97126057 29:-1 30:-1 31:-0.99662118 32:-0.97396606 33:-0.99260876 34:-0.98180316 35:-1 36:-1 37:-1 38:-1 39:-1 40:-1 41:-1 42:-1 43:-1 44:-1 45:-1 46:-1 47:-1 48:-1 49:-1 50:-1 51:-1 52:-1 53:-1 54:-1 55:-1 56:-1 57:-1 58:-1 59:-1 60:-0.99999977 61:-0.99999999 
8 1:-1 2:-1 3:-1 4:0.4494937 5:-0.20916834 6:-0.99990505 7:0.53336731 8:-0.98680577 9:-1 10:0.059071327 11:-0.78703871 12:-1 13:-0.14307656 14:-1 15:-0.98273231 16:-0.9879079 17:-0.99355366 18:-0.9843907 19:-1 20:-1 21:-0.99542245 22:-0.98178411 23:-1 24:-1 25:-0.99393663 26:-0.97934075 27:-0.99664329 28:-0.97105478 29:-1 30:-1 31:-0.9947847 32:-0.97418448 33:-0.99172486 34:-0.98112364 35:-1 36:-1 37:-1 38:-1 39:-1 40:-1 41:-1 42:-1 43:-1 44:-1 45:-1 46:-1 47:-1 48:-1 49:-1 50:-1 51:-1 52:-1 53:-1 54:-1 55:-1 56:-1 57:-1 58:-1 59:-1 60:-0.99999976 61:-0.99999999 
8 1:-1 2:-1 3:-1 4:0.4494937 5:-0.20916989 6:-0.99990738 7:0.53330336 8:-0.98574454 9:-1 10:0.059393163 11:-0.78817362 12:-1 13:-0.14431394 14:-1 15:-0.98724322 16:-0.98665266 17:-0.99616716 18:-0.98173864 19:-1 20:-1 21:-0.99754011 22:-0.98031472 23:-1 24:-1 25:-0.99549831 26:-0.97913736 27:-0.99572892 28:-0.97173263 29:-1 30:-1 31:-0.99272671 32:-0.97354324 33:-0.99402698 34:-0.98322291 35:-1 36:-1 37:-1 38:-1 39:-1 40:-1 41:-1 42:-1 43:-1 44:-1 45:-1 46:-1 47:-1 48:-1 49:-1 50:-1 51:-1 52:-1 53:-1 54:-1 55:-1 56:-1 57:-1 58:-1 59:-1 60:-0.99999972 61:-0.99999999 
8 1:-1 2:-1 3:-1 4:0.4494937 5:-0.20917002 6:-0.99990396 7:0.53277077 8:-0.98524206 9:-1 10:0.059810594 11:-0.79047924 12:-1 13:-0.14359655 14:-1 15:-0.98889879 16:-0.98097016 17:-0.99446807 18:-0.98255 19:-1 20:-1 21:-0.99563218 22:-0.98109582 23:-1 24:-1 25:-0.99489509 26:-0.97985328 27:-0.9946218 28:-0.97209381 29:-1 30:-1 31:-0.99064186 32:-0.97417741 33:-0.99168928 34:-0.98053564 35:-1 36:-1 37:-1 38:-1 39:-1 40:-1 41:-1 42:-1 43:-1 44:-1 45:-1 46:-1 47:-1 48:-1 49:-1 50:-1 51:-1 52:-1 53:-1 54:-1 55:-1 56:-1 57:-1 58:-1 59:-1 60:-0.99999973 61:-0.99999999 
8 1:-1 2:-1 3:-1 4:0.44949407 5:-0.20918566 6:-0.97838069 7:0.28575355 8:-0.62010325 9:-1 10:0.52396212 11:-0.37769344 12:-1 13:0.42638222 14:-1 15:-0.92486107 16:-0.8875933 17:-0.95115567 18:-0.89577551 19:-0.95055699 20:-0.89161603 21:-0.94589005 22:-0.89307304 23:-0.95165944 24:-0.92097682 25:-0.94915832 26:-0.89152597 27:-0.94642694 28:-0.89641132 29:-0.91520051 30:-0.8936097 31:-0.91142191 32:-0.88343773 33:-0.9357809 34:-0.86278321 35:-1 36:-1 37:-1 38:-1 39:-1 40:-0.99999997 41:-1 42:-0.99999998 43:-0.99999999 44:-1 45:-1 46:-1 47:-1 48:-1 49:-1 50:-0.99999984 51:-0.99999998 52:-0.99999998 53:-1 54:-1 55:-1 56:-1 57:-1 58:-1 59:-1 60:-0.9999253 61:-0.9999911 
8 1:-1 2:-1 3:-1 4:0.44949407 5:-0.20919684 6:-0.97828008 7:0.28459329 8:-0.61927279 9:-1 10:0.52396285 11:-0.37769309 12:-1 13:0.4263822 14:-1 15:-0.92538529 16:-0.89050844 17:-0.94361765 18:-0.89495744 19:-0.95104965 20:-0.89259499 21:-0.94752504 22:-0.8926108 23:-0.95165944 24:-0.92097682 25:-0.94750711 26:-0.89108249 27:-0.94590836 28:-0.89464839 29:-0.91578684 30:-0.89461472 31:-0.91137975 32:-0.88336623 33:-0.93736008 34:-0.86473191 35:-1 36:-1 37:-1 38:-1 39:-1 40:-0.99999998 41:-0.99999999 42:-0.99999998 43:-0.99999999 44:-1 45:-1 46:-1 47:-1 48:-1 49:-1 50:-0.99999976 51:-0.99999997 52:-0.99999997 53:-1 54:-1 55:-1 56:-1 57:-1 58:-1 59:-1 60:-0.99992317 61:-0.99999111 
8 1:-1 2:-1 3:-1 4:0.44949412 5:-0.20918584 6:-0.97779617 7:0.28483657 8:-0.62153604 9:-1 10:0.5239614 11:-0.37769251 12:-1 13:0.42638119 14:-1 15:-0.91621107 16:-0.88832142 17:-0.9376448 18:-0.89408426 19:-0.94543393 20:-0.89153436 21:-0.94411308 22:-0.89356437 23:-0.95165944 24:-0.92097682 25:-0.94539716 26:-0.89147923 27:-0.94595117 28:-0.89590637 29:-0.91477053 30:-0.8939223 31:-0.91415238 32:-0.88311131 33:-0.93485383 34:-0.86160244 35:-1 36:-1 37:-1 38:-1 39:-1 40:-0.99999999 41:-0.99999999 42:-0.99999998 43:-0.99999999 44:-1 45:-1 46:-1 47:-1 48:-1 49:-1 50:-0.99999976 51:-0.99999998 52:-0.99999998 53:-1 54:-1 55:-1 56:-1 57:-1 58:-1 59:-1 60:-0.99991926 61:-0.99999154 
8 1:-1 2:-1 3:-1 4:0.44949425 5:-0.20920129 6:-0.97681161 7:0.28062464 8:-0.62047424 9:-1 10:0.5239633 11:-0.37768976 12:-1 13:0.42638106 14:-1 15:-0.91341623 16:-0.8894249 17:-0.93759583 18:-0.89423857 19:-0.9444412 20:-0.89121891 21:-0.94107439 22:-0.89320226 23:-0.95165944 24:-0.92097682 25:-0.94297918 26:-0.88856496 27:-0.94652671 28:-0.89439196 29:-0.91355327 30:-0.89092454 31:-0.93315846 32:-0.88472755 33:-0.93257505 34:-0.85743996 35:-1 36:-0.99999999 37:-1 38:-1 39:-1 40:-0.99999997 41:-0.99999999 42:-0.99999997 43:-0.99999999 44:-1 45:-1 46:-1 47:-1 48:-1 49:-1 50:-0.9999997 51:-0.99999997 52:-0.99999999 53:-1 54:-1 55:-1 56:-1 57:-1 58:-1 59:-1 60:-0.99992353 61:-0.99999047 
8 1:-1 2:-1 3:-1 4:0.44949428 5:-0.20920505 6:-0.97672773 7:0.28043158 8:-0.61881143 9:-1 10:0.52396247 11:-0.37769159 12:-1 13:0.42638118 14:-1 15:-0.91433036 16:-0.89396209 17:-0.9389023 18:-0.89699701 19:-0.94051795 20:-0.89327628 21:-0.94570263 22:-0.89281617 23:-0.95165944 24:-0.92097682 25:-0.94747175 26:-0.88573745 27:-0.94555627 28:-0.89381929 29:-0.91629355 30:-0.89224786 31:-0.93743283 32:-0.88630092 33:-0.93388912 34:-0.86090863 35:-1 36:-1 37:-1 38:-1 39:-1 40:-0.99999998 41:-0.99999999 42:-0.99999999 43:-0.99999999 44:-1 45:-1 46:-1 47:-1 48:-1 49:-1 50:-0.99999984 51:-0.99999997 52:-0.99999999 53:-1 54:-1 55:-1 56:-1 57:-1 58:-1 59:-1 60:-0.99992574 61:-0.9999906 
8 1:-1 2:-1 3:-1 4:0.44949427 5:-0.20918393 6:-0.97685046 7:0.28360038 8:-0.62105676 9:-1 10:0.52396312 11:-0.3776917 12:-1 13:0.42638182 14:-1 15:-0.90710365 16:-0.89095536 17:-0.93415806 18:-0.89370976 19:-0.94022913 20:-0.89179418 21:-0.94260289 22:-0.89126363 23:-0.95165944 24:-0.92097682 25:-0.94617819 26:-0.88511117 27:-0.94514382 28:-0.89353748 29:-0.91727195 30:-0.89464227 31:-0.93842111 32:-0.8896736 33:-0.93370066 34:-0.86242287 35:-1 36:-1 37:-1 38:-1 39:-1 40:-0.99999999 41:-0.99999999 42:-0.99999999 43:-0.99999999 44:-1 45:-1 46:-1 47:-1 48:-1 49:-1 50:-0.99999979 51:-0.99999998 52:-0.99999999 53:-1 54:-1 55:-1 56:-1 57:-1 58:-1 59:-1 60:-0.99992645 61:-0.99999018 
8 1:-1 2:-1 3:-1 4:0.44949421 5:-0.20911953 6:-0.97740551 7:0.29225576 8:-0.62536485 9:-1 10:0.52396226 11:-0.37769202 12:-1 13:0.42638227 14:-1 15:-0.8988285 16:-0.88747502 17:-0.9255413 18:-0.89039048 19:-0.93669601 20:-0.88983312 21:-0.94036029 22:-0.89224622 23:-0.95165944 24:-0.92097682 25:-0.94641416 26:-0.88188256 27:-0.94638663 28:-0.893969 29:-0.93558175 30:-0.91447212 31:-0.93491226 32:-0.9038296 33:-0.9374484 34:-0.86225803 35:-1 36:-1 37:-1 38:-1 39:-1 40:-0.99999999 41:-1 42:-0.99999998 43:-1 44:-1 45:-1 46:-1 47:-1 48:-1 49:-1 50:-0.99999976 51:-0.99999997 52:-0.99999999 53:-1 54:-1 55:-1 56:-1 57:-1 58:-1 59:-1 60:-0.99992345 61:-0.9999907 
8 1:-1 2:-1 3:-1 4:0.44949414 5:-0.20914439 6:-0.97824551 7:0.29077243 8:-0.62311649 9:-1 10:0.52396221 11:-0.37769199 12:-1 13:0.42638051 14:-1 15:-0.90568146 16:-0.88838749 17:-0.92985575 18:-0.89384582 19:-0.93913602 20:-0.89075182 21:-0.94111136 22:-0.89313489 23:-0.95165944 24:-0.92097682 25:-0.94751311 26:-0.88464565 27:-0.94530173 28:-0.89308975 29:-0.919461 30:-0.90078072 31:-0.93513629 32:-0.90695748 33:-0.93720083 34:-0.86218621 35:-1 36:-1 37:-1 38:-1 39:-1 40:-0.99999999 41:-1 42:-0.99999998 43:-1 44:-1 45:-1 46:-1 47:-1 48:-1 49:-1 50:-0.99999976 51:-0.99999998 52:-0.99999998 53:-1 54:-1 55:-1 56:-1 57:-1 58:-1 59:-1 60:-0.99991565 61:-0.99999086 
8 1:-1 2:-1 3:-1 4:0.44949405 5:-0.20917861 6:-0.97910354 7:0.28948202 8:-0.62265665 9:-1 10:0.52396183 11:-0.37769161 12:-1 13:0.42638128 14:-1 15:-0.93629992 16:-0.90145012 17:-0.94700581 18:-0.90263716 19:-0.947254 20:-0.89429858 21:-0.94363463 22:-0.89229709 23:-0.95165944 24:-0.92097682 25:-0.94910107 26:-0.89562971 27:-0.94738818 28:-0.89642854 29:-0.91638265 30:-0.89609047 31:-0.9345 32:-0.90656048 33:-0.93778425 34:-0.86420412 35:-1 36:-1 37:-1 38:-1 39:-1 40:-0.99999999 41:-0.99999999 42:-0.99999999 43:-1 44:-1 45:-1 46:-1 47:-1 48:-1 49:-1 50:-0.99999979 51:-0.99999998 52:-0.99999998 53:-1 54:-1 55:-1 56:-1 57:-1 58:-1 59:-1 60:-0.99991162 61:-0.99999092 
8 1:-1 2:-1 3:-1 4:0.44949404 5:-0.2092079 6:-0.97931769 7:0.2879858 8:-0.62269207 9:-1 10:0.52396238 11:-0.37769225 12:-1 13:0.42638148 14:-1 15:-0.93998986 16:-0.91353102 17:-0.94440477 18:-0.91041287 19:-0.94791082 20:-0.90028849 21:-0.94572429 22:-0.8966732 23:-0.95165944 24:-0.92097682 25:-0.94548955 26:-0.89689116 27:-0.94627265 28:-0.9006407 29:-0.9339634 30:-0.91697735 31:-0.93804634 32:-0.90675893 33:-0.93860396 34:-0.86403862 35:-1 36:-1 37:-1 38:-1 39:-1 40:-0.99999998 41:-1 42:-0.99999999 43:-0.99999999 44:-1 45:-1 46:-1 47:-1 48:-1 49:-1 50:-0.99999987 51:-0.99999999 52:-0.99999998 53:-1 54:-1 55:-1 56:-1 57:-1 58:-1 59:-1 60:-0.99991736 61:-0.99998917 
8 1:-1 2:-1 3:-1 4:0.44949392 5:-0.20921918 6:-0.97946079 7:0.28956177 8:-0.61937474 9:-1 10:0.52396251 11:-0.3776909 12:-1 13:0.42638254 14:-1 15:-0.89379284 16:-0.89871343 17:-0.94799485 18:-0.91153762 19:-0.93541478 20:-0.89667114 21:-0.93901227 22:-0.8965678 23:-0.94398067 24:-0.89133385 25:-0.95265385 26:-0.92494669 27:-0.94746812 28:-0.90224534 29:-0.91742145 30:-0.89312949 31:-0.93597484 32:-0.90504432 33:-0.93554083 34:-0.86209721 35:-1 36:-1 37:-1 38:-1 39:-1 40:-0.99999999 41:-1 42:-0.99999999 43:-0.99999999 44:-1 45:-1 46:-1 47:-1 48:-1 49:-1 50:-0.99999979 51:-0.99999998 52:-0.99999999 53:-0.99999999 54:-1 55:-1 56:-1 57:-1 58:-1 59:-1 60:-0.99991694 61:-0.99999089 
8 1:-1 2:-1 3:-1 4:0.44949387 5:-0.20918196 6:-0.97958526 7:0.29232142 8:-0.62293108 9:-1 10:0.52396296 11:-0.377691 12:-1 13:0.42638172 14:-1 15:-0.89163413 16:-0.89392088 17:-0.95013618 18:-0.91172857 19:-0.93362319 20:-0.89333425 21:-0.93883059 22:-0.89507043 23:-0.94567655 24:-0.89190169 25:-0.95265385 26:-0.92494669 27:-0.94647773 28:-0.90247649 29:-0.91733296 30:-0.89523399 31:-0.93712229 32:-0.90701118 33:-0.93913841 34:-0.86462662 35:-1 36:-1 37:-1 38:-1 39:-1 40:-0.99999999 41:-1 42:-0.99999999 43:-1 44:-1 45:-1 46:-1 47:-1 48:-1 49:-1 50:-0.99999987 51:-0.99999998 52:-0.99999998 53:-1 54:-1 55:-1 56:-1 57:-1 58:-1 59:-1 60:-0.9999179 61:-0.99999131 
8 1:-1 2:-1 3:-1 4:0.44949379 5:-0.20924092 6:-0.98020906 7:0.29191317 8:-0.61589799 9:-1 10:0.5239629 11:-0.37769162 12:-1 13:0.42638253 14:-1 15:-0.92997955 16:-0.91077694 17:-0.95108545 18:-0.91322176 19:-0.94254958 20:-0.89134911 21:-0.94386611 22:-0.89136955 23:-0.94677461 24:-0.89299236 25:-0.95265385 26:-0.92494669 27:-0.94609621 28:-0.90173229 29:-0.91844758 30:-0.89475532 31:-0.93751087 32:-0.9006054 33:-0.93488687 34:-0.86260634 35:-1 36:-0.99999999 37:-1 38:-1 39:-1 40:-0.99999999 41:-0.99999999 42:-0.99999999 43:-1 44:-1 45:-1 46:-1 47:-1 48:-1 49:-1 50:-0.99999976 51:-0.99999997 52:-0.99999999 53:-1 54:-1 55:-1 56:-1 57:-1 58:-1 59:-1 60:-0.99992466 61:-0.99999042 
8 1:-1 2:-1 3:-1 4:0.44949374 5:-0.20918569 6:-0.9803901 7:0.29438099 8:-0.62031493 9:-1 10:0.52396203 11:-0.37769216 12:-1 13:0.42638176 14:-1 15:-0.92172584 16:-0.89871772 17:-0.94176828 18:-0.90251193 19:-0.94271318 20:-0.89629381 21:-0.94073008 22:-0.89760784 23:-0.95165944 24:-0.92097682 25:-0.94631313 26:-0.89781292 27:-0.94621296 28:-0.90267662 29:-0.91844736 30:-0.89291797 31:-0.92002643 32:-0.88992617 33:-0.93566921 34:-0.86317981 35:-1 36:-1 37:-1 38:-1 39:-1 40:-0.99999999 41:-0.99999999 42:-0.99999999 43:-1 44:-1 45:-1 46:-1 47:-1 48:-1 49:-1 50:-0.99999973 51:-0.99999998 52:-0.99999998 53:-1 54:-1 55:-1 56:-1 57:-1 58:-1 59:-1 60:-0.99992505 61:-0.99999073 
8 1:-1 2:-1 3:-1 4:0.4494937 5:-0.20919689 6:-0.98017081 7:0.29490408 8:-0.61919046 9:-1 10:0.52396256 11:-0.37769143 12:-1 13:0.42638206 14:-1 15:-0.90350603 16:-0.90443427 17:-0.92661318 18:-0.90526548 19:-0.93550993 20:-0.90034161 21:-0.94027758 22:-0.89840253 23:-0.95165944 24:-0.92097682 25:-0.94568973 26:-0.8972841 27:-0.94597307 28:-0.90223938 29:-0.91614648 30:-0.89279488 31:-0.9195452 32:-0.89256101 33:-0.93508764 34:-0.86151882 35:-1 36:-0.99999999 37:-1 38:-1 39:-1 40:-0.99999999 41:-1 42:-0.99999998 43:-0.99999999 44:-1 45:-1 46:-1 47:-1 48:-1 49:-1 50:-0.99999968 51:-0.99999997 52:-0.99999999 53:-1 54:-1 55:-1 56:-1 57:-1 58:-1 59:-1 60:-0.99992639 61:-0.99999136 
8 1:-1 2:-1 3:-1 4:0.44949369 5:-0.20921566 6:-0.98044967 7:0.29478336 8:-0.61550933 9:-1 10:0.523962 11:-0.37769319 12:-1 13:0.42638161 14:-1 15:-0.90990838 16:-0.9075874 17:-0.93287104 18:-0.90552605 19:-0.94262585 20:-0.8951212 21:-0.94296069 22:-0.89515818 23:-0.95165944 24:-0.92097682 25:-0.94635246 26:-0.89722519 27:-0.94587416 28:-0.90208566 29:-0.91748386 30:-0.89073377 31:-0.91835989 32:-0.88323838 33:-0.93546885 34:-0.86246956 35:-1 36:-1 37:-1 38:-1 39:-1 40:-0.99999999 41:-1 42:-0.99999998 43:-0.99999999 44:-1 45:-1 46:-1 47:-1 48:-1 49:-1 50:-0.99999979 51:-0.99999997 52:-0.99999999 53:-1 54:-1 55:-1 56:-1 57:-1 58:-1 59:-1 60:-0.99992224 61:-0.9999916 
8 1:-1 2:-1 3:-1 4:0.44949369 5:-0.20915735 6:-0.98050072 7:0.29562207 8:-0.62487854 9:-1 10:0.52396273 11:-0.37769268 12:-1 13:0.42638158 14:-1 15:-0.92897788 16:-0.90233532 17:-0.94183613 18:-0.90050732 19:-0.94485574 20:-0.89628912 21:-0.94554187 22:-0.9057976 23:-0.94618747 24:-0.89166575 25:-0.9464783 26:-0.89836528 27:-0.94510008 28:-0.88772498 29:-0.94003536 30:-0.89768061 31:-0.93810024 32:-0.90930942 33:-0.93526634 34:-0.86349462 35:-1 36:-1 37:-1 38:-1 39:-1 40:-0.99999999 41:-0.99999999 42:-0.99999999 43:-0.99999999 44:-1 45:-1 46:-1 47:-1 48:-1 49:-1 50:-0.99999976 51:-0.99999999 52:-0.99999998 53:-0.99999999 54:-1 55:-1 56:-1 57:-1 58:-1 59:-1 60:-0.99992919 61:-0.99999118 
8 1:-1 2:-1 3:-1 4:0.44949364 5:-0.20908508 6:-0.98036079 7:0.29709267 8:-0.62366878 9:-1 10:0.5239647 11:-0.37769447 12:-1 13:0.4263816 14:-1 15:-0.93857843 16:-0.84221573 17:-0.95072907 18:-0.91269768 19:-0.95163191 20:-0.9098923 21:-0.93792494 22:-0.89714323 23:-0.9433386 24:-0.89467723 25:-0.95265385 26:-0.92494669 27:-0.94723945 28:-0.90067478 29:-0.93350904 30:-0.90384797 31:-0.91437539 32:-0.87400859 33:-0.91794812 34:-0.82624562 35:-1 36:-1 37:-1 38:-1 39:-1 40:-0.99999999 41:-1 42:-0.99999999 43:-0.99999999 44:-1 45:-1 46:-1 47:-1 48:-1 49:-1 50:-0.99999992 51:-0.99999996 52:-0.99999997 53:-0.99999999 54:-1 55:-1 56:-1 57:-1 58:-1 59:-1 60:-0.99991712 61:-0.99999179 
8 1:-1 2:-1 3:-1 4:0.44949362 5:-0.20909367 6:-0.98049853 7:0.29710981 8:-0.62540189 9:-1 10:0.52396233 11:-0.37769327 12:-1 13:0.42638166 14:-1 15:-0.91266685 16:-0.85123195 17:-0.94996997 18:-0.91281045 19:-0.93796059 20:-0.89712895 21:-0.94656673 22:-0.89396885 23:-0.9481496 24:-0.89000339 25:-0.94716828 26:-0.89656072 27:-0.93707999 28:-0.90190083 29:-0.91459441 30:-0.8918116 31:-0.93563548 32:-0.88058413 33:-0.93263826 34:-0.86527792 35:-1 36:-1 37:-1 38:-1 39:-1 40:-0.99999997 41:-0.99999999 42:-0.99999998 43:-0.99999999 44:-1 45:-1 46:-1 47:-1 48:-1 49:-1 50:-0.99999976 51:-0.99999997 52:-0.99999996 53:-0.99999999 54:-1 55:-0.99999999 56:-0.99999999 57:-1 58:-1 59:-1 60:-0.99992187 61:-0.99999187 
8 1:-1 2:-1 3:-1 4:0.44949339 5:-0.20913127 6:-0.97838417 7:0.30871935 8:-0.62038658 9:-1 10:0.52396508 11:-0.37768957 12:-1 13:0.42638109 14:-1 15:-0.92544911 16:-0.90928996 17:-0.94854547 18:-0.90983147 19:-0.93996216 20:-0.90208877 21:-0.94026096 22:-0.89815674 23:-0.94184776 24:-0.89425957 25:-0.9456739 26:-0.8980435 27:-0.93219075 28:-0.89309058 29:-0.91504988 30:-0.89326701 31:-0.91807874 32:-0.88151008 33:-0.93206602 34:-0.85879586 35:-1 36:-1 37:-1 38:-1 39:-1 40:-0.99999997 41:-0.99999998 42:-0.99999998 43:-0.99999999 44:-1 45:-1 46:-1 47:-1 48:-1 49:-1 50:-0.9999993 51:-0.99999995 52:-0.9999999 53:-0.99999996 54:-0.99999998 55:-0.99999999 56:-0.99999999 57:-1 58:-1 59:-1 60:-0.99991752 61:-0.99999033 
8 1:-1 2:-1 3:-1 4:0.44949335 5:-0.20909409 6:-0.97718606 7:0.30338153 8:-0.62665082 9:-1 10:0.52395987 11:-0.37769281 12:-1 13:0.426382 14:-1 15:-0.93542474 16:-0.90962945 17:-0.94303622 18:-0.90601268 19:-0.94528312 20:-0.894837 21:-0.94562124 22:-0.89254522 23:-0.94489908 24:-0.88904894 25:-0.9445866 26:-0.89673411 27:-0.94551319 28:-0.90207865 29:-0.91177067 30:-0.89244989 31:-0.91666009 32:-0.87896413 33:-0.93647871 34:-0.84557295 35:-1 36:-1 37:-1 38:-1 39:-1 40:-0.99999997 41:-0.99999999 42:-0.99999995 43:-0.99999999 44:-1 45:-1 46:-1 47:-1 48:-1 49:-1 50:-0.99999855 51:-0.99999985 52:-0.9999998 53:-0.99999994 54:-0.99999999 55:-0.99999999 56:-0.99999999 57:-1 58:-1 59:-1 60:-0.99993213 61:-0.99998676 
8 1:-1 2:-1 3:-1 4:0.44949334 5:-0.20907694 6:-0.97589764 7:0.29869115 8:-0.62832079 9:-1 10:0.52396277 11:-0.37769236 12:-1 13:0.42638304 14:-1 15:-0.90715415 16:-0.89122579 17:-0.93168056 18:-0.89409685 19:-0.93832259 20:-0.89214648 21:-0.93797129 22:-0.89307802 23:-0.94232223 24:-0.89130926 25:-0.94236132 26:-0.89642586 27:-0.94557995 28:-0.90105581 29:-0.92077974 30:-0.89498647 31:-0.93422597 32:-0.89056954 33:-0.93351434 34:-0.8445014 35:-1 36:-1 37:-1 38:-1 39:-1 40:-0.99999998 41:-0.99999999 42:-0.99999998 43:-0.99999998 44:-1 45:-1 46:-1 47:-1 48:-1 49:-1 50:-0.99999874 51:-0.99999982 52:-0.99999985 53:-0.99999995 54:-0.99999997 55:-0.99999997 56:-0.99999998 57:-1 58:-1 59:-1 60:-0.99993633 61:-0.99998596 
8 1:-1 2:-1 3:-1 4:0.44949334 5:-0.20908026 6:-0.9743083 7:0.30103124 8:-0.6290177 9:-1 10:0.52396097 11:-0.3776917 12:-1 13:0.42638259 14:-1 15:-0.93529268 16:-0.91105118 17:-0.94486242 18:-0.89428074 19:-0.94404247 20:-0.89173798 21:-0.94259061 22:-0.89038029 23:-0.94481592 24:-0.89147959 25:-0.94447966 26:-0.8992854 27:-0.94535509 28:-0.90332783 29:-0.92440902 30:-0.90279377 31:-0.91821745 32:-0.88874409 33:-0.93683566 34:-0.84989161 35:-1 36:-1 37:-1 38:-1 39:-1 40:-0.99999998 41:-0.99999999 42:-0.99999999 43:-0.99999999 44:-1 45:-1 46:-1 47:-1 48:-1 49:-1 50:-0.99999868 51:-0.99999988 52:-0.99999989 53:-0.99999995 54:-0.99999997 55:-0.99999997 56:-0.99999998 57:-1 58:-1 59:-1 60:-0.99994322 61:-0.99998419 
8 1:-1 2:-1 3:-1 4:0.44949336 5:-0.2090867 6:-0.97313688 7:0.30636162 8:-0.62683218 9:-1 10:0.52396088 11:-0.37768789 12:-1 13:0.42638085 14:-1 15:-0.93012784 16:-0.89971588 17:-0.94429835 18:-0.90097613 19:-0.94490489 20:-0.89506214 21:-0.94073389 22:-0.89590044 23:-0.94107075 24:-0.89329137 25:-0.94283406 26:-0.89826228 27:-0.94399208 28:-0.90081795 29:-0.92482537 30:-0.89907433 31:-0.91216924 32:-0.88049206 33:-0.91678271 34:-0.84589659 35:-1 36:-1 37:-1 38:-1 39:-1 40:-0.99999998 41:-0.99999999 42:-0.99999997 43:-0.99999998 44:-1 45:-1 46:-1 47:-1 48:-1 49:-1 50:-0.9999982 51:-0.99999985 52:-0.9999999 53:-0.99999994 54:-0.99999996 55:-0.99999998 56:-0.99999997 57:-1 58:-0.99999999 59:-1 60:-0.99992518 61:-0.99998486 
8 1:-1 2:-1 3:-1 4:0.4494934 5:-0.2090887 6:-0.97243465 7:0.31062468 8:-0.62528863 9:-1 10:0.52396212 11:-0.37769271 12:-1 13:0.42638375 14:-1 15:-0.93278397 16:-0.90965675 17:-0.94561506 18:-0.90825275 19:-0.94365529 20:-0.89556674 21:-0.94048385 22:-0.89543568 23:-0.94235667 24:-0.89478157 25:-0.94231879 26:-0.90002652 27:-0.94400226 28:-0.90348932 29:-0.9119895 30:-0.89794011 31:-0.91307848 32:-0.87779743 33:-0.92000693 34:-0.84724756 35:-1 36:-0.99999999 37:-1 38:-1 39:-1 40:-0.99999997 41:-1 42:-0.99999997 43:-0.99999999 44:-1 45:-1 46:-1 47:-1 48:-1 49:-1 50:-0.99999914 51:-0.99999991 52:-0.99999991 53:-0.99999996 54:-0.99999998 55:-0.99999998 56:-0.99999997 57:-1 58:-0.99999999 59:-1 60:-0.99991752 61:-0.9999841 
8 1:-1 2:-1 3:-1 4:0.44949344 5:-0.20907897 6:-0.97153342 7:0.30423576 8:-0.62784865 9:-1 10:0.52396115 11:-0.37769201 12:-1 13:0.42638036 14:-1 15:-0.93010077 16:-0.89615142 17:-0.94560777 18:-0.89522563 19:-0.94518851 20:-0.89205943 21:-0.93975383 22:-0.88910751 23:-0.93726684 24:-0.8897973 25:-0.9419213 26:-0.89999385 27:-0.94420446 28:-0.90251486 29:-0.92865007 30:-0.9091402 31:-0.91818231 32:-0.88233862 33:-0.91208207 34:-0.81356022 35:-1 36:-1 37:-1 38:-1 39:-1 40:-0.99999997 41:-0.99999998 42:-0.99999996 43:-0.99999998 44:-1 45:-1 46:-1 47:-1 48:-1 49:-1 50:-0.99999817 51:-0.99999982 52:-0.99999984 53:-0.99999993 54:-0.99999995 55:-0.99999997 56:-0.99999996 57:-0.99999999 58:-0.99999999 59:-1 60:-0.99993194 61:-0.99998401 
8 1:-1 2:-1 3:-1 4:0.44949369 5:-0.2090727 6:-0.97255403 7:0.29769287 8:-0.62940821 9:-1 10:0.52395959 11:-0.37769333 12:-1 13:0.42637908 14:-1 15:-0.93807516 16:-0.90708427 17:-0.94521093 18:-0.89673339 19:-0.94375768 20:-0.89878341 21:-0.93892849 22:-0.89879069 23:-0.93920359 24:-0.89921888 25:-0.93876661 26:-0.90518563 27:-0.94107642 28:-0.90529184 29:-0.92624538 30:-0.90539718 31:-0.92423368 32:-0.88994855 33:-0.92772235 34:-0.84710564 35:-1 36:-1 37:-1 38:-1 39:-0.99999999 40:-0.99999992 41:-0.99999998 42:-0.99999989 43:-0.99999993 44:-1 45:-1 46:-1 47:-1 48:-1 49:-1 50:-0.99999844 51:-0.99999988 52:-0.99999994 53:-0.99999998 54:-0.99999999 55:-0.99999998 56:-0.99999999 57:-1 58:-1 59:-1 60:-0.9999217 61:-0.99998335 
8 1:-1 2:-1 3:-1 4:0.44949373 5:-0.20906901 6:-0.9734583 7:0.30278024 8:-0.62879906 9:-1 10:0.52395905 11:-0.37769257 12:-1 13:0.42638338 14:-1 15:-0.93174966 16:-0.90630918 17:-0.94641844 18:-0.90168437 19:-0.94643187 20:-0.89557293 21:-0.94136695 22:-0.8955898 23:-0.94007902 24:-0.89680773 25:-0.9423204 26:-0.90110646 27:-0.94530991 28:-0.90088346 29:-0.93246045 30:-0.90098618 31:-0.91977781 32:-0.88237211 33:-0.91628293 34:-0.82787398 35:-1 36:-1 37:-1 38:-1 39:-1 40:-0.99999994 41:-0.99999997 42:-0.99999996 43:-0.99999998 44:-1 45:-1 46:-1 47:-1 48:-1 49:-1 50:-0.99999812 51:-0.99999988 52:-0.9999999 53:-0.99999995 54:-0.99999998 55:-0.99999997 56:-0.99999997 57:-1 58:-0.99999994 59:-1 60:-0.99992416 61:-0.99998303 
8 1:-1 2:-1 3:-1 4:0.44949377 5:-0.20906445 6:-0.97375348 7:0.30529512 8:-0.62770057 9:-1 10:0.52396276 11:-0.37769192 12:-1 13:0.42637979 14:-1 15:-0.93015413 16:-0.89652347 17:-0.94633994 18:-0.89589368 19:-0.94615874 20:-0.89448356 21:-0.94256111 22:-0.89450487 23:-0.94271179 24:-0.89447862 25:-0.94243207 26:-0.89946743 27:-0.94534801 28:-0.88707638 29:-0.91951498 30:-0.89131014 31:-0.91425869 32:-0.87321736 33:-0.91333684 34:-0.82598575 35:-1 36:-1 37:-1 38:-1 39:-1 40:-0.99999998 41:-1 42:-0.99999998 43:-0.99999999 44:-1 45:-1 46:-1 47:-1 48:-1 49:-1 50:-0.99999812 51:-0.99999982 52:-0.99999981 53:-0.99999994 54:-0.99999996 55:-0.99999997 56:-0.99999996 57:-0.99999999 58:-0.99999999 59:-1 60:-0.9999359 61:-0.99998301 
8 1:-1 2:-1 3:-1 4:0.4494938 5:-0.20906674 6:-0.97377383 7:0.30224193 8:-0.62777799 9:-1 10:0.52396051 11:-0.37769267 12:-1 13:0.42638005 14:-1 15:-0.934897 16:-0.89140678 17:-0.94755569 18:-0.89040623 19:-0.94670175 20:-0.88937323 21:-0.94161838 22:-0.88879311 23:-0.94263146 24:-0.89390977 25:-0.94280257 26:-0.8981504 27:-0.94607701 28:-0.89429223 29:-0.92634913 30:-0.89154106 31:-0.91767318 32:-0.87369173 33:-0.91401406 34:-0.82213569 35:-1 36:-1 37:-1 38:-1 39:-1 40:-0.99999998 41:-0.99999999 42:-0.99999999 43:-0.99999999 44:-1 45:-1 46:-1 47:-1 48:-1 49:-1 50:-0.9999982 51:-0.99999981 52:-0.99999982 53:-0.99999994 54:-0.99999996 55:-0.99999997 56:-0.99999996 57:-0.99999999 58:-0.99999999 59:-1 60:-0.99993248 61:-0.99998283 
8 1:-1 2:-1 3:-1 4:0.44949383 5:-0.20906681 6:-0.97419894 7:0.30115335 8:-0.6285723 9:-1 10:0.52396109 11:-0.3776893 12:-1 13:0.42638199 14:-1 15:-0.92012141 16:-0.8906646 17:-0.9369273 18:-0.89400794 19:-0.94238168 20:-0.88823857 21:-0.94205564 22:-0.88867233 23:-0.94100626 24:-0.88848024 25:-0.94536404 26:-0.89699196 27:-0.94622476 28:-0.90099566 29:-0.92847106 30:-0.88468305 31:-0.92984196 32:-0.87135092 33:-0.93390433 34:-0.82042682 35:-1 36:-1 37:-1 38:-1 39:-1 40:-0.99999998 41:-0.99999999 42:-0.99999999 43:-0.99999999 44:-1 45:-1 46:-1 47:-1 48:-1 49:-1 50:-0.99999817 51:-0.99999979 52:-0.99999984 53:-0.99999993 54:-0.99999996 55:-0.99999996 56:-0.99999997 57:-0.99999999 58:-0.99999999 59:-1 60:-0.99993671 61:-0.99998311 
8 1:-1 2:-1 3:-1 4:0.44949384 5:-0.20905843 6:-0.97553154 7:0.30421472 8:-0.62829255 9:-1 10:0.52395776 11:-0.3776907 12:-1 13:0.42638138 14:-1 15:-0.92945274 16:-0.9053209 17:-0.94335983 18:-0.89389049 19:-0.94317149 20:-0.89031354 21:-0.93978592 22:-0.88785717 23:-0.94435078 24:-0.8900379 25:-0.94629899 26:-0.89644356 27:-0.94579531 28:-0.89448803 29:-0.9319503 30:-0.89292264 31:-0.93444373 32:-0.88044322 33:-0.93691448 34:-0.82970792 35:-1 36:-1 37:-1 38:-1 39:-1 40:-0.99999998 41:-1 42:-0.99999998 43:-0.99999999 44:-1 45:-1 46:-1 47:-1 48:-1 49:-1 50:-0.99999847 51:-0.99999982 52:-0.99999983 53:-0.99999993 54:-0.99999996 55:-0.99999997 56:-0.99999998 57:-0.99999999 58:-1 59:-1 60:-0.99994283 61:-0.99998365 
8 1:-1 2:-1 3:-1 4:0.44949384 5:-0.20904666 6:-0.97767177 7:0.30452615 8:-0.62700712 9:-1 10:0.52396421 11:-0.37769326 12:-1 13:0.42638157 14:-1 15:-0.91493079 16:-0.90480552 17:-0.93650319 18:-0.90110163 19:-0.9408145 20:-0.89395184 21:-0.94332927 22:-0.89298999 23:-0.94434838 24:-0.89235611 25:-0.94636405 26:-0.89655002 27:-0.94424227 28:-0.88516346 29:-0.93354194 30:-0.89206934 31:-0.93408278 32:-0.88535738 33:-0.93577369 34:-0.86024047 35:-1 36:-1 37:-1 38:-1 39:-1 40:-0.99999997 41:-0.99999999 42:-0.99999999 43:-0.99999999 44:-1 45:-1 46:-1 47:-1 48:-1 49:-1 50:-0.99999874 51:-0.99999977 52:-0.99999982 53:-0.99999995 54:-0.99999998 55:-0.99999998 56:-0.99999999 57:-1 58:-1 59:-1 60:-0.99994087 61:-0.99998559 
8 1:-1 2:-1 3:-1 4:0.44949385 5:-0.20906343 6:-0.97828609 7:0.29924294 8:-0.62730481 9:-1 10:0.523966 11:-0.37768805 12:-1 13:0.42638226 14:-1 15:-0.90937435 16:-0.90234903 17:-0.9400403 18:-0.89746451 19:-0.9446011 20:-0.89065132 21:-0.94347978 22:-0.8905366 23:-0.94462206 24:-0.89231533 25:-0.94401341 26:-0.89187656 27:-0.94361104 28:-0.88709979 29:-0.93288407 30:-0.89492004 31:-0.93780925 32:-0.90553207 33:-0.93539772 34:-0.85855249 35:-1 36:-1 37:-1 38:-1 39:-1 40:-0.99999996 41:-0.99999999 42:-0.99999998 43:-0.99999999 44:-1 45:-1 46:-1 47:-1 48:-1 49:-1 50:-0.99999879 51:-0.99999984 52:-0.99999988 53:-0.99999997 54:-0.99999998 55:-0.99999999 56:-0.99999999 57:-1 58:-1 59:-1 60:-0.99993166 61:-0.99998668 
8 1:-1 2:-1 3:-1 4:0.44949383 5:-0.20907303 6:-0.97890136 7:0.29715557 8:-0.62844695 9:-1 10:0.52396295 11:-0.37769053 12:-1 13:0.42638164 14:-1 15:-0.92393005 16:-0.89309296 17:-0.9414068 18:-0.89336254 19:-0.94166291 20:-0.89154952 21:-0.94130698 22:-0.88831328 23:-0.94415766 24:-0.88971902 25:-0.9428376 26:-0.89381115 27:-0.94522969 28:-0.88866074 29:-0.93213094 30:-0.89391705 31:-0.93581217 32:-0.90859361 33:-0.93548318 34:-0.86062361 35:-1 36:-1 37:-1 38:-1 39:-1 40:-0.99999998 41:-0.99999999 42:-0.99999999 43:-0.99999999 44:-1 45:-1 46:-1 47:-1 48:-1 49:-1 50:-0.99999842 51:-0.99999984 52:-0.99999988 53:-0.99999996 54:-0.99999999 55:-0.99999999 56:-0.99999999 57:-1 58:-1 59:-1 60:-0.99993613 61:-0.99998727 
8 1:-1 2:-1 3:-1 4:0.4494938 5:-0.20908623 6:-0.97942084 7:0.29555867 8:-0.6267904 9:-1 10:0.52396273 11:-0.37769341 12:-1 13:0.42638188 14:-1 15:-0.90287264 16:-0.88934574 17:-0.9326038 18:-0.89004414 19:-0.9320339 20:-0.88930697 21:-0.94117198 22:-0.89139319 23:-0.9406694 24:-0.88749528 25:-0.94672489 26:-0.89689766 27:-0.94454609 28:-0.8863041 29:-0.9303875 30:-0.89526375 31:-0.93816449 32:-0.90637867 33:-0.93696108 34:-0.85894389 35:-1 36:-1 37:-1 38:-1 39:-1 40:-0.99999999 41:-1 42:-0.99999999 43:-0.99999999 44:-1 45:-1 46:-1 47:-1 48:-1 49:-1 50:-0.99999866 51:-0.99999986 52:-0.9999999 53:-0.99999997 54:-0.99999999 55:-0.99999998 56:-1 57:-1 58:-1 59:-1 60:-0.99993337 61:-0.99998739 
8 1:-1 2:-1 3:-1 4:0.44949375 5:-0.20907163 6:-0.98011075 7:0.29726507 8:-0.62811694 9:-1 10:0.52396173 11:-0.3776903 12:-1 13:0.42638181 14:-1 15:-0.91303193 16:-0.89407161 17:-0.94124255 18:-0.89363972 19:-0.94884829 20:-0.890129 21:-0.94375229 22:-0.88969864 23:-0.94495566 24:-0.89073465 25:-0.94459988 26:-0.88289801 27:-0.94761825 28:-0.89004378 29:-0.93539926 30:-0.89705424 31:-0.93840919 32:-0.90840176 33:-0.936124 34:-0.85867444 35:-1 36:-1 37:-1 38:-1 39:-1 40:-0.99999997 41:-0.99999999 42:-0.99999998 43:-0.99999999 44:-1 45:-1 46:-1 47:-1 48:-1 49:-1 50:-0.99999911 51:-0.9999999 52:-0.99999993 53:-0.99999997 54:-0.99999998 55:-0.99999999 56:-1 57:-1 58:-1 59:-1 60:-0.99992931 61:-0.99998765 
8 1:-1 2:-1 3:-1 4:0.44949371 5:-0.20905953 6:-0.9803597 7:0.29776769 8:-0.62782882 9:-1 10:0.52396247 11:-0.3776918 12:-1 13:0.42638152 14:-1 15:-0.91000962 16:-0.90364377 17:-0.93774694 18:-0.90219863 19:-0.94104686 20:-0.89680394 21:-0.94295575 22:-0.89177285 23:-0.94336049 24:-0.89180894 25:-0.9473794 26:-0.89625107 27:-0.94486676 28:-0.88781082 29:-0.93400143 30:-0.89355389 31:-0.93471837 32:-0.88496623 33:-0.93597719 34:-0.86175995 35:-1 36:-1 37:-1 38:-1 39:-1 40:-0.99999998 41:-1 42:-0.99999998 43:-0.99999999 44:-1 45:-1 46:-1 47:-1 48:-1 49:-1 50:-0.99999919 51:-0.99999992 52:-0.99999994 53:-0.99999997 54:-0.99999998 55:-0.99999999 56:-0.99999999 57:-1 58:-1 59:-1 60:-0.99993626 61:-0.99998728 
8 1:-1 2:-1 3:-1 4:0.4494937 5:-0.20909522 6:-0.98039591 7:0.29642233 8:-0.62650244 9:-1 10:0.52396294 11:-0.37769026 12:-1 13:0.42638029 14:-1 15:-0.90569092 16:-0.90226323 17:-0.93589738 18:-0.89890132 19:-0.94314771 20:-0.89494616 21:-0.94212402 22:-0.89167706 23:-0.94451517 24:-0.89303142 25:-0.94381591 26:-0.89240532 27:-0.9457827 28:-0.88932372 29:-0.93424253 30:-0.89595279 31:-0.93823345 32:-0.90765627 33:-0.93794238 34:-0.86020858 35:-1 36:-1 37:-1 38:-1 39:-1 40:-0.99999999 41:-0.99999999 42:-0.99999998 43:-0.99999999 44:-1 45:-1 46:-1 47:-1 48:-1 49:-1 50:-0.99999911 51:-0.99999995 52:-0.99999996 53:-0.99999998 54:-0.99999999 55:-0.99999999 56:-0.99999999 57:-1 58:-1 59:-1 60:-0.99993428 61:-0.99998791 
8 1:-1 2:-1 3:-1 4:0.44949369 5:-0.20908553 6:-0.98045673 7:0.29681903 8:-0.62884631 9:-1 10:0.52396272 11:-0.37769126 12:-1 13:0.42638175 14:-1 15:-0.93171302 16:-0.90034902 17:-0.94962748 18:-0.89524444 19:-0.94964287 20:-0.89221871 21:-0.94436573 22:-0.88833786 23:-0.94467989 24:-0.89112859 25:-0.94726254 26:-0.8977794 27:-0.94514514 28:-0.88878326 29:-0.93298558 30:-0.89582232 31:-0.93824226 32:-0.90830177 33:-0.93713024 34:-0.86053211 35:-1 36:-1 37:-1 38:-1 39:-1 40:-0.99999998 41:-1 42:-1 43:-0.99999999 44:-1 45:-1 46:-1 47:-1 48:-1 49:-1 50:-0.99999954 51:-0.99999995 52:-0.99999996 53:-0.99999998 54:-1 55:-0.99999999 56:-0.99999999 57:-1 58:-1 59:-1 60:-0.99993117 61:-0.99998736 
8 1:-1 2:-1 3:-1 4:0.44949368 5:-0.20909092 6:-0.98046246 7:0.2967777 8:-0.62706904 9:-1 10:0.52396175 11:-0.37769185 12:-1 13:0.42638227 14:-1 15:-0.90349847 16:-0.8963607 17:-0.93541753 18:-0.8965882 19:-0.94208229 20:-0.8933209 21:-0.94231316 22:-0.89083344 23:-0.94463764 24:-0.89080037 25:-0.94766275 26:-0.89757834 27:-0.94636603 28:-0.89032536 29:-0.93552629 30:-0.8984588 31:-0.93788026 32:-0.90748786 33:-0.93797891 34:-0.86128303 35:-1 36:-1 37:-1 38:-1 39:-1 40:-0.99999997 41:-1 42:-0.99999999 43:-0.99999999 44:-1 45:-1 46:-1 47:-1 48:-1 49:-1 50:-0.99999973 51:-0.99999993 52:-0.99999997 53:-0.99999999 54:-0.99999999 55:-1 56:-0.99999999 57:-1 58:-1 59:-1 60:-0.99993161 61:-0.99998818 
8 1:-1 2:-1 3:-1 4:0.44949367 5:-0.20909409 6:-0.98049616 7:0.29686279 8:-0.62663554 9:-1 10:0.5239624 11:-0.37769321 12:-1 13:0.42638241 14:-1 15:-0.90763001 16:-0.90263713 17:-0.93682565 18:-0.89806156 19:-0.94400449 20:-0.89287663 21:-0.94360915 22:-0.89147966 23:-0.94529034 24:-0.89161545 25:-0.94407272 26:-0.89149553 27:-0.9467645 28:-0.89064128 29:-0.937455 30:-0.90385157 31:-0.9368491 32:-0.90543796 33:-0.94221072 34:-0.88199982 35:-1 36:-1 37:-1 38:-1 39:-1 40:-0.99999999 41:-1 42:-0.99999999 43:-0.99999999 44:-1 45:-1 46:-1 47:-1 48:-1 49:-1 50:-0.9999996 51:-0.99999995 52:-0.99999995 53:-0.99999999 54:-1 55:-1 56:-0.99999999 57:-1 58:-1 59:-1 60:-0.99993593 61:-0.99998856 
8 1:-1 2:-1 3:-1 4:0.44949364 5:-0.20921013 6:-0.98048776 7:0.2962849 8:-0.61848341 9:-1 10:0.52396276 11:-0.37769122 12:-1 13:0.4263817 14:-1 15:-0.9365116 16:-0.90248475 17:-0.9493254 18:-0.89787669 19:-0.9441687 20:-0.89276088 21:-0.94517229 22:-0.88997365 23:-0.94937566 24:-0.89164527 25:-0.95265385 26:-0.92494669 27:-0.94893048 28:-0.90049972 29:-0.93774919 30:-0.89653003 31:-0.93734585 32:-0.88499866 33:-0.93683494 34:-0.863016 35:-1 36:-1 37:-1 38:-1 39:-1 40:-0.99999999 41:-1 42:-0.99999999 43:-1 44:-1 45:-1 46:-1 47:-1 48:-1 49:-1 50:-0.99999984 51:-0.99999999 52:-0.99999998 53:-0.99999999 54:-1 55:-1 56:-1 57:-1 58:-1 59:-1 60:-0.99993003 61:-0.9999899 
8 1:-1 2:-1 3:-1 4:0.44949366 5:-0.20912753 6:-0.98054068 7:0.29663323 8:-0.62603123 9:-1 10:0.52396252 11:-0.37769207 12:-1 13:0.42638169 14:-1 15:-0.91387697 16:-0.89857717 17:-0.95158589 18:-0.91184337 19:-0.94313292 20:-0.89487717 21:-0.94473574 22:-0.89025435 23:-0.94503415 24:-0.89023708 25:-0.95265385 26:-0.92494669 27:-0.94308146 28:-0.89521747 29:-0.93340775 30:-0.89499602 31:-0.93775559 32:-0.89962836 33:-0.93747593 34:-0.86199914 35:-1 36:-1 37:-1 38:-1 39:-1 40:-0.99999999 41:-1 42:-0.99999998 43:-1 44:-1 45:-1 46:-1 47:-1 48:-1 49:-1 50:-0.99999957 51:-0.99999997 52:-0.99999999 53:-0.99999999 54:-1 55:-1 56:-1 57:-1 58:-1 59:-1 60:-0.99993316 61:-0.99998914 
8 1:-1 2:-1 3:-1 4:0.4494937 5:-0.20911561 6:-0.98046933 7:0.29640272 8:-0.6270488 9:-1 10:0.52396255 11:-0.3776927 12:-1 13:0.42638172 14:-1 15:-0.92118729 16:-0.8961173 17:-0.94824516 18:-0.89060907 19:-0.94819887 20:-0.88778057 21:-0.95137244 22:-0.92106623 23:-0.94623221 24:-0.89228069 25:-0.94267395 26:-0.88877618 27:-0.95360359 28:-0.92755127 29:-0.93395366 30:-0.89658987 31:-0.93678393 32:-0.90813531 33:-0.93908812 34:-0.86152051 35:-1 36:-1 37:-1 38:-1 39:-1 40:-0.99999999 41:-1 42:-0.99999999 43:-0.99999999 44:-1 45:-1 46:-1 47:-1 48:-1 49:-1 50:-0.99999962 51:-0.99999996 52:-0.99999998 53:-0.99999999 54:-1 55:-1 56:-1 57:-1 58:-1 59:-1 60:-0.9999314 61:-0.99998797 
8 1:-1 2:-1 3:-1 4:0.44949369 5:-0.20910761 6:-0.98048196 7:0.29659063 8:-0.62810564 9:-1 10:0.52396217 11:-0.37769221 12:-1 13:0.42638155 14:-1 15:-0.93364246 16:-0.89397265 17:-0.94492281 18:-0.89336115 19:-0.94588139 20:-0.88843544 21:-0.95137244 22:-0.92106623 23:-0.94518525 24:-0.89157393 25:-0.94670851 26:-0.89106846 27:-0.95360359 28:-0.92755127 29:-0.93335656 30:-0.89558278 31:-0.93793538 32:-0.90643951 33:-0.93774193 34:-0.8631539 35:-1 36:-1 37:-1 38:-1 39:-1 40:-0.99999999 41:-1 42:-0.99999999 43:-0.99999999 44:-1 45:-1 46:-1 47:-1 48:-1 49:-1 50:-0.99999962 51:-0.99999995 52:-0.99999998 53:-1 54:-1 55:-1 56:-1 57:-1 58:-1 59:-1 60:-0.99993773 61:-0.99998841 
8 1:-1 2:-1 3:-1 4:0.44949331 5:-0.20911415 6:-0.97954504 7:0.30004461 8:-0.62582585 9:-1 10:0.5239625 11:-0.37769196 12:-1 13:0.42638186 14:-1 15:-0.9159716 16:-0.89162339 17:-0.95085092 18:-0.91018586 19:-0.94680634 20:-0.89200283 21:-0.94610709 22:-0.8916087 23:-0.94537468 24:-0.89293165 25:-0.95265385 26:-0.92494669 27:-0.93352058 28:-0.88172756 29:-0.92364825 30:-0.90541051 31:-0.93757199 32:-0.90073121 33:-0.93722368 34:-0.86152676 35:-1 36:-1 37:-1 38:-1 39:-1 40:-0.99999999 41:-1 42:-0.99999999 43:-0.99999999 44:-1 45:-1 46:-1 47:-1 48:-1 49:-1 50:-0.99999973 51:-0.99999997 52:-0.99999998 53:-0.99999999 54:-0.99999999 55:-0.99999999 56:-1 57:-1 58:-1 59:-1 60:-0.99993764 61:-0.99999004 
8 1:-1 2:-1 3:-1 4:0.44949322 5:-0.20913976 6:-0.978874 7:0.30362395 8:-0.62577242 9:-1 10:0.52396249 11:-0.37769203 12:-1 13:0.42638163 14:-1 15:-0.94028607 16:-0.91645483 17:-0.94696493 18:-0.89506118 19:-0.94827426 20:-0.89249118 21:-0.94520424 22:-0.892196 23:-0.94616707 24:-0.89394857 25:-0.95265385 26:-0.92494669 27:-0.94490187 28:-0.90374235 29:-0.92221361 30:-0.91748357 31:-0.92965928 32:-0.90145266 33:-0.93656148 34:-0.85554223 35:-1 36:-1 37:-1 38:-1 39:-1 40:-0.99999998 41:-1 42:-0.99999999 43:-0.99999999 44:-1 45:-1 46:-1 47:-1 48:-1 49:-1 50:-0.99999979 51:-0.99999996 52:-0.99999997 53:-0.99999999 54:-1 55:-1 56:-1 57:-1 58:-1 59:-1 60:-0.9999342 61:-0.99998935 
8 1:-1 2:-1 3:-1 4:0.44949315 5:-0.20900421 6:-0.97814707 7:0.28914921 8:-0.62612752 9:-1 10:0.52396239 11:-0.3776917 12:-1 13:0.42638148 14:-1 15:-0.94106213 16:-0.92059775 17:-0.95243978 18:-0.91433104 19:-0.94745428 20:-0.89825957 21:-0.9475617 22:-0.89538253 23:-0.95059361 24:-0.89436539 25:-0.95265385 26:-0.92494669 27:-0.94766805 28:-0.9026553 29:-0.92542264 30:-0.90203449 31:-0.9282617 32:-0.8993907 33:-0.93671362 34:-0.85627083 35:-1 36:-1 37:-1 38:-1 39:-1 40:-0.99999999 41:-0.99999999 42:-0.99999999 43:-1 44:-1 45:-1 46:-1 47:-1 48:-1 49:-1 50:-0.99999989 51:-0.99999999 52:-0.99999999 53:-1 54:-1 55:-1 56:-1 57:-1 58:-1 59:-1 60:-0.99993387 61:-0.99999086 
8 1:-1 2:-1 3:-1 4:0.44949311 5:-0.20892401 6:-0.97780141 7:0.27844968 8:-0.61684009 9:-1 10:0.5239624 11:-0.37769176 12:-1 13:0.42638174 14:-1 15:-0.94057341 16:-0.91912599 17:-0.95096693 18:-0.91694422 19:-0.95184396 20:-0.91284602 21:-0.95137244 22:-0.92106623 23:-0.95165944 24:-0.92097682 25:-0.94922158 26:-0.89982921 27:-0.95360359 28:-0.92755127 29:-0.92951476 30:-0.90260016 31:-0.93058796 32:-0.91207535 33:-0.93652949 34:-0.85655406 35:-1 36:-1 37:-1 38:-1 39:-1 40:-0.99999998 41:-1 42:-0.99999999 43:-1 44:-1 45:-1 46:-1 47:-1 48:-1 49:-1 50:-0.99999995 51:-1 52:-0.99999999 53:-1 54:-1 55:-1 56:-1 57:-1 58:-1 59:-1 60:-0.99993259 61:-0.99999309 
8 1:-1 2:-1 3:-1 4:0.44949316 5:-0.20911274 6:-0.97798968 7:0.302249 8:-0.62752594 9:-1 10:0.52396259 11:-0.37769178 12:-1 13:0.42638166 14:-1 15:-0.93502525 16:-0.91334427 17:-0.94576736 18:-0.91011336 19:-0.94413037 20:-0.9015387 21:-0.95137244 22:-0.92106623 23:-0.9426682 24:-0.89571253 25:-0.94734537 26:-0.90058996 27:-0.95360359 28:-0.92755127 29:-0.92948471 30:-0.89250142 31:-0.92716036 32:-0.88775285 33:-0.93279283 34:-0.84863108 35:-1 36:-1 37:-1 38:-1 39:-1 40:-0.99999998 41:-1 42:-0.99999998 43:-1 44:-1 45:-1 46:-1 47:-1 48:-1 49:-1 50:-0.99999965 51:-0.99999998 52:-0.99999997 53:-0.99999999 54:-0.99999999 55:-1 56:-1 57:-1 58:-1 59:-1 60:-0.99993929 61:-0.99998843 
8 1:-1 2:-1 3:-1 4:0.44949308 5:-0.20914406 6:-0.97692623 7:0.30801475 8:-0.62540694 9:-1 10:0.523962 11:-0.37769159 12:-1 13:0.4263819 14:-1 15:-0.92707702 16:-0.90102649 17:-0.9442828 18:-0.89940522 19:-0.94507508 20:-0.89472318 21:-0.94994565 22:-0.91575679 23:-0.94391404 24:-0.89365587 25:-0.94596153 26:-0.89837104 27:-0.95360359 28:-0.92755127 29:-0.92348941 30:-0.90170237 31:-0.92779685 32:-0.87952636 33:-0.93208932 34:-0.83462355 35:-1 36:-1 37:-1 38:-1 39:-1 40:-0.99999999 41:-1 42:-0.99999999 43:-0.99999999 44:-1 45:-1 46:-1 47:-1 48:-1 49:-1 50:-0.99999944 51:-0.99999997 52:-0.99999997 53:-0.99999999 54:-1 55:-1 56:-1 57:-1 58:-1 59:-1 60:-0.99994345 61:-0.99998787 
