svm_type c_svc
kernel_type rbf
gamma 0.02
nr_class 2
total_sv 10
rho 0.61191
label 1 -1
probA -2.37954
probB 0.271405
nr_sv 5 5
SV
3.868597972998935 1:-0.99178255 2:1 3:1 4:-0.63072402 5:-0.84433432 6:-0.85259574 7:0.91084257 8:-0.97304337 9:-0.99890959 10:-0.99812124 11:-0.98971253 12:-0.9991707 13:-0.99493642 14:-0.99922698 15:-0.93569117 16:-0.92241681 17:-0.92904413 18:-0.9229148 19:-0.95759887 20:-0.94728707 21:-1 22:-1 23:-0.92133997 24:-0.90368619 25:-1 26:-1 27:-0.96081672 28:-0.96710418 29:-0.96686125 30:-0.96994215 31:-0.95406072 32:-0.95919969 33:-0.97639119 34:-0.99387161 35:-0.98584906 36:-0.96261682 37:-0.99186992 38:-0.99500832 39:-0.99580713 40:-0.99318801 41:-0.99797468 42:-0.990344 43:-0.98657718 44:-0.96774194 45:-0.81818182 46:0.076923077 47:0.16666667 48:-0.33333333 49:-0.77142857 50:-0.38461538 51:-0.85714286 52:0.5 53:-1 54:-0.77777778 55:-1 56:-1 57:0.2 58:-1 59:-1 60:0.20405926 61:-0.10525724 
0.0782914017833313 1:-0.98988622 2:0.81895096 3:0.80658613 4:-0.58443576 5:-0.96946027 6:-0.85014218 7:0.98215629 8:-0.94598004 9:-0.99882622 10:-0.99630727 11:-0.9906551 12:-1 13:-0.99371725 14:-1 15:-1 16:-1 17:-0.98861309 18:-0.97120595 19:-0.94928249 20:-0.92664843 21:-1 22:-1 23:-0.93435344 24:-0.91376439 25:-1 26:-1 27:-0.92706885 28:-0.89901432 29:-0.92041969 30:-0.90228798 31:-1 32:-1 33:-0.92695904 34:-0.98475787 35:-0.99764151 36:-1 37:-0.98780488 38:-0.99667221 39:-0.99790356 40:-0.99591281 41:-0.99696203 42:-0.993965 43:-0.9966443 44:-0.91935484 45:-0.63636364 46:0.53846154 47:0 48:-0.73333333 49:-0.88571429 50:-0.53846154 51:-0.85714286 52:-0.5 53:-0.45454545 54:1 55:0.71428571 56:1 57:1 58:0.33333333 59:0 60:0.4801683 61:0.60716906 
0.4252268953954709 1:-0.98609355 2:0.55307056 3:0.77417542 4:-0.57440436 5:-1 6:-0.85030256 7:1 8:-0.92570646 9:-0.99826855 10:-0.99621009 11:-0.99018697 12:-0.99977671 13:-0.99297649 14:-0.99979858 15:-0.97740194 16:-0.96801786 17:-1 18:-1 19:-0.9362761 20:-0.92615053 21:-1 22:-1 23:-0.92473529 24:-0.90796556 25:-1 26:-1 27:-0.91570604 28:-0.90154212 29:-0.92351803 30:-0.90341751 31:-1 32:-1 33:-0.7970981 34:-0.97383156 35:-0.99528302 36:-0.98130841 37:-0.99186992 38:-0.99833611 39:-0.99161426 40:-0.99182561 41:-0.99594937 42:-0.995172 43:-0.98322148 44:-0.90322581 45:-0.36363636 46:0.076923077 47:0.5 48:-0.33333333 49:-0.77142857 50:-1 51:-0.42857143 52:0 53:0.45454545 54:-0.33333333 55:0.14285714 56:0.5 57:0.2 58:1 59:0 60:0.70668886 61:0.48519142 
0.6706551679327631 1:-0.97682259 2:0.5087249 3:0.75931058 4:-0.57065417 5:-0.88820957 6:-0.84711963 7:0.94185747 8:-0.94703417 9:-0.99707845 10:-0.99800093 11:-0.99070996 12:-0.99871756 13:-0.98452933 14:-0.99878718 15:-0.95152996 16:-0.93012087 17:-0.94019867 18:-0.91614388 19:-0.93062599 20:-0.92781689 21:-0.93346621 22:-0.91049426 23:-0.92795945 24:-0.89467751 25:-0.90553532 26:-0.90520935 27:-0.80785408 28:-0.88609883 29:-0.96282497 30:-0.9730271 31:-0.95989525 32:-0.96528945 33:-0.97000892 34:-0.97899672 35:-0.98113208 36:-0.98130841 37:-0.98780488 38:-0.99667221 39:-0.9769392 40:-0.99455041 41:-0.99291139 42:-0.98792999 43:-0.96979866 44:-0.85483871 45:0.27272727 46:1 47:0 48:-0.86666667 49:-0.82857143 50:-0.69230769 51:1 52:1 53:-0.27272727 54:-0.55555556 55:1 56:0 57:0.6 58:-1 59:1 60:0.69693949 61:0.33595203 
2.4283165376892 1:-0.9721871 2:0.47664388 3:0.72708316 4:-0.55660859 5:-0.7761774 6:-0.85076468 7:0.88223105 8:-0.96337269 9:-0.99625906 10:-1 11:-0.98818082 12:-0.9982814 13:-0.97724217 14:-0.9983617 15:-0.94019771 16:-0.92611878 17:-0.93917502 18:-0.91416602 19:-0.92835624 20:-0.92963489 21:-0.93579237 22:-0.90999811 23:-0.93405516 24:-0.89349729 25:-0.91276691 26:-0.90461879 27:-0.80388097 28:-0.88625745 29:-0.95578943 30:-0.96953857 31:-0.96155498 32:-0.96636799 33:-0.9563938 34:-0.96247498 35:-0.96462264 36:-0.93457944 37:-0.98780488 38:-0.98668885 39:-0.98113208 40:-0.99318801 41:-0.98582278 42:-0.98792999 43:-0.94630872 44:-0.67741935 45:-0.27272727 46:-0.69230769 47:-1 48:-0.066666667 49:-0.71428571 50:1 51:0.42857143 52:-0.5 53:0.45454545 54:-1 55:0.71428571 56:-0.5 57:-0.6 58:-0.66666667 59:-1 60:0.81983973 61:0.25284272 
-0.3759786590092905 1:1 2:-0.88853456 3:-0.61694767 4:1 5:-0.63142092 6:-1 7:0.75559056 8:-0.98470957 9:1 10:1 11:1 12:1 13:1 14:1 15:1 16:1 17:1 18:1 19:1 20:1 21:1 22:1 23:1 24:1 25:1 26:1 27:1 28:1 29:1 30:1 31:1 32:1 33:1 34:1 35:1 36:1 37:1 38:1 39:1 40:1 41:1 42:1 43:1 44:1 45:-1 46:-1 47:-1 48:-1 49:-1 50:-1 51:-1 52:-1 53:-1 54:-1 55:-1 56:-1 57:-1 58:-1 59:-0.5 60:1 61:1 
-0.8154683746972813 1:-0.85061104 2:-0.7820374 3:-0.81423054 4:-0.022550257 5:-0.072791213 6:-0.60217912 7:0.051389361 8:-0.19466453 9:-0.82604802 10:-0.8837205 11:-1 12:-0.96672135 13:-0.94309858 14:-0.96612147 15:-0.27658446 16:-0.35218844 17:-0.64106697 18:-0.71077348 19:-0.62239769 20:-0.69218899 21:-0.6171204 22:-0.68254106 23:-0.63564859 24:-0.7051344 25:-0.65483916 26:-0.72330725 27:-0.66238245 28:-0.73062547 29:-0.66108949 30:-0.73784264 31:-0.67548503 32:-0.74165035 33:-0.85916922 34:-0.86815576 35:-0.077830189 36:-0.91588785 37:-0.89430894 38:-0.88685524 39:-0.86792453 40:-0.9346049 41:-0.94734177 42:-0.96137598 43:-0.89932886 44:-0.72580645 45:-0.81818182 46:-0.23076923 47:-0.83333333 48:-0.86666667 49:-0.94285714 50:-1 51:-0.71428571 52:-1 53:-1 54:-1 55:-1 56:-1 57:-1 58:-1 59:-1 60:-0.044940014 61:-0.62579381 
-1.990973364971689 1:-0.97492625 2:-1 3:-1 4:0.11524487 5:-0.59364337 6:-0.67045824 7:0.77573193 8:-1 9:-0.97602762 10:-0.99759371 11:-0.99166791 12:-0.99858681 13:-0.9701535 14:-0.99734025 15:-0.78278126 16:-0.79503081 17:-0.71138259 18:-0.71608417 19:-0.71332912 20:-0.71748416 21:-0.71987418 22:-0.72311689 23:-0.72881491 24:-0.73437291 25:-0.71854474 26:-0.72157668 27:-0.732657 28:-0.73647196 29:-0.70785162 30:-0.7098878 31:-0.72464459 32:-0.72579004 33:-0.8927124 34:-0.89288388 35:-1 36:-0.99065421 37:-1 38:-0.99500832 39:-1 40:-1 41:-0.99797468 42:-0.998793 43:-0.98993289 44:-0.96774194 45:1 46:0.84615385 47:1 48:1 49:1 50:1 51:0.57142857 52:0.5 53:1 54:-0.33333333 55:-0.14285714 56:0 57:-1 58:-1 59:-0.5 60:-0.77084148 61:-0.12606481 
-0.6225715157962536 1:-0.97808681 2:0.18171451 3:-0.26956721 4:-0.57951672 5:1 6:-0.23775555 7:-1 8:1 9:-0.99873439 10:-0.99685331 11:-0.98989052 12:-0.99654391 13:-1 14:-0.99675041 15:-0.50622368 16:-0.52688513 17:-1 18:-1 19:-1 20:-1 21:-1 22:-1 23:-1 24:-1 25:-1 26:-1 27:-1 28:-1 29:-1 30:-1 31:-1 32:-1 33:-1 34:-1 35:-0.68396226 36:-1 37:-1 38:-1 39:-0.98951782 40:-1 41:-1 42:-1 43:-1 44:-1 45:-1 46:-1 47:-1 48:-1 49:-1 50:-1 51:-1 52:-1 53:-1 54:-1 55:-1 56:-1 57:0.2 58:-1 59:-0.5 60:-1 61:-1 
-3.666096061325187 1:-1 2:0.59099515 3:-0.39794483 4:-1 5:-0.53376759 6:1 7:0.67328382 8:-0.99575564 9:-1 10:-0.9961106 11:-0.99062457 12:-0.99966283 13:-0.99285474 14:-0.99973584 15:-0.98665763 16:-0.98964532 17:-0.99724584 18:-0.98088097 19:-0.98959416 20:-0.98790696 21:-0.97693607 22:-0.96512804 23:-0.99214955 24:-0.98526952 25:-0.99734148 26:-0.97841089 27:-0.98926534 28:-0.99517765 29:-0.99215266 30:-0.98572413 31:-0.98913008 32:-0.98824719 33:-0.99882408 34:-0.99385535 35:-1 36:-1 37:-1 38:-1 39:-1 40:-1 41:-1 42:-0.998793 43:-0.99328859 44:-0.85483871 45:-0.45454545 46:-0.23076923 47:-0.33333333 48:-1 49:-0.82857143 50:-0.69230769 51:-0.28571429 52:-0.75 53:-1 54:-0.77777778 55:-1 56:-1 57:-1 58:-1 59:-1 60:-0.81595649 61:-0.49982867 
