svm_type c_svc
kernel_type rbf
gamma 0.02
nr_class 2
total_sv 592
rho 7.55948
label 1 -1
probA -1.50979
probB 0.428699
nr_sv 296 296
SV
8 1:-1 2:-1 3:-1 4:-0.38356864 5:0.49482328 6:-0.99926683 7:0.317557 8:-0.94848597 9:-1 10:0.95150566 11:0.19067767 12:-1 13:0.83164796 14:-1 15:-0.9862703 16:-0.99900702 17:-0.98904219 18:-0.99865469 19:-0.98856895 20:-0.99763603 21:-0.98801484 22:-0.99472735 23:-0.98922014 24:-0.99831454 25:-0.98972767 26:-0.99680585 27:-0.98991796 28:-0.99934535 29:-0.98752727 30:-0.9980436 31:-0.97469677 32:-0.99874133 33:-0.93594396 34:-0.99186848 35:-1 36:-1 37:-1 38:-1 39:-1 40:-1 41:-1 42:-1 43:-1 44:-1 45:-1 46:-1 47:-1 48:-1 49:-1 50:-1 51:-1 52:-1 53:-1 54:-1 55:-1 56:-1 57:-1 58:-1 59:-1 60:-0.99999028 61:-0.99999974 
8 1:-1 2:-1 3:-1 4:-0.38356864 5:0.49482715 6:-0.99926883 7:0.31744936 8:-0.94782284 9:-1 10:0.95182228 11:0.16737363 12:-1 13:0.83128588 14:-1 15:-0.98719826 16:-0.99922309 17:-0.99017977 18:-0.99900293 19:-0.98825326 20:-0.9974997 21:-0.99011222 22:-0.99932093 23:-0.99024186 24:-0.99843842 25:-0.99048859 26:-0.99565491 27:-0.99083354 28:-0.99946261 29:-0.9888456 30:-0.99844124 31:-0.97699829 32:-0.99889697 33:-0.93928626 34:-0.99188156 35:-1 36:-1 37:-1 38:-1 39:-1 40:-1 41:-1 42:-1 43:-1 44:-1 45:-1 46:-1 47:-1 48:-1 49:-1 50:-1 51:-1 52:-1 53:-1 54:-1 55:-1 56:-1 57:-1 58:-1 59:-1 60:-0.99999164 61:-0.99999976 
8 1:-1 2:-1 3:-1 4:-0.38356864 5:0.49482904 6:-0.99927333 7:0.31745399 8:-0.94749834 9:-1 10:0.95187504 11:0.21359593 12:-1 13:0.83118674 14:-1 15:-0.98700642 16:-0.99891512 17:-0.98954692 18:-0.99881687 19:-0.98963491 20:-0.99827682 21:-0.9896356 22:-0.9990716 23:-0.99002392 24:-0.99847272 25:-0.99092002 26:-0.99679567 27:-0.99104052 28:-0.99935465 29:-0.98842062 30:-0.99822321 31:-0.97760307 32:-0.99886413 33:-0.94480296 34:-0.99170733 35:-1 36:-1 37:-1 38:-1 39:-1 40:-1 41:-1 42:-1 43:-1 44:-1 45:-1 46:-1 47:-1 48:-1 49:-1 50:-1 51:-1 52:-1 53:-1 54:-1 55:-1 56:-1 57:-1 58:-1 59:-1 60:-0.99999135 61:-0.99999976 
8 1:-1 2:-1 3:-1 4:-0.38356864 5:0.49486174 6:-0.99927906 7:0.31632316 8:-0.93874477 9:-1 10:0.9527012 11:0.17482068 12:-1 13:0.83159623 14:-1 15:-0.98913932 16:-0.99924478 17:-0.99144509 18:-0.99924328 19:-0.9911131 20:-0.99857319 21:-0.99156708 22:-0.99939894 23:-0.99072365 24:-0.99836082 25:-0.99127745 26:-0.99680252 27:-0.99184197 28:-0.99940764 29:-0.99017721 30:-0.99847408 31:-0.98049713 32:-0.99889162 33:-0.9538641 34:-0.99223977 35:-1 36:-1 37:-1 38:-1 39:-1 40:-1 41:-1 42:-1 43:-1 44:-1 45:-1 46:-1 47:-1 48:-1 49:-1 50:-1 51:-1 52:-1 53:-1 54:-1 55:-1 56:-1 57:-1 58:-1 59:-1 60:-0.99999071 61:-0.99999975 
8 1:-1 2:-1 3:-1 4:-0.38356865 5:0.49496835 6:-0.99930324 7:0.31287479 8:-0.90635376 9:-1 10:0.95185306 11:0.17389798 12:-1 13:0.82740758 14:-1 15:-0.99432609 16:-0.99966454 17:-0.99595594 18:-0.99955927 19:-0.99543742 20:-0.99924383 21:-0.99497076 22:-0.99909355 23:-0.99612382 24:-0.99875425 25:-0.99714015 26:-0.99828663 27:-0.99654878 28:-0.99963354 29:-0.9955497 30:-0.99938937 31:-0.98916373 32:-0.99932681 33:-0.98178108 34:-0.9922437 35:-1 36:-1 37:-1 38:-1 39:-1 40:-1 41:-1 42:-1 43:-1 44:-1 45:-1 46:-1 47:-1 48:-1 49:-1 50:-1 51:-1 52:-1 53:-1 54:-1 55:-1 56:-1 57:-1 58:-1 59:-1 60:-0.9999875 61:-0.99999973 
8 1:-1 2:-0.99999999 3:-0.99999999 4:-0.38356801 5:0.49490562 6:-0.99942951 7:0.32596763 8:-0.64930803 9:-1 10:0.65288863 11:0.20340974 12:-1 13:0.15765765 14:-1 15:-0.95510437 16:-0.93908831 17:-0.96534676 18:-0.94001011 19:-0.96330176 20:-0.87642707 21:-0.96557237 22:-0.936958 23:-0.96504835 24:-0.93205799 25:-0.96568919 26:-0.87984829 27:-0.96440205 28:-0.94429023 29:-0.96329959 30:-0.88798784 31:-0.94221668 32:-0.92941611 33:-0.91718442 34:-0.94111127 35:-1 36:-1 37:-0.99999999 38:-0.99999989 39:-0.99999985 40:-0.99999995 41:-1 42:-1 43:-1 44:-1 45:-1 46:-0.99999999 47:-0.99999998 48:-0.99999998 49:-0.99999999 50:-0.99999999 51:-0.99999999 52:-1 53:-0.99999999 54:-0.99999999 55:-1 56:-1 57:-0.99999996 58:-1 59:-1 60:-0.9997161 61:-0.99998136 
8 1:-1 2:-0.99999999 3:-0.99999999 4:-0.38356828 5:0.49498789 6:-0.99942915 7:0.32608972 8:-0.64903247 9:-1 10:0.65288802 11:0.20341013 12:-1 13:0.15765643 14:-1 15:-0.95656762 16:-0.92085592 17:-0.96719197 18:-0.93088526 19:-0.96496059 20:-0.87228578 21:-0.96471932 22:-0.93840203 23:-0.96517792 24:-0.93278532 25:-0.96604539 26:-0.87977815 27:-0.96134735 28:-0.94447377 29:-0.96076816 30:-0.88359734 31:-0.94192383 32:-0.94018616 33:-0.91405925 34:-0.94100308 35:-1 36:-0.99999999 37:-0.99999999 38:-0.99999985 39:-0.99999989 40:-0.99999992 41:-1 42:-1 43:-1 44:-1 45:-1 46:-1 47:-0.99999998 48:-0.99999998 49:-0.99999999 50:-1 51:-0.99999999 52:-0.99999999 53:-1 54:-0.99999999 55:-0.99999999 56:-1 57:-0.99999995 58:-0.99999999 59:-1 60:-0.99971585 61:-0.99998238 
8 1:-1 2:-0.99999999 3:-0.99999999 4:-0.38356853 5:0.49494494 6:-0.99942127 7:0.32619877 8:-0.64892466 9:-1 10:0.65288819 11:0.20340789 12:-1 13:0.1576562 14:-1 15:-0.95907829 16:-0.93005761 17:-0.96540575 18:-0.93304549 19:-0.9617361 20:-0.88076689 21:-0.96314554 22:-0.94264016 23:-0.96394474 24:-0.93372043 25:-0.96531946 26:-0.87347654 27:-0.96727009 28:-0.94576902 29:-0.96172619 30:-0.88738295 31:-0.94191296 32:-0.94068181 33:-0.91497897 34:-0.94186686 35:-0.99999999 36:-0.99999998 37:-1 38:-0.99999995 39:-0.99999998 40:-0.99999994 41:-1 42:-1 43:-1 44:-1 45:-1 46:-0.99999999 47:-0.99999998 48:-0.99999999 49:-0.99999999 50:-1 51:-0.99999999 52:-0.99999999 53:-1 54:-1 55:-1 56:-1 57:-0.99999995 58:-0.99999999 59:-1 60:-0.99972026 61:-0.9999826 
8 1:-1 2:-0.99999999 3:-0.99999999 4:-0.38356879 5:0.4947349 6:-0.99940241 7:0.3277337 8:-0.64483046 9:-1 10:0.65288811 11:0.20340788 12:-1 13:0.1576582 14:-1 15:-0.95509877 16:-0.94419945 17:-0.96427899 18:-0.94791398 19:-0.96053131 20:-0.89577124 21:-0.96192853 22:-0.94655096 23:-0.96390093 24:-0.936628 25:-0.96337482 26:-0.87505888 27:-0.96861403 28:-0.94560645 29:-0.96294887 30:-0.88872549 31:-0.94119652 32:-0.94033941 33:-0.91791852 34:-0.94189356 35:-1 36:-0.99999999 37:-1 38:-0.9999999 39:-0.99999989 40:-0.99999994 41:-1 42:-1 43:-1 44:-1 45:-1 46:-0.99999999 47:-0.99999998 48:-0.99999998 49:-0.99999999 50:-1 51:-0.99999999 52:-1 53:-1 54:-1 55:-1 56:-1 57:-0.99999999 58:-1 59:-1 60:-0.99972656 61:-0.99998322 
8 1:-1 2:-0.99999999 3:-0.99999999 4:-0.38356907 5:0.49496624 6:-0.99936037 7:0.32612717 8:-0.64844449 9:-1 10:0.65288736 11:0.20340411 12:-1 13:0.15765791 14:-1 15:-0.9511579 16:-0.93205351 17:-0.96339702 18:-0.93558566 19:-0.96136125 20:-0.882313 21:-0.96289964 22:-0.94595735 23:-0.96435682 24:-0.93701853 25:-0.96274838 26:-0.87481396 27:-0.96779137 28:-0.9412076 29:-0.95992179 30:-0.87912099 31:-0.94181836 32:-0.94103707 33:-0.91899555 34:-0.94287756 35:-1 36:-0.99999998 37:-0.99999999 38:-0.99999991 39:-0.9999998 40:-0.99999991 41:-1 42:-1 43:-1 44:-1 45:-1 46:-0.99999999 47:-0.99999998 48:-0.99999998 49:-0.99999999 50:-1 51:-0.99999999 52:-1 53:-1 54:-1 55:-0.99999999 56:-1 57:-0.99999993 58:-0.99999998 59:-1 60:-0.9997002 61:-0.99998375 
8 1:-1 2:-0.99999999 3:-0.99999999 4:-0.38356931 5:0.49489101 6:-0.99931695 7:0.32712574 8:-0.64793804 9:-1 10:0.65288835 11:0.20341051 12:-1 13:0.15765769 14:-1 15:-0.95308178 16:-0.93553727 17:-0.96351912 18:-0.9375602 19:-0.96185104 20:-0.89155757 21:-0.96410493 22:-0.94286388 23:-0.96194334 24:-0.93593809 25:-0.96343571 26:-0.88350454 27:-0.96814042 28:-0.93870615 29:-0.96109652 30:-0.88249361 31:-0.94147301 32:-0.94073788 33:-0.91974674 34:-0.94225938 35:-0.99999999 36:-0.99999999 37:-0.99999999 38:-0.99999992 39:-0.99999982 40:-0.99999986 41:-1 42:-1 43:-1 44:-1 45:-1 46:-0.99999999 47:-0.99999999 48:-0.99999998 49:-0.99999999 50:-1 51:-0.99999999 52:-0.99999999 53:-1 54:-1 55:-0.99999999 56:-1 57:-0.99999996 58:-0.99999999 59:-1 60:-0.99970455 61:-0.99998441 
8 1:-1 2:-0.99999999 3:-0.99999999 4:-0.38356958 5:0.49487721 6:-0.99925177 7:0.32760419 8:-0.64849457 9:-1 10:0.65288891 11:0.20340543 12:-1 13:0.15765766 14:-1 15:-0.95514965 16:-0.94198686 17:-0.96503753 18:-0.94288245 19:-0.96294211 20:-0.87643213 21:-0.96571838 22:-0.93588866 23:-0.96569105 24:-0.93120097 25:-0.96330038 26:-0.87350282 27:-0.96766407 28:-0.94341039 29:-0.9594634 30:-0.88304317 31:-0.94245808 32:-0.94082086 33:-0.91608194 34:-0.94316183 35:-0.99999999 36:-0.99999999 37:-0.99999999 38:-0.99999988 39:-0.99999985 40:-0.99999995 41:-1 42:-1 43:-1 44:-1 45:-1 46:-0.99999999 47:-0.99999998 48:-0.99999999 49:-0.99999999 50:-1 51:-0.99999999 52:-0.99999999 53:-1 54:-1 55:-1 56:-1 57:-0.99999996 58:-0.99999999 59:-1 60:-0.99970289 61:-0.99998292 
8 1:-1 2:-0.99999999 3:-0.99999999 4:-0.38356975 5:0.49482837 6:-0.99918966 7:0.32885707 8:-0.64645211 9:-1 10:0.65288817 11:0.2034114 12:-1 13:0.15766072 14:-1 15:-0.95686081 16:-0.94331803 17:-0.96558991 18:-0.94115236 19:-0.96251042 20:-0.88393355 21:-0.96400495 22:-0.941483 23:-0.96443388 24:-0.93360352 25:-0.96614623 26:-0.87822645 27:-0.96010974 28:-0.94226664 29:-0.95339891 30:-0.87268702 31:-0.94038277 32:-0.93011848 33:-0.91748684 34:-0.94104836 35:-1 36:-0.99999999 37:-0.99999999 38:-0.99999969 39:-0.99999982 40:-0.99999995 41:-1 42:-1 43:-1 44:-1 45:-1 46:-0.99999999 47:-0.99999999 48:-0.99999998 49:-0.99999999 50:-1 51:-0.99999999 52:-1 53:-1 54:-0.99999999 55:-0.99999999 56:-1 57:-0.99999992 58:-0.99999999 59:-1 60:-0.99971411 61:-0.99998538 
8 1:-1 2:-0.99999999 3:-0.99999999 4:-0.38356962 5:0.49478766 6:-0.99922585 7:0.3294351 8:-0.64713509 9:-1 10:0.65288797 11:0.20340939 12:-1 13:0.15765709 14:-1 15:-0.95973199 16:-0.94920765 17:-0.96106201 18:-0.94747759 19:-0.96313695 20:-0.88613174 21:-0.96381423 22:-0.9399873 23:-0.96536619 24:-0.93405117 25:-0.96578481 26:-0.87892624 27:-0.96636712 28:-0.93811203 29:-0.9642621 30:-0.90581041 31:-0.94319681 32:-0.94022657 33:-0.91458486 34:-0.9407684 35:-1 36:-0.99999999 37:-1 38:-0.99999997 39:-0.99999996 40:-0.99999995 41:-1 42:-1 43:-1 44:-1 45:-1 46:-1 47:-0.99999998 48:-0.99999997 49:-0.99999999 50:-1 51:-0.99999999 52:-1 53:-1 54:-0.99999999 55:-1 56:-1 57:-0.99999999 58:-1 59:-1 60:-0.99972062 61:-0.99998234 
8 1:-1 2:-0.99999999 3:-0.99999999 4:-0.3835694 5:0.49466984 6:-0.99927591 7:0.33103312 8:-0.64076162 9:-1 10:0.65288794 11:0.2034097 12:-1 13:0.15765803 14:-1 15:-0.96095634 16:-0.95053937 17:-0.96428196 18:-0.94596033 19:-0.9638754 20:-0.89548493 21:-0.96444142 22:-0.94103705 23:-0.9643119 24:-0.93353805 25:-0.96542678 26:-0.88116776 27:-0.95951714 28:-0.93869891 29:-0.95265198 30:-0.87489569 31:-0.95046096 32:-0.93572281 33:-0.91829532 34:-0.93971662 35:-0.99999999 36:-1 37:-0.99999999 38:-0.99999994 39:-0.99999989 40:-0.99999994 41:-1 42:-1 43:-1 44:-1 45:-1 46:-0.99999999 47:-0.99999998 48:-0.99999997 49:-0.99999999 50:-1 51:-0.99999999 52:-1 53:-1 54:-1 55:-0.99999999 56:-1 57:-0.99999998 58:-1 59:-1 60:-0.99968183 61:-0.99998482 
8 1:-1 2:-0.99999999 3:-0.99999999 4:-0.38356926 5:0.49482061 6:-0.99930867 7:0.32826727 8:-0.64701952 9:-1 10:0.65288848 11:0.20340734 12:-1 13:0.15765771 14:-1 15:-0.95258728 16:-0.94636653 17:-0.96358976 18:-0.94321845 19:-0.96354236 20:-0.87819606 21:-0.96574438 22:-0.93617069 23:-0.96459607 24:-0.93076346 25:-0.96594596 26:-0.87831364 27:-0.96138821 28:-0.94472599 29:-0.95391987 30:-0.87310124 31:-0.95134507 32:-0.94475181 33:-0.91614453 34:-0.93943714 35:-0.99999999 36:-0.99999999 37:-1 38:-0.99999989 39:-0.9999998 40:-0.9999999 41:-1 42:-1 43:-1 44:-1 45:-1 46:-0.99999999 47:-0.99999998 48:-0.99999996 49:-0.99999999 50:-1 51:-0.99999999 52:-1 53:-1 54:-1 55:-0.99999999 56:-1 57:-0.99999997 58:-1 59:-1 60:-0.99970623 61:-0.999984 
8 1:-1 2:-0.99999999 3:-0.99999999 4:-0.38356907 5:0.49485653 6:-0.99934736 7:0.32743188 8:-0.64768117 9:-1 10:0.65288671 11:0.20341231 12:-1 13:0.15765918 14:-1 15:-0.94806006 16:-0.92985057 17:-0.96290134 18:-0.93151994 19:-0.96326208 20:-0.8673776 21:-0.96383754 22:-0.93516278 23:-0.96487616 24:-0.92904951 25:-0.96370698 26:-0.87607898 27:-0.96701656 28:-0.94457935 29:-0.95233459 30:-0.8728815 31:-0.94643746 32:-0.92766951 33:-0.91554804 34:-0.93954854 35:-0.99999999 36:-0.99999998 37:-0.99999999 38:-0.99999985 39:-0.99999983 40:-0.9999999 41:-1 42:-1 43:-1 44:-1 45:-1 46:-0.99999997 47:-0.99999997 48:-0.99999997 49:-0.99999999 50:-1 51:-0.99999999 52:-1 53:-1 54:-1 55:-1 56:-1 57:-0.99999999 58:-1 59:-1 60:-0.99970512 61:-0.99998389 
8 1:-1 2:-0.99999999 3:-0.99999999 4:-0.38356884 5:0.49483786 6:-0.99938124 7:0.32723232 8:-0.64693471 9:-1 10:0.65288876 11:0.20340947 12:-1 13:0.15765905 14:-1 15:-0.95118782 16:-0.92095136 17:-0.96285072 18:-0.92333806 19:-0.96194456 20:-0.85705795 21:-0.96461148 22:-0.93277899 23:-0.96540543 24:-0.9278978 25:-0.96614378 26:-0.87634952 27:-0.96071486 28:-0.94370983 29:-0.95274621 30:-0.8713408 31:-0.9396914 32:-0.92942906 33:-0.91839084 34:-0.9399166 35:-0.99999999 36:-0.99999999 37:-0.99999999 38:-0.99999985 39:-0.99999994 40:-0.99999991 41:-1 42:-1 43:-1 44:-1 45:-1 46:-0.99999999 47:-0.99999998 48:-0.99999996 49:-0.99999999 50:-1 51:-0.99999999 52:-1 53:-1 54:-1 55:-0.99999999 56:-1 57:-0.99999999 58:-1 59:-1 60:-0.9996813 61:-0.99998444 
8 1:-1 2:-0.99999999 3:-0.99999999 4:-0.38356744 5:0.49484051 6:-0.99938186 7:0.32505278 8:-0.64636286 9:-1 10:0.65288805 11:0.20340826 12:-1 13:0.15765877 14:-1 15:-0.95966493 16:-0.93565117 17:-0.96957123 18:-0.9519066 19:-0.96773494 20:-0.8966316 21:-0.96691361 22:-0.9381245 23:-0.97054991 24:-0.9500916 25:-0.96775843 26:-0.87453027 27:-0.96877146 28:-0.94410074 29:-0.96256089 30:-0.8875422 31:-0.93830606 32:-0.92649238 33:-0.90167392 34:-0.93278234 35:-0.99999999 36:-1 37:-1 38:-0.99999997 39:-0.99999993 40:-0.99999998 41:-1 42:-1 43:-1 44:-1 45:-1 46:-0.99999999 47:-0.99999999 48:-0.99999999 49:-1 50:-1 51:-1 52:-1 53:-0.99999999 54:-1 55:-0.99999999 56:-1 57:-0.99999995 58:-0.99999999 59:-1 60:-0.99968433 61:-0.99998432 
8 1:-1 2:-0.99999999 3:-0.99999999 4:-0.38356742 5:0.49517038 6:-0.99937989 7:0.32778808 8:-0.64768214 9:-1 10:0.65288821 11:0.20340901 12:-1 13:0.15765774 14:-1 15:-0.96146016 16:-0.92712535 17:-0.97019189 18:-0.954218 19:-0.96773506 20:-0.8980281 21:-0.96888834 22:-0.94862958 23:-0.96767577 24:-0.93255617 25:-0.9709719 26:-0.91025382 27:-0.96837566 28:-0.94409242 29:-0.96312337 30:-0.88761546 31:-0.95049791 32:-0.94738347 33:-0.92453796 34:-0.94736059 35:-1 36:-1 37:-1 38:-0.99999998 39:-0.99999998 40:-0.99999999 41:-1 42:-1 43:-1 44:-1 45:-1 46:-0.99999999 47:-0.99999999 48:-0.99999999 49:-0.99999999 50:-1 51:-0.99999999 52:-1 53:-1 54:-1 55:-1 56:-1 57:-0.99999999 58:-1 59:-1 60:-0.9997271 61:-0.99998108 
8 1:-1 2:-0.99999999 3:-0.99999999 4:-0.38356724 5:0.49437856 6:-0.99935447 7:0.3200061 8:-0.62666847 9:-1 10:0.65288827 11:0.20340849 12:-1 13:0.15765805 14:-1 15:-0.96491418 16:-0.95474001 17:-0.96850075 18:-0.94235989 19:-0.96706938 20:-0.87771664 21:-0.97031119 22:-0.95467258 23:-0.96767492 24:-0.93506159 25:-0.96767749 26:-0.88274653 27:-0.9689382 28:-0.95171026 29:-0.96074804 30:-0.8718591 31:-0.93832824 32:-0.93280145 33:-0.92321503 34:-0.94221275 35:-0.99999999 36:-1 37:-1 38:-0.99999995 39:-0.99999998 40:-0.99999999 41:-1 42:-1 43:-1 44:-1 45:-1 46:-0.99999999 47:-0.99999999 48:-0.99999999 49:-0.99999999 50:-1 51:-0.99999999 52:-1 53:-1 54:-1 55:-0.99999999 56:-1 57:-0.99999997 58:-0.99999999 59:-1 60:-0.99969558 61:-0.99998269 
8 1:-1 2:-0.99999999 3:-0.99999999 4:-0.38356715 5:0.49426996 6:-0.99933995 7:0.31827157 8:-0.61880128 9:-1 10:0.65288809 11:0.2034087 12:-1 13:0.15765759 14:-1 15:-0.9640219 16:-0.95174929 17:-0.96820377 18:-0.939965 19:-0.96912812 20:-0.9089352 21:-0.96832583 22:-0.94148355 23:-0.9682312 24:-0.93777884 25:-0.97010452 26:-0.88558956 27:-0.962941 28:-0.93734764 29:-0.96656396 30:-0.91504274 31:-0.94164213 32:-0.93531479 33:-0.9217733 34:-0.94149072 35:-1 36:-0.99999999 37:-1 38:-0.99999996 39:-0.99999998 40:-0.99999998 41:-1 42:-1 43:-1 44:-1 45:-1 46:-0.99999999 47:-0.99999999 48:-0.99999999 49:-0.99999999 50:-1 51:-0.99999999 52:-1 53:-1 54:-1 55:-1 56:-1 57:-0.99999998 58:-0.99999999 59:-1 60:-0.9997186 61:-0.99998207 
8 1:-1 2:-0.99999999 3:-0.99999999 4:-0.38356706 5:0.49431255 6:-0.99932258 7:0.31806915 8:-0.62239386 9:-1 10:0.65288825 11:0.20340832 12:-1 13:0.15765813 14:-1 15:-0.96465784 16:-0.95410054 17:-0.96796664 18:-0.93993447 19:-0.96912812 20:-0.9089352 21:-0.96775309 22:-0.94066919 23:-0.96835393 24:-0.93706311 25:-0.96995461 26:-0.90816105 27:-0.96285635 28:-0.93913768 29:-0.96656396 30:-0.91504274 31:-0.93894609 32:-0.93369583 33:-0.92254494 34:-0.94149917 35:-1 36:-1 37:-1 38:-0.99999999 39:-0.99999996 40:-0.99999996 41:-1 42:-1 43:-1 44:-1 45:-1 46:-0.99999999 47:-0.99999999 48:-0.99999999 49:-1 50:-1 51:-0.99999999 52:-1 53:-1 54:-1 55:-0.99999999 56:-1 57:-0.99999996 58:-0.99999999 59:-1 60:-0.999733 61:-0.99998077 
8 1:-1 2:-0.99999999 3:-0.99999999 4:-0.38356691 5:0.49471121 6:-0.99928958 7:0.32248821 8:-0.64489065 9:-1 10:0.65288816 11:0.20340746 12:-1 13:0.15765845 14:-1 15:-0.96256239 16:-0.94164245 17:-0.96988108 18:-0.95190451 19:-0.9676392 20:-0.89673804 21:-0.96532136 22:-0.94772254 23:-0.9669322 24:-0.9338627 25:-0.96899159 26:-0.88253796 27:-0.96813957 28:-0.94565274 29:-0.9572621 30:-0.87650084 31:-0.9387445 32:-0.93226152 33:-0.91957368 34:-0.94185373 35:-0.99999999 36:-1 37:-1 38:-0.99999997 39:-0.99999991 40:-0.99999996 41:-1 42:-1 43:-1 44:-1 45:-1 46:-1 47:-0.99999999 48:-0.99999999 49:-0.99999999 50:-1 51:-0.99999999 52:-1 53:-1 54:-1 55:-1 56:-1 57:-0.99999995 58:-0.99999999 59:-1 60:-0.99970947 61:-0.99998323 
8 1:-1 2:-0.99999999 3:-0.99999999 4:-0.38356681 5:0.49472727 6:-0.99925536 7:0.32220882 8:-0.64385573 9:-1 10:0.65288835 11:0.20340818 12:-1 13:0.15765775 14:-1 15:-0.95797899 16:-0.95156501 17:-0.96315205 18:-0.94595908 19:-0.96344394 20:-0.881127 21:-0.96638538 22:-0.93860253 23:-0.96711841 24:-0.93271034 25:-0.96575798 26:-0.87903212 27:-0.96304188 28:-0.93873726 29:-0.95574834 30:-0.88922857 31:-0.94699931 32:-0.94475005 33:-0.92424903 34:-0.9439737 35:-0.99999999 36:-0.99999999 37:-1 38:-0.99999997 39:-0.99999991 40:-0.99999997 41:-1 42:-1 43:-1 44:-1 45:-1 46:-0.99999999 47:-0.99999999 48:-0.99999999 49:-0.99999999 50:-1 51:-0.99999999 52:-1 53:-1 54:-1 55:-0.99999999 56:-1 57:-0.99999999 58:-0.99999999 59:-1 60:-0.99970433 61:-0.99998311 
8 1:-1 2:-0.99999999 3:-0.99999999 4:-0.38356673 5:0.49486559 6:-0.99920279 7:0.32410356 8:-0.64789983 9:-1 10:0.65288844 11:0.20340734 12:-1 13:0.15765765 14:-1 15:-0.94763728 16:-0.94235828 17:-0.95716697 18:-0.93970147 19:-0.96146426 20:-0.87853996 21:-0.96453378 22:-0.93999593 23:-0.9660104 24:-0.93199509 25:-0.96711923 26:-0.87852449 27:-0.96188276 28:-0.94335883 29:-0.95517734 30:-0.87352977 31:-0.94735616 32:-0.93768834 33:-0.91838221 34:-0.94110004 35:-0.99999999 36:-0.99999999 37:-0.99999999 38:-0.99999991 39:-0.99999996 40:-0.99999995 41:-1 42:-1 43:-1 44:-1 45:-1 46:-0.99999999 47:-0.99999998 48:-0.99999997 49:-0.99999999 50:-1 51:-0.99999999 52:-1 53:-1 54:-0.99999999 55:-1 56:-1 57:-0.99999996 58:-1 59:-1 60:-0.99969109 61:-0.99998359 
8 1:-1 2:-0.99999999 3:-0.99999999 4:-0.3835667 5:0.49472914 6:-0.99918411 7:0.32111508 8:-0.64424282 9:-1 10:0.65288866 11:0.20340868 12:-1 13:0.15765827 14:-1 15:-0.96216289 16:-0.95054342 17:-0.96539836 18:-0.93935801 19:-0.96678342 20:-0.89135919 21:-0.96782117 22:-0.9374749 23:-0.96705331 24:-0.93258244 25:-0.9664115 26:-0.87871223 27:-0.96278083 28:-0.93811544 29:-0.95553781 30:-0.88227522 31:-0.95022945 32:-0.94637248 33:-0.91890899 34:-0.94142427 35:-0.99999999 36:-1 37:-0.99999999 38:-0.99999991 39:-0.99999987 40:-0.99999992 41:-1 42:-1 43:-1 44:-1 45:-1 46:-0.99999998 47:-0.99999998 48:-0.99999997 49:-0.99999999 50:-1 51:-0.99999999 52:-1 53:-0.99999999 54:-0.99999999 55:-1 56:-1 57:-0.99999998 58:-0.99999999 59:-1 60:-0.99971123 61:-0.99998289 
8 1:-1 2:-1 3:-0.99999999 4:-0.38356683 5:0.49489325 6:-0.99916684 7:0.32426866 8:-0.64719863 9:-1 10:0.65288849 11:0.2034062 12:-1 13:0.15765691 14:-1 15:-0.95371796 16:-0.93611852 17:-0.96366823 18:-0.94216891 19:-0.96094703 20:-0.88203079 21:-0.96440981 22:-0.94066197 23:-0.96496512 24:-0.93229934 25:-0.96601047 26:-0.87642097 27:-0.96234464 28:-0.93773216 29:-0.95349339 30:-0.88072792 31:-0.93501661 32:-0.93451251 33:-0.91691534 34:-0.94038531 35:-0.99999999 36:-0.99999999 37:-0.99999999 38:-0.99999991 39:-0.99999982 40:-0.99999991 41:-1 42:-1 43:-1 44:-1 45:-1 46:-0.99999998 47:-0.99999999 48:-0.99999996 49:-0.99999999 50:-1 51:-0.99999998 52:-1 53:-1 54:-0.99999999 55:-0.99999999 56:-1 57:-0.99999994 58:-0.99999999 59:-1 60:-0.99968923 61:-0.99998468 
8 1:-1 2:-1 3:-0.99999999 4:-0.38356639 5:0.49635839 6:-0.99899667 7:0.36860592 8:-0.45819405 9:-1 10:0.6528882 11:0.2034084 12:-1 13:0.15765789 14:-1 15:-0.95925777 16:-0.94220974 17:-0.96700219 18:-0.95333248 19:-0.96912812 20:-0.9089352 21:-0.97031119 22:-0.95467258 23:-0.97054991 24:-0.9500916 25:-0.9709719 26:-0.91025382 27:-0.97119279 28:-0.95836724 29:-0.96656396 30:-0.91504274 31:-0.95272124 32:-0.95140666 33:-0.92151428 34:-0.948764 35:-1 36:-1 37:-1 38:-0.99999999 39:-0.99999998 40:-0.99999999 41:-1 42:-1 43:-1 44:-1 45:-1 46:-1 47:-1 48:-1 49:-1 50:-1 51:-1 52:-1 53:-1 54:-1 55:-1 56:-1 57:-0.99999999 58:-1 59:-1 60:-0.99986914 61:-0.99999743 
8 1:-1 2:-0.99999999 3:-0.99999999 4:-0.38356635 5:0.4963453 6:-0.99897567 7:0.3692269 8:-0.46201022 9:-1 10:0.65288817 11:0.20340844 12:-1 13:0.15765791 14:-1 15:-0.95620496 16:-0.94518264 17:-0.97019189 18:-0.954218 19:-0.96912812 20:-0.9089352 21:-0.97031119 22:-0.95467258 23:-0.97054991 24:-0.9500916 25:-0.9709719 26:-0.91025382 27:-0.97119279 28:-0.95836724 29:-0.96656396 30:-0.91504274 31:-0.95272124 32:-0.95140666 33:-0.9261709 34:-0.94908025 35:-1 36:-1 37:-1 38:-0.99999999 39:-0.99999996 40:-0.99999999 41:-1 42:-1 43:-1 44:-1 45:-1 46:-1 47:-1 48:-1 49:-1 50:-1 51:-1 52:-1 53:-1 54:-1 55:-1 56:-1 57:-0.99999999 58:-1 59:-1 60:-0.99985904 61:-0.99999723 
8 1:-1 2:-0.99999999 3:-0.99999999 4:-0.38356634 5:0.49631268 6:-0.99896673 7:0.36889993 8:-0.4682394 9:-1 10:0.6528882 11:0.20340844 12:-1 13:0.15765791 14:-1 15:-0.95508615 16:-0.9430118 17:-0.97019189 18:-0.954218 19:-0.96912812 20:-0.9089352 21:-0.96975031 22:-0.95431445 23:-0.97054991 24:-0.9500916 25:-0.9709719 26:-0.91025382 27:-0.97119279 28:-0.95836724 29:-0.96656396 30:-0.91504274 31:-0.95272124 32:-0.95140666 33:-0.9261709 34:-0.94908025 35:-1 36:-1 37:-1 38:-0.99999998 39:-0.99999996 40:-0.99999999 41:-1 42:-1 43:-1 44:-1 45:-1 46:-1 47:-1 48:-1 49:-1 50:-1 51:-1 52:-1 53:-1 54:-1 55:-1 56:-1 57:-0.99999999 58:-0.99999999 59:-1 60:-0.99985105 61:-0.99999649 
8 1:-1 2:-1 3:-1 4:-0.38356645 5:0.49600878 6:-0.99890763 7:0.36524975 8:-0.51342409 9:-1 10:0.65288821 11:0.20340846 12:-1 13:0.15765796 14:-1 15:-0.94350808 16:-0.94635269 17:-0.96419486 18:-0.95347967 19:-0.96408783 20:-0.90811786 21:-0.96789616 22:-0.95456285 23:-0.96279695 24:-0.94924231 25:-0.96863018 26:-0.90998955 27:-0.97103392 28:-0.95772315 29:-0.95965134 30:-0.91413126 31:-0.95272124 32:-0.95140666 33:-0.91954251 34:-0.9483094 35:-1 36:-1 37:-1 38:-0.99999998 39:-0.99999998 40:-0.99999997 41:-1 42:-1 43:-1 44:-1 45:-1 46:-1 47:-1 48:-1 49:-1 50:-1 51:-1 52:-1 53:-1 54:-1 55:-0.99999999 56:-1 57:-0.99999997 58:-0.99999998 59:-1 60:-0.99981063 61:-0.99999177 
8 1:-1 2:-1 3:-0.99999999 4:-0.38356645 5:0.49619978 6:-0.99895688 7:0.36841048 8:-0.47488848 9:-1 10:0.65288824 11:0.20340852 12:-1 13:0.15765789 14:-1 15:-0.94356512 16:-0.94439791 17:-0.96726559 18:-0.95313667 19:-0.96495721 20:-0.90756126 21:-0.97031119 22:-0.95467258 23:-0.96869791 24:-0.94987488 25:-0.96601584 26:-0.90962215 27:-0.96895634 28:-0.95823336 29:-0.96656396 30:-0.91504274 31:-0.95272124 32:-0.95140666 33:-0.91205922 34:-0.9481261 35:-0.99999999 36:-1 37:-1 38:-0.99999999 39:-0.99999996 40:-0.99999999 41:-1 42:-1 43:-1 44:-1 45:-1 46:-1 47:-1 48:-1 49:-1 50:-1 51:-1 52:-1 53:-1 54:-1 55:-1 56:-1 57:-0.99999999 58:-0.99999999 59:-1 60:-0.99983881 61:-0.99999586 
8 1:-1 2:-0.99999999 3:-0.99999999 4:-0.3835687 5:0.49469579 6:-0.99941575 7:0.32733553 8:-0.64449435 9:-1 10:0.65288817 11:0.2034099 12:-1 13:0.15765796 14:-1 15:-0.9589775 16:-0.94473834 17:-0.96542548 18:-0.94029888 19:-0.96299669 20:-0.88002187 21:-0.96637915 22:-0.93779582 23:-0.96712198 24:-0.93180615 25:-0.9709719 26:-0.91025382 27:-0.96422995 28:-0.9434326 29:-0.9562155 30:-0.8721924 31:-0.93784582 32:-0.93414158 33:-0.91709935 34:-0.940977 35:-1 36:-0.99999998 37:-0.99999999 38:-0.99999993 39:-0.99999982 40:-0.99999994 41:-1 42:-1 43:-1 44:-1 45:-1 46:-0.99999998 47:-0.99999998 48:-0.99999998 49:-0.99999999 50:-1 51:-1 52:-1 53:-1 54:-1 55:-1 56:-1 57:-0.99999999 58:-1 59:-1 60:-0.99971797 61:-0.9999842 
8 1:-1 2:-0.99999999 3:-0.99999999 4:-0.38356864 5:0.49469116 6:-0.9994192 7:0.3271509 8:-0.64430684 9:-1 10:0.65288849 11:0.20340732 12:-1 13:0.15765453 14:-1 15:-0.9458125 16:-0.94230328 17:-0.9617229 18:-0.93848911 19:-0.96613347 20:-0.87607988 21:-0.96781018 22:-0.9373874 23:-0.97054991 24:-0.9500916 25:-0.96655181 26:-0.87567223 27:-0.96620519 28:-0.94151712 29:-0.95619299 30:-0.8724465 31:-0.95132314 32:-0.93711918 33:-0.92138441 34:-0.94253033 35:-1 36:-0.99999997 37:-0.99999999 38:-0.99999991 39:-0.99999991 40:-0.99999992 41:-1 42:-1 43:-1 44:-1 45:-1 46:-0.99999998 47:-0.99999998 48:-0.99999999 49:-1 50:-1 51:-0.99999999 52:-1 53:-1 54:-1 55:-1 56:-1 57:-0.99999999 58:-1 59:-1 60:-0.99971955 61:-0.99998612 
8 1:-1 2:-0.99999999 3:-0.99999999 4:-0.38356855 5:0.49477596 6:-0.99942356 7:0.3266382 8:-0.64612462 9:-1 10:0.65288859 11:0.20340915 12:-1 13:0.15765848 14:-1 15:-0.94461235 16:-0.94078338 17:-0.96011139 18:-0.93807502 19:-0.96355451 20:-0.87655201 21:-0.9670536 22:-0.93758679 23:-0.97054991 24:-0.9500916 25:-0.96705472 26:-0.87799045 27:-0.96596775 28:-0.94265013 29:-0.95587366 30:-0.87471361 31:-0.94956205 32:-0.94558926 33:-0.91728877 34:-0.94012932 35:-1 36:-0.99999998 37:-0.99999999 38:-0.99999993 39:-0.99999987 40:-0.99999992 41:-1 42:-1 43:-1 44:-1 45:-1 46:-0.99999999 47:-0.99999997 48:-0.99999998 49:-1 50:-1 51:-1 52:-1 53:-1 54:-1 55:-1 56:-1 57:-0.99999998 58:-1 59:-1 60:-0.99970756 61:-0.99998525 
8 1:-1 2:-0.99999999 3:-0.99999999 4:-0.38356848 5:0.49480102 6:-0.99942776 7:0.32646171 8:-0.64737436 9:-1 10:0.65288792 11:0.20340652 12:-1 13:0.15765688 14:-1 15:-0.95459068 16:-0.93873839 17:-0.96482789 18:-0.93840035 19:-0.96450137 20:-0.87779102 21:-0.96680803 22:-0.93716402 23:-0.97054991 24:-0.9500916 25:-0.96745422 26:-0.87539079 27:-0.96694727 28:-0.94382894 29:-0.95598864 30:-0.87369961 31:-0.9489171 32:-0.94542118 33:-0.91657411 34:-0.94102091 35:-1 36:-0.99999998 37:-0.99999999 38:-0.99999994 39:-0.99999991 40:-0.99999991 41:-1 42:-1 43:-1 44:-1 45:-1 46:-0.99999999 47:-0.99999998 48:-0.99999998 49:-0.99999999 50:-1 51:-1 52:-1 53:-1 54:-1 55:-1 56:-1 57:-0.99999999 58:-1 59:-1 60:-0.99968054 61:-0.99998459 
8 1:-1 2:-0.99999999 3:-0.99999999 4:-0.38356845 5:0.49483752 6:-0.99942967 7:0.3263447 8:-0.647392 9:-1 10:0.6528882 11:0.20340925 12:-1 13:0.15765767 14:-1 15:-0.95140812 16:-0.9413455 17:-0.96118401 18:-0.93937906 19:-0.96523492 20:-0.87675267 21:-0.96779104 22:-0.93686189 23:-0.97054991 24:-0.9500916 25:-0.96768491 26:-0.87661851 27:-0.9668387 28:-0.94530833 29:-0.95734806 30:-0.88264071 31:-0.94847003 32:-0.94528991 33:-0.92268636 34:-0.94178274 35:-1 36:-0.99999999 37:-0.99999999 38:-0.99999997 39:-0.99999991 40:-0.99999996 41:-1 42:-1 43:-1 44:-1 45:-1 46:-0.99999999 47:-0.99999998 48:-0.99999999 49:-0.99999999 50:-1 51:-0.99999999 52:-1 53:-1 54:-1 55:-1 56:-1 57:-0.99999999 58:-0.99999999 59:-1 60:-0.99967864 61:-0.99998387 
8 1:-1 2:-0.99999999 3:-0.99999999 4:-0.3835685 5:0.49493279 6:-0.99942612 7:0.32617981 8:-0.64837047 9:-1 10:0.65288813 11:0.20340834 12:-1 13:0.15765791 14:-1 15:-0.94788288 16:-0.94384445 17:-0.95801205 18:-0.9409791 19:-0.96225906 20:-0.87936132 21:-0.96560104 22:-0.93914359 23:-0.97054991 24:-0.9500916 25:-0.96707365 26:-0.8774771 27:-0.9667355 28:-0.94141619 29:-0.95732002 30:-0.89387652 31:-0.94956818 32:-0.9452046 33:-0.9234558 34:-0.94794687 35:-1 36:-0.99999999 37:-1 38:-0.99999997 39:-0.99999991 40:-0.99999999 41:-1 42:-1 43:-1 44:-1 45:-1 46:-0.99999999 47:-0.99999998 48:-0.99999999 49:-0.99999999 50:-1 51:-0.99999999 52:-1 53:-1 54:-1 55:-1 56:-1 57:-0.99999999 58:-1 59:-1 60:-0.99971897 61:-0.99998187 
8 1:-1 2:-0.99999999 3:-0.99999999 4:-0.38356859 5:0.49491065 6:-0.99942474 7:0.32625421 8:-0.64804553 9:-1 10:0.65288806 11:0.2034083 12:-1 13:0.15765921 14:-1 15:-0.95248036 16:-0.94559046 17:-0.95768764 18:-0.9417956 19:-0.96179188 20:-0.88277605 21:-0.97031119 22:-0.95467258 23:-0.96583236 24:-0.93297598 25:-0.96676964 26:-0.87852088 27:-0.97119279 28:-0.95836724 29:-0.96192222 30:-0.87611842 31:-0.93957253 32:-0.93285722 33:-0.92176584 34:-0.94258157 35:-1 36:-1 37:-1 38:-0.99999997 39:-0.99999989 40:-0.99999998 41:-1 42:-1 43:-1 44:-1 45:-1 46:-0.99999999 47:-0.99999999 48:-0.99999999 49:-1 50:-1 51:-0.99999999 52:-1 53:-1 54:-1 55:-1 56:-1 57:-0.99999999 58:-1 59:-1 60:-0.99968994 61:-0.99998137 
8 1:-1 2:-0.99999999 3:-0.99999998 4:-0.38356856 5:0.49504304 6:-0.99942605 7:0.32593792 8:-0.64881847 9:-1 10:0.65288838 11:0.20340815 12:-1 13:0.15765782 14:-1 15:-0.9552203 16:-0.94283418 17:-0.9619673 18:-0.94174624 19:-0.96207214 20:-0.8805309 21:-0.97031119 22:-0.95467258 23:-0.96566215 24:-0.93286802 25:-0.96799167 26:-0.8783226 27:-0.97119279 28:-0.95836724 29:-0.96174068 30:-0.88068161 31:-0.93862328 32:-0.93337655 33:-0.92180557 34:-0.94248145 35:-1 36:-1 37:-1 38:-0.99999996 39:-0.99999994 40:-0.99999997 41:-1 42:-1 43:-1 44:-1 45:-1 46:-0.99999999 47:-0.99999999 48:-0.99999998 49:-0.99999999 50:-1 51:-0.99999999 52:-1 53:-1 54:-1 55:-1 56:-1 57:-0.99999999 58:-0.99999999 59:-1 60:-0.99967947 61:-0.99998169 
8 1:-1 2:-0.99999999 3:-0.99999998 4:-0.38356862 5:0.49478396 6:-0.99942473 7:0.3265821 8:-0.64805021 9:-1 10:0.65288826 11:0.20340837 12:-1 13:0.15765787 14:-1 15:-0.96265272 16:-0.94560947 17:-0.96750591 18:-0.94180997 19:-0.96436983 20:-0.88045746 21:-0.97031119 22:-0.95467258 23:-0.96623069 24:-0.93272376 25:-0.9679074 26:-0.87813875 27:-0.97119279 28:-0.95836724 29:-0.9612001 30:-0.87868372 31:-0.93853754 32:-0.92992365 33:-0.92011105 34:-0.94221451 35:-1 36:-0.99999999 37:-1 38:-0.99999996 39:-0.99999994 40:-0.99999997 41:-1 42:-1 43:-1 44:-1 45:-1 46:-0.99999999 47:-0.99999998 48:-0.99999999 49:-0.99999999 50:-1 51:-0.99999999 52:-1 53:-1 54:-1 55:-1 56:-1 57:-0.99999998 58:-0.99999999 59:-1 60:-0.99967334 61:-0.99998204 
8 1:-1 2:-0.99999999 3:-0.99999998 4:-0.38356854 5:0.49470282 6:-0.99942794 7:0.32663294 8:-0.64694645 9:-1 10:0.65288819 11:0.20340792 12:-1 13:0.15765808 14:-1 15:-0.96478499 16:-0.95525137 17:-0.96330358 18:-0.94059721 19:-0.96601519 20:-0.87976442 21:-0.97031119 22:-0.95467258 23:-0.96901524 24:-0.93343731 25:-0.96698803 26:-0.87724396 27:-0.97119279 28:-0.95836724 29:-0.96084736 30:-0.87806061 31:-0.94171836 32:-0.93201292 33:-0.9188988 34:-0.94097774 35:-1 36:-1 37:-1 38:-0.99999996 39:-0.99999993 40:-0.99999995 41:-1 42:-1 43:-1 44:-1 45:-1 46:-1 47:-0.99999998 48:-0.99999999 49:-1 50:-1 51:-0.99999999 52:-1 53:-1 54:-1 55:-1 56:-1 57:-0.99999999 58:-1 59:-1 60:-0.99968717 61:-0.99998 
8 1:-1 2:-0.99999999 3:-0.99999998 4:-0.38356841 5:0.49468267 6:-0.9994323 7:0.32645381 8:-0.64755015 9:-1 10:0.6528882 11:0.20340796 12:-1 13:0.15765779 14:-1 15:-0.96055545 16:-0.94298527 17:-0.96820226 18:-0.94023032 19:-0.96912812 20:-0.9089352 21:-0.96682615 22:-0.93874423 23:-0.97054991 24:-0.9500916 25:-0.96718049 26:-0.87851961 27:-0.96699014 28:-0.94197619 29:-0.96656396 30:-0.91504274 31:-0.94790775 32:-0.9367459 33:-0.91948182 34:-0.94104827 35:-1 36:-1 37:-1 38:-0.99999997 39:-0.99999996 40:-0.99999994 41:-1 42:-1 43:-1 44:-1 45:-1 46:-0.99999999 47:-1 48:-0.99999999 49:-1 50:-1 51:-1 52:-1 53:-1 54:-1 55:-0.99999999 56:-1 57:-0.99999995 58:-0.99999999 59:-1 60:-0.99971681 61:-0.99997938 
8 1:-1 2:-0.99999999 3:-0.99999998 4:-0.38356842 5:0.49461424 6:-0.9994316 7:0.32653797 8:-0.64580736 9:-1 10:0.65288818 11:0.2034086 12:-1 13:0.15765743 14:-1 15:-0.9594468 16:-0.94567658 17:-0.96586044 18:-0.94207837 19:-0.96912812 20:-0.9089352 21:-0.96506947 22:-0.94162367 23:-0.97054991 24:-0.9500916 25:-0.96565803 26:-0.88024565 27:-0.96327017 28:-0.94242915 29:-0.96656396 30:-0.91504274 31:-0.93726985 32:-0.93506842 33:-0.92219666 34:-0.941998 35:-1 36:-1 37:-1 38:-0.99999998 39:-0.99999994 40:-0.99999996 41:-1 42:-1 43:-1 44:-1 45:-1 46:-1 47:-0.99999999 48:-0.99999999 49:-1 50:-1 51:-1 52:-1 53:-1 54:-1 55:-1 56:-1 57:-0.9999999 58:-0.99999999 59:-1 60:-0.99973693 61:-0.99997956 
8 1:-1 2:-0.99999999 3:-0.99999998 4:-0.38356847 5:0.49453256 6:-0.99943235 7:0.32674368 8:-0.64332531 9:-1 10:0.65288819 11:0.20340842 12:-1 13:0.15765811 14:-1 15:-0.9579528 16:-0.94777771 17:-0.96487149 18:-0.94636705 19:-0.96912812 20:-0.9089352 21:-0.96917512 22:-0.9471582 23:-0.97054991 24:-0.9500916 25:-0.96544351 26:-0.87998669 27:-0.96026837 28:-0.94500637 29:-0.96656396 30:-0.91504274 31:-0.94669399 32:-0.94104113 33:-0.92122095 34:-0.94197705 35:-1 36:-1 37:-1 38:-0.99999997 39:-0.99999998 40:-0.99999997 41:-1 42:-1 43:-1 44:-1 45:-1 46:-1 47:-0.99999999 48:-0.99999999 49:-1 50:-1 51:-1 52:-1 53:-1 54:-1 55:-1 56:-1 57:-0.99999998 58:-0.99999999 59:-1 60:-0.99973048 61:-0.99998011 
8 1:-1 2:-0.99999999 3:-0.99999998 4:-0.38356862 5:0.49447114 6:-0.99942714 7:0.32722935 8:-0.64191931 9:-1 10:0.65288857 11:0.20340907 12:-1 13:0.15765813 14:-1 15:-0.96334387 16:-0.94894761 17:-0.96438019 18:-0.9432747 19:-0.96912812 20:-0.9089352 21:-0.96430481 22:-0.94164722 23:-0.96542343 24:-0.93494636 25:-0.9709719 26:-0.91025382 27:-0.9642865 28:-0.94343469 29:-0.96656396 30:-0.91504274 31:-0.94094101 32:-0.93750871 33:-0.92258184 34:-0.93931091 35:-1 36:-1 37:-1 38:-0.99999997 39:-0.99999998 40:-0.99999997 41:-1 42:-1 43:-1 44:-1 45:-1 46:-1 47:-0.99999999 48:-0.99999999 49:-1 50:-1 51:-0.99999999 52:-1 53:-1 54:-1 55:-0.99999999 56:-1 57:-0.99999994 58:-0.99999999 59:-1 60:-0.99973623 61:-0.99997954 
8 1:-1 2:-0.99999999 3:-0.99999998 4:-0.38356885 5:0.49456213 6:-0.99941592 7:0.32747292 8:-0.64443384 9:-1 10:0.65288884 11:0.20340856 12:-1 13:0.15765814 14:-1 15:-0.96116725 16:-0.94134563 17:-0.96682647 18:-0.93856568 19:-0.96912812 20:-0.9089352 21:-0.96610928 22:-0.93797089 23:-0.9660869 24:-0.93232662 25:-0.9709719 26:-0.91025382 27:-0.96648934 28:-0.94119136 29:-0.96656396 30:-0.91504274 31:-0.94093512 32:-0.93504208 33:-0.91877 34:-0.9391074 35:-1 36:-1 37:-0.99999999 38:-0.99999998 39:-0.99999994 40:-0.99999996 41:-1 42:-1 43:-1 44:-1 45:-1 46:-1 47:-1 48:-0.99999999 49:-1 50:-1 51:-1 52:-1 53:-1 54:-1 55:-0.99999999 56:-1 57:-0.99999996 58:-0.99999999 59:-1 60:-0.99972496 61:-0.99997875 
8 1:-1 2:-0.99999998 3:-0.99999998 4:-0.38356906 5:0.49450367 6:-0.99940336 7:0.32813986 8:-0.64309834 9:-1 10:0.65288755 11:0.20340855 12:-1 13:0.15765745 14:-1 15:-0.96081646 16:-0.9446157 17:-0.96471605 18:-0.94098004 19:-0.96912812 20:-0.9089352 21:-0.9658828 22:-0.9402822 23:-0.96575146 24:-0.93238186 25:-0.9709719 26:-0.91025382 27:-0.96326932 28:-0.93901778 29:-0.96656396 30:-0.91504274 31:-0.94465412 32:-0.93256127 33:-0.91821155 34:-0.94016845 35:-1 36:-1 37:-1 38:-0.99999996 39:-0.99999998 40:-0.99999996 41:-1 42:-1 43:-1 44:-1 45:-1 46:-1 47:-1 48:-0.99999998 49:-1 50:-1 51:-1 52:-1 53:-1 54:-1 55:-1 56:-1 57:-0.99999995 58:-0.99999999 59:-1 60:-0.99973771 61:-0.9999785 
8 1:-1 2:-0.99999998 3:-0.99999998 4:-0.38356921 5:0.49421671 6:-0.99939302 7:0.32988156 8:-0.63261539 9:-1 10:0.65288799 11:0.20340826 12:-1 13:0.15765747 14:-1 15:-0.95434747 16:-0.95139007 17:-0.96348186 18:-0.94432064 19:-0.96912812 20:-0.9089352 21:-0.96557993 22:-0.94126251 23:-0.96517477 24:-0.93204044 25:-0.9709719 26:-0.91025382 27:-0.96477371 28:-0.93890592 29:-0.96656396 30:-0.91504274 31:-0.94377949 32:-0.92986807 33:-0.91955646 34:-0.93883088 35:-1 36:-1 37:-1 38:-0.99999998 39:-0.99999998 40:-0.99999998 41:-1 42:-1 43:-1 44:-1 45:-1 46:-1 47:-0.99999999 48:-0.99999999 49:-1 50:-1 51:-0.99999999 52:-1 53:-1 54:-1 55:-0.99999999 56:-1 57:-0.99999989 58:-0.99999999 59:-1 60:-0.99971897 61:-0.99997807 
8 1:-1 2:-0.99999998 3:-0.99999998 4:-0.3835693 5:0.49418 6:-0.99938679 7:0.33030867 8:-0.63178675 9:-1 10:0.65288812 11:0.20340884 12:-1 13:0.15765764 14:-1 15:-0.95550709 16:-0.9511816 17:-0.96215033 18:-0.94544937 19:-0.96912812 20:-0.9089352 21:-0.96669599 22:-0.9422348 23:-0.96660874 24:-0.9329919 25:-0.9709719 26:-0.91025382 27:-0.9649379 28:-0.9385569 29:-0.96656396 30:-0.91504274 31:-0.94545581 32:-0.93203632 33:-0.92048974 34:-0.9388172 35:-1 36:-0.99999999 37:-1 38:-0.99999997 39:-0.99999996 40:-0.99999998 41:-1 42:-1 43:-1 44:-1 45:-1 46:-1 47:-0.99999999 48:-0.99999999 49:-1 50:-1 51:-1 52:-1 53:-1 54:-1 55:-0.99999999 56:-1 57:-0.99999997 58:-0.99999998 59:-1 60:-0.99972231 61:-0.99997805 
8 1:-1 2:-0.99999998 3:-0.99999998 4:-0.38356941 5:0.49430953 6:-0.99937856 7:0.32982804 8:-0.63761723 9:-1 10:0.65288811 11:0.20340644 12:-1 13:0.1576582 14:-1 15:-0.95826093 16:-0.94770409 17:-0.96635006 18:-0.94272209 19:-0.96912812 20:-0.9089352 21:-0.96747515 22:-0.93952789 23:-0.96608786 24:-0.93124519 25:-0.9709719 26:-0.91025382 27:-0.96553258 28:-0.93797547 29:-0.96656396 30:-0.91504274 31:-0.9393793 32:-0.9303917 33:-0.92106967 34:-0.9386598 35:-1 36:-1 37:-1 38:-0.99999995 39:-0.99999996 40:-0.99999999 41:-1 42:-1 43:-1 44:-1 45:-1 46:-1 47:-0.99999999 48:-0.99999999 49:-0.99999999 50:-1 51:-1 52:-1 53:-1 54:-1 55:-0.99999999 56:-1 57:-0.99999992 58:-0.99999999 59:-1 60:-0.99969629 61:-0.99998001 
8 1:-1 2:-0.99999998 3:-0.99999998 4:-0.38356957 5:0.49447182 6:-0.99936554 7:0.32917223 8:-0.64215858 9:-1 10:0.65288827 11:0.20340932 12:-1 13:0.15765764 14:-1 15:-0.95138766 16:-0.94050422 17:-0.96445726 18:-0.94081044 19:-0.96912812 20:-0.9089352 21:-0.96793926 22:-0.94031159 23:-0.97054991 24:-0.9500916 25:-0.96746561 26:-0.87743358 27:-0.96411583 28:-0.93774343 29:-0.96656396 30:-0.91504274 31:-0.94490251 32:-0.93132663 33:-0.92261012 34:-0.93973027 35:-1 36:-0.99999999 37:-1 38:-0.99999994 39:-0.99999994 40:-0.99999998 41:-1 42:-1 43:-1 44:-1 45:-1 46:-1 47:-1 48:-0.99999999 49:-1 50:-1 51:-0.99999999 52:-1 53:-1 54:-0.99999999 55:-0.99999999 56:-1 57:-0.99999997 58:-0.99999999 59:-1 60:-0.99968767 61:-0.99998036 
8 1:-1 2:-0.99999998 3:-0.99999998 4:-0.38356977 5:0.4944097 6:-0.99934746 7:0.32993343 8:-0.64092141 9:-1 10:0.65288819 11:0.20340843 12:-1 13:0.15765783 14:-1 15:-0.95119094 16:-0.94145784 17:-0.96485125 18:-0.94067 19:-0.96912812 20:-0.9089352 21:-0.96853625 22:-0.94007517 23:-0.96893021 24:-0.93728544 25:-0.96877747 26:-0.87675552 27:-0.96592298 28:-0.93851818 29:-0.96656396 30:-0.91504274 31:-0.9428306 32:-0.93094205 33:-0.92142541 34:-0.94093746 35:-1 36:-0.99999999 37:-1 38:-0.99999995 39:-0.99999994 40:-0.99999997 41:-1 42:-1 43:-1 44:-1 45:-1 46:-1 47:-1 48:-0.99999999 49:-1 50:-1 51:-1 52:-1 53:-1 54:-1 55:-0.99999999 56:-1 57:-0.9999999 58:-0.99999999 59:-1 60:-0.99969549 61:-0.99997993 
8 1:-1 2:-0.99999998 3:-0.99999998 4:-0.38356987 5:0.49440022 6:-0.99933784 7:0.33019362 8:-0.64135889 9:-1 10:0.65288823 11:0.20340959 12:-1 13:0.15765795 14:-1 15:-0.95842865 16:-0.94173025 17:-0.96727417 18:-0.94206973 19:-0.96912812 20:-0.9089352 21:-0.96691989 22:-0.94153984 23:-0.96655582 24:-0.9334436 25:-0.9709719 26:-0.91025382 27:-0.96634537 28:-0.93959608 29:-0.96656396 30:-0.91504274 31:-0.94555431 32:-0.93219213 33:-0.92225531 34:-0.94108489 35:-1 36:-1 37:-1 38:-0.99999993 39:-0.99999998 40:-0.99999998 41:-1 42:-1 43:-1 44:-1 45:-1 46:-1 47:-1 48:-0.99999999 49:-1 50:-1 51:-1 52:-1 53:-0.99999999 54:-1 55:-0.99999999 56:-1 57:-0.99999996 58:-0.99999999 59:-1 60:-0.99971684 61:-0.99997971 
8 1:-1 2:-0.99999998 3:-0.99999998 4:-0.38357005 5:0.4944421 6:-0.99931896 7:0.33018392 8:-0.64277795 9:-1 10:0.65288814 11:0.20340816 12:-1 13:0.1576579 14:-1 15:-0.95930927 16:-0.94868571 17:-0.97019189 18:-0.954218 19:-0.9638191 20:-0.89033595 21:-0.97031119 22:-0.95467258 23:-0.96543262 24:-0.9372183 25:-0.96608828 26:-0.87903663 27:-0.97119279 28:-0.95836724 29:-0.96102745 30:-0.87639467 31:-0.95272124 32:-0.95140666 33:-0.91461836 34:-0.92885735 35:-1 36:-1 37:-1 38:-0.99999998 39:-0.99999994 40:-0.99999998 41:-1 42:-1 43:-1 44:-1 45:-1 46:-1 47:-1 48:-0.99999999 49:-1 50:-1 51:-1 52:-1 53:-1 54:-0.99999999 55:-1 56:-1 57:-0.99999999 58:-0.99999999 59:-1 60:-0.99976251 61:-0.99997806 
8 1:-1 2:-0.99999998 3:-0.99999998 4:-0.38357047 5:0.49444374 6:-0.99927378 7:0.33074559 8:-0.64320938 9:-1 10:0.65288855 11:0.20340763 12:-1 13:0.15765814 14:-1 15:-0.9614344 16:-0.94538493 17:-0.96579897 18:-0.94324709 19:-0.96912812 20:-0.9089352 21:-0.96774345 22:-0.93963883 23:-0.96880472 24:-0.93385281 25:-0.9709719 26:-0.91025382 27:-0.96483321 28:-0.9375262 29:-0.96656396 30:-0.91504274 31:-0.94672817 32:-0.93671458 33:-0.9190989 34:-0.94506607 35:-1 36:-1 37:-1 38:-0.99999999 39:-0.99999998 40:-0.99999999 41:-1 42:-1 43:-1 44:-1 45:-1 46:-1 47:-1 48:-0.99999999 49:-0.99999999 50:-1 51:-0.99999999 52:-1 53:-1 54:-1 55:-1 56:-1 57:-0.99999999 58:-0.99999999 59:-1 60:-0.99969153 61:-0.99998026 
8 1:-1 2:-0.99999998 3:-0.99999998 4:-0.3835708 5:0.49472247 6:-0.99922532 7:0.32853401 8:-0.64759363 9:-1 10:0.65288812 11:0.20340828 12:-1 13:0.15765702 14:-1 15:-0.95327119 16:-0.93104789 17:-0.96643366 18:-0.93432705 19:-0.96912812 20:-0.9089352 21:-0.96795396 22:-0.93763211 23:-0.96696061 24:-0.93212437 25:-0.9709719 26:-0.91025382 27:-0.96416269 28:-0.93865869 29:-0.96656396 30:-0.91504274 31:-0.94839405 32:-0.93649961 33:-0.92489667 34:-0.94768454 35:-1 36:-1 37:-1 38:-0.99999997 39:-0.99999993 40:-0.99999999 41:-1 42:-1 43:-1 44:-1 45:-1 46:-1 47:-1 48:-1 49:-1 50:-1 51:-0.99999999 52:-1 53:-1 54:-1 55:-1 56:-1 57:-0.99999996 58:-0.99999999 59:-1 60:-0.99969302 61:-0.99998138 
8 1:-1 2:-0.99999998 3:-0.99999998 4:-0.38357095 5:0.49471005 6:-0.99920398 7:0.32876657 8:-0.64751186 9:-1 10:0.65288801 11:0.20340741 12:-1 13:0.15765776 14:-1 15:-0.95407822 16:-0.93107303 17:-0.96613583 18:-0.93407777 19:-0.96912812 20:-0.9089352 21:-0.96648256 22:-0.93802852 23:-0.96638181 24:-0.93227715 25:-0.9709719 26:-0.91025382 27:-0.96432632 28:-0.93840034 29:-0.96656396 30:-0.91504274 31:-0.94744548 32:-0.93775187 33:-0.9261709 34:-0.94908025 35:-1 36:-1 37:-1 38:-0.99999998 39:-0.99999996 40:-0.99999999 41:-1 42:-1 43:-1 44:-1 45:-1 46:-1 47:-1 48:-0.99999999 49:-1 50:-1 51:-0.99999999 52:-1 53:-1 54:-1 55:-1 56:-1 57:-0.99999997 58:-0.99999999 59:-1 60:-0.99968413 61:-0.99998005 
8 1:-1 2:-0.99999998 3:-0.99999997 4:-0.3835715 5:0.49471423 6:-0.9991211 7:0.32911558 8:-0.64803311 9:-1 10:0.65288792 11:0.203408 12:-1 13:0.1576576 14:-1 15:-0.96235227 16:-0.93818614 17:-0.97019189 18:-0.954218 19:-0.96742402 20:-0.87438237 21:-0.97031119 22:-0.95467258 23:-0.9653134 24:-0.93636049 25:-0.96832053 26:-0.88453785 27:-0.97069232 28:-0.94375419 29:-0.96316085 30:-0.88044614 31:-0.95185951 32:-0.94850166 33:-0.92109928 34:-0.93761075 35:-1 36:-1 37:-1 38:-0.99999997 39:-0.99999994 40:-0.99999998 41:-1 42:-1 43:-1 44:-1 45:-1 46:-1 47:-0.99999999 48:-0.99999999 49:-1 50:-1 51:-0.99999999 52:-1 53:-1 54:-1 55:-1 56:-1 57:-0.99999998 58:-1 59:-1 60:-0.99970518 61:-0.99998065 
8 1:-1 2:-0.99999997 3:-0.99999997 4:-0.38357331 5:0.49390989 6:-0.99888764 7:0.34031602 8:-0.63192909 9:-1 10:0.65288819 11:0.20340829 12:-1 13:0.15765787 14:-1 15:-0.9534727 16:-0.95206067 17:-0.97019189 18:-0.954218 19:-0.96349275 20:-0.88943141 21:-0.97031119 22:-0.95467258 23:-0.97054991 24:-0.9500916 25:-0.96794849 26:-0.8793664 27:-0.97119279 28:-0.95836724 29:-0.96193387 30:-0.87409373 31:-0.95272124 32:-0.95140666 33:-0.92329017 34:-0.94408372 35:-1 36:-1 37:-1 38:-0.99999999 39:-0.99999996 40:-0.99999999 41:-1 42:-1 43:-1 44:-1 45:-1 46:-1 47:-1 48:-0.99999999 49:-1 50:-1 51:-1 52:-1 53:-1 54:-1 55:-0.99999999 56:-1 57:-0.99999996 58:-0.99999999 59:-1 60:-0.99979369 61:-0.99998044 
8 1:-1 2:-0.99999997 3:-0.99999996 4:-0.3835732 5:0.49396242 6:-0.99892818 7:0.33886033 8:-0.63400147 9:-1 10:0.65288825 11:0.20340862 12:-1 13:0.15765789 14:-1 15:-0.95666001 16:-0.94905055 17:-0.97019189 18:-0.954218 19:-0.96633418 20:-0.88078543 21:-0.97031119 22:-0.95467258 23:-0.96643777 24:-0.93351902 25:-0.9709719 26:-0.91025382 27:-0.97119279 28:-0.95836724 29:-0.96137757 30:-0.87323354 31:-0.95272124 32:-0.95140666 33:-0.92302398 34:-0.94406733 35:-1 36:-1 37:-1 38:-0.99999998 39:-0.99999998 40:-0.99999998 41:-1 42:-1 43:-1 44:-1 45:-1 46:-1 47:-0.99999999 48:-0.99999999 49:-1 50:-1 51:-1 52:-1 53:-1 54:-1 55:-1 56:-1 57:-0.99999998 58:-0.99999999 59:-1 60:-0.99976759 61:-0.99998116 
8 1:-1 2:-0.99999997 3:-0.99999996 4:-0.38357297 5:0.49405611 6:-0.99898475 7:0.33681475 8:-0.63708285 9:-1 10:0.65288841 11:0.20340874 12:-1 13:0.15765798 14:-1 15:-0.96013133 16:-0.9383505 17:-0.97019189 18:-0.954218 19:-0.96678041 20:-0.87402454 21:-0.97031119 22:-0.95467258 23:-0.9671 24:-0.93304243 25:-0.9709719 26:-0.91025382 27:-0.97119279 28:-0.95836724 29:-0.95430713 30:-0.87098881 31:-0.95272124 32:-0.95140666 33:-0.91880667 34:-0.94239753 35:-1 36:-1 37:-1 38:-0.99999999 39:-0.99999994 40:-0.99999999 41:-1 42:-1 43:-1 44:-1 45:-1 46:-1 47:-1 48:-0.99999999 49:-1 50:-1 51:-1 52:-1 53:-1 54:-1 55:-1 56:-1 57:-0.99999996 58:-0.99999999 59:-1 60:-0.99977174 61:-0.99998137 
8 1:-1 2:-0.99999997 3:-0.99999996 4:-0.38357245 5:0.49428451 6:-0.99908174 7:0.33307853 8:-0.64216861 9:-1 10:0.65288813 11:0.20340806 12:-1 13:0.15765819 14:-1 15:-0.95065784 16:-0.92787031 17:-0.97019189 18:-0.954218 19:-0.96519834 20:-0.8705955 21:-0.97031119 22:-0.95467258 23:-0.9694296 24:-0.94327215 25:-0.96962303 26:-0.87777611 27:-0.97119279 28:-0.95836724 29:-0.95896852 30:-0.87414008 31:-0.95272124 32:-0.95140666 33:-0.91769251 34:-0.94029127 35:-1 36:-1 37:-1 38:-0.99999998 39:-0.99999994 40:-0.99999999 41:-1 42:-1 43:-1 44:-1 45:-1 46:-1 47:-1 48:-0.99999999 49:-1 50:-1 51:-1 52:-1 53:-1 54:-1 55:-1 56:-1 57:-0.99999997 58:-0.99999999 59:-1 60:-0.99972716 61:-0.99998481 
8 1:-1 2:-0.99999997 3:-0.99999996 4:-0.38357197 5:0.49425619 6:-0.99916575 7:0.33242083 8:-0.64184393 9:-1 10:0.65288822 11:0.20340849 12:-1 13:0.15765787 14:-1 15:-0.96109201 16:-0.93561942 17:-0.97019189 18:-0.954218 19:-0.9643774 20:-0.88178019 21:-0.97031119 22:-0.95467258 23:-0.96780296 24:-0.93760213 25:-0.9709719 26:-0.91025382 27:-0.97119279 28:-0.95836724 29:-0.9565067 30:-0.87483393 31:-0.95272124 32:-0.95140666 33:-0.92109641 34:-0.94205977 35:-1 36:-1 37:-1 38:-0.99999995 39:-0.99999996 40:-0.99999999 41:-1 42:-1 43:-1 44:-1 45:-1 46:-1 47:-0.99999999 48:-0.99999999 49:-1 50:-1 51:-1 52:-1 53:-1 54:-1 55:-1 56:-1 57:-0.99999996 58:-1 59:-1 60:-0.99973143 61:-0.99998419 
8 1:-1 2:-0.99999997 3:-0.99999996 4:-0.38357131 5:0.4942147 6:-0.99925341 7:0.33150493 8:-0.64094493 9:-1 10:0.65288829 11:0.20340868 12:-1 13:0.1576585 14:-1 15:-0.95140828 16:-0.94132745 17:-0.97019189 18:-0.954218 19:-0.96182773 20:-0.89389157 21:-0.97031119 22:-0.95467258 23:-0.97054991 24:-0.9500916 25:-0.96833484 26:-0.88776572 27:-0.97119279 28:-0.95836724 29:-0.95304819 30:-0.87558174 31:-0.95272124 32:-0.95140666 33:-0.92002049 34:-0.94200519 35:-1 36:-1 37:-1 38:-0.99999998 39:-0.99999994 40:-0.99999999 41:-1 42:-1 43:-1 44:-1 45:-1 46:-1 47:-1 48:-0.99999999 49:-1 50:-1 51:-1 52:-1 53:-1 54:-1 55:-1 56:-1 57:-0.99999999 58:-1 59:-1 60:-0.99973143 61:-0.99998502 
8 1:-1 2:-0.99999997 3:-0.99999996 4:-0.38357094 5:0.49423294 6:-0.99929585 7:0.33066838 8:-0.6413342 9:-1 10:0.65288833 11:0.20340789 12:-1 13:0.15765823 14:-1 15:-0.95390202 16:-0.93464 17:-0.97019189 18:-0.954218 19:-0.96210163 20:-0.88665553 21:-0.97031119 22:-0.95467258 23:-0.96970184 24:-0.94124786 25:-0.96826497 26:-0.88338173 27:-0.97119279 28:-0.95836724 29:-0.95878617 30:-0.87750908 31:-0.95272124 32:-0.95140666 33:-0.9209035 34:-0.94154017 35:-1 36:-1 37:-1 38:-0.99999996 39:-0.99999994 40:-0.99999997 41:-1 42:-1 43:-1 44:-1 45:-1 46:-1 47:-0.99999999 48:-0.99999999 49:-1 50:-1 51:-1 52:-1 53:-1 54:-1 55:-1 56:-1 57:-0.99999998 58:-0.99999999 59:-1 60:-0.99973317 61:-0.99998445 
8 1:-1 2:-0.99999997 3:-0.99999996 4:-0.38357025 5:0.49381455 6:-0.99935849 7:0.33132496 8:-0.63085999 9:-1 10:0.65288832 11:0.20340841 12:-1 13:0.15765781 14:-1 15:-0.9531035 16:-0.93914272 17:-0.97019189 18:-0.954218 19:-0.96630146 20:-0.89266987 21:-0.97031119 22:-0.95467258 23:-0.96818249 24:-0.93745326 25:-0.9709719 26:-0.91025382 27:-0.97119279 28:-0.95836724 29:-0.9571865 30:-0.87405591 31:-0.95272124 32:-0.95140666 33:-0.92059522 34:-0.93970068 35:-1 36:-1 37:-1 38:-0.99999996 39:-0.99999994 40:-0.99999997 41:-1 42:-1 43:-1 44:-1 45:-1 46:-1 47:-0.99999999 48:-0.99999999 49:-1 50:-1 51:-1 52:-1 53:-1 54:-1 55:-1 56:-1 57:-0.99999998 58:-0.99999999 59:-1 60:-0.99972355 61:-0.99998621 
8 1:-1 2:-0.99999996 3:-0.99999996 4:-0.38356975 5:0.49402738 6:-0.9993927 7:0.32925935 8:-0.6386668 9:-1 10:0.65288795 11:0.2034087 12:-1 13:0.15765805 14:-1 15:-0.96114838 16:-0.94803243 17:-0.97019189 18:-0.954218 19:-0.9648238 20:-0.88151949 21:-0.97031119 22:-0.95467258 23:-0.96591562 24:-0.93155265 25:-0.9709719 26:-0.91025382 27:-0.97119279 28:-0.95836724 29:-0.96089971 30:-0.88289228 31:-0.95272124 32:-0.95140666 33:-0.92503629 34:-0.94347035 35:-1 36:-1 37:-1 38:-0.99999997 39:-0.99999993 40:-0.99999997 41:-1 42:-1 43:-1 44:-1 45:-1 46:-1 47:-0.99999999 48:-0.99999999 49:-1 50:-1 51:-1 52:-1 53:-1 54:-1 55:-1 56:-1 57:-0.99999997 58:-1 59:-1 60:-0.99974109 61:-0.99998363 
8 1:-1 2:-0.99999996 3:-0.99999996 4:-0.38356899 5:0.49455715 6:-0.99941753 7:0.3267838 8:-0.64829138 9:-1 10:0.65288811 11:0.20340845 12:-1 13:0.15765771 14:-1 15:-0.95943285 16:-0.93634649 17:-0.97019189 18:-0.954218 19:-0.96700679 20:-0.88482391 21:-0.97031119 22:-0.95467258 23:-0.97054991 24:-0.9500916 25:-0.9709719 26:-0.91025382 27:-0.97119279 28:-0.95836724 29:-0.96045745 30:-0.87648335 31:-0.95272124 32:-0.95140666 33:-0.92163258 34:-0.94140123 35:-1 36:-1 37:-1 38:-0.99999999 39:-0.99999998 40:-0.99999998 41:-1 42:-1 43:-1 44:-1 45:-1 46:-1 47:-1 48:-1 49:-1 50:-1 51:-1 52:-1 53:-1 54:-1 55:-1 56:-1 57:-0.99999999 58:-1 59:-1 60:-0.99984401 61:-0.99999159 
8 1:-1 2:-0.99999996 3:-0.99999995 4:-0.38356924 5:0.4955541 6:-0.99941574 7:0.32504187 8:-0.64490352 9:-1 10:0.65288823 11:0.20340855 12:-1 13:0.15765797 14:-1 15:-0.9509657 16:-0.93086158 17:-0.97019189 18:-0.954218 19:-0.96912812 20:-0.9089352 21:-0.9641268 22:-0.93755298 23:-0.97054991 24:-0.9500916 25:-0.9709719 26:-0.91025382 27:-0.9687214 28:-0.94796604 29:-0.96656396 30:-0.91504274 31:-0.95272124 32:-0.95140666 33:-0.9106229 34:-0.93436386 35:-1 36:-1 37:-1 38:-0.99999999 39:-0.99999993 40:-0.99999996 41:-1 42:-1 43:-1 44:-1 45:-1 46:-1 47:-1 48:-0.99999999 49:-1 50:-1 51:-1 52:-1 53:-1 54:-1 55:-1 56:-1 57:-0.99999997 58:-0.99999999 59:-1 60:-0.99976454 61:-0.99998837 
8 1:-1 2:-0.99999996 3:-0.99999995 4:-0.38356964 5:0.4954516 6:-0.99939901 7:0.32488803 8:-0.64692062 9:-1 10:0.65288819 11:0.20340879 12:-1 13:0.15765794 14:-1 15:-0.95590561 16:-0.92750377 17:-0.97019189 18:-0.954218 19:-0.96912812 20:-0.9089352 21:-0.96797457 22:-0.93755376 23:-0.97054991 24:-0.9500916 25:-0.9709719 26:-0.91025382 27:-0.96802992 28:-0.94618469 29:-0.96656396 30:-0.91504274 31:-0.95272124 32:-0.95140666 33:-0.90772432 34:-0.93213201 35:-1 36:-1 37:-1 38:-0.99999998 39:-0.99999994 40:-0.99999991 41:-1 42:-1 43:-1 44:-1 45:-1 46:-1 47:-1 48:-0.99999999 49:-1 50:-1 51:-1 52:-1 53:-1 54:-1 55:-1 56:-1 57:-0.99999998 58:-0.99999999 59:-1 60:-0.99977172 61:-0.9999879 
8 1:-1 2:-0.99999996 3:-0.99999995 4:-0.38357028 5:0.49481711 6:-0.99937181 7:0.32666371 8:-0.64840996 9:-1 10:0.65288821 11:0.20340852 12:-1 13:0.15765787 14:-1 15:-0.95432713 16:-0.93659432 17:-0.97019189 18:-0.954218 19:-0.96309077 20:-0.88258162 21:-0.97031119 22:-0.95467258 23:-0.97054991 24:-0.9500916 25:-0.9681495 26:-0.88439819 27:-0.97119279 28:-0.95836724 29:-0.96061817 30:-0.88334378 31:-0.95272124 32:-0.95140666 33:-0.9261709 34:-0.94908025 35:-1 36:-1 37:-1 38:-0.99999997 39:-0.99999998 40:-0.99999995 41:-1 42:-1 43:-1 44:-1 45:-1 46:-1 47:-1 48:-0.99999999 49:-1 50:-1 51:-1 52:-1 53:-1 54:-1 55:-1 56:-1 57:-0.99999998 58:-0.99999999 59:-1 60:-0.99975921 61:-0.99998733 
8 1:-1 2:-0.99999996 3:-0.99999995 4:-0.38357057 5:0.49428113 6:-0.99935272 7:0.3290422 8:-0.64400041 9:-1 10:0.65288799 11:0.20340874 12:-1 13:0.15765809 14:-1 15:-0.95185431 16:-0.94371634 17:-0.97019189 18:-0.954218 19:-0.96052292 20:-0.89336186 21:-0.97031119 22:-0.95467258 23:-0.97054991 24:-0.9500916 25:-0.9675155 26:-0.88067441 27:-0.97119279 28:-0.95836724 29:-0.96443408 30:-0.89100086 31:-0.95272124 32:-0.95140666 33:-0.92342746 34:-0.94508501 35:-1 36:-1 37:-1 38:-0.99999999 39:-0.99999994 40:-0.99999995 41:-1 42:-1 43:-1 44:-1 45:-1 46:-1 47:-1 48:-1 49:-1 50:-1 51:-1 52:-1 53:-1 54:-1 55:-1 56:-1 57:-0.99999997 58:-0.99999999 59:-1 60:-0.99974975 61:-0.99998739 
8 1:-1 2:-0.99999996 3:-0.99999995 4:-0.38357084 5:0.49412905 6:-0.9993295 7:0.33016106 8:-0.6408739 9:-1 10:0.65288817 11:0.20340848 12:-1 13:0.15765793 14:-1 15:-0.94281986 16:-0.94895697 17:-0.97019189 18:-0.954218 19:-0.96160593 20:-0.8896596 21:-0.97031119 22:-0.95467258 23:-0.97054991 24:-0.9500916 25:-0.96848328 26:-0.88449049 27:-0.97119279 28:-0.95836724 29:-0.9647803 30:-0.89810045 31:-0.95272124 32:-0.95140666 33:-0.92381714 34:-0.94474818 35:-1 36:-1 37:-1 38:-0.99999998 39:-0.99999996 40:-0.99999999 41:-1 42:-1 43:-1 44:-1 45:-1 46:-1 47:-1 48:-1 49:-1 50:-1 51:-1 52:-1 53:-1 54:-1 55:-1 56:-1 57:-0.99999998 58:-0.99999999 59:-1 60:-0.99974773 61:-0.99998698 
8 1:-1 2:-0.99999996 3:-0.99999995 4:-0.38357098 5:0.49375368 6:-0.99931867 7:0.33244954 8:-0.63228488 9:-1 10:0.65288823 11:0.20340882 12:-1 13:0.15765791 14:-1 15:-0.94876143 16:-0.95005411 17:-0.97019189 18:-0.954218 19:-0.96669011 20:-0.88297625 21:-0.97031119 22:-0.95467258 23:-0.97054991 24:-0.9500916 25:-0.96832349 26:-0.88104116 27:-0.97119279 28:-0.95836724 29:-0.96041089 30:-0.88147093 31:-0.95272124 32:-0.95140666 33:-0.91980719 34:-0.94322661 35:-1 36:-1 37:-1 38:-0.99999998 39:-0.99999996 40:-0.99999999 41:-1 42:-1 43:-1 44:-1 45:-1 46:-1 47:-1 48:-1 49:-1 50:-1 51:-1 52:-1 53:-1 54:-1 55:-1 56:-1 57:-0.99999999 58:-0.99999999 59:-1 60:-0.99975384 61:-0.99998832 
8 1:-1 2:-0.99999996 3:-0.99999995 4:-0.38357119 5:0.49385656 6:-0.99929603 7:0.33249591 8:-0.63524547 9:-1 10:0.65288821 11:0.20340797 12:-1 13:0.15765785 14:-1 15:-0.95812799 16:-0.94622419 17:-0.97019189 18:-0.954218 19:-0.96325501 20:-0.8843689 21:-0.97031119 22:-0.95467258 23:-0.9676135 24:-0.93250547 25:-0.9709719 26:-0.91025382 27:-0.97119279 28:-0.95836724 29:-0.95713147 30:-0.87875492 31:-0.95272124 32:-0.95140666 33:-0.91452914 34:-0.94129537 35:-1 36:-1 37:-1 38:-0.99999999 39:-0.99999994 40:-0.99999999 41:-1 42:-1 43:-1 44:-1 45:-1 46:-1 47:-1 48:-1 49:-1 50:-1 51:-1 52:-1 53:-1 54:-1 55:-1 56:-1 57:-0.99999999 58:-1 59:-1 60:-0.99973795 61:-0.99999023 
8 1:-1 2:-0.99999996 3:-0.99999995 4:-0.38357123 5:0.49383188 6:-0.99928332 7:0.33291394 8:-0.6330888 9:-1 10:0.65288816 11:0.20340861 12:-1 13:0.1576579 14:-1 15:-0.94585036 16:-0.94553475 17:-0.97019189 18:-0.954218 19:-0.96186109 20:-0.88481882 21:-0.97031119 22:-0.95467258 23:-0.96730921 24:-0.93270071 25:-0.9709719 26:-0.91025382 27:-0.97119279 28:-0.95836724 29:-0.9561933 30:-0.87538446 31:-0.95272124 32:-0.95140666 33:-0.91476621 34:-0.94156617 35:-1 36:-0.99999999 37:-1 38:-0.99999997 39:-0.99999996 40:-0.99999999 41:-1 42:-1 43:-1 44:-1 45:-1 46:-1 47:-1 48:-1 49:-1 50:-1 51:-1 52:-1 53:-1 54:-1 55:-1 56:-1 57:-0.99999998 58:-0.99999999 59:-1 60:-0.99973963 61:-0.99999077 
8 1:-1 2:-0.99999996 3:-0.99999996 4:-0.38357135 5:0.49407812 6:-0.999272 7:0.33179804 8:-0.63828488 9:-1 10:0.65288813 11:0.20340863 12:-1 13:0.15765783 14:-1 15:-0.94994364 16:-0.94711249 17:-0.97019189 18:-0.954218 19:-0.96540336 20:-0.88115455 21:-0.97031119 22:-0.95467258 23:-0.97054991 24:-0.9500916 25:-0.96780017 26:-0.8790173 27:-0.97119279 28:-0.95836724 29:-0.95712241 30:-0.87918798 31:-0.95272124 32:-0.95140666 33:-0.92434805 34:-0.94331758 35:-1 36:-0.99999999 37:-1 38:-0.99999997 39:-0.99999994 40:-0.99999999 41:-1 42:-1 43:-1 44:-1 45:-1 46:-1 47:-1 48:-0.99999999 49:-1 50:-1 51:-1 52:-1 53:-1 54:-1 55:-1 56:-1 57:-0.99999998 58:-1 59:-1 60:-0.99976199 61:-0.99998963 
8 1:-1 2:-0.99999996 3:-0.99999996 4:-0.38357131 5:0.49433772 6:-0.99927394 7:0.33015486 8:-0.64517507 9:-1 10:0.65288819 11:0.20340894 12:-1 13:0.15765802 14:-1 15:-0.96028798 16:-0.94625002 17:-0.97019189 18:-0.954218 19:-0.96362888 20:-0.88091442 21:-0.97031119 22:-0.95467258 23:-0.97054991 24:-0.9500916 25:-0.96849222 26:-0.87573116 27:-0.97119279 28:-0.95836724 29:-0.9611738 30:-0.87629705 31:-0.95272124 32:-0.95140666 33:-0.92260339 34:-0.94129486 35:-1 36:-0.99999999 37:-1 38:-0.99999996 39:-0.99999996 40:-0.99999996 41:-1 42:-1 43:-1 44:-1 45:-1 46:-1 47:-1 48:-0.99999999 49:-1 50:-1 51:-1 52:-1 53:-1 54:-1 55:-1 56:-1 57:-0.99999999 58:-1 59:-1 60:-0.99977418 61:-0.99998843 
8 1:-1 2:-0.99999996 3:-0.99999996 4:-0.38357168 5:0.4950625 6:-0.99923206 7:0.32542583 8:-0.65039296 9:-1 10:0.65288821 11:0.20340847 12:-1 13:0.15765791 14:-1 15:-0.96381359 16:-0.95284114 17:-0.97019189 18:-0.954218 19:-0.96912812 20:-0.9089352 21:-0.96931793 22:-0.9493746 23:-0.97054991 24:-0.9500916 25:-0.9709719 26:-0.91025382 27:-0.97000413 28:-0.94400519 29:-0.96656396 30:-0.91504274 31:-0.95272124 32:-0.95140666 33:-0.92183668 34:-0.92628479 35:-1 36:-1 37:-1 38:-0.99999999 39:-0.99999996 40:-0.99999999 41:-1 42:-1 43:-1 44:-1 45:-1 46:-1 47:-1 48:-1 49:-1 50:-1 51:-1 52:-1 53:-1 54:-1 55:-1 56:-1 57:-0.99999999 58:-0.99999999 59:-1 60:-0.99982043 61:-0.99998848 
8 1:-1 2:-0.99999997 3:-0.99999996 4:-0.38357101 5:0.49349155 6:-0.99929481 7:0.33527284 8:-0.61934405 9:-1 10:0.6528882 11:0.20340833 12:-1 13:0.15765789 14:-1 15:-0.96388577 16:-0.95290745 17:-0.97019189 18:-0.954218 19:-0.9662818 20:-0.88202694 21:-0.97031119 22:-0.95467258 23:-0.96720398 24:-0.93372545 25:-0.9709719 26:-0.91025382 27:-0.97119279 28:-0.95836724 29:-0.95542374 30:-0.87429294 31:-0.95272124 32:-0.95140666 33:-0.91881853 34:-0.9396282 35:-1 36:-0.99999999 37:-1 38:-0.99999997 39:-0.99999996 40:-0.99999997 41:-1 42:-1 43:-1 44:-1 45:-1 46:-1 47:-1 48:-0.99999999 49:-1 50:-1 51:-1 52:-1 53:-1 54:-1 55:-1 56:-1 57:-0.99999999 58:-0.99999999 59:-1 60:-0.99976138 61:-0.9999873 
8 1:-1 2:-0.99999997 3:-0.99999996 4:-0.38357084 5:0.49390006 6:-0.99930754 7:0.33248407 8:-0.6330937 9:-1 10:0.65288823 11:0.20340866 12:-1 13:0.15765797 14:-1 15:-0.96314059 16:-0.94827007 17:-0.97019189 18:-0.954218 19:-0.9636019 20:-0.8830395 21:-0.97031119 22:-0.95467258 23:-0.97054991 24:-0.9500916 25:-0.96748712 26:-0.88042065 27:-0.97119279 28:-0.95836724 29:-0.95563019 30:-0.87468659 31:-0.95272124 32:-0.95140666 33:-0.92297729 34:-0.94168668 35:-1 36:-1 37:-0.99999999 38:-0.99999998 39:-0.99999994 40:-0.99999998 41:-1 42:-1 43:-1 44:-1 45:-1 46:-1 47:-1 48:-0.99999999 49:-1 50:-1 51:-1 52:-1 53:-1 54:-1 55:-1 56:-1 57:-0.99999997 58:-1 59:-1 60:-0.99974832 61:-0.99998697 
8 1:-1 2:-0.99999997 3:-0.99999996 4:-0.3835708 5:0.49374157 6:-0.99930502 7:0.33357268 8:-0.62733595 9:-1 10:0.65288812 11:0.20340866 12:-1 13:0.15765774 14:-1 15:-0.95855527 16:-0.95176869 17:-0.97019189 18:-0.954218 19:-0.96301205 20:-0.88336258 21:-0.97031119 22:-0.95467258 23:-0.96761407 24:-0.93405418 25:-0.9709719 26:-0.91025382 27:-0.97119279 28:-0.95836724 29:-0.95582733 30:-0.87507828 31:-0.95272124 32:-0.95140666 33:-0.92329117 34:-0.94174701 35:-1 36:-1 37:-0.99999999 38:-0.99999997 39:-0.99999996 40:-0.99999997 41:-1 42:-1 43:-1 44:-1 45:-1 46:-1 47:-0.99999999 48:-1 49:-1 50:-1 51:-1 52:-1 53:-1 54:-1 55:-1 56:-1 57:-0.99999999 58:-1 59:-1 60:-0.99976284 61:-0.99998839 
8 1:-1 2:-0.99999997 3:-0.99999996 4:-0.38357073 5:0.49369617 6:-0.99931085 7:0.33375737 8:-0.62621128 9:-1 10:0.65288809 11:0.20340865 12:-1 13:0.15765788 14:-1 15:-0.96322367 16:-0.9533397 17:-0.97019189 18:-0.954218 19:-0.96248261 20:-0.88391422 21:-0.97031119 22:-0.95467258 23:-0.96743888 24:-0.93619902 25:-0.9709719 26:-0.91025382 27:-0.97119279 28:-0.95836724 29:-0.95580059 30:-0.87864856 31:-0.95272124 32:-0.95140666 33:-0.92256636 34:-0.94174755 35:-1 36:-0.99999999 37:-0.99999999 38:-0.99999999 39:-0.99999998 40:-0.99999999 41:-1 42:-1 43:-1 44:-1 45:-1 46:-1 47:-1 48:-0.99999999 49:-1 50:-1 51:-1 52:-1 53:-1 54:-1 55:-1 56:-1 57:-0.99999999 58:-0.99999999 59:-1 60:-0.99971324 61:-0.99998656 
8 1:-1 2:-0.99999997 3:-0.99999996 4:-0.38357076 5:0.4941011 6:-0.99930629 7:0.3315212 8:-0.63657105 9:-1 10:0.65288817 11:0.20340864 12:-1 13:0.15765812 14:-1 15:-0.95423991 16:-0.9476561 17:-0.97019189 18:-0.954218 19:-0.96671206 20:-0.88013451 21:-0.97031119 22:-0.95467258 23:-0.97054991 24:-0.9500916 25:-0.9675452 26:-0.87835424 27:-0.97119279 28:-0.95836724 29:-0.95633726 30:-0.87617486 31:-0.95272124 32:-0.95140666 33:-0.92018502 34:-0.94203717 35:-1 36:-1 37:-1 38:-0.99999998 39:-0.99999998 40:-0.99999997 41:-1 42:-1 43:-1 44:-1 45:-1 46:-1 47:-1 48:-0.99999999 49:-1 50:-1 51:-1 52:-1 53:-1 54:-1 55:-1 56:-1 57:-0.99999998 58:-1 59:-1 60:-0.99973319 61:-0.99998573 
8 1:-1 2:-0.99999997 3:-0.99999996 4:-0.38357066 5:0.49415833 6:-0.99931242 7:0.33110365 8:-0.63779558 9:-1 10:0.65288823 11:0.2034084 12:-1 13:0.15765844 14:-1 15:-0.95465708 16:-0.94507882 17:-0.97019189 18:-0.954218 19:-0.96272266 20:-0.87988915 21:-0.97031119 22:-0.95467258 23:-0.97054991 24:-0.9500916 25:-0.96803769 26:-0.87877561 27:-0.97119279 28:-0.95836724 29:-0.95588828 30:-0.87670699 31:-0.95272124 32:-0.95140666 33:-0.91912255 34:-0.94042385 35:-1 36:-0.99999999 37:-1 38:-0.99999998 39:-0.99999991 40:-0.99999999 41:-1 42:-1 43:-1 44:-1 45:-1 46:-1 47:-0.99999999 48:-0.99999999 49:-1 50:-1 51:-1 52:-1 53:-1 54:-1 55:-1 56:-1 57:-0.99999997 58:-0.99999999 59:-1 60:-0.99975522 61:-0.99998591 
8 1:-1 2:-0.99999997 3:-0.99999997 4:-0.3835705 5:0.49388087 6:-0.99932415 7:0.3326358 8:-0.62881026 9:-1 10:0.6528882 11:0.20340843 12:-1 13:0.15765804 14:-1 15:-0.96367202 16:-0.95194149 17:-0.97019189 18:-0.954218 19:-0.96259851 20:-0.88046164 21:-0.97031119 22:-0.95467258 23:-0.96756356 24:-0.93524005 25:-0.9709719 26:-0.91025382 27:-0.97119279 28:-0.95836724 29:-0.95456359 30:-0.87765941 31:-0.95272124 32:-0.95140666 33:-0.91987947 34:-0.94048873 35:-1 36:-1 37:-0.99999999 38:-0.99999997 39:-0.99999998 40:-0.99999999 41:-1 42:-1 43:-1 44:-1 45:-1 46:-1 47:-1 48:-0.99999999 49:-1 50:-1 51:-1 52:-1 53:-1 54:-1 55:-1 56:-1 57:-0.99999998 58:-1 59:-1 60:-0.99975319 61:-0.99998717 
8 1:-1 2:-0.99999997 3:-0.99999997 4:-0.38357039 5:0.4940592 6:-0.99933035 7:0.33147999 8:-0.63367076 9:-1 10:0.65288821 11:0.20340862 12:-1 13:0.15765837 14:-1 15:-0.95321333 16:-0.94664165 17:-0.97019189 18:-0.954218 19:-0.96695641 20:-0.87844727 21:-0.97031119 22:-0.95467258 23:-0.97054991 24:-0.9500916 25:-0.96746647 26:-0.87973339 27:-0.97119279 28:-0.95836724 29:-0.95581904 30:-0.87515467 31:-0.95272124 32:-0.95140666 33:-0.91540649 34:-0.93899705 35:-1 36:-0.99999999 37:-1 38:-0.99999996 39:-0.99999994 40:-0.99999999 41:-1 42:-1 43:-1 44:-1 45:-1 46:-1 47:-1 48:-0.99999999 49:-1 50:-1 51:-1 52:-1 53:-1 54:-1 55:-1 56:-1 57:-0.99999998 58:-0.99999999 59:-1 60:-0.99972605 61:-0.99998467 
8 1:-1 2:-0.99999997 3:-0.99999997 4:-0.38357032 5:0.49414999 6:-0.99933305 7:0.33094093 8:-0.63714589 9:-1 10:0.65288822 11:0.20340848 12:-1 13:0.15765771 14:-1 15:-0.95746206 16:-0.94665411 17:-0.97019189 18:-0.954218 19:-0.96316889 20:-0.88283041 21:-0.97031119 22:-0.95467258 23:-0.97054991 24:-0.9500916 25:-0.96673062 26:-0.87780398 27:-0.97119279 28:-0.95836724 29:-0.95606965 30:-0.87320526 31:-0.95272124 32:-0.95140666 33:-0.91793538 34:-0.94063167 35:-1 36:-0.99999999 37:-1 38:-0.99999998 39:-0.99999996 40:-0.99999996 41:-1 42:-1 43:-1 44:-1 45:-1 46:-1 47:-1 48:-0.99999999 49:-1 50:-1 51:-1 52:-1 53:-1 54:-1 55:-1 56:-1 57:-0.99999999 58:-0.99999999 59:-1 60:-0.99974078 61:-0.99998532 
8 1:-1 2:-0.99999997 3:-0.99999997 4:-0.38357031 5:0.49417921 6:-0.9993291 7:0.33091013 8:-0.63698252 9:-1 10:0.65288799 11:0.20340872 12:-1 13:0.15765764 14:-1 15:-0.94920815 16:-0.9473853 17:-0.97019189 18:-0.954218 19:-0.96382514 20:-0.88298548 21:-0.97031119 22:-0.95467258 23:-0.97054991 24:-0.9500916 25:-0.96706426 26:-0.88118802 27:-0.97119279 28:-0.95836724 29:-0.95609689 30:-0.87386481 31:-0.95272124 32:-0.95140666 33:-0.91793897 34:-0.94087985 35:-1 36:-1 37:-1 38:-0.99999998 39:-0.99999996 40:-0.99999996 41:-1 42:-1 43:-1 44:-1 45:-1 46:-1 47:-1 48:-1 49:-1 50:-1 51:-1 52:-1 53:-1 54:-1 55:-1 56:-1 57:-0.99999999 58:-0.99999999 59:-1 60:-0.9997521 61:-0.99998391 
8 1:-1 2:-0.99999997 3:-0.99999997 4:-0.38357026 5:0.4942632 6:-0.99933122 7:0.33046855 8:-0.63902757 9:-1 10:0.65288825 11:0.2034085 12:-1 13:0.15765793 14:-1 15:-0.95624334 16:-0.94839411 17:-0.97019189 18:-0.954218 19:-0.96749799 20:-0.87711903 21:-0.97031119 22:-0.95467258 23:-0.97054991 24:-0.9500916 25:-0.96665981 26:-0.87567373 27:-0.97119279 28:-0.95836724 29:-0.95615044 30:-0.87448631 31:-0.95272124 32:-0.95140666 33:-0.92398221 34:-0.9427916 35:-1 36:-1 37:-1 38:-0.99999998 39:-0.99999994 40:-0.99999999 41:-1 42:-1 43:-1 44:-1 45:-1 46:-1 47:-1 48:-1 49:-1 50:-1 51:-1 52:-1 53:-1 54:-1 55:-1 56:-1 57:-0.99999999 58:-1 59:-1 60:-0.99972971 61:-0.99998383 
8 1:-1 2:-0.99999998 3:-0.99999997 4:-0.38357012 5:0.49476076 6:-0.99934223 7:0.32733502 8:-0.64736262 9:-1 10:0.65288817 11:0.20340837 12:-1 13:0.1576578 14:-1 15:-0.96347067 16:-0.95064611 17:-0.96521888 18:-0.94066899 19:-0.96857789 20:-0.90315864 21:-0.96766564 22:-0.9475265 23:-0.96962514 24:-0.94393993 25:-0.96904877 26:-0.88151467 27:-0.97119279 28:-0.95836724 29:-0.95862329 30:-0.87755183 31:-0.95183084 32:-0.94995106 33:-0.92385584 34:-0.94460162 35:-1 36:-0.99999999 37:-1 38:-0.99999998 39:-0.99999996 40:-0.99999998 41:-1 42:-1 43:-1 44:-1 45:-1 46:-1 47:-1 48:-1 49:-1 50:-1 51:-1 52:-1 53:-1 54:-1 55:-1 56:-1 57:-0.99999999 58:-0.99999999 59:-1 60:-0.99971508 61:-0.99998507 
8 1:-1 2:-0.99999998 3:-0.99999997 4:-0.38357001 5:0.49487891 6:-0.99934793 7:0.32661399 8:-0.64759246 9:-1 10:0.65288827 11:0.20340833 12:-1 13:0.15765782 14:-1 15:-0.95861715 16:-0.94793537 17:-0.96062942 18:-0.93912773 19:-0.96791105 20:-0.90352893 21:-0.96578571 22:-0.93881207 23:-0.97054991 24:-0.9500916 25:-0.96742221 26:-0.87946548 27:-0.97119279 28:-0.95836724 29:-0.9586851 30:-0.87529469 31:-0.95272124 32:-0.95140666 33:-0.92219646 34:-0.94279652 35:-1 36:-1 37:-1 38:-0.99999997 39:-0.99999998 40:-0.99999997 41:-1 42:-1 43:-1 44:-1 45:-1 46:-1 47:-1 48:-0.99999999 49:-1 50:-1 51:-1 52:-1 53:-1 54:-1 55:-1 56:-1 57:-0.99999999 58:-0.99999999 59:-1 60:-0.99969648 61:-0.99998654 
8 1:-1 2:-0.99999998 3:-0.99999997 4:-0.38356976 5:0.49479718 6:-0.99937032 7:0.3269711 8:-0.64760371 9:-1 10:0.65288823 11:0.20340856 12:-1 13:0.15765797 14:-1 15:-0.9558781 16:-0.94357264 17:-0.97019189 18:-0.954218 19:-0.96287561 20:-0.88273632 21:-0.97031119 22:-0.95467258 23:-0.96728749 24:-0.93375751 25:-0.9709719 26:-0.91025382 27:-0.9666412 28:-0.94306789 29:-0.95858207 30:-0.87605354 31:-0.95272124 32:-0.95140666 33:-0.91876457 34:-0.94287712 35:-1 36:-0.99999999 37:-1 38:-0.99999999 39:-0.99999993 40:-0.99999997 41:-1 42:-1 43:-1 44:-1 45:-1 46:-1 47:-1 48:-0.99999999 49:-1 50:-1 51:-1 52:-1 53:-1 54:-1 55:-1 56:-1 57:-0.99999999 58:-0.99999999 59:-1 60:-0.99969184 61:-0.99998439 
8 1:-1 2:-0.99999998 3:-0.99999997 4:-0.38356969 5:0.49477351 6:-0.99937524 7:0.32705839 8:-0.64843546 9:-1 10:0.6528882 11:0.20340851 12:-1 13:0.15765786 14:-1 15:-0.96151808 16:-0.94541955 17:-0.97019189 18:-0.954218 19:-0.96637976 20:-0.88665976 21:-0.97031119 22:-0.95467258 23:-0.96630342 24:-0.93406423 25:-0.9709719 26:-0.91025382 27:-0.96729763 28:-0.94447076 29:-0.95791326 30:-0.87365622 31:-0.95272124 32:-0.95140666 33:-0.91828223 34:-0.94138441 35:-1 36:-0.99999999 37:-1 38:-0.99999998 39:-0.99999994 40:-0.99999996 41:-1 42:-1 43:-1 44:-1 45:-1 46:-1 47:-1 48:-0.99999999 49:-1 50:-1 51:-1 52:-1 53:-1 54:-1 55:-1 56:-1 57:-0.99999999 58:-1 59:-1 60:-0.99971086 61:-0.9999839 
8 1:-1 2:-0.99999998 3:-0.99999997 4:-0.38356961 5:0.49465854 6:-0.99937967 7:0.32757861 8:-0.64636625 9:-1 10:0.65288809 11:0.20340799 12:-1 13:0.15765776 14:-1 15:-0.95112261 16:-0.94917861 17:-0.97019189 18:-0.954218 19:-0.95961558 20:-0.89364504 21:-0.97031119 22:-0.95467258 23:-0.96593328 24:-0.93564182 25:-0.9709719 26:-0.91025382 27:-0.9660349 28:-0.94339011 29:-0.95785512 30:-0.87409464 31:-0.95272124 32:-0.95140666 33:-0.91898153 34:-0.94160567 35:-1 36:-1 37:-1 38:-0.99999997 39:-0.99999994 40:-0.99999999 41:-1 42:-1 43:-1 44:-1 45:-1 46:-1 47:-1 48:-0.99999999 49:-1 50:-1 51:-1 52:-1 53:-1 54:-1 55:-1 56:-1 57:-0.99999998 58:-0.99999999 59:-1 60:-0.99970112 61:-0.9999829 
8 1:-1 2:-0.99999998 3:-0.99999997 4:-0.3835696 5:0.49479826 6:-0.99937939 7:0.32693256 8:-0.64763229 9:-1 10:0.65288817 11:0.20340802 12:-1 13:0.15765748 14:-1 15:-0.95395252 16:-0.94756802 17:-0.97019189 18:-0.954218 19:-0.96115902 20:-0.88779703 21:-0.97031119 22:-0.95467258 23:-0.96857555 24:-0.93276481 25:-0.9709719 26:-0.91025382 27:-0.96768761 28:-0.94345584 29:-0.96045332 30:-0.876056 31:-0.95272124 32:-0.95140666 33:-0.92347322 34:-0.94001486 35:-1 36:-0.99999999 37:-1 38:-0.99999998 39:-0.99999998 40:-0.99999998 41:-1 42:-1 43:-1 44:-1 45:-1 46:-1 47:-1 48:-0.99999999 49:-1 50:-1 51:-1 52:-1 53:-1 54:-1 55:-0.99999999 56:-1 57:-0.99999999 58:-0.99999999 59:-1 60:-0.99970216 61:-0.99998189 
8 1:-1 2:-0.99999998 3:-0.99999997 4:-0.38356964 5:0.49460335 6:-0.99937529 7:0.32797348 8:-0.64596775 9:-1 10:0.65288811 11:0.20340821 12:-1 13:0.15765856 14:-1 15:-0.95596915 16:-0.94706178 17:-0.96588081 18:-0.9419123 19:-0.96912812 20:-0.9089352 21:-0.96362073 22:-0.94239886 23:-0.97033117 24:-0.94729608 25:-0.96747289 26:-0.88117007 27:-0.96624529 28:-0.939146 29:-0.96656396 30:-0.91504274 31:-0.9477248 32:-0.9397016 33:-0.9261709 34:-0.94908025 35:-1 36:-1 37:-1 38:-0.99999998 39:-0.99999996 40:-0.99999998 41:-1 42:-1 43:-1 44:-1 45:-1 46:-1 47:-1 48:-0.99999999 49:-1 50:-1 51:-1 52:-1 53:-1 54:-1 55:-1 56:-1 57:-0.99999998 58:-0.99999999 59:-1 60:-0.99970455 61:-0.99998181 
8 1:-1 2:-0.99999998 3:-0.99999998 4:-0.38356977 5:0.49446803 6:-0.99936051 7:0.32901516 8:-0.64267374 9:-1 10:0.65288809 11:0.20340856 12:-1 13:0.15765768 14:-1 15:-0.96221121 16:-0.94546205 17:-0.95624028 18:-0.94677199 19:-0.96912812 20:-0.9089352 21:-0.96084745 22:-0.94348541 23:-0.96634883 24:-0.93448706 25:-0.9709719 26:-0.91025382 27:-0.96422269 28:-0.93787969 29:-0.96656396 30:-0.91504274 31:-0.9449565 32:-0.93970428 33:-0.91902356 34:-0.94482875 35:-1 36:-1 37:-1 38:-0.99999995 39:-0.99999994 40:-0.99999999 41:-1 42:-1 43:-1 44:-1 45:-1 46:-1 47:-1 48:-0.99999999 49:-1 50:-1 51:-1 52:-1 53:-1 54:-1 55:-1 56:-1 57:-0.99999997 58:-1 59:-1 60:-0.99970868 61:-0.99998385 
8 1:-1 2:-0.99999998 3:-0.99999998 4:-0.38356981 5:0.49456015 6:-0.99935456 7:0.32862738 8:-0.64572249 9:-1 10:0.65288822 11:0.20340784 12:-1 13:0.15765798 14:-1 15:-0.96366086 16:-0.94415416 17:-0.96854873 18:-0.94920432 19:-0.96912812 20:-0.9089352 21:-0.96888165 22:-0.94843665 23:-0.96595966 24:-0.93477358 25:-0.9709719 26:-0.91025382 27:-0.96218881 28:-0.9378669 29:-0.96656396 30:-0.91504274 31:-0.94509253 32:-0.94288067 33:-0.92204478 34:-0.94636037 35:-1 36:-0.99999999 37:-1 38:-0.99999996 39:-0.99999994 40:-0.99999999 41:-1 42:-1 43:-1 44:-1 45:-1 46:-0.99999999 47:-1 48:-0.99999999 49:-1 50:-1 51:-1 52:-1 53:-1 54:-1 55:-1 56:-1 57:-0.99999998 58:-0.99999999 59:-1 60:-0.99966751 61:-0.99998297 
8 1:-1 2:-0.99999998 3:-0.99999998 4:-0.38356959 5:0.49488095 6:-0.99937344 7:0.32657655 8:-0.64759438 9:-1 10:0.65288805 11:0.20340828 12:-1 13:0.15765758 14:-1 15:-0.95491355 16:-0.93823381 17:-0.96282719 18:-0.94412498 19:-0.96912812 20:-0.9089352 21:-0.96168216 22:-0.94632651 23:-0.97054991 24:-0.9500916 25:-0.96609598 26:-0.88293638 27:-0.96328038 28:-0.94029755 29:-0.96656396 30:-0.91504274 31:-0.94014698 32:-0.94245122 33:-0.92304923 34:-0.94223465 35:-1 36:-0.99999999 37:-1 38:-0.99999999 39:-0.99999994 40:-0.99999998 41:-1 42:-1 43:-1 44:-1 45:-1 46:-1 47:-1 48:-0.99999999 49:-1 50:-1 51:-1 52:-1 53:-1 54:-1 55:-1 56:-1 57:-0.99999998 58:-1 59:-1 60:-0.99964561 61:-0.99998386 
8 1:-1 2:-0.99999998 3:-0.99999998 4:-0.38356951 5:0.49498093 6:-0.99937896 7:0.32604295 8:-0.64940761 9:-1 10:0.6528884 11:0.20340857 12:-1 13:0.15765745 14:-1 15:-0.96034827 16:-0.93679588 17:-0.96850484 18:-0.94001145 19:-0.96912812 20:-0.9089352 21:-0.96350076 22:-0.94346202 23:-0.96833162 24:-0.93803566 25:-0.96903675 26:-0.90785135 27:-0.96563746 28:-0.93723656 29:-0.96656396 30:-0.91504274 31:-0.94270577 32:-0.94101958 33:-0.92330183 34:-0.94208064 35:-1 36:-0.99999999 37:-1 38:-0.99999995 39:-0.99999998 40:-0.99999998 41:-1 42:-1 43:-1 44:-1 45:-1 46:-0.99999999 47:-1 48:-0.99999999 49:-1 50:-1 51:-1 52:-1 53:-1 54:-1 55:-1 56:-1 57:-0.99999997 58:-1 59:-1 60:-0.99968568 61:-0.99998644 
8 1:-1 2:-0.99999998 3:-0.99999998 4:-0.38356948 5:0.49533299 6:-0.99938337 7:0.32427831 8:-0.64683977 9:-1 10:0.65288816 11:0.20340863 12:-1 13:0.15765773 14:-1 15:-0.96318828 16:-0.94400846 17:-0.96918593 18:-0.94913497 19:-0.96912812 20:-0.9089352 21:-0.96792597 22:-0.93959919 23:-0.97054991 24:-0.9500916 25:-0.9709719 26:-0.91025382 27:-0.96668938 28:-0.9573262 29:-0.96656396 30:-0.91504274 31:-0.95010543 32:-0.94890524 33:-0.91905367 34:-0.94368347 35:-1 36:-1 37:-1 38:-0.99999999 39:-0.99999989 40:-0.99999999 41:-1 42:-1 43:-1 44:-1 45:-1 46:-1 47:-1 48:-1 49:-1 50:-1 51:-1 52:-1 53:-1 54:-1 55:-1 56:-1 57:-0.99999995 58:-0.99999999 59:-1 60:-0.99969971 61:-0.99998758 
8 1:-1 2:-0.99999998 3:-0.99999998 4:-0.38356923 5:0.49434614 6:-0.99939794 7:0.3287881 8:-0.64013585 9:-1 10:0.65288836 11:0.20340902 12:-1 13:0.1576579 14:-1 15:-0.95857424 16:-0.95143969 17:-0.97019189 18:-0.954218 19:-0.96802636 20:-0.89922473 21:-0.96851602 22:-0.94590975 23:-0.96954993 24:-0.94493519 25:-0.9677079 26:-0.87873588 27:-0.97119279 28:-0.95836724 29:-0.96337529 30:-0.88097068 31:-0.95082013 32:-0.9487756 33:-0.91822517 34:-0.93291069 35:-1 36:-1 37:-1 38:-0.99999997 39:-0.99999996 40:-0.99999998 41:-1 42:-1 43:-1 44:-1 45:-1 46:-1 47:-1 48:-0.99999999 49:-1 50:-1 51:-0.99999999 52:-1 53:-1 54:-1 55:-1 56:-1 57:-0.99999998 58:-0.99999999 59:-1 60:-0.99976179 61:-0.99997804 
8 1:-0.99999999 2:-0.99999918 3:-0.99999894 4:-0.38361336 5:0.49580159 6:-0.99705566 7:0.30101498 8:-0.56201698 9:-0.99999999 10:0.0043573542 11:0.2034054 12:-1 13:0.15765679 14:-1 15:-0.90515358 16:-0.90412887 17:-0.9095014 18:-0.89344114 19:-0.91576142 20:-0.79144006 21:-0.91334394 22:-0.89319055 23:-0.90898493 24:-0.88675903 25:-0.90626552 26:-0.77775664 27:-0.90966407 28:-0.88440499 29:-0.89935309 30:-0.77238646 31:-0.85869472 32:-0.88855151 33:-0.80567346 34:-0.89371961 35:-0.99999921 36:-0.99999984 37:-0.99999922 38:-0.99999724 39:-0.99999644 40:-0.99999596 41:-0.9999996 42:-0.99999987 43:-0.99999958 44:-0.99999969 45:-0.99999856 46:-0.9999971 47:-0.99999275 48:-0.99998811 49:-0.99999657 50:-0.99999817 51:-0.99999029 52:-0.99999584 53:-0.99999124 54:-0.99999239 55:-0.99998522 56:-0.99999682 57:-0.99995713 58:-0.99999121 59:-0.9999989 60:-0.99639607 61:-0.99899867 
8 1:-0.99999999 2:-0.99999918 3:-0.99999895 4:-0.38360984 5:0.49550335 6:-0.99719154 7:0.30235448 8:-0.56120723 9:-0.99999999 10:0.0043534959 11:0.20340732 12:-1 13:0.15765951 14:-1 15:-0.90370662 16:-0.89943102 17:-0.91435088 18:-0.89194239 19:-0.90967997 20:-0.78954668 21:-0.91337252 22:-0.89489149 23:-0.91456829 24:-0.88015129 25:-0.91332195 26:-0.79080882 27:-0.91207294 28:-0.89635758 29:-0.90171302 30:-0.78028789 31:-0.85867816 32:-0.8924188 33:-0.81842618 34:-0.88960409 35:-0.99999929 36:-0.99999984 37:-0.9999989 38:-0.99999724 39:-0.99999644 40:-0.99999327 41:-0.99999954 42:-0.99999984 43:-0.99999944 44:-0.99999972 45:-0.99999932 46:-0.99999768 47:-0.99999461 48:-0.99998695 49:-0.99999666 50:-0.99999843 51:-0.9999912 52:-0.99999457 53:-0.99999289 54:-0.99999383 55:-0.99998847 56:-0.99999808 57:-0.99998246 58:-0.99999665 59:-0.99999924 60:-0.99641575 61:-0.99903369 
8 1:-0.99999998 2:-0.99999918 3:-0.99999893 4:-0.38360659 5:0.49535103 6:-0.99729376 7:0.30266958 8:-0.56035925 9:-0.99999999 10:0.0043576834 11:0.20339875 12:-1 13:0.1576547 14:-1 15:-0.90291368 16:-0.89697119 17:-0.91205121 18:-0.88805257 19:-0.90858398 20:-0.78379051 21:-0.91247387 22:-0.89288191 23:-0.91114811 24:-0.8764011 25:-0.91417701 26:-0.80208066 27:-0.91320363 28:-0.8947827 29:-0.90083107 30:-0.77585943 31:-0.84494537 32:-0.8893635 33:-0.80983898 34:-0.89092079 35:-0.99999873 36:-0.9999998 37:-0.99999875 38:-0.99998756 39:-0.99999466 40:-0.99998653 41:-0.99999943 42:-0.99999984 43:-0.9999994 44:-0.99999915 45:-0.99999869 46:-0.99999664 47:-0.99999238 48:-0.99998782 49:-0.9999972 50:-0.99999821 51:-0.99998862 52:-0.99999239 53:-0.99999218 54:-0.99999239 55:-0.99998906 56:-0.99999764 57:-0.99997077 58:-0.99999582 59:-0.999999 60:-0.99611408 61:-0.99906244 
8 1:-0.99999998 2:-0.99999918 3:-0.99999893 4:-0.38360549 5:0.49553933 6:-0.99731417 7:0.30189857 8:-0.56114893 9:-0.99999999 10:0.0043682176 11:0.20340862 12:-1 13:0.15765782 14:-1 15:-0.89941615 16:-0.89616045 17:-0.91083771 18:-0.88603043 19:-0.90708955 20:-0.78298973 21:-0.91047854 22:-0.89154111 23:-0.90664932 24:-0.87493246 25:-0.9057915 26:-0.77260337 27:-0.90644761 28:-0.88294519 29:-0.89618459 30:-0.77026307 31:-0.85784377 32:-0.88854833 33:-0.81850648 34:-0.89185465 35:-0.99999913 36:-0.99999984 37:-0.99999906 38:-0.99999033 39:-0.99998576 40:-0.99998788 41:-0.99999943 42:-0.99999988 43:-0.99999958 44:-0.99999962 45:-0.99999856 46:-0.99999652 47:-0.99999107 48:-0.99998898 49:-0.99999648 50:-0.99999873 51:-0.99999014 52:-0.99999194 53:-0.99998982 54:-0.9999911 55:-0.99998493 56:-0.99999646 57:-0.9999279 58:-0.99999289 59:-0.99999861 60:-0.99620728 61:-0.99900447 
8 1:-0.99999999 2:-0.99999913 3:-0.99999888 4:-0.38360081 5:0.49621607 6:-0.99744701 7:0.2999927 8:-0.56049285 9:-0.99999999 10:0.0043646354 11:0.20340995 12:-1 13:0.15765952 14:-1 15:-0.90467937 16:-0.90452047 17:-0.91295521 18:-0.89850918 19:-0.91334336 20:-0.79907784 21:-0.90804315 22:-0.8913972 23:-0.90972393 24:-0.88042488 25:-0.90817442 26:-0.77892364 27:-0.90938637 28:-0.88731498 29:-0.90294766 30:-0.77718719 31:-0.86207583 32:-0.89058108 33:-0.82493476 34:-0.89580657 35:-0.99999929 36:-0.99999988 37:-0.99999906 38:-0.99998756 39:-0.99999644 40:-0.99999327 41:-0.99999937 42:-0.99999992 43:-0.99999949 44:-0.99999978 45:-0.9999991 46:-0.9999971 47:-0.99999405 48:-0.99999246 49:-0.99999702 50:-0.99999899 51:-0.99999378 52:-0.99999511 53:-0.99999266 54:-0.9999934 55:-0.9999864 56:-0.9999983 57:-0.99996687 58:-0.99999582 59:-0.99999928 60:-0.99618039 61:-0.99902932 
8 1:-0.99999999 2:-0.99999911 3:-0.99999883 4:-0.38359737 5:0.49534702 6:-0.99750996 7:0.30167175 8:-0.55937924 9:-0.99999999 10:0.004360009 11:0.20340647 12:-1 13:0.15765733 14:-1 15:-0.91515184 16:-0.89151312 17:-0.92188626 18:-0.88735491 19:-0.92223623 20:-0.78223556 21:-0.91793216 22:-0.8881411 23:-0.91647694 24:-0.87707875 25:-0.91572328 26:-0.7791442 27:-0.91677625 28:-0.89125237 29:-0.907437 30:-0.78242105 31:-0.86057696 32:-0.89476504 33:-0.83356436 34:-0.89392411 35:-0.99999905 36:-0.99999969 37:-0.99999922 38:-0.99999724 39:-0.99999822 40:-0.99998923 41:-0.99999966 42:-0.99999993 43:-0.99999953 44:-0.99999969 45:-0.9999991 46:-0.99999722 47:-0.99999238 48:-0.99999043 49:-0.9999972 50:-0.9999984 51:-0.99999347 52:-0.99999511 53:-0.99999242 54:-0.99999411 55:-0.99998788 56:-0.99999749 57:-0.99996493 58:-0.99999414 59:-0.99999981 60:-0.99626064 61:-0.99903608 
8 1:-0.99999999 2:-0.99999908 3:-0.99999876 4:-0.38359333 5:0.49536842 6:-0.99753464 7:0.30126667 8:-0.55912915 9:-0.99999999 10:0.0043610284 11:0.20341024 12:-1 13:0.15765822 14:-1 15:-0.90936345 16:-0.88001903 17:-0.92201172 18:-0.88039322 19:-0.92555865 20:-0.76684237 21:-0.92392811 22:-0.88688631 23:-0.91977403 24:-0.87502065 25:-0.90956466 26:-0.77205473 27:-0.90476968 28:-0.88426722 29:-0.90609775 30:-0.77566687 31:-0.86264095 32:-0.88755183 33:-0.83165678 34:-0.89275945 35:-0.99999857 36:-0.99999961 37:-0.9999989 38:-0.99999309 39:-0.99999644 40:-0.99999192 41:-0.99999897 42:-0.99999983 43:-0.99999953 44:-0.99999947 45:-0.99999923 46:-0.99999815 47:-0.99999461 48:-0.99998898 49:-0.99999612 50:-0.99999825 51:-0.99999135 52:-0.99999421 53:-0.99999313 54:-0.9999921 55:-0.99998759 56:-0.99999756 57:-0.99996493 58:-0.99999833 59:-0.9999999 60:-0.99605513 61:-0.99907105 
8 1:-0.99999998 2:-0.999999 3:-0.99999868 4:-0.3835877 5:0.49576707 6:-0.99753284 7:0.30092059 8:-0.55988728 9:-0.99999999 10:0.0043665929 11:0.20340735 12:-1 13:0.15765766 14:-1 15:-0.90316012 16:-0.88006127 17:-0.91515665 18:-0.87662069 19:-0.92435243 20:-0.7627323 21:-0.91534087 22:-0.88009832 23:-0.91472499 24:-0.86335736 25:-0.91038319 26:-0.74853571 27:-0.91328358 28:-0.87392573 29:-0.90641229 30:-0.75391479 31:-0.8706337 32:-0.88385868 33:-0.82564809 34:-0.8940436 35:-0.99999747 36:-0.99999965 37:-0.99999843 38:-0.99999447 39:-0.99998932 40:-0.99999192 41:-0.99999954 42:-0.99999988 43:-0.99999958 44:-0.99999966 45:-0.99999905 46:-0.99999629 47:-0.99999163 48:-0.99998492 49:-0.99999504 50:-0.99999825 51:-0.99999105 52:-0.99999122 53:-0.99999278 54:-0.99999383 55:-0.99998995 56:-0.99999838 57:-0.99994739 58:-0.99999498 59:-0.99999952 60:-0.99592507 61:-0.99908431 
8 1:-0.99999998 2:-0.99999887 3:-0.9999986 4:-0.3835813 5:0.49594904 6:-0.99749771 7:0.30109436 8:-0.56075576 9:-0.99999999 10:0.0043652159 11:0.20340708 12:-1 13:0.1576577 14:-1 15:-0.91227615 16:-0.8921545 17:-0.91296614 18:-0.88700845 19:-0.92005662 20:-0.77198559 21:-0.91740782 22:-0.880899 23:-0.91702211 24:-0.86276402 25:-0.91595828 26:-0.73857926 27:-0.9214049 28:-0.86708536 29:-0.91313694 30:-0.74655367 31:-0.87577355 32:-0.88462481 33:-0.82349456 34:-0.89488124 35:-0.99999786 36:-0.99999965 37:-0.99999781 38:-0.99999309 39:-0.99998754 40:-0.99999057 41:-0.99999954 42:-0.99999978 43:-0.99999944 44:-0.99999947 45:-0.9999991 46:-0.99999595 47:-0.9999907 48:-0.99998811 49:-0.9999954 50:-0.99999791 51:-0.99999014 52:-0.99999312 53:-0.99999171 54:-0.99999268 55:-0.99998877 56:-0.9999986 57:-0.99997857 58:-0.99999623 59:-0.99999976 60:-0.99599904 61:-0.99910803 
8 1:-0.99999999 2:-0.99999775 3:-0.99999713 4:-0.38357942 5:0.49532841 6:-0.99752252 7:0.30060064 8:-0.56008807 9:-1 10:0.004361074 11:0.20340736 12:-1 13:0.15765817 14:-1 15:-0.9128336 16:-0.89448871 17:-0.91961769 18:-0.88521177 19:-0.91661916 20:-0.79126266 21:-0.91842637 22:-0.892637 23:-0.92303585 24:-0.87521874 25:-0.91793567 26:-0.76825342 27:-0.90939644 28:-0.88005758 29:-0.90200903 30:-0.76806171 31:-0.86348783 32:-0.88885276 33:-0.8337413 34:-0.89607677 35:-0.99999921 36:-0.99999957 37:-0.99999797 38:-0.99999309 39:-0.99999288 40:-0.99999057 41:-0.99999954 42:-0.99999986 43:-0.99999958 44:-0.9999995 45:-0.9999995 46:-0.99999768 47:-0.99999814 48:-0.99999507 49:-0.99999711 50:-0.99999899 51:-0.99999514 52:-0.99999855 53:-0.99999739 54:-0.99999885 55:-0.99999941 56:-0.99999985 57:-0.99999221 58:-0.99999958 59:-0.9999999 60:-0.9960154 61:-0.99925494 
8 1:-1 2:-0.99999767 3:-0.9999971 4:-0.38358582 5:0.4967719 6:-0.99755532 7:0.30115565 8:-0.55971264 9:-1 10:0.0043625824 11:0.20340936 12:-1 13:0.15765807 14:-1 15:-0.92139603 16:-0.90982357 17:-0.92874646 18:-0.90329014 19:-0.92931027 20:-0.81081791 21:-0.92671795 22:-0.89978287 23:-0.91074692 24:-0.8777331 25:-0.91207871 26:-0.78024509 27:-0.9121999 28:-0.88910634 29:-0.90452761 30:-0.78126505 31:-0.86972614 32:-0.89410196 33:-0.83276164 34:-0.89665868 35:-0.99999937 36:-0.9999998 37:-0.99999922 38:-0.99999447 39:-0.99999466 40:-0.99999327 41:-0.9999996 42:-0.99999991 43:-0.99999967 44:-0.99999975 45:-0.99999964 46:-0.9999993 47:-0.99999702 48:-0.99999449 49:-0.99999874 50:-0.99999918 51:-0.99999833 52:-0.99999792 53:-0.99999858 54:-0.99999842 55:-0.99999764 56:-0.99999934 57:-0.99999805 58:-0.99999833 59:-0.99999986 60:-0.99604565 61:-0.99920424 
8 1:-1 2:-0.99999759 3:-0.999997 4:-0.38358638 5:0.49664401 6:-0.99755382 7:0.30108785 8:-0.56027717 9:-1 10:0.0043623213 11:0.20340714 12:-1 13:0.15765908 14:-1 15:-0.92092487 16:-0.90873159 17:-0.92832274 18:-0.90200105 19:-0.91301855 20:-0.80044388 21:-0.91719672 22:-0.89552933 23:-0.9129092 24:-0.88121837 25:-0.91366543 26:-0.77803996 27:-0.91908478 28:-0.88616279 29:-0.91092773 30:-0.77547826 31:-0.8729887 32:-0.89347362 33:-0.8378524 34:-0.89634986 35:-0.99999913 36:-0.99999992 37:-0.99999875 38:-0.99999585 39:-0.9999911 40:-0.99999596 41:-0.99999966 42:-0.99999992 43:-0.99999949 44:-0.99999978 45:-0.9999995 46:-0.99999826 47:-0.99999758 48:-0.99999507 49:-0.99999756 50:-0.99999937 51:-0.99999742 52:-0.99999864 53:-0.99999822 54:-0.99999885 55:-0.99999734 56:-0.9999997 57:-0.99999805 58:-0.99999958 59:-0.9999999 60:-0.9960232 61:-0.99920881 
8 1:-1 2:-0.99999752 3:-0.99999686 4:-0.38358772 5:0.49594751 6:-0.9975514 7:0.30094533 8:-0.56016153 9:-1 10:0.0043618647 11:0.20340961 12:-1 13:0.15765905 14:-1 15:-0.89901131 16:-0.90692999 17:-0.91189461 18:-0.89648 19:-0.91117786 20:-0.79985411 21:-0.92438163 22:-0.89912388 23:-0.90670306 24:-0.87924323 25:-0.91175765 26:-0.77889379 27:-0.91405307 28:-0.88778193 29:-0.90744119 30:-0.77591619 31:-0.87097937 32:-0.89417452 33:-0.83440018 34:-0.90317349 35:-0.99999913 36:-0.99999984 37:-0.99999922 38:-0.99999585 39:-0.99999644 40:-0.99999327 41:-0.99999971 42:-0.99999988 43:-0.99999949 44:-0.99999978 45:-0.99999964 46:-0.99999873 47:-0.99999851 48:-0.99999391 49:-0.99999793 50:-0.99999933 51:-0.99999757 52:-0.99999855 53:-0.99999846 54:-0.99999813 55:-0.99999823 56:-0.99999948 57:-0.99999805 58:-0.99999916 59:-0.9999999 60:-0.99607539 61:-0.99921954 
8 1:-1 2:-0.99999739 3:-0.99999676 4:-0.3835895 5:0.4940438 6:-0.99755627 7:0.30096501 8:-0.55609177 9:-1 10:0.0043618067 11:0.20340899 12:-1 13:0.15765887 14:-1 15:-0.90979962 16:-0.90258711 17:-0.91906519 18:-0.89400479 19:-0.91614351 20:-0.78316865 21:-0.91883748 22:-0.89294672 23:-0.91847634 24:-0.88544255 25:-0.9154278 26:-0.77688486 27:-0.91557788 28:-0.88712156 29:-0.90642733 30:-0.7802654 31:-0.87044454 32:-0.89621989 33:-0.81963927 34:-0.89806426 35:-0.99999968 36:-0.99999988 37:-0.99999922 38:-0.99999309 39:-0.99999288 40:-0.99999192 41:-0.99999989 42:-0.99999996 43:-0.99999944 44:-0.99999994 45:-0.99999941 46:-0.99999907 47:-0.99999833 48:-0.99999913 49:-0.9999982 50:-0.99999914 51:-0.99999727 52:-0.99999864 53:-0.99999763 54:-0.99999713 55:-0.99999616 56:-0.99999956 57:-0.99998051 58:-0.99999833 59:-0.99999971 60:-0.99628956 61:-0.99917058 
8 1:-1 2:-0.99999735 3:-0.99999669 4:-0.38359319 5:0.49350881 6:-0.99754747 7:0.30148109 8:-0.55410788 9:-1 10:0.0043615877 11:0.20340776 12:-1 13:0.15765895 14:-1 15:-0.92241023 16:-0.88883427 17:-0.92505604 18:-0.88164841 19:-0.92343938 20:-0.7706904 21:-0.92453519 22:-0.89026912 23:-0.92308303 24:-0.88271133 25:-0.91775884 26:-0.77315226 27:-0.91589165 28:-0.88705794 29:-0.90849574 30:-0.78683984 31:-0.86322658 32:-0.89435017 33:-0.83881817 34:-0.89703309 35:-0.99999968 36:-0.99999973 37:-0.99999906 38:-0.99999033 39:-0.99999288 40:-0.99998923 41:-0.99999971 42:-0.99999991 43:-0.99999972 44:-0.99999966 45:-0.99999959 46:-0.99999861 47:-0.99999795 48:-0.99999623 49:-0.99999874 50:-0.99999929 51:-0.99999712 52:-0.99999792 53:-0.99999893 54:-0.99999828 55:-0.99999557 56:-0.99999963 57:-0.99997467 58:-0.99999749 59:-0.99999986 60:-0.99596614 61:-0.99920346 
8 1:-0.99999999 2:-0.99999734 3:-0.99999667 4:-0.38359828 5:0.49412757 6:-0.99752605 7:0.30183976 8:-0.55673934 9:-1 10:0.0043618355 11:0.20340945 12:-1 13:0.15765876 14:-1 15:-0.91654375 16:-0.88153565 17:-0.92690743 18:-0.87778225 19:-0.92561415 20:-0.77029956 21:-0.92456674 22:-0.88908737 23:-0.91963865 24:-0.87355428 25:-0.91354949 26:-0.77552055 27:-0.91549334 28:-0.88822295 29:-0.90549046 30:-0.77938704 31:-0.86745902 32:-0.89313695 33:-0.83833511 34:-0.89431485 35:-0.99999968 36:-0.99999965 37:-0.99999922 38:-0.99999033 39:-0.99998576 40:-0.99998923 41:-0.9999996 42:-0.99999993 43:-0.99999967 44:-0.99999962 45:-0.99999941 46:-0.99999873 47:-0.99999851 48:-0.9999971 49:-0.99999838 50:-0.9999994 51:-0.9999959 52:-0.99999801 53:-0.99999917 54:-0.99999856 55:-0.99999586 56:-0.99999919 57:-0.99998246 58:-0.99999916 59:-0.99999981 60:-0.99593773 61:-0.99922466 
8 1:-0.99999999 2:-0.99999734 3:-0.99999667 4:-0.38361104 5:0.49443808 6:-0.9974312 7:0.3027142 8:-0.55805174 9:-1 10:0.0043638443 11:0.20340841 12:-1 13:0.1576563 14:-1 15:-0.91415024 16:-0.87837556 17:-0.92312409 18:-0.8767055 19:-0.92289662 20:-0.77825209 21:-0.92086944 22:-0.88943972 23:-0.92092981 24:-0.87535275 25:-0.90958571 26:-0.77288723 27:-0.91318976 28:-0.88486529 29:-0.90091395 30:-0.77719813 31:-0.86564305 32:-0.88991885 33:-0.83300612 34:-0.89590784 35:-0.99999865 36:-0.99999976 37:-0.99999875 38:-0.99999447 39:-0.99999288 40:-0.99999327 41:-0.99999971 42:-0.99999984 43:-0.99999977 44:-0.99999972 45:-0.99999937 46:-0.99999861 47:-0.99999814 48:-0.99999507 49:-0.99999919 50:-0.99999948 51:-0.99999727 52:-0.99999828 53:-0.99999882 54:-0.99999813 55:-0.99999527 56:-0.99999956 57:-0.99997662 58:-0.99999749 59:-0.99999981 60:-0.99550354 61:-0.99924242 
8 1:-1 2:-0.99999734 3:-0.99999669 4:-0.38362073 5:0.49508603 6:-0.99731939 7:0.30230526 8:-0.56054675 9:-1 10:0.0043612432 11:0.20340838 12:-1 13:0.15765863 14:-1 15:-0.91932634 16:-0.90621057 17:-0.92342586 18:-0.88654186 19:-0.91509011 20:-0.80642719 21:-0.92114281 22:-0.89810003 23:-0.92562382 24:-0.89052299 25:-0.91443241 26:-0.77877768 27:-0.91317029 28:-0.88770408 29:-0.89894628 30:-0.77704272 31:-0.87150203 32:-0.89288095 33:-0.82955168 34:-0.89450861 35:-0.99999921 36:-0.9999998 37:-0.99999859 38:-0.99999447 39:-0.9999911 40:-0.99998923 41:-0.99999949 42:-0.99999984 43:-0.99999953 44:-0.99999966 45:-0.99999959 46:-0.99999861 47:-0.9999987 48:-0.99999536 49:-0.99999928 50:-0.99999963 51:-0.99999757 52:-0.99999846 53:-0.99999882 54:-0.99999928 55:-0.99999645 56:-0.99999941 57:-0.99998246 58:-0.99999749 59:-0.99999981 60:-0.99558961 61:-0.99926684 
8 1:-1 2:-0.99999737 3:-0.99999673 4:-0.38362813 5:0.49491605 6:-0.99720696 7:0.30305303 8:-0.55893515 9:-1 10:0.0043616315 11:0.2034084 12:-1 13:0.15765789 14:-1 15:-0.90755082 16:-0.90641958 17:-0.91703404 18:-0.89556699 19:-0.91546645 20:-0.78760952 21:-0.91682433 22:-0.89663811 23:-0.9259873 24:-0.88059521 25:-0.91528234 26:-0.78335925 27:-0.92161674 28:-0.89359214 29:-0.90390523 30:-0.79196601 31:-0.86818083 32:-0.89860526 33:-0.83288546 34:-0.89459204 35:-0.99999937 36:-0.99999976 37:-0.99999937 38:-0.99999171 39:-0.9999911 40:-0.99999461 41:-0.99999983 42:-0.99999988 43:-0.99999967 44:-0.99999975 45:-0.9999995 46:-0.99999861 47:-0.99999851 48:-0.99999594 49:-0.99999874 50:-0.99999951 51:-0.99999666 52:-0.99999891 53:-0.99999917 54:-0.99999871 55:-0.99999882 56:-0.99999941 57:-0.9999961 58:-0.99999916 59:-0.9999999 60:-0.99592049 61:-0.99924385 
8 1:-1 2:-0.99999733 3:-0.99999665 4:-0.38363631 5:0.49414069 6:-0.99702938 7:0.30558549 8:-0.55727021 9:-1 10:0.0043628747 11:0.20340927 12:-1 13:0.15765939 14:-1 15:-0.89871874 16:-0.88561058 17:-0.91110843 18:-0.88220791 19:-0.91747368 20:-0.78064177 21:-0.91820801 22:-0.89203217 23:-0.91458578 24:-0.87682131 25:-0.91573215 26:-0.77661689 27:-0.91949256 28:-0.88395349 29:-0.91169651 30:-0.77828582 31:-0.88867458 32:-0.90376712 33:-0.83179784 34:-0.8953223 35:-0.99999921 36:-0.99999984 37:-0.99999953 38:-0.99999033 39:-0.99999288 40:-0.99998653 41:-0.99999966 42:-0.99999996 43:-0.99999949 44:-0.99999975 45:-0.99999937 46:-0.99999861 47:-0.99999851 48:-0.99999507 49:-0.99999874 50:-0.99999925 51:-0.99999757 52:-0.999999 53:-0.99999799 54:-0.99999943 55:-0.99999586 56:-0.99999934 57:-0.99998831 58:-0.99999791 59:-0.99999986 60:-0.99599134 61:-0.99925771 
8 1:-0.99999999 2:-0.99999716 3:-0.99999656 4:-0.38364522 5:0.49424389 6:-0.99684093 7:0.30597089 8:-0.55840244 9:-1 10:0.0043623465 11:0.20340793 12:-1 13:0.15765805 14:-1 15:-0.90132913 16:-0.88359726 17:-0.91384456 18:-0.8811403 19:-0.91586795 20:-0.77543604 21:-0.91566154 22:-0.88738249 23:-0.91975167 24:-0.87279664 25:-0.92074165 26:-0.76095048 27:-0.92419498 28:-0.87970745 29:-0.91582744 30:-0.76820754 31:-0.87376865 32:-0.89634966 33:-0.83274658 34:-0.89813053 35:-0.99999937 36:-0.99999984 37:-0.99999969 38:-0.99998894 39:-0.99999466 40:-0.99999327 41:-0.99999966 42:-0.99999995 43:-0.99999972 44:-0.99999969 45:-0.99999964 46:-0.99999849 47:-0.99999833 48:-0.99999391 49:-0.99999865 50:-0.99999899 51:-0.99999742 52:-0.99999882 53:-0.99999834 54:-0.99999813 55:-0.99999498 56:-0.99999889 57:-0.99998636 58:-0.99999833 59:-0.99999976 60:-0.99615387 61:-0.99919537 
8 1:-0.99999999 2:-0.99999706 3:-0.99999645 4:-0.38365387 5:0.49525195 6:-0.99664574 7:0.30295303 8:-0.56107676 9:-1 10:0.0043633151 11:0.20340858 12:-1 13:0.15765816 14:-1 15:-0.91363711 16:-0.89278697 17:-0.91947301 18:-0.88707322 19:-0.91911005 20:-0.76977918 21:-0.92348483 22:-0.88640856 23:-0.91851903 24:-0.86533852 25:-0.91700871 26:-0.74418781 27:-0.91983368 28:-0.86996601 29:-0.91506184 30:-0.75363766 31:-0.88498794 32:-0.9032718 33:-0.83792339 34:-0.89722909 35:-0.99999929 36:-0.99999988 37:-0.99999906 38:-0.99999171 39:-0.99998754 40:-0.99999731 41:-0.99999983 42:-0.99999991 43:-0.99999981 44:-0.99999975 45:-0.99999973 46:-0.99999826 47:-0.99999814 48:-0.99999507 49:-0.99999892 50:-0.99999907 51:-0.99999742 52:-0.99999873 53:-0.99999799 54:-0.99999828 55:-0.99999409 56:-0.99999867 57:-0.99997857 58:-0.99999791 59:-0.99999947 60:-0.99606827 61:-0.99919778 
8 1:-0.99999999 2:-0.99999699 3:-0.99999637 4:-0.3836599 5:0.4956007 6:-0.99650051 7:0.30175882 8:-0.56071231 9:-1 10:0.0043667185 11:0.20340785 12:-1 13:0.15765799 14:-1 15:-0.90506858 16:-0.90617242 17:-0.9203347 18:-0.89615049 19:-0.92348966 20:-0.78153026 21:-0.92787709 22:-0.88526736 23:-0.91927628 24:-0.86135212 25:-0.92118556 26:-0.74119397 27:-0.92305265 28:-0.87039119 29:-0.92033876 30:-0.75392017 31:-0.88337649 32:-0.902919 33:-0.83550444 34:-0.89884729 35:-0.99999905 36:-0.99999988 37:-0.9999989 38:-0.99999309 39:-0.9999911 40:-0.99999461 41:-0.99999971 42:-0.99999993 43:-0.99999935 44:-0.99999994 45:-0.99999977 46:-0.9999993 47:-0.99999814 48:-0.9999942 49:-0.99999928 50:-0.99999918 51:-0.99999651 52:-0.99999891 53:-0.9999968 54:-0.99999813 55:-0.99999261 56:-0.99999934 57:-0.99998636 58:-0.99999582 59:-0.99999976 60:-0.99584127 61:-0.99918039 
8 1:-0.99999999 2:-0.99999697 3:-0.99999632 4:-0.38366026 5:0.49554315 6:-0.99650465 7:0.30196794 8:-0.56088004 9:-1 10:0.0043633275 11:0.20340777 12:-1 13:0.15765848 14:-1 15:-0.90365967 16:-0.90660954 17:-0.91801754 18:-0.89654241 19:-0.91840365 20:-0.78618704 21:-0.92166725 22:-0.8877159 23:-0.91658849 24:-0.86353774 25:-0.91664718 26:-0.74530541 27:-0.92133022 28:-0.87236521 29:-0.9157647 30:-0.75832661 31:-0.8890809 32:-0.9043984 33:-0.84297764 34:-0.89961281 35:-0.99999952 36:-0.99999992 37:-0.99999984 38:-0.99999171 39:-0.9999911 40:-0.99999057 41:-0.99999989 42:-0.99999995 43:-0.99999977 44:-0.99999987 45:-0.99999959 46:-0.99999919 47:-0.9999974 48:-0.99999594 49:-0.99999784 50:-0.99999881 51:-0.99999575 52:-0.99999891 53:-0.99999811 54:-0.99999742 55:-0.99999409 56:-0.99999911 57:-0.99999415 58:-0.99999874 59:-0.9999999 60:-0.99650877 61:-0.99915503 
8 1:-0.99999999 2:-0.99999689 3:-0.99999627 4:-0.38365898 5:0.49541659 6:-0.99655567 7:0.30239513 8:-0.56095189 9:-1 10:0.0043611045 11:0.20340884 12:-1 13:0.15765797 14:-1 15:-0.90291761 16:-0.90681418 17:-0.91713388 18:-0.8969846 19:-0.91449086 20:-0.78760547 21:-0.91903374 22:-0.88405882 23:-0.91593794 24:-0.86527017 25:-0.91556341 26:-0.74903126 27:-0.92017634 28:-0.87411415 29:-0.91658639 30:-0.76096842 31:-0.87917326 32:-0.90231221 33:-0.83810519 34:-0.90279693 35:-0.99999921 36:-0.99999988 37:-0.99999953 38:-0.99999033 39:-0.99999644 40:-0.99999327 41:-0.99999983 42:-0.99999997 43:-0.99999953 44:-0.99999991 45:-0.99999968 46:-0.99999873 47:-0.99999572 48:-0.99999391 49:-0.99999838 50:-0.99999899 51:-0.99999681 52:-0.99999819 53:-0.99999811 54:-0.99999785 55:-0.99999586 56:-0.99999956 57:-0.99999221 58:-0.99999916 59:-0.9999999 60:-0.99628048 61:-0.99917152 
8 1:-0.99999999 2:-0.99999692 3:-0.99999627 4:-0.38365832 5:0.49521885 6:-0.99657247 7:0.30309985 8:-0.56060184 9:-1 10:0.0043628408 11:0.20340915 12:-1 13:0.15765717 14:-1 15:-0.90172461 16:-0.90641532 17:-0.91519589 18:-0.89626337 19:-0.9155367 20:-0.787495 21:-0.91620299 22:-0.88585896 23:-0.91235606 24:-0.8668917 25:-0.913296 26:-0.75242821 27:-0.91757477 28:-0.87443332 29:-0.91359234 30:-0.77034126 31:-0.87671169 32:-0.89926571 33:-0.84600115 34:-0.90500328 35:-0.99999929 36:-0.99999992 37:-0.99999969 38:-0.99999033 39:-0.99999466 40:-0.99999461 41:-0.99999966 42:-0.99999993 43:-0.99999967 44:-0.99999984 45:-0.99999959 46:-0.9999978 47:-0.99999609 48:-0.99999478 49:-0.99999756 50:-0.99999903 51:-0.99999605 52:-0.99999882 53:-0.99999787 54:-0.99999885 55:-0.99999852 56:-0.99999963 57:-0.9999961 58:-0.99999916 59:-0.9999999 60:-0.99638104 61:-0.99918726 
8 1:-1 2:-0.99999702 3:-0.99999631 4:-0.38365678 5:0.49571687 6:-0.99659841 7:0.30129285 8:-0.56072057 9:-1 10:0.0043612612 11:0.20341004 12:-1 13:0.15765706 14:-1 15:-0.89786048 16:-0.91114853 17:-0.9117936 18:-0.90031571 19:-0.91058371 20:-0.79567557 21:-0.9115503 22:-0.88787971 23:-0.91119309 24:-0.87100471 25:-0.91129698 26:-0.75249066 27:-0.91535348 28:-0.872612 29:-0.91145212 30:-0.76915992 31:-0.88025499 32:-0.90212261 33:-0.8389351 34:-0.90266195 35:-0.99999913 36:-0.99999992 37:-0.99999984 38:-0.99999171 39:-0.99999644 40:-0.99999596 41:-0.99999977 42:-0.99999992 43:-0.99999967 44:-0.99999969 45:-0.99999937 46:-0.99999873 47:-0.99999461 48:-0.99999391 49:-0.99999856 50:-0.99999922 51:-0.9999956 52:-0.99999837 53:-0.99999858 54:-0.99999871 55:-0.99999882 56:-0.9999997 57:-0.9999961 58:-0.99999958 59:-0.9999999 60:-0.99643217 61:-0.99919843 
8 1:-1 2:-0.99999706 3:-0.99999642 4:-0.383655 5:0.49548449 6:-0.99662281 7:0.30213368 8:-0.56093164 9:-1 10:0.0043646071 11:0.20340716 12:-1 13:0.15765869 14:-1 15:-0.89158017 16:-0.91197347 17:-0.9083955 18:-0.90300458 19:-0.91421209 20:-0.79962163 21:-0.91017589 22:-0.89029103 23:-0.90881522 24:-0.87613211 25:-0.90918693 26:-0.76518968 27:-0.91186721 28:-0.87783358 29:-0.90747567 30:-0.77042312 31:-0.88046587 32:-0.90216325 33:-0.84327243 34:-0.89946419 35:-0.99999929 36:-0.99999984 37:-0.99999953 38:-0.99998894 39:-0.9999911 40:-0.99999596 41:-0.99999966 42:-0.99999991 43:-0.99999972 44:-0.99999975 45:-0.99999937 46:-0.99999838 47:-0.9999974 48:-0.99999507 49:-0.99999919 50:-0.99999914 51:-0.99999818 52:-0.99999792 53:-0.99999716 54:-0.99999871 55:-0.99999823 56:-0.99999948 57:-0.99999415 58:-0.99999958 59:-0.9999999 60:-0.99611161 61:-0.99921726 
8 1:-1 2:-0.99999717 3:-0.99999659 4:-0.38365149 5:0.49560928 6:-0.99668234 7:0.30168042 8:-0.5615768 9:-1 10:0.0043638885 11:0.20340728 12:-1 13:0.15765564 14:-1 15:-0.91698055 16:-0.90925936 17:-0.92756607 18:-0.90125969 19:-0.91374601 20:-0.80053783 21:-0.90723433 22:-0.89513004 23:-0.9155287 24:-0.87785363 25:-0.90940052 26:-0.77119968 27:-0.91487396 28:-0.88334025 29:-0.90965405 30:-0.77777288 31:-0.88592749 32:-0.90020882 33:-0.84023765 34:-0.8978202 35:-0.99999897 36:-0.99999992 37:-0.99999937 38:-0.99999447 39:-0.99999288 40:-0.99999596 41:-0.99999983 42:-0.99999986 43:-0.99999949 44:-0.99999975 45:-0.99999955 46:-0.99999873 47:-0.99999777 48:-0.99999478 49:-0.99999856 50:-0.99999944 51:-0.99999818 52:-0.99999873 53:-0.99999811 54:-0.99999914 55:-0.99999704 56:-0.99999934 57:-0.99998831 58:-0.99999791 59:-0.99999986 60:-0.99596028 61:-0.99924362 
