svm_type c_svc
kernel_type rbf
gamma 0.02
nr_class 2
total_sv 69
rho 3.93019
label 1 -1
probA -2.25654
probB 0.22093
nr_sv 32 37
SV
8 1:-0.99999907 2:-0.99666 3:-0.99666589 4:0.66917515 5:-0.15827298 6:-0.59301958 7:-0.73770806 8:-0.76466407 9:-0.99999991 10:0.78075291 11:0.26147016 12:-0.99999961 13:-0.79824702 14:-0.99999973 15:-0.9707234 16:-0.92815421 17:-0.97134763 18:-0.93218472 19:-1 20:-1 21:-0.98460482 22:-0.86702201 23:-1 24:-1 25:-0.99343062 26:-0.99173779 27:-0.99377323 28:-0.97885839 29:-1 30:-1 31:-1 32:-1 33:-1 34:-1 35:-0.99994385 36:-1 37:-1 38:-1 39:-1 40:-0.99994489 41:-1 42:-0.99998345 43:-1 44:-0.9999951 45:-1 46:-0.99999122 47:-0.99999484 48:-0.99999289 49:-0.99997449 50:-0.99980177 51:-1 52:-0.99995568 53:-1 54:-1 55:-0.99998483 56:-1 57:-0.99999222 58:-1 59:-0.99999948 60:-0.92996505 61:-0.98743998 
8 1:-0.99999634 2:-0.99709349 3:-0.99699515 4:0.67298801 5:-0.51550458 6:-0.69069834 7:0.66145705 8:-0.7456698 9:-0.99999939 10:0.77717291 11:0.26983253 12:-0.99999876 13:-0.80635151 14:-0.99999913 15:-0.99032754 16:-0.96195752 17:-0.99681599 18:-0.9711521 19:-1 20:-1 21:-0.9480879 22:-0.84573219 23:-0.94872372 24:-0.83745776 25:-1 26:-1 27:-0.92685642 28:-0.85089009 29:-1 30:-1 31:-0.96848201 32:-0.92459812 33:-0.97394545 34:-0.93161289 35:-0.99997192 36:-0.99942326 37:-0.9998793 38:-0.99996668 39:-0.99973268 40:-0.99991734 41:-0.99983281 42:-0.99990067 43:-0.99997568 44:-0.9999902 45:-0.99997121 46:-0.99999707 47:-0.99997938 48:-0.99996444 49:-0.99996174 50:-0.99960354 51:-0.99999588 52:-0.99986703 53:-0.99929252 54:-0.99984076 55:-0.99993931 56:-0.9999761 57:-0.9999689 58:-1 59:-1 60:-0.89824511 61:-0.97227267 
8 1:-0.99999726 2:-0.99724874 3:-0.99710986 4:0.67610112 5:-0.43618692 6:-0.7812483 7:0.31759676 8:-0.91169655 9:-0.99999961 10:0.78029157 11:0.26368439 12:-0.99999878 13:-0.80468444 14:-0.99999915 15:-0.96188885 16:-0.91188976 17:-0.97692677 18:-0.89568362 19:-1 20:-1 21:-0.96645512 22:-0.91185127 23:-1 24:-1 25:-0.95340885 26:-0.86759033 27:-0.94499865 28:-0.85107311 29:-1 30:-1 31:-0.8974073 32:-0.83299825 33:-0.95553142 34:-0.94647234 35:-0.99991577 36:-0.99985581 37:-0.99992758 38:-0.99995002 39:-0.99983961 40:-0.99994489 41:-0.99966562 42:-0.99995034 43:-0.99997082 44:-0.9999608 45:-0.99997121 46:-0.99999122 47:-1 48:-0.99997867 49:-0.99998725 50:-0.99995044 51:-1 52:-0.99986703 53:-0.99992925 54:-0.99992038 55:-0.99998483 56:-0.99998805 57:-1 58:-1 59:-0.99999895 60:-0.8950854 61:-0.97912108 
8 1:-0.99999752 2:-0.99759271 3:-0.99739444 4:0.67883705 5:-0.47595278 6:-0.83965352 7:0.41325998 8:-0.82037955 9:-0.99999966 10:0.78098358 11:0.26188603 12:-0.9999992 13:-0.80205134 14:-0.99999945 15:-0.98863297 16:-0.97441848 17:-0.98194621 18:-0.96790309 19:-1 20:-1 21:-0.94415428 22:-0.91953139 23:-0.9599103 24:-0.87698825 25:-1 26:-1 27:-0.95623839 28:-0.82833623 29:-1 30:-1 31:-0.9781208 32:-0.94657696 33:-0.96509531 34:-0.94929026 35:-0.99997754 36:-0.99927907 37:-0.99995172 38:-0.99996668 39:-0.99983961 40:-0.99972446 41:-0.99987461 42:-0.99996689 43:-0.99999027 44:-0.9999902 45:-0.9999892 46:-0.99999707 47:-0.99997938 48:-0.99997155 49:-0.99998725 50:-0.99990088 51:-0.99999931 52:-0.99982271 53:-0.99957551 54:-0.99984076 55:-0.99996965 56:-0.99998805 57:-1 58:-0.99998764 59:-0.99999895 60:-0.89029746 61:-0.97243933 
8 1:-0.99999726 2:-0.99759844 3:-0.99754 4:0.68018686 5:-0.42033506 6:-0.86656007 7:0.23368157 8:-0.92587277 9:-0.99999965 10:0.78054992 11:0.26223446 12:-0.99999911 13:-0.80031589 14:-0.99999938 15:-0.89969819 16:-0.97125698 17:-0.94349028 18:-0.93730193 19:-1 20:-1 21:-0.97828127 22:-0.88826929 23:-1 24:-1 25:-0.96512004 26:-0.86845424 27:-0.94427642 28:-0.87081973 29:-1 30:-1 31:-0.94093808 32:-0.8394998 33:-0.98376793 34:-0.96328297 35:-0.99997754 36:-0.99971163 37:-0.99995172 38:-0.9998334 39:-1 40:-0.99988978 41:-0.99979101 42:-0.99991723 43:-0.99999027 44:-0.99993631 45:-0.99997481 46:-0.99999707 47:-1 48:-0.99999289 49:-1 50:-0.99990088 51:-0.99999794 52:-0.99986703 53:-0.99978776 54:-0.99992038 55:-1 56:-0.99998805 57:-0.99997667 58:-0.99996293 59:-0.99999895 60:-0.88226246 61:-0.97258009 
8 1:-0.98694099 2:-0.90693035 3:-0.90582713 4:0.53158921 5:-0.5479574 6:-0.40364504 7:0.098169227 8:-0.50274409 9:-0.99894462 10:-0.10950806 11:0.51569038 12:-0.99615799 13:0.096097907 14:-0.99670342 15:-0.51702494 16:-0.54018447 17:-0.56718807 18:-0.44262792 19:-0.57914887 20:-0.4626232 21:-0.51657474 22:-0.32131382 23:-0.50979229 24:-0.32175838 25:-0.5847715 26:-0.4679528 27:-0.43860375 28:-0.2942959 29:-0.56242126 30:-0.50767463 31:-0.50573507 32:-0.40317497 33:-0.51222474 34:-0.51727571 35:-0.97406499 36:-0.97202797 37:-0.98440546 38:-0.98867925 39:-0.98802395 40:-0.99656947 41:-0.98 42:-0.98726115 43:-0.98996236 44:-0.98504673 45:-0.98451113 46:-0.99137187 47:-0.99419167 48:-0.98926907 49:-0.99315068 50:-0.98865129 51:-0.9991756 52:-0.97947831 53:-0.97909408 54:-0.96875 55:-0.99183673 56:-0.9875 57:-0.99426934 58:-0.98934281 59:-0.99851024 60:0.16443391 61:-0.084521636 
8 1:-0.98367647 2:-0.91701365 3:-0.91296709 4:0.55642268 5:-0.63618204 6:-0.47378974 7:0.13767405 8:-0.48645649 9:-0.99842818 10:-0.10950793 11:0.51569042 12:-0.99534757 13:0.096097474 14:-0.99598165 15:-0.33136002 16:-0.5740879 17:-0.40506939 18:-0.43411531 19:-0.57914887 20:-0.4626232 21:-0.46902513 22:-0.38399324 23:-0.58109061 24:-0.49727333 25:-0.51334688 26:-0.30615983 27:-0.51424465 28:-0.2577869 29:-0.56242126 30:-0.50767463 31:-0.41650235 32:-0.25494756 33:-0.48615511 34:-0.51606713 35:-0.96935362 36:-0.95104895 37:-0.97660819 38:-0.99245283 39:-0.98203593 40:-0.97255575 41:-0.96 42:-0.97452229 43:-0.98996236 44:-0.98504673 45:-0.99225557 46:-0.99137187 47:-0.99419167 48:-0.99195002 49:-0.99315068 50:-0.97170255 51:-0.99752679 52:-0.99312989 53:-0.98606272 54:-0.95625 55:-0.99183673 56:-0.996875 57:-0.99426934 58:-0.98579041 59:-0.99851024 60:0.29213709 61:-0.082311197 
8 1:-0.98463662 2:-0.92115473 3:-0.92051509 4:0.57602645 5:-0.48927397 6:-0.52306629 7:0.045210497 8:-0.50659506 9:-0.99880715 10:-0.10950837 11:0.5156907 12:-0.99616922 13:0.096097556 14:-0.99672428 15:-0.37849233 16:-0.56469695 17:-0.47543191 18:-0.39855424 19:-0.57914887 20:-0.4626232 21:-0.53057318 22:-0.33501175 23:-0.58109061 24:-0.49727333 25:-0.5177024 26:-0.28688429 27:-0.47364167 28:-0.29976384 29:-0.56242126 30:-0.50767463 31:-0.45698455 32:-0.26358392 33:-0.52781978 34:-0.53677224 35:-0.98819911 36:-0.97902098 37:-0.98830409 38:-0.95849057 39:-0.99401198 40:-0.98284734 41:-0.96 42:-0.97452229 43:-0.99247177 44:-0.97383178 45:-0.98451113 46:-0.99654875 47:-0.99806389 48:-0.99463098 49:-0.99657534 50:-0.98300171 51:-0.99670239 52:-0.97265253 53:-0.97212544 54:-0.98125 55:-0.99591837 56:-0.99375 57:-0.98853868 58:-0.98579041 59:-0.99702048 60:0.27933047 61:0.075998073 
8 1:-0.98079601 2:-0.93065176 3:-0.92647607 4:0.58656474 5:-0.52939548 6:-0.54350805 7:0.065046084 8:-0.4971996 9:-0.99817974 10:-0.10950917 11:0.51569022 12:-0.99459504 13:0.096098248 14:-0.9955495 15:-0.55576988 16:-0.60312514 17:-0.41362 18:-0.33259457 19:-0.44290373 20:-0.29246247 21:-0.57192997 22:-0.48415916 23:-0.48813003 24:-0.35092251 25:-0.55027004 26:-0.27309338 27:-0.54176826 28:-0.34757209 29:-0.49689624 30:-0.33290414 31:-0.40740526 32:-0.24110977 33:-0.47124145 34:-0.49643823 35:-0.9552195 36:-0.97202797 37:-0.98440546 38:-0.98113208 39:-0.95808383 40:-0.96912521 41:-0.94 42:-0.97876858 43:-0.9749059 44:-0.99065421 45:-0.99419167 46:-0.99654875 47:-0.98838335 48:-0.98926907 49:-0.99657534 50:-0.97735213 51:-0.99587799 52:-0.9863041 53:-0.97909408 54:-0.9875 55:-0.99183673 56:-0.996875 57:-0.99713467 58:-0.97158082 59:-0.99776536 60:0.3478593 61:-0.09880283 
8 1:-0.97733946 2:-0.94319249 3:-0.93550753 4:0.60750457 5:-0.44541392 6:-0.58798234 7:0.014539787 8:-0.50620845 9:-0.99762524 10:-0.10950821 11:0.51569088 12:-0.99150333 13:0.096098528 14:-0.99280917 15:-0.44257468 16:-0.3711952 17:-0.54769698 18:-0.43021853 19:-0.47265718 20:-0.29304257 21:-0.51199393 22:-0.31962527 23:-0.54549688 24:-0.31157387 25:-0.5847715 26:-0.4679528 27:-0.48644982 28:-0.30355339 29:-0.41326321 30:-0.30636733 31:-0.50244158 32:-0.37359596 33:-0.53542023 34:-0.53917485 35:-0.94579676 36:-0.99300699 37:-0.96101365 38:-0.96603774 39:-0.97005988 40:-0.96912521 41:-0.96666667 42:-0.95329087 43:-0.97741531 44:-0.98878505 45:-0.99612778 46:-0.99482312 47:-0.99806389 48:-0.99463098 49:-0.98287671 50:-0.96605298 51:-0.99670239 52:-0.95900095 53:-0.96515679 54:-0.98125 55:-0.9877551 56:-0.996875 57:-0.99426934 58:-0.9928952 59:-0.99329609 60:0.36956857 61:-0.10331152 
8 1:-0.97253869 2:-0.94296195 3:-0.93974376 4:0.6139995 5:-0.45656498 6:-0.59990403 7:0.01903668 8:-0.50604781 9:-0.99769075 10:-0.10950765 11:0.5156886 12:-0.98978619 13:0.096097895 14:-0.99138777 15:-0.44330573 16:-0.37400431 17:-0.49877903 18:-0.39960058 19:-0.49252846 20:-0.35083649 21:-0.48942833 22:-0.34771303 23:-0.51023554 24:-0.31527699 25:-0.5847715 26:-0.4679528 27:-0.49879681 28:-0.28728402 29:-0.42559506 30:-0.24816238 31:-0.51722082 32:-0.32088774 33:-0.52159607 34:-0.52364451 35:-0.9387297 36:-0.98601399 37:-0.96881092 38:-0.97358491 39:-0.95209581 40:-0.96569468 41:-0.9 42:-0.94904459 43:-0.97239649 44:-0.98317757 45:-0.99031946 46:-0.9930975 47:-0.99419167 48:-0.99195002 49:-0.98630137 50:-0.98300171 51:-0.99505359 52:-0.97947831 53:-0.94425087 54:-0.96875 55:-0.99183673 56:-0.99375 57:-0.99713467 58:-0.98934281 59:-0.99478585 60:0.23304956 61:-0.14838203 
8 1:-0.97100245 2:-0.95070901 3:-0.94682942 4:0.62546468 5:-0.41624241 6:-0.61879349 7:-0.0018531253 8:-0.50957497 9:-0.99713496 10:-0.10950964 11:0.51569015 12:-0.99018872 13:0.096099171 14:-0.99145247 15:-0.27498351 16:-0.34186511 17:-0.36811134 18:-0.4217547 19:-0.47528665 20:-0.3278644 21:-0.51250063 22:-0.33708944 23:-0.58109061 24:-0.49727333 25:-0.51600201 26:-0.29088475 27:-0.48624902 28:-0.29490544 29:-0.40321861 30:-0.29247232 31:-0.50349189 32:-0.33008119 33:-0.53015457 34:-0.52149662 35:-0.94344107 36:-0.95104895 37:-0.98440546 38:-0.95849057 39:-0.95209581 40:-0.96569468 41:-0.93333333 42:-0.98301486 43:-0.96737767 44:-0.98317757 45:-0.98063892 46:-0.986195 47:-0.99031946 48:-0.97050238 49:-0.98630137 50:-0.97735213 51:-0.99422918 52:-0.97265253 53:-0.96515679 54:-0.975 55:-0.9877551 56:-0.990625 57:-0.99426934 58:-0.9964476 59:-0.99702048 60:0.1113882 61:-0.17074307 
8 1:-0.96677777 2:-0.95513151 3:-0.95175706 4:0.62922892 5:-0.45341491 6:-0.62205421 7:0.017115089 8:-0.50449706 9:-0.99707844 10:-0.10950777 11:0.51569119 12:-0.98981689 13:0.096096249 14:-0.99131293 15:-0.31244518 16:-0.34383977 17:-0.52432579 18:-0.35498029 19:-0.49744807 20:-0.3131923 21:-0.50892477 22:-0.32448096 23:-0.58109061 24:-0.49727333 25:-0.5460642 26:-0.27040466 27:-0.49474241 28:-0.27954815 29:-0.39897793 30:-0.23786549 31:-0.42943785 32:-0.25955865 33:-0.51208609 34:-0.5162283 35:-0.92695127 36:-0.91608392 37:-0.94152047 38:-0.97735849 39:-0.89221557 40:-0.95883362 41:-0.89333333 42:-0.95753715 43:-0.96486826 44:-0.98317757 45:-0.99225557 46:-0.98792062 47:-0.98451113 48:-0.98926907 49:-0.98630137 50:-0.97170255 51:-0.99340478 52:-0.97265253 53:-0.98606272 54:-0.9875 55:-0.99591837 56:-0.996875 57:-0.99713467 58:-0.9964476 59:-0.99851024 60:-0.067947634 61:-0.36784697 
8 1:-0.95775233 2:-0.97360217 3:-0.97142928 4:0.7114915 5:-0.30253542 6:-0.67700925 7:-0.02551279 8:-0.51286577 9:-0.99784527 10:-0.1095082 11:0.51569117 12:-0.98915741 13:0.096096117 14:-0.99088064 15:-0.43554559 16:-0.52187661 17:-0.45226816 18:-0.38429602 19:-0.5450905 20:-0.37022255 21:-0.49307612 22:-0.35724206 23:-0.50381682 24:-0.32392018 25:-0.49283683 26:-0.27549859 27:-0.43722831 28:-0.26499594 29:-0.44314754 30:-0.34283393 31:-0.49916982 32:-0.33975612 33:-0.52269298 34:-0.49863587 35:-0.9717093 36:-0.96503497 37:-0.97660819 38:-0.97358491 39:-0.94011976 40:-0.97255575 41:-0.9 42:-0.95329087 43:-0.96486826 44:-0.94205607 45:-0.96708616 46:-0.96376186 47:-0.96902227 48:-0.97050238 49:-0.96575342 50:-0.95475382 51:-0.99670239 52:-0.94534938 53:-0.95121951 54:-0.975 55:-0.95918367 56:-0.984375 57:-0.99713467 58:-0.9964476 59:-0.99851024 60:-0.10103211 61:-0.066105528 
8 1:-0.95698421 2:-0.96965157 3:-0.96717572 4:0.70798408 5:-0.35777291 6:-0.68414579 7:-0.043825648 8:-0.51185677 9:-0.99574033 10:-0.10950635 11:0.51569045 12:-0.98804752 13:0.09609735 14:-0.98943534 15:-0.27598642 16:-0.48677586 17:-0.37906297 18:-0.35899299 19:-0.43998689 20:-0.33031345 21:-0.42927033 22:-0.33507119 23:-0.49318974 24:-0.33044396 25:-0.48151995 26:-0.29229551 27:-0.37459428 28:-0.20314101 29:-0.40387316 30:-0.2902915 31:-0.46272627 32:-0.33951156 33:-0.5214515 34:-0.49668384 35:-0.96228656 36:-0.95104895 37:-0.97660819 38:-0.97358491 39:-0.96407186 40:-0.95197256 41:-0.92666667 42:-0.91932059 43:-0.9749059 44:-0.95514019 45:-0.95546951 46:-0.96893874 47:-0.9767667 48:-0.97586429 49:-0.98287671 50:-0.9604034 51:-0.99010717 52:-0.91804623 53:-0.95121951 54:-0.93125 55:-0.98367347 56:-0.99375 57:-0.99713467 58:-0.9964476 59:-0.99702048 60:-0.10921151 61:-0.13856991 
8 1:-0.96063279 2:-0.96561562 3:-0.96284799 4:0.71073499 5:-0.34837527 6:-0.68451864 7:-0.041218936 8:-0.51351472 9:-0.99757724 10:-0.10950781 11:0.51569045 12:-0.98990957 13:0.09609771 14:-0.99141907 15:-0.48254901 16:-0.490507 17:-0.50978478 18:-0.33172875 19:-0.49429482 20:-0.28296207 21:-0.49908288 22:-0.30190005 23:-0.51840598 24:-0.30596703 25:-0.53871338 26:-0.26034669 27:-0.43664935 28:-0.2463922 29:-0.46031819 30:-0.35282808 31:-0.46940879 32:-0.36719425 33:-0.49131302 34:-0.50171232 35:-0.93637401 36:-0.97202797 37:-0.98440546 38:-0.96226415 39:-0.94011976 40:-0.96569468 41:-0.95333333 42:-0.95753715 43:-0.9523212 44:-0.97570093 45:-0.96708616 46:-0.96893874 47:-0.98644724 48:-0.96782142 49:-0.9760274 50:-0.96605298 51:-0.98845837 52:-0.96582674 53:-0.93728223 54:-0.96875 55:-0.97959184 56:-0.990625 57:-0.99426934 58:-0.98934281 59:-0.99851024 60:-0.078695398 61:-0.19818831 
8 1:-0.96600965 2:-0.96348278 3:-0.96052967 4:0.71463402 5:-0.34616908 6:-0.67921669 7:-0.040838888 8:-0.51364548 9:-0.99778873 10:-0.10950837 11:0.51569124 12:-0.99240678 13:0.096097589 14:-0.9934695 15:-0.46126593 16:-0.48859166 17:-0.56468139 18:-0.42370934 19:-0.53145346 20:-0.28008897 21:-0.54049693 22:-0.29213524 23:-0.52684648 24:-0.30081273 25:-0.52462812 26:-0.25220256 27:-0.45276805 28:-0.21856824 29:-0.43987637 30:-0.38221228 31:-0.52912315 32:-0.40174819 33:-0.52977249 34:-0.52983739 35:-0.95050813 36:-0.97902098 37:-0.96881092 38:-0.96226415 39:-0.98802395 40:-0.97598628 41:-0.94666667 42:-0.97452229 43:-0.98243413 44:-0.98691589 45:-0.97483059 46:-0.97411562 47:-0.97289448 48:-0.97318333 49:-0.9760274 50:-0.94345467 51:-0.99752679 52:-0.92487202 53:-0.93031359 54:-0.98125 55:-0.9755102 56:-0.984375 57:-0.99140401 58:-0.98934281 59:-0.99329609 60:-0.047205729 61:-0.18223422 
8 1:-0.97637931 2:-0.96125113 3:-0.95879125 4:0.7185349 5:-0.39070969 6:-0.67388839 7:-0.055194512 8:-0.51175424 9:-0.99846331 10:-0.10950886 11:0.51569037 12:-0.99594822 13:0.096097345 14:-0.99653826 15:-0.52985289 16:-0.56393616 17:-0.56374753 18:-0.42249028 19:-0.55400279 20:-0.38899627 21:-0.57192997 22:-0.48415916 23:-0.55581046 24:-0.3214036 25:-0.53102122 26:-0.26525258 27:-0.57888601 28:-0.48242265 29:-0.53214016 30:-0.37152084 31:-0.46151898 32:-0.23192408 33:-0.50642227 34:-0.50741435 35:-0.96228656 36:-0.97202797 37:-0.98830409 38:-0.98490566 39:-0.9760479 40:-0.97255575 41:-0.96 42:-0.95753715 43:-0.94479297 44:-0.99439252 45:-0.98838335 46:-0.99654875 47:-0.99612778 48:-0.97854524 49:-0.95205479 50:-0.98300171 51:-0.99340478 52:-0.95900095 53:-0.92334495 54:-0.99375 55:-0.99591837 56:-0.996875 57:-0.99713467 58:-0.9964476 59:-0.99851024 60:0.021065275 61:-0.11685718 
8 1:-0.97561118 2:-0.95641289 3:-0.95429328 4:0.72566313 5:-0.39337163 6:-0.66260657 7:-0.057758081 8:-0.51271775 9:-0.99828602 10:-0.10950777 11:0.51569072 12:-0.99497019 13:0.096097794 14:-0.99556623 15:-0.490667 16:-0.49442237 17:-0.47786596 18:-0.32093788 19:-0.52000381 20:-0.27188865 21:-0.57192997 22:-0.48415916 23:-0.53285441 24:-0.31374274 25:-0.52665857 26:-0.25290959 27:-0.57888601 28:-0.48242265 29:-0.45206718 30:-0.26252414 31:-0.44932236 32:-0.26454901 33:-0.51004384 34:-0.50892707 35:-0.9717093 36:-0.97902098 37:-0.98440546 38:-0.96603774 39:-0.97005988 40:-0.97598628 41:-0.93333333 42:-0.96602972 43:-0.9523212 44:-0.98130841 45:-0.98644724 46:-0.99482312 47:-0.98257502 48:-0.97586429 49:-0.9760274 50:-0.9604034 51:-0.99752679 52:-0.96582674 53:-0.97909408 54:-0.98125 55:-0.99591837 56:-0.996875 57:-0.99713467 58:-0.98934281 59:-0.99851024 60:-0.074864255 61:-0.18605777 
8 1:-0.97100245 2:-0.95550443 3:-0.95116428 4:0.72718636 5:-0.32868369 6:-0.66237347 7:-0.035360076 8:-0.51039383 9:-0.99743027 10:-0.10950729 11:0.51569045 12:-0.99331839 13:0.096098165 14:-0.99444004 15:-0.39380145 16:-0.48763801 17:-0.51250637 18:-0.31556355 19:-0.57914887 20:-0.4626232 21:-0.53418407 22:-0.30781685 23:-0.51753886 24:-0.3090736 25:-0.51958297 26:-0.25441232 27:-0.57888601 28:-0.48242265 29:-0.4169401 30:-0.23443534 31:-0.43609654 32:-0.27526714 33:-0.50557577 34:-0.50587304 35:-0.94815244 36:-0.95804196 37:-0.98050682 38:-0.96981132 39:-0.92215569 40:-0.96226415 41:-0.93333333 42:-0.97027601 43:-0.96235885 44:-0.97009346 45:-0.99419167 46:-0.99482312 47:-0.98838335 48:-0.96782142 49:-0.97945205 50:-0.97170255 51:-0.99340478 52:-0.95900095 53:-0.98606272 54:-0.9875 55:-0.9877551 56:-0.996875 57:-0.99713467 58:-0.9964476 59:-0.99776536 60:-0.00011553826 61:-0.23769148 
8 1:-0.97388291 2:-0.9477023 3:-0.94272478 4:0.72771827 5:-0.34523524 6:-0.66755255 7:-0.040541765 8:-0.51253777 9:-0.99785696 10:-0.10950725 11:0.51569068 12:-0.99352875 13:0.096098015 14:-0.99445796 15:-0.53341696 16:-0.49444603 17:-0.50575344 18:-0.32470878 19:-0.52016516 20:-0.2691983 21:-0.57192997 22:-0.48415916 23:-0.53840191 24:-0.31167279 25:-0.47668805 26:-0.20995407 27:-0.55181603 28:-0.38672277 29:-0.41445107 30:-0.24950441 31:-0.51389451 32:-0.35197659 33:-0.51875517 34:-0.51754581 35:-0.95050813 36:-0.95104895 37:-0.98050682 38:-0.96603774 39:-0.9760479 40:-0.97598628 41:-0.91333333 42:-0.94904459 43:-0.96988708 44:-0.97943925 45:-0.98063892 46:-0.99482312 47:-0.99806389 48:-0.99195002 49:-0.96575342 50:-0.94345467 51:-0.99670239 52:-0.97265253 53:-0.97909408 54:-0.9875 55:-0.99591837 56:-0.99375 57:-0.99713467 58:-0.9928952 59:-0.99776536 60:0.061432096 61:-0.2130438 
8 1:-0.97484306 2:-0.94535863 3:-0.94006159 4:0.73006232 5:-0.35476666 6:-0.66434354 7:-0.043342568 8:-0.51192389 9:-0.99756751 10:-0.10950819 11:0.51569038 12:-0.99352936 13:0.096097311 14:-0.994377 15:-0.38744767 16:-0.49705126 17:-0.50229698 18:-0.31043477 19:-0.55510671 20:-0.37244283 21:-0.54701385 22:-0.34972345 23:-0.52598056 24:-0.31698822 25:-0.50802691 26:-0.19667689 27:-0.57888601 28:-0.48242265 29:-0.37840842 30:-0.24540314 31:-0.48869885 32:-0.37006196 33:-0.50178571 34:-0.52321592 35:-0.94108538 36:-0.97902098 37:-0.98830409 38:-0.96981132 39:-0.94610778 40:-0.97255575 41:-0.91333333 42:-0.95329087 43:-0.98243413 44:-0.98691589 45:-0.98838335 46:-0.97929249 47:-0.99612778 48:-0.99463098 49:-0.97945205 50:-0.93215551 51:-0.99587799 52:-0.95900095 53:-0.98606272 54:-0.99375 55:-0.99591837 56:-0.996875 57:-0.99713467 58:-0.9964476 59:-0.99776536 60:0.03848769 61:-0.23551731 
8 1:-0.98021992 2:-0.93631158 3:-0.93164862 4:0.72825196 5:-0.41408924 6:-0.67228537 7:-0.056970474 8:-0.51178332 9:-0.99826956 10:-0.10950826 11:0.51569103 12:-0.99601766 13:0.096097547 14:-0.99642488 15:-0.5370577 16:-0.5701846 17:-0.51058154 18:-0.27213373 19:-0.57914887 20:-0.4626232 21:-0.52530168 22:-0.29773479 23:-0.53027541 24:-0.30661977 25:-0.5847715 26:-0.4679528 27:-0.51947241 28:-0.22338875 29:-0.56242126 30:-0.50767463 31:-0.4293392 32:-0.2243098 33:-0.49651201 34:-0.51204686 35:-0.9717093 36:-0.98601399 37:-0.98050682 38:-0.98490566 39:-0.95808383 40:-0.97255575 41:-0.95333333 42:-0.98301486 43:-0.9749059 44:-0.98691589 45:-0.98451113 46:-0.99654875 47:-0.99031946 48:-0.98926907 49:-0.98630137 50:-0.92650593 51:-0.99422918 52:-0.9863041 53:-0.96515679 54:-0.9875 55:-0.99591837 56:-0.996875 57:-0.99426934 58:-0.9964476 59:-0.99702048 60:0.14647685 61:-0.041481369 
8 1:-0.98060398 2:-0.93158405 3:-0.92747515 4:0.71481587 5:-0.42468657 6:-0.69012457 7:-0.051860791 8:-0.51114823 9:-0.99837333 10:-0.1095083 11:0.51569059 12:-0.99592863 13:0.096097619 14:-0.99640515 15:-0.5348718 16:-0.5681064 17:-0.47617037 18:-0.29139945 19:-0.57914887 20:-0.4626232 21:-0.49226509 22:-0.29259337 23:-0.53620784 24:-0.30159532 25:-0.5847715 26:-0.4679528 27:-0.47319971 28:-0.21614717 29:-0.56242126 30:-0.50767463 31:-0.44953013 32:-0.27783119 33:-0.50088228 34:-0.51878473 35:-0.98113205 36:-0.97902098 37:-0.98830409 38:-0.98867925 39:-0.96407186 40:-0.97941681 41:-0.94 42:-0.96178344 43:-0.9749059 44:-0.97943925 45:-0.99419167 46:-0.99482312 47:-0.99419167 48:-0.98658811 49:-0.99315068 50:-0.93780509 51:-0.99340478 52:-0.95217517 53:-0.98606272 54:-0.98125 55:-0.99591837 56:-0.996875 57:-0.99713467 58:-0.98223801 59:-0.99851024 60:0.10605253 61:0.0096179111 
8 1:-0.98233226 2:-0.93217399 3:-0.92576011 4:0.7091785 5:-0.37321005 6:-0.69510651 7:-0.042581456 8:-0.51260726 9:-0.99838952 10:-0.10950781 11:0.51569079 12:-0.99655243 13:0.096098077 14:-0.9969711 15:-0.47094072 16:-0.47055805 17:-0.57950337 18:-0.48255343 19:-0.54300606 20:-0.27581919 21:-0.57192997 22:-0.48415916 23:-0.52713113 24:-0.30903943 25:-0.57891496 26:-0.44380049 27:-0.50080126 28:-0.23746274 29:-0.39588234 30:-0.31175406 31:-0.55350092 32:-0.45630391 33:-0.51119049 34:-0.51920057 35:-0.97642068 36:-0.98601399 37:-0.98830409 38:-0.97735849 39:-0.98203593 40:-0.97255575 41:-0.92666667 42:-0.96602972 43:-0.99247177 44:-0.98504673 45:-0.99225557 46:-0.99482312 47:-0.99225557 48:-0.98390716 49:-0.97945205 50:-0.9604034 51:-0.99670239 52:-0.96582674 53:-0.96515679 54:-0.98125 55:-0.99183673 56:-0.996875 57:-0.99713467 58:-0.9964476 59:-0.99851024 60:0.090117321 61:-0.050761752 
8 1:-0.98214023 2:-0.93284497 3:-0.92585748 4:0.70805384 5:-0.35501282 6:-0.69579772 7:-0.040243663 8:-0.51196756 9:-0.99825737 10:-0.10950822 11:0.51569063 12:-0.99630773 13:0.096098077 14:-0.99679839 15:-0.49460737 16:-0.46890168 17:-0.57950337 18:-0.48255343 19:-0.5472235 20:-0.27384006 21:-0.57192997 22:-0.48415916 23:-0.5210369 24:-0.30816933 25:-0.54404543 26:-0.33254053 27:-0.49910029 28:-0.38708449 29:-0.37737079 30:-0.32367586 31:-0.55083928 32:-0.45658006 33:-0.504445 34:-0.50802485 35:-0.96699793 36:-0.97902098 37:-0.99220273 38:-0.98113208 39:-0.9760479 40:-0.98627787 41:-0.96666667 42:-0.97027601 43:-0.9749059 44:-0.99252336 45:-0.98838335 46:-0.98792062 47:-0.98644724 48:-0.99463098 49:-0.97945205 50:-0.97735213 51:-0.99422918 52:-0.97265253 53:-0.95818815 54:-0.9875 55:-0.9877551 56:-0.996875 57:-0.99713467 58:-0.9964476 59:-0.99851024 60:0.088198433 61:-0.10054254 
8 1:-0.98194819 2:-0.93022583 3:-0.9238374 4:0.71869797 5:-0.34950894 6:-0.68678897 7:-0.040256853 8:-0.51147343 9:-0.99815391 10:-0.10950822 11:0.51569069 12:-0.99624123 13:0.096097713 14:-0.99674966 15:-0.50000611 16:-0.48398424 17:-0.57950337 18:-0.48255343 19:-0.5392241 20:-0.28583908 21:-0.57192997 22:-0.48415916 23:-0.51929088 24:-0.30667588 25:-0.51529576 26:-0.21345841 27:-0.57888601 28:-0.48242265 29:-0.35019175 30:-0.27077322 31:-0.56165743 32:-0.48150785 33:-0.49316329 34:-0.50610868 35:-0.96699793 36:-0.96503497 37:-0.99220273 38:-0.99622642 39:-0.96407186 40:-0.98627787 41:-0.94666667 42:-0.98726115 43:-0.98745295 44:-0.98317757 45:-0.99225557 46:-0.98792062 47:-0.99225557 48:-0.9812262 49:-0.98972603 50:-0.98865129 51:-0.9983512 52:-0.97947831 53:-0.97909408 54:-0.96875 55:-0.96734694 56:-0.984375 57:-0.99140401 58:-0.9964476 59:-0.99702048 60:0.055586913 61:-0.15685059 
8 1:-0.98214023 2:-0.92924116 3:-0.92295394 4:0.7229319 5:-0.35422608 6:-0.68229335 7:-0.041395172 8:-0.51240679 9:-0.99822663 10:-0.10950859 11:0.51569106 12:-0.9963577 13:0.096097599 14:-0.99679119 15:-0.49062639 16:-0.48264531 17:-0.57950337 18:-0.48255343 19:-0.54212569 20:-0.28232992 21:-0.57192997 22:-0.48415916 23:-0.54160672 24:-0.31898494 25:-0.51248342 26:-0.19764307 27:-0.57888601 28:-0.48242265 29:-0.3609802 30:-0.29252234 31:-0.56165743 32:-0.48150785 33:-0.50659627 34:-0.51725406 35:-0.96699793 36:-0.97902098 37:-0.98830409 38:-0.99245283 39:-0.9760479 40:-0.9897084 41:-0.97333333 42:-0.97027601 43:-0.98494354 44:-0.99065421 45:-0.98644724 46:-0.99482312 47:-0.98838335 48:-0.98658811 49:-0.98630137 50:-0.98300171 51:-0.99587799 52:-0.97947831 53:-0.97909408 54:-0.95 55:-0.97142857 56:-0.99375 57:-0.98853868 58:-0.9964476 59:-0.99627561 60:0.048504383 61:-0.1470905 
8 1:-0.98233226 2:-0.92729417 3:-0.92112634 4:0.71700473 5:-0.37447489 6:-0.6890823 7:-0.043931132 8:-0.51287968 9:-0.99837594 10:-0.10950726 11:0.51569059 12:-0.99644825 13:0.096098104 14:-0.99685774 15:-0.51033589 16:-0.47399509 17:-0.57950337 18:-0.48255343 19:-0.53735278 20:-0.26859294 21:-0.57192997 22:-0.48415916 23:-0.52662655 24:-0.30507411 25:-0.52899711 26:-0.21031487 27:-0.57888601 28:-0.48242265 29:-0.37876334 30:-0.26912853 31:-0.56165743 32:-0.48150785 33:-0.49776809 34:-0.50713451 35:-0.96699793 36:-0.98601399 37:-0.98830409 38:-0.98867925 39:-0.98802395 40:-0.97255575 41:-0.97333333 42:-0.97876858 43:-0.98745295 44:-0.99252336 45:-0.99419167 46:-0.98792062 47:-0.99225557 48:-0.98390716 49:-0.97260274 50:-0.97735213 51:-0.99587799 52:-0.96582674 53:-0.97212544 54:-0.96875 55:-0.99183673 56:-0.984375 57:-0.99140401 58:-0.98934281 59:-0.99851024 60:0.041594542 61:-0.12629226 
1.27972492919686 1:-0.98271632 2:-0.92685783 3:-0.92119039 4:0.71601003 5:-0.35559402 6:-0.69018271 7:-0.040924171 8:-0.51361867 9:-0.99848207 10:-0.10950709 11:0.51569037 12:-0.99646766 13:0.096097335 14:-0.99688268 15:-0.52334847 16:-0.48322205 17:-0.57950337 18:-0.48255343 19:-0.54929309 20:-0.28202455 21:-0.57192997 22:-0.48415916 23:-0.51887979 24:-0.31803459 25:-0.5315372 26:-0.21081896 27:-0.57888601 28:-0.48242265 29:-0.39309202 30:-0.2795896 31:-0.56165743 32:-0.48150785 33:-0.50354855 34:-0.50701084 35:-0.9717093 36:-0.97902098 37:-0.98050682 38:-0.98867925 39:-0.99401198 40:-0.98627787 41:-0.98 42:-0.95329087 43:-0.99749059 44:-0.99439252 45:-0.98838335 46:-0.9930975 47:-0.99031946 48:-0.98926907 49:-0.98287671 50:-0.96605298 51:-0.99587799 52:-0.95900095 53:-0.97212544 54:-0.96875 55:-0.97959184 56:-0.996875 57:-0.98280802 58:-0.9964476 59:-0.99627561 60:0.053039622 61:-0.11938135 
8 1:-0.98252429 2:-0.92729417 3:-0.92122777 4:0.71593742 5:-0.36375712 6:-0.69001372 7:-0.042137705 8:-0.51371637 9:-0.99843958 10:-0.10950784 11:0.51569071 12:-0.99644727 13:0.096097557 14:-0.99683247 15:-0.48562302 16:-0.47454997 17:-0.57950337 18:-0.48255343 19:-0.54480473 20:-0.28378637 21:-0.57192997 22:-0.48415916 23:-0.53385856 24:-0.31821537 25:-0.54845639 26:-0.25201717 27:-0.56451102 28:-0.42069489 29:-0.38727579 30:-0.28096335 31:-0.56165743 32:-0.48150785 33:-0.5097477 34:-0.51554953 35:-0.96935362 36:-0.98601399 37:-0.99610136 38:-0.98490566 39:-0.97005988 40:-0.98284734 41:-0.99333333 42:-0.97452229 43:-0.98494354 44:-0.99065421 45:-0.99225557 46:-0.99482312 47:-0.99225557 48:-0.98926907 49:-0.98287671 50:-0.9604034 51:-0.99587799 52:-0.96582674 53:-0.98606272 54:-0.96875 55:-0.98367347 56:-0.98125 57:-0.98853868 58:-0.9928952 59:-0.99478585 60:0.048348351 61:-0.11288293 
8 1:-0.98271632 2:-0.92729418 3:-0.92130388 4:0.71574889 5:-0.36576049 6:-0.6903313 7:-0.042413964 8:-0.51338822 9:-0.99846061 10:-0.1095083 11:0.51569054 12:-0.99643932 13:0.096097545 14:-0.99685599 15:-0.48741272 16:-0.47405019 17:-0.57950337 18:-0.48255343 19:-0.54709747 20:-0.2835382 21:-0.57192997 22:-0.48415916 23:-0.53517392 24:-0.31795132 25:-0.56635724 26:-0.3041748 27:-0.55435938 28:-0.40846322 29:-0.39035531 30:-0.29292083 31:-0.55692944 32:-0.45600422 33:-0.5118469 34:-0.51637859 35:-0.9717093 36:-0.97902098 37:-0.99220273 38:-0.98490566 39:-0.98802395 40:-0.99313894 41:-0.96 42:-0.97027601 43:-0.99247177 44:-0.99065421 45:-0.99031946 46:-0.99654875 47:-0.99225557 48:-0.98390716 49:-0.97260274 50:-0.98865129 51:-0.99587799 52:-0.95217517 53:-0.97909408 54:-0.975 55:-0.9877551 56:-0.975 57:-0.99713467 58:-0.98223801 59:-0.99627561 60:0.028390438 61:-0.10999854 
-8 1:-0.99994985 2:-0.99982155 3:-0.99986154 4:0.69714732 5:-0.34095109 6:-0.60102366 7:0.0060116505 8:-0.99997417 9:-0.99997237 10:0.7768592 11:0.42072047 12:-0.99998627 13:-0.80780484 14:-0.9999858 15:-0.83398148 16:-0.9858963 17:-0.76748961 18:-0.98192038 19:-0.78381154 20:-0.97453854 21:-0.79933231 22:-0.98067356 23:-0.79943231 24:-0.97596954 25:-0.79912738 26:-0.978619 27:-0.78817054 28:-0.98095387 29:-0.75653415 30:-0.98285071 31:-0.74411326 32:-0.97630211 33:-0.81969485 34:-0.98528607 35:-0.99989331 36:-0.99927907 37:-0.99997586 38:-0.9999167 39:-0.99994654 40:-1 41:-1 42:-1 43:-1 44:-1 45:-1 46:-1 47:-0.99997422 48:-0.99973688 49:-0.99900513 50:-0.98899819 51:-0.99985155 52:-0.9863041 53:-0.98606272 54:-0.99355096 55:-0.99902891 56:-0.99962954 57:-0.9999689 58:-0.99997529 59:-0.99999948 60:-0.95954689 61:-0.96230392 
-8 1:-0.98655693 2:-0.96065068 3:-0.95972522 4:0.61724963 5:-0.64130459 6:-0.56211008 7:0.17198778 8:-0.45436397 9:-0.99912526 10:-0.10950788 11:0.51569072 12:-0.99780379 13:0.096097701 14:-0.99810762 15:-0.53741328 16:-0.57771529 17:-0.56146312 18:-0.43201101 19:-0.57914887 20:-0.4626232 21:-0.56002584 22:-0.44272931 23:-0.58109061 24:-0.49727333 25:-0.55389555 26:-0.33160174 27:-0.55232288 28:-0.41337873 29:-0.56242126 30:-0.50767463 31:-0.53053736 32:-0.32890589 33:-0.48737119 34:-0.53233629 35:-0.93401833 36:-0.98601399 37:-0.99610136 38:-0.99622642 39:-0.98802395 40:-0.99656947 41:-0.98 42:-0.99150743 43:-0.99498118 44:-0.99813084 45:-0.99031946 46:-0.9930975 47:-0.98838335 48:-0.99731193 49:-0.99657534 50:-0.99430086 51:-0.9991756 52:-0.97947831 53:-0.99303136 54:-0.9875 55:-0.96734694 56:-0.9875 57:-0.98280802 58:-0.9928952 59:-0.99553073 60:0.32600777 61:-0.2079132 
-8 1:-0.98790114 2:-0.96055543 3:-0.96025001 4:0.61458303 5:-0.76508596 6:-0.54903634 7:0.27237325 8:-0.39338558 9:-0.99916497 10:-0.10950819 11:0.51569065 12:-0.99889102 13:0.096097571 14:-0.99900566 15:-0.54679485 16:-0.57734145 17:-0.57950337 18:-0.48255343 19:-0.55126294 20:-0.32523691 21:-0.57192997 22:-0.48415916 23:-0.58109061 24:-0.49727333 25:-0.56639922 26:-0.40755695 27:-0.57888601 28:-0.48242265 29:-0.4773723 30:-0.35190022 31:-0.56165743 32:-0.48150785 33:-0.49966112 34:-0.49708222 35:-0.91988421 36:-0.98601399 37:-0.99610136 38:-0.99245283 39:-0.99401198 40:-0.99313894 41:-0.98666667 42:-0.99575372 43:-0.99247177 44:-0.99813084 45:-0.99806389 46:-0.99654875 47:-0.99806389 48:-0.99731193 49:-0.99657534 50:-0.98865129 51:-0.99752679 52:-0.97265253 53:-0.95818815 54:-0.98125 55:-0.96326531 56:-0.996875 57:-0.99713467 58:-0.9964476 59:-0.99851024 60:0.47471333 61:-0.29188474 
-8 1:-0.98847724 2:-0.9603327 3:-0.96045537 4:0.61522334 5:-0.79082615 6:-0.55091888 7:0.28981449 8:-0.37783922 9:-0.99918427 10:-0.10950822 11:0.51569088 12:-0.99899491 13:0.096097581 14:-0.99908159 15:-0.55576988 16:-0.60312514 17:-0.57950337 18:-0.48255343 19:-0.55843716 20:-0.34346024 21:-0.57192997 22:-0.48415916 23:-0.58109061 24:-0.49727333 25:-0.57400663 26:-0.40947023 27:-0.57888601 28:-0.48242265 29:-0.47285598 30:-0.35194899 31:-0.56165743 32:-0.48150785 33:-0.52872724 34:-0.47017444 35:-0.91517284 36:-0.99300699 37:-0.99610136 38:-0.99622642 39:-0.99401198 40:-0.99656947 41:-0.98 42:-0.99150743 43:-0.99749059 44:-0.99626168 45:-0.99806389 46:-0.99827437 47:-0.99419167 48:-0.99731193 49:-0.99657534 50:-0.99430086 51:-0.9991756 52:-0.99312989 53:-0.97909408 54:-0.9875 55:-0.99183673 56:-0.996875 57:-0.97707736 58:-0.9928952 59:-0.99478585 60:0.42404701 61:-0.37648527 
-8 1:-0.98943739 2:-0.96068239 3:-0.96057423 4:0.61527625 5:-0.80419518 6:-0.55082155 7:0.30017787 8:-0.36902746 9:-0.99921632 10:-0.10950824 11:0.51569057 12:-0.99915492 13:0.096097566 14:-0.99923093 15:-0.53903638 16:-0.53889796 17:-0.57950337 18:-0.48255343 19:-0.57914887 20:-0.4626232 21:-0.55451879 22:-0.43184623 23:-0.58109061 24:-0.49727333 25:-0.5847715 26:-0.4679528 27:-0.48553128 28:-0.32892752 29:-0.56242126 30:-0.50767463 31:-0.56165743 32:-0.48150785 33:-0.5228075 34:-0.48296603 35:-0.91988421 36:-0.98601399 37:-0.99610136 38:-0.99622642 39:-0.98802395 40:-0.99313894 41:-0.98666667 42:-0.99575372 43:-0.99749059 44:-0.99813084 45:-0.99612778 46:-0.99827437 47:-0.99612778 48:-0.99731193 49:-0.98972603 50:-0.99430086 51:-0.99752679 52:-0.99312989 53:-0.98606272 54:-0.9875 55:-0.97959184 56:-0.984375 57:-0.99713467 58:-0.9964476 59:-0.99851024 60:0.42549456 61:-0.41677567 
-8 1:-0.98982145 2:-0.96039642 3:-0.96042014 4:0.61450663 5:-0.80804161 6:-0.54822617 7:0.30523084 8:-0.36686982 9:-0.99922336 10:-0.1095082 11:0.5156908 12:-0.99919618 13:0.09609758 14:-0.99928276 15:-0.53985031 16:-0.54568451 17:-0.57950337 18:-0.48255343 19:-0.57914887 20:-0.4626232 21:-0.55814621 22:-0.42767959 23:-0.58109061 24:-0.49727333 25:-0.5847715 26:-0.4679528 27:-0.48562742 28:-0.33473426 29:-0.56242126 30:-0.50767463 31:-0.56165743 32:-0.48150785 33:-0.48090109 34:-0.49924971 35:-0.9222399 36:-0.98601399 37:-0.99610136 38:-0.99622642 39:-0.98802395 40:-0.99313894 41:-0.99333333 42:-0.99575372 43:-0.99749059 44:-0.99626168 45:-0.99806389 46:-0.99827437 47:-0.99806389 48:-0.99463098 49:-0.99315068 50:-0.98865129 51:-0.9991756 52:-0.97947831 53:-0.98606272 54:-0.99375 55:-0.9755102 56:-0.984375 57:-0.99713467 58:-0.9964476 59:-0.99851024 60:0.46256747 61:-0.39759022 
-8 1:-0.99020551 2:-0.96026896 3:-0.96052215 4:0.61479479 5:-0.83182441 6:-0.54902081 7:0.32202753 8:-0.35146899 9:-0.99924353 10:-0.10950823 11:0.51569069 12:-0.99927211 13:0.096097567 14:-0.99933535 15:-0.54788708 16:-0.55827113 17:-0.57950337 18:-0.48255343 19:-0.57914887 20:-0.4626232 21:-0.56243225 22:-0.43744177 23:-0.58109061 24:-0.49727333 25:-0.5847715 26:-0.4679528 27:-0.49168509 28:-0.32720044 29:-0.56242126 30:-0.50767463 31:-0.56165743 32:-0.48150785 33:-0.53461523 34:-0.47188697 35:-0.91517284 36:-0.99300699 37:-0.99610136 38:-0.99622642 39:-0.99401198 40:-0.99656947 41:-0.98 42:-0.99575372 43:-0.99749059 44:-0.99626168 45:-0.99806389 46:-0.99827437 47:-0.99806389 48:-0.99731193 49:-0.99657534 50:-0.98865129 51:-0.9991756 52:-0.99312989 53:-0.98606272 54:-0.98125 55:-0.99183673 56:-0.996875 57:-0.99140401 58:-0.98934281 59:-0.99702048 60:0.29713077 61:-0.53189332 
-8 1:-0.99039754 2:-0.9603327 3:-0.96056441 4:0.61497708 5:-0.8340098 6:-0.54969701 7:0.32309759 8:-0.34992213 9:-0.99925958 10:-0.10950827 11:0.51569065 12:-0.99928396 13:0.096097564 14:-0.99934722 15:-0.54622025 16:-0.55758561 17:-0.57950337 18:-0.48255343 19:-0.57914887 20:-0.4626232 21:-0.56586544 22:-0.44792677 23:-0.58109061 24:-0.49727333 25:-0.5847715 26:-0.4679528 27:-0.48842578 28:-0.32667654 29:-0.56242126 30:-0.50767463 31:-0.56165743 32:-0.48150785 33:-0.533654 34:-0.47485187 35:-0.91517284 36:-0.99300699 37:-0.99610136 38:-0.99622642 39:-0.99401198 40:-0.99313894 41:-0.98666667 42:-0.99575372 43:-0.99498118 44:-0.99813084 45:-0.99806389 46:-0.99827437 47:-0.99806389 48:-0.99463098 49:-0.99657534 50:-0.98865129 51:-0.99752679 52:-0.99312989 53:-0.98606272 54:-0.9875 55:-0.9877551 56:-0.990625 57:-0.99713467 58:-0.9964476 59:-0.99851024 60:0.32323723 61:-0.54001241 
-8 1:-0.98982145 2:-0.96020515 3:-0.96055318 4:0.61469146 5:-0.82005067 6:-0.54845969 7:0.31434977 8:-0.35933584 9:-0.99925941 10:-0.10950828 11:0.51569056 12:-0.99918288 13:0.096097552 14:-0.99925551 15:-0.54333066 16:-0.54466019 17:-0.57950337 18:-0.48255343 19:-0.57914887 20:-0.4626232 21:-0.56583199 22:-0.44974044 23:-0.58109061 24:-0.49727333 25:-0.5847715 26:-0.4679528 27:-0.49224714 28:-0.32777536 29:-0.56242126 30:-0.50767463 31:-0.56165743 32:-0.48150785 33:-0.53430279 34:-0.46634546 35:-0.91281715 36:-0.99300699 37:-0.99610136 38:-0.99622642 39:-0.99401198 40:-0.99656947 41:-0.99333333 42:-0.99150743 43:-0.99498118 44:-0.99813084 45:-0.99806389 46:-0.99827437 47:-0.99612778 48:-0.99731193 49:-0.99657534 50:-0.99430086 51:-0.9991756 52:-0.99312989 53:-0.97909408 54:-0.9875 55:-0.99591837 56:-0.996875 57:-0.99140401 58:-0.98934281 59:-0.99478585 60:0.37602535 61:-0.48694447 
-8 1:-0.98982145 2:-0.96007737 3:-0.96050352 4:0.6139605 5:-0.81213513 6:-0.54546684 7:0.31170747 8:-0.36481397 9:-0.99927735 10:-0.10950824 11:0.51569065 12:-0.99914867 13:0.096097625 14:-0.99922523 15:-0.53869758 16:-0.53095761 17:-0.57950337 18:-0.48255343 19:-0.57914887 20:-0.4626232 21:-0.56654531 22:-0.43947687 23:-0.58109061 24:-0.49727333 25:-0.5847715 26:-0.4679528 27:-0.56526002 28:-0.34545114 29:-0.56242126 30:-0.50767463 31:-0.56165743 32:-0.48150785 33:-0.53554089 34:-0.46479966 35:-0.91517284 36:-0.99300699 37:-0.99610136 38:-0.99622642 39:-0.99401198 40:-0.99313894 41:-0.99333333 42:-0.99575372 43:-0.99749059 44:-0.99813084 45:-0.99612778 46:-0.99827437 47:-0.99806389 48:-0.99731193 49:-0.99315068 50:-0.98865129 51:-0.9983512 52:-0.9863041 53:-0.98606272 54:-0.975 55:-0.98367347 56:-0.9875 57:-0.99713467 58:-0.9964476 59:-0.99851024 60:0.44639309 61:-0.43547313 
-8 1:-0.99001348 2:-0.96007737 3:-0.96051991 4:0.6143657 5:-0.82323214 6:-0.54715714 7:0.31793483 8:-0.35720312 9:-0.99924891 10:-0.10950822 11:0.51569075 12:-0.99922135 13:0.096097569 14:-0.99929218 15:-0.53988595 16:-0.54496842 17:-0.57950337 18:-0.48255343 19:-0.57914887 20:-0.4626232 21:-0.56178937 22:-0.45049122 23:-0.58109061 24:-0.49727333 25:-0.5847715 26:-0.4679528 27:-0.49185028 28:-0.32756017 29:-0.56242126 30:-0.50767463 31:-0.56165743 32:-0.48150785 33:-0.53461798 34:-0.47185583 35:-0.91517284 36:-0.99300699 37:-0.99220273 38:-0.99622642 39:-0.99401198 40:-0.99656947 41:-0.98666667 42:-0.99575372 43:-0.99749059 44:-0.99626168 45:-0.99806389 46:-0.99827437 47:-0.99806389 48:-0.99731193 49:-0.99657534 50:-0.98865129 51:-0.9991756 52:-0.9863041 53:-0.98606272 54:-0.99375 55:-0.99183673 56:-0.996875 57:-0.99426934 58:-0.98579041 59:-0.99553073 60:0.35293486 61:-0.50310039 
-8 1:-0.99001348 2:-0.9600134 3:-0.96052292 4:0.61385663 5:-0.82626694 6:-0.54483424 7:0.32270267 8:-0.35542901 9:-0.99925157 10:-0.10950823 11:0.51569069 12:-0.99924766 13:0.096097576 14:-0.99930526 15:-0.54095745 16:-0.55845816 17:-0.57950337 18:-0.48255343 19:-0.57914887 20:-0.4626232 21:-0.56499194 22:-0.43959782 23:-0.58109061 24:-0.49727333 25:-0.5847715 26:-0.4679528 27:-0.4908164 28:-0.32381551 29:-0.56242126 30:-0.50767463 31:-0.56165743 32:-0.48150785 33:-0.53224932 34:-0.47374089 35:-0.91517284 36:-0.98601399 37:-0.99610136 38:-0.99622642 39:-0.98802395 40:-0.99656947 41:-0.99333333 42:-0.99575372 43:-0.99498118 44:-0.99813084 45:-0.99806389 46:-0.99827437 47:-0.99806389 48:-0.99195002 49:-0.99657534 50:-0.98300171 51:-0.9983512 52:-0.99312989 53:-0.99303136 54:-0.98125 55:-0.97959184 56:-0.996875 57:-0.99713467 58:-0.9964476 59:-0.99776536 60:0.37180151 61:-0.49848209 
-8 1:-0.99020551 2:-0.9600134 3:-0.96056759 4:0.61468964 5:-0.82811829 6:-0.54832094 7:0.32031706 8:-0.35402515 9:-0.99925543 10:-0.10950825 11:0.5156907 12:-0.99925734 13:0.096097566 14:-0.99931421 15:-0.5386922 16:-0.55878702 17:-0.57950337 18:-0.48255343 19:-0.57914887 20:-0.4626232 21:-0.56025174 22:-0.45049146 23:-0.58109061 24:-0.49727333 25:-0.5847715 26:-0.4679528 27:-0.49651876 28:-0.32420168 29:-0.56242126 30:-0.50767463 31:-0.56165743 32:-0.48150785 33:-0.54144115 34:-0.473821 35:-0.91517284 36:-0.98601399 37:-0.99610136 38:-0.99622642 39:-0.99401198 40:-0.99313894 41:-0.99333333 42:-0.99575372 43:-0.99749059 44:-0.99626168 45:-0.99806389 46:-0.99827437 47:-0.99806389 48:-0.99731193 49:-0.99657534 50:-0.98300171 51:-0.9991756 52:-0.99312989 53:-0.98606272 54:-0.99375 55:-0.99183673 56:-0.996875 57:-0.99140401 58:-0.98934281 59:-0.99627561 60:0.30723952 61:-0.53189332 
-8 1:-0.9838685 2:-0.96007738 3:-0.96047143 4:0.61595102 5:-0.81556393 6:-0.55449281 7:0.30422697 8:-0.3626288 9:-0.99917696 10:-0.10950821 11:0.51569061 12:-0.99878573 13:0.096097602 14:-0.99890309 15:-0.53924711 16:-0.53839265 17:-0.57950337 18:-0.48255343 19:-0.57914887 20:-0.4626232 21:-0.56278428 22:-0.44866403 23:-0.58109061 24:-0.49727333 25:-0.5847715 26:-0.4679528 27:-0.48955739 28:-0.32369261 29:-0.56242126 30:-0.50767463 31:-0.56165743 32:-0.48150785 33:-0.53327785 34:-0.46843074 35:-0.86570343 36:-0.97902098 37:-0.99610136 38:-0.99622642 39:-0.98802395 40:-0.99656947 41:-0.99333333 42:-0.99150743 43:-0.99749059 44:-0.99813084 45:-0.99806389 46:-0.99827437 47:-0.99806389 48:-0.99463098 49:-0.99315068 50:-0.98865129 51:-0.9983512 52:-0.99312989 53:-0.97212544 54:-0.98125 55:-0.95918367 56:-0.984375 57:-0.99713467 58:-0.9964476 59:-0.99851024 60:0.4367088 61:-0.46013968 
-2.340385608841488 1:-0.99058957 2:-0.96007737 3:-0.96070788 4:0.61484713 5:-0.84744479 6:-0.5484909 7:0.33489552 8:-0.34045473 9:-0.99926874 10:-0.10950822 11:0.51569071 12:-0.99934631 13:0.09609757 14:-0.999391 15:-0.54805057 16:-0.56425361 17:-0.57950337 18:-0.48255343 19:-0.57914887 20:-0.4626232 21:-0.56267605 22:-0.44964748 23:-0.58109061 24:-0.49727333 25:-0.5847715 26:-0.4679528 27:-0.4982688 28:-0.32098577 29:-0.56242126 30:-0.50767463 31:-0.56165743 32:-0.48150785 33:-0.53264388 34:-0.46478243 35:-0.91517284 36:-0.97902098 37:-0.99610136 38:-0.99622642 39:-0.98802395 40:-0.99656947 41:-0.99333333 42:-0.99575372 43:-0.99498118 44:-0.99813084 45:-0.99806389 46:-0.99827437 47:-0.99806389 48:-0.99463098 49:-0.98972603 50:-0.99430086 51:-0.9991756 52:-0.9863041 53:-0.99303136 54:-0.9875 55:-0.9877551 56:-0.99375 57:-0.99713467 58:-0.9964476 59:-0.99851024 60:0.21769248 61:-0.60779911 
-8 1:-0.98828521 2:-0.96262316 3:-0.96278208 4:0.65009629 5:0.26729447 6:-0.66407795 7:-0.27563525 8:-0.25494615 9:-0.99944365 10:-0.10950854 11:0.51569066 12:-0.99736835 13:0.096097575 14:-0.99782664 15:-0.55484032 16:-0.57831078 17:-0.57950337 18:-0.48255343 19:-0.57914887 20:-0.4626232 21:-0.57145986 22:-0.44389707 23:-0.53709633 24:0.14694579 25:-0.56335443 26:-0.050937664 27:-0.51907358 28:0.1344425 29:-0.52363231 30:-0.062466752 31:-0.50858127 32:-0.000342075 33:-0.48834786 34:-0.18798749 35:-0.99762185 36:-0.99300699 37:-0.99610136 38:-0.99622642 39:-0.99401198 40:-0.99656947 41:-0.99333333 42:-0.99575372 43:-0.99749059 44:-0.99813084 45:-0.99806389 46:-0.99827437 47:-0.99806389 48:-0.99731193 49:-0.99657534 50:-0.99430086 51:-0.9991756 52:-0.99312989 53:-0.99303136 54:-0.99375 55:-0.99591837 56:-0.996875 57:-0.99713467 58:-0.9964476 59:-0.95456238 60:-0.92090467 61:-0.94771573 
-8 1:-0.99250988 2:-0.95787249 3:-0.95718601 4:0.69432181 5:-0.25609462 6:-0.70316324 7:-0.03192409 8:-0.51210801 9:-0.99929146 10:-0.10950823 11:0.51569069 12:-0.99953333 13:0.096097577 14:-0.99953761 15:-0.53694705 16:-0.53007192 17:-0.57950337 18:-0.48255343 19:-0.57914887 20:-0.4626232 21:-0.57192997 22:-0.48415916 23:-0.56666555 24:-0.38381259 25:-0.5847715 26:-0.4679528 27:-0.57888601 28:-0.48242265 29:-0.56242126 30:-0.50767463 31:-0.56165743 32:-0.48150785 33:-0.52545324 34:-0.42770471 35:-0.99526617 36:-0.98601399 37:-0.98830409 38:-0.99245283 39:-0.98802395 40:-0.99656947 41:-0.98666667 42:-0.97876858 43:-0.98745295 44:-0.99626168 45:-0.99225557 46:-0.98446937 47:-0.99806389 48:-0.99731193 49:-0.97945205 50:-0.99430086 51:-0.9983512 52:-0.99312989 53:-0.99303136 54:-0.98125 55:-0.99183673 56:-0.996875 57:-0.99426934 58:-0.9964476 59:-0.99851024 60:-0.55428279 61:0.30150954 
-8 1:-0.97580321 2:-0.95651323 3:-0.95507142 4:0.6945816 5:-0.34500895 6:-0.70202331 7:-0.038740629 8:-0.51516784 9:-0.99835843 10:-0.10950831 11:0.5156917 12:-0.99402642 13:0.096097557 14:-0.99475157 15:-0.51908775 16:-0.46531973 17:-0.53854344 18:-0.332004 19:-0.55380532 20:-0.26262778 21:-0.57192997 22:-0.48415916 23:-0.55001686 24:-0.30956065 25:-0.53356548 26:-0.26813038 27:-0.57888601 28:-0.48242265 29:-0.52341155 30:-0.24409177 31:-0.52421331 32:-0.27564468 33:-0.49331654 34:-0.51184399 35:-0.98819911 36:-0.95104895 37:-0.97660819 38:-0.98867925 39:-0.97005988 40:-0.96912521 41:-0.94666667 42:-0.97027601 43:-0.97741531 44:-0.97757009 45:-0.98644724 46:-0.98101812 47:-0.99419167 48:-0.98658811 49:-0.99315068 50:-0.98300171 51:-0.99752679 52:-0.94534938 53:-0.93031359 54:-0.9625 55:-0.9755102 56:-0.98125 57:-0.98853868 58:-0.9928952 59:-0.99776536 60:-0.15941909 61:-0.12052463 
-8 1:-0.98617287 2:-0.95654665 3:-0.95268531 4:0.74794625 5:-0.51388982 6:-0.60159465 7:-0.13154932 8:-0.49870448 9:-0.99820616 10:-0.10950927 11:0.51569071 12:-0.99366879 13:0.096097475 14:-0.99427517 15:-0.3246374 16:-0.5881182 17:-0.37737593 18:-0.45983417 19:-0.38165597 20:-0.43686122 21:-0.36885139 22:-0.46161615 23:-0.36834621 24:-0.47667576 25:-0.38395229 26:-0.44376024 27:-0.37875848 28:-0.46003791 29:-0.34092105 30:-0.49831074 31:-0.34155894 32:-0.47177069 33:-0.29633014 34:-0.57633219 35:-0.98819911 36:-0.98601399 37:-0.99220273 38:-0.97735849 39:-0.98203593 40:-0.96569468 41:-0.92666667 42:-0.97452229 43:-0.97992472 44:-0.99252336 45:-0.99612778 46:-0.99482312 47:-0.99419167 48:-0.98926907 49:-0.98287671 50:-0.98300171 51:-0.9983512 52:-0.9863041 53:-0.97909408 54:-0.9875 55:-0.99183673 56:-0.99375 57:-0.99713467 58:-0.98934281 59:-0.99851024 60:-0.14487225 61:-0.26886267 
-1.932316827472057 1:-0.99615846 2:-0.94372854 3:-0.94361215 4:0.63162555 5:0.38596704 6:-0.64381482 7:-0.31578073 8:-0.2746406 9:-0.99948519 10:-0.10950822 11:0.51569069 12:-0.99952064 13:0.096097579 14:-0.99960416 15:-0.53449633 16:-0.37373559 17:-0.57950337 18:-0.48255343 19:-0.57914887 20:-0.4626232 21:-0.57192997 22:-0.48415916 23:-0.57649073 24:-0.43748269 25:-0.58143764 26:-0.41541689 27:-0.57888601 28:-0.48242265 29:-0.55224855 30:-0.42120288 31:-0.56165743 32:-0.48150785 33:-0.55608259 34:-0.58642064 35:-0.99762185 36:-0.99300699 37:-0.99610136 38:-0.99622642 39:-0.99401198 40:-0.99656947 41:-0.99333333 42:-0.99575372 43:-0.99749059 44:-0.99813084 45:-0.99806389 46:-0.99827437 47:-0.99806389 48:-0.99731193 49:-0.99657534 50:-0.99430086 51:-0.9991756 52:-0.99312989 53:-0.99303136 54:-0.99375 55:-0.99591837 56:-0.996875 57:-0.99713467 58:-0.9964476 59:-0.98510242 60:-0.92090467 61:-0.94771573 
-0.2290319649308255 1:-0.90667218 2:-0.88832816 3:-0.85521325 4:0.61514439 5:-0.667965 6:-0.5996432 7:0.025933226 8:-0.42306068 9:-0.8812332 10:-0.10951278 11:0.51570004 12:-0.84019635 13:0.096096366 14:-0.85070509 15:-0.39712245 16:0.52413691 17:0.11230982 18:0.99999997 19:-0.57914887 20:-0.4626232 21:0.13818632 22:0.98570593 23:0.084163384 24:0.99999997 25:-0.5847715 26:-0.4679528 27:0.066934801 28:1 29:-0.32091908 30:0.96585333 31:-0.18242641 32:0.99999995 33:-0.017223273 34:0.71264031 35:-0.84921362 36:-0.78321678 37:-0.91033138 38:-0.94716981 39:-0.95808383 40:-0.97598628 41:-0.9 42:-0.91932059 43:-0.98996236 44:-0.95327103 45:-0.91674734 46:-0.90681622 47:-0.97870281 48:-0.9570976 49:-0.95547945 50:-0.82481354 51:-0.99505359 52:-0.96582674 53:-0.90243902 54:-0.91875 55:-0.93469388 56:-0.95625 57:-0.93696275 58:-0.90763766 59:-0.98733706 60:0.99999993 61:0.58883212 
-8 1:-0.99846283 2:-0.81449319 3:-0.80828872 4:0.47491343 5:0.1232543 6:-0.42988865 7:-0.23546984 8:-0.4880765 9:-0.99942008 10:-0.10950822 11:0.51569068 12:-0.9993283 13:0.096097577 14:-0.9994191 15:-0.55576988 16:-0.60312514 17:-0.57950337 18:-0.48255343 19:-0.57914887 20:-0.4626232 21:-0.57192997 22:-0.48415916 23:-0.45539814 24:-0.49585605 25:-0.5847715 26:-0.4679528 27:-0.57888601 28:-0.48242265 29:-0.38776342 30:-0.50454207 31:-0.56165743 32:-0.48150785 33:-0.55608259 34:-0.58642064 35:-0.99526617 36:-0.97902098 37:-0.99610136 38:-0.99622642 39:-0.99401198 40:-0.99313894 41:-0.99333333 42:-0.99150743 43:-0.99749059 44:-0.99813084 45:-0.99612778 46:-0.99827437 47:-0.99806389 48:-0.99731193 49:-0.99657534 50:-0.99430086 51:-0.9991756 52:-0.99312989 53:-0.99303136 54:-0.99375 55:-0.99591837 56:-0.996875 57:-0.99713467 58:-0.9964476 59:-0.99851024 60:-0.63268282 61:-0.80394897 
-4.527544606954899 1:-0.99596643 2:-0.7478078 3:-0.73866474 4:0.42267706 5:0.15715545 6:-0.37429268 7:-0.23165825 8:-0.49226409 9:-0.99839009 10:-0.10950855 11:0.51569076 12:-0.99768015 13:0.096097627 14:-0.99763538 15:-0.23569174 16:-0.57452656 17:-0.57950337 18:-0.48255343 19:-0.27140157 20:-0.41863722 21:-0.57192997 22:-0.48415916 23:-0.21873209 24:-0.4721991 25:-0.5847715 26:-0.4679528 27:-0.57888601 28:-0.48242265 29:-0.22882472 30:-0.4794674 31:-0.56165743 32:-0.48150785 33:-0.17785342 34:-0.56409435 35:-0.98584342 36:-0.94405594 37:-0.98050682 38:-0.98867925 39:-0.98802395 40:-0.99656947 41:-0.99333333 42:-0.99575372 43:-0.99749059 44:-0.99813084 45:-0.99806389 46:-0.99827437 47:-0.99806389 48:-0.99731193 49:-0.99657534 50:-0.99430086 51:-0.9991756 52:-0.99312989 53:-0.99303136 54:-0.99375 55:-0.99591837 56:-0.996875 57:-0.99713467 58:-0.9964476 59:-0.99851024 60:-0.42500665 61:-0.64259373 
-1.67341208795451 1:-0.99884689 2:-0.51388191 3:-0.51514991 4:1 5:-0.15666788 6:-0.4700056 7:0.0069764944 8:-0.51441666 9:-0.99948894 10:-0.10950821 11:0.51569069 12:-0.99962242 13:0.096097571 14:-0.99968977 15:-0.53070703 16:-0.58167225 17:-0.57950337 18:-0.48255343 19:-0.57914887 20:-0.4626232 21:-0.57192997 22:-0.48415916 23:-0.58109061 24:-0.49727333 25:-0.5847715 26:-0.4679528 27:-0.57888601 28:-0.48242265 29:-0.56242126 30:-0.50767463 31:-0.56165743 32:-0.48150785 33:-0.54443277 34:-0.53696476 35:-0.99526617 36:-0.99300699 37:-0.99610136 38:-0.99622642 39:-0.99401198 40:-0.99656947 41:-0.98666667 42:-0.99575372 43:-0.99749059 44:-0.99813084 45:-0.99806389 46:-0.99827437 47:-0.99806389 48:-0.99731193 49:-0.99657534 50:-0.99430086 51:-0.9991756 52:-0.99312989 53:-0.99303136 54:-0.99375 55:-0.99591837 56:-0.996875 57:-0.99140401 58:-0.9964476 59:-0.99851024 60:-0.74913142 61:-0.80211365 
-8 1:-0.93490069 2:-0.99163664 3:-0.99186071 4:0.65607785 5:-0.33996271 6:-0.5369513 7:-0.0324389 8:-0.51624338 9:-0.99726644 10:-0.10950809 11:0.51569035 12:-0.98817313 13:0.096097625 14:-0.98938118 15:-0.34926961 16:-0.58987027 17:-0.40526664 18:-0.471876 19:-0.42467921 20:-0.45168481 21:-0.43248048 22:-0.47754782 23:-0.43770095 24:-0.48758563 25:-0.442615 26:-0.45802109 27:-0.42424736 28:-0.47222724 29:-0.40078785 30:-0.49883772 31:-0.39958856 32:-0.47175376 33:-0.36703341 34:-0.57971494 35:-0.98348774 36:-0.95804196 37:-0.98440546 38:-0.98113208 39:-0.9760479 40:-0.99656947 41:-0.99333333 42:-0.99150743 43:-0.98494354 44:-0.99813084 45:-0.99419167 46:-0.99654875 47:-0.99612778 48:-0.99731193 49:-0.98972603 50:-0.99430086 51:-0.99505359 52:-0.97947831 53:-0.90243902 54:-0.79375 55:-0.60408163 56:-0.75 57:-0.85959885 58:-0.92539964 59:-0.99180633 60:-0.47386191 61:-0.0093222602 
-8 1:-0.99807877 2:-0.95741089 3:-0.95713756 4:0.69834889 5:-0.10554613 6:-0.70285257 7:-0.011676389 8:-0.48343561 9:-0.99949351 10:-0.10950821 11:0.51569068 12:-0.99969701 13:0.096097578 14:-0.99975193 15:-0.55576988 16:-0.60312514 17:-0.57950337 18:-0.48255343 19:-0.57914887 20:-0.4626232 21:-0.57192997 22:-0.48415916 23:-0.58109061 24:-0.49727333 25:-0.5847715 26:-0.4679528 27:-0.57888601 28:-0.48242265 29:-0.56200624 30:-0.49864706 31:-0.56165743 32:-0.48150785 33:-0.54996557 34:-0.45654887 35:-0.99526617 36:-0.99300699 37:-0.99610136 38:-0.99622642 39:-0.98802395 40:-0.99656947 41:-0.99333333 42:-0.99575372 43:-0.99749059 44:-0.99813084 45:-0.99612778 46:-0.99827437 47:-0.99806389 48:-0.99731193 49:-0.99315068 50:-0.98865129 51:-0.9983512 52:-0.99312989 53:-0.99303136 54:-0.99375 55:-0.99591837 56:-0.99375 57:-0.99713467 58:-0.9964476 59:-0.99776536 60:-0.39176559 61:0.43931062 
-8 1:-0.98617287 2:-0.95641289 3:-0.95259847 4:0.74794101 5:-0.52391313 6:-0.60178743 7:-0.13665147 8:-0.49669183 9:-0.99820529 10:-0.10950874 11:0.51569054 12:-0.99361866 13:0.096097485 14:-0.99423407 15:-0.33206951 16:-0.58628981 17:-0.38557014 18:-0.45792972 19:-0.38493685 20:-0.43569635 21:-0.38287207 22:-0.46843473 23:-0.37571125 24:-0.47429574 25:-0.38653515 26:-0.44238487 27:-0.38193866 28:-0.45841774 29:-0.33825488 30:-0.49702312 31:-0.33622564 32:-0.47099153 33:-0.29445384 34:-0.57604548 35:-0.98584342 36:-0.99300699 37:-0.99220273 38:-0.98490566 39:-0.96407186 40:-0.96226415 41:-0.94 42:-0.96602972 43:-0.98243413 44:-0.99626168 45:-0.99419167 46:-0.99482312 47:-0.99031946 48:-0.99463098 49:-0.99315068 50:-0.96605298 51:-0.99752679 52:-0.9863041 53:-0.97909408 54:-0.98125 55:-0.99591837 56:-0.99375 57:-0.99426934 58:-0.9964476 59:-0.99851024 60:-0.17333783 61:-0.28002105 
-7.270106141499423 1:-0.99884689 2:-0.89310036 3:-0.89865213 4:0.88710292 5:0.99999998 6:-0.23674654 7:1 8:-0.063130778 9:-0.99949433 10:-0.10950821 11:0.51569068 12:-0.99973508 13:0.096097579 14:-0.99978341 15:-0.55576988 16:-0.60312514 17:-0.57729538 18:-0.46907352 19:-0.57914887 20:-0.4626232 21:-0.57192997 22:-0.48415916 23:-0.58109061 24:-0.49727333 25:-0.5847715 26:-0.4679528 27:-0.57888601 28:-0.48242265 29:-0.56242126 30:-0.50767463 31:-0.56165743 32:-0.48150785 33:-0.55608259 34:-0.58642064 35:-0.99526617 36:-0.99300699 37:-0.99610136 38:-0.99622642 39:-0.99401198 40:-0.99656947 41:-0.99333333 42:-0.99575372 43:-0.99749059 44:-0.99813084 45:-0.99806389 46:-0.99827437 47:-0.99806389 48:-0.99463098 49:-0.99657534 50:-0.99430086 51:-0.9991756 52:-0.99312989 53:-0.99303136 54:-0.99375 55:-0.99183673 56:-0.996875 57:-0.99713467 58:-0.9928952 59:-0.99851024 60:-0.44099383 61:-0.16403399 
-8 1:-0.99884689 2:-0.746497 3:-0.74358517 4:0.33199707 5:-0.43139231 6:-0.13372225 7:0.012487518 8:-0.5152214 9:-0.99947115 10:-0.10950822 11:0.51569067 12:-0.99967078 13:0.096097568 14:-0.99972175 15:-0.55127791 16:-0.58655017 17:-0.57950337 18:-0.48255343 19:-0.57914887 20:-0.4626232 21:-0.57192997 22:-0.48415916 23:-0.58109061 24:-0.49727333 25:-0.5847715 26:-0.4679528 27:-0.57888601 28:-0.48242265 29:-0.56242126 30:-0.50767463 31:-0.56165743 32:-0.48150785 33:-0.44172277 34:-0.54758709 35:-0.99526617 36:-0.99300699 37:-0.99610136 38:-0.99622642 39:-0.99401198 40:-0.99313894 41:-0.99333333 42:-0.99575372 43:-0.99498118 44:-0.99813084 45:-0.99806389 46:-0.99827437 47:-0.99806389 48:-0.99731193 49:-0.99657534 50:-0.99430086 51:-0.9991756 52:-0.99312989 53:-0.99303136 54:-0.9875 55:-0.99591837 56:-0.996875 57:-0.99713467 58:-0.9964476 59:-0.99851024 60:-0.37300216 61:-0.5109095 
-2.761025833044251 1:-0.73806928 2:-0.99163664 3:-0.99337926 4:0.72954278 5:-0.33681492 6:-0.2269102 7:-0.037863483 8:-0.51626601 9:-0.94415301 10:-0.10950742 11:0.51568748 12:-0.94795772 13:0.096102548 14:-0.93384587 15:-0.23275692 16:-0.58403843 17:-0.12386793 18:-0.4539462 19:-0.158905 20:-0.42919224 21:-0.18943 22:-0.45856305 23:-0.19698135 24:-0.46545132 25:-0.19287538 26:-0.43473544 27:-0.16169185 28:-0.45458745 29:-0.077676007 30:-0.45937331 31:-0.083628502 32:-0.44799002 33:-0.21568548 34:-0.56432706 35:-0.94815244 36:-0.96503497 37:-0.99220273 38:-0.98867925 39:-0.99401198 40:-0.9897084 41:-0.99333333 42:-0.99150743 43:-0.99498118 44:-0.99439252 45:-0.99225557 46:-0.99827437 47:-0.98451113 48:-0.95173569 49:-0.64383562 50:-0.079069306 51:-0.77906018 52:1 53:0.42857143 54:0.08125 55:-0.75102041 56:-0.896875 57:-0.97994269 58:-0.98934281 59:-0.99776536 60:-0.50133787 61:0.45724914 
-8 1:-0.98809317 2:-0.96262316 3:-0.9628542 4:0.65109995 5:0.26582089 6:-0.66640801 7:-0.26899793 8:-0.25560753 9:-0.99945509 10:-0.10950836 11:0.51569068 12:-0.99722564 13:0.096097578 14:-0.99771484 15:-0.55443336 16:-0.58429621 17:-0.57950337 18:-0.48255343 19:-0.52417309 20:0.28527242 21:-0.5152819 22:0.11643691 23:-0.52349005 24:0.10183539 25:-0.53266123 26:0.17275525 27:-0.57888601 28:-0.48242265 29:-0.56242126 30:-0.50767463 31:-0.56165743 32:-0.48150785 33:-0.50546401 34:-0.25691818 35:-0.99762185 36:-0.99300699 37:-0.99610136 38:-0.99622642 39:-0.99401198 40:-0.99656947 41:-0.99333333 42:-0.99575372 43:-0.99749059 44:-0.99813084 45:-0.99806389 46:-0.99827437 47:-0.99806389 48:-0.99731193 49:-0.99657534 50:-0.99430086 51:-0.9991756 52:-0.99312989 53:-0.99303136 54:-0.99375 55:-0.99591837 56:-0.996875 57:-0.99713467 58:-0.9964476 59:-0.9538175 60:-0.92090467 61:-0.94771573 
-8 1:-0.98617287 2:-0.95621185 3:-0.95260201 4:0.74789363 5:-0.51441458 6:-0.60193442 7:-0.13157503 8:-0.49863026 9:-0.99820465 10:-0.10950759 11:0.51569075 12:-0.99366311 13:0.096097622 14:-0.99427003 15:-0.32988031 16:-0.5881579 17:-0.38149542 18:-0.45884876 19:-0.37822017 20:-0.43812962 21:-0.38137793 22:-0.46036018 23:-0.37087307 24:-0.47649295 25:-0.38258453 26:-0.44444415 27:-0.37892545 28:-0.46026686 29:-0.34264725 30:-0.49797363 31:-0.33635439 32:-0.47202287 33:-0.30827313 34:-0.57441226 35:-0.98584342 36:-0.99300699 37:-0.99220273 38:-0.97735849 39:-0.96407186 40:-0.96912521 41:-0.94666667 42:-0.96178344 43:-0.98243413 44:-0.99439252 45:-0.99612778 46:-0.9930975 47:-0.99225557 48:-0.99463098 49:-0.98287671 50:-0.97735213 51:-0.9991756 52:-0.97947831 53:-0.97909408 54:-0.9875 55:-0.99183673 56:-0.99375 57:-0.99713467 58:-0.9928952 59:-0.99851024 60:-0.1484909 61:-0.26856102 
-8 1:-0.90763234 2:-0.88859907 3:-0.85512926 4:0.61556842 5:-0.67437722 6:-0.60034019 7:0.02673691 8:-0.4219295 9:-0.88247374 10:-0.10951495 11:0.51569738 12:-0.843123 13:0.096095208 14:-0.85346175 15:-0.36352283 16:0.50948561 17:0.11600427 18:0.99948886 19:-0.57914887 20:-0.4626232 21:0.15084686 22:0.98554967 23:0.10780398 24:0.99939636 25:-0.5847715 26:-0.4679528 27:0.080205086 28:0.99915136 29:-0.31347598 30:0.99999997 31:-0.29234021 32:0.76417396 33:-0.028802391 34:0.69519846 35:-0.85156931 36:-0.7972028 37:-0.91033138 38:-0.93584906 39:-0.95808383 40:-0.98627787 41:-0.87333333 42:-0.92356688 43:-0.98745295 44:-0.94766355 45:-0.94578896 46:-0.89301122 47:-0.98257502 48:-0.95441664 49:-0.95547945 50:-0.83046312 51:-0.99175598 52:-0.97947831 53:-0.91637631 54:-0.90625 55:-0.94285714 56:-0.946875 57:-0.93696275 58:-0.91829485 59:-0.98733706 60:0.99624869 61:0.58976017 
-8 1:-1 2:-0.98660065 3:-0.98653514 4:0.6524517 5:0.23810943 6:-0.71039162 7:-1 8:-0.433513 9:-1 10:0.78100664 11:0.26199562 12:-1 13:-0.79982338 14:-1 15:-1 16:-1 17:-1 18:-1 19:-1 20:-1 21:-1 22:-1 23:-0.99193512 24:-0.98041752 25:-1 26:-1 27:-1 28:-1 29:-1 30:-1 31:-1 32:-1 33:-0.99728434 34:-0.98314099 35:-0.99999438 36:-1 37:-1 38:-1 39:-1 40:-1 41:-1 42:-1 43:-1 44:-1 45:-1 46:-1 47:-1 48:-1 49:-1 50:-1 51:-0.99999863 52:-1 53:-1 54:-0.99996019 55:-1 56:-1 57:-1 58:-1 59:-1 60:-0.98860289 61:-0.99506776 
-1.649978626386768 1:-1 2:-0.92913011 3:-0.92860052 4:0.56102731 5:-0.77775206 6:-0.37357966 7:0.47555714 8:-0.93838628 9:-0.99999999 10:0.78086363 11:0.2617933 12:-0.99999992 13:-0.79989057 14:-0.99999995 15:-0.98466231 16:-0.9272665 17:-1 18:-1 19:-1 20:-1 21:-1 22:-1 23:-1 24:-1 25:-1 26:-1 27:-1 28:-1 29:-1 30:-1 31:-1 32:-1 33:-0.99864424 34:-0.96066202 35:-0.99998877 36:-1 37:-1 38:-1 39:-1 40:-1 41:-1 42:-1 43:-1 44:-1 45:-1 46:-1 47:-1 48:-1 49:-1 50:-1 51:-0.99999931 52:-1 53:-1 54:-0.99996019 55:-1 56:-1 57:-1 58:-1 59:-1 60:-0.92949032 61:-0.98222098 
-2.89592323211264 1:-0.99996284 2:-0.99965901 3:-0.99940285 4:0.68568289 5:-0.32027928 6:-0.79091301 7:-0.13069325 8:-0.95938763 9:-0.99994306 10:1 11:0.23865348 12:-0.99997456 13:-1 14:-0.99997324 15:-0.43620838 16:-0.95796588 17:-0.4588511 18:-0.94624514 19:-0.47455453 20:-0.94500565 21:-0.49434517 22:-0.94669932 23:-0.48141965 24:-0.94664639 25:-0.48974547 26:-0.82632275 27:-0.48815613 28:-0.83816301 29:-0.43433963 30:-0.849802 31:-0.65091758 32:-0.88002022 33:-0.71310286 34:-0.89114907 35:-0.99857367 36:-0.94780477 37:-0.99649968 38:-0.99841726 39:-0.99476048 40:-0.99914581 41:-0.99962382 42:-0.99995034 43:-1 44:-0.9999706 45:-0.9999964 46:-0.99999122 47:-1 48:-1 49:-1 50:-1 51:-0.99999931 52:-1 53:-1 54:-1 55:-1 56:-1 57:-1 58:-1 59:-1 60:-0.96344231 61:-0.99432508 
-8 1:-0.99998753 2:-0.9998207 3:-0.99981265 4:0.68902489 5:-0.34112723 6:-0.87883111 7:0.0059352595 8:-1 9:-0.99999882 10:0.76949622 11:0.26973242 12:-0.99999696 13:-0.80022185 14:-0.99999776 15:-0.90182142 16:-0.99481937 17:-0.87297529 18:-0.97082505 19:-0.91200521 20:-0.99344366 21:-0.91709341 22:-0.99105407 23:-0.93196338 24:-0.99236774 25:-0.92931356 26:-0.9918414 27:-0.92061529 28:-0.99260352 29:-0.91016157 30:-0.9932834 31:-0.90859289 32:-0.99235275 33:-0.85610955 34:-0.97995072 35:-0.99995508 36:-0.99913489 37:-0.99995172 38:-0.99993336 39:-0.99983961 40:-1 41:-0.99991641 42:-0.99998345 43:-0.99999027 44:-0.9999902 45:-0.9999928 46:-0.99999415 47:-1 48:-1 49:-0.99993623 50:-0.99935575 51:-0.99997801 52:-0.99521308 53:-0.99250075 54:-0.99896497 55:-0.99975723 56:-0.99998805 57:-1 58:-1 59:-1 60:-0.95556634 61:-0.97489103 
