svm_type c_svc
kernel_type rbf
gamma 0.02
nr_class 2
total_sv 179
rho 3.98288
label 1 -1
probA -3.73754
probB 1.65329
nr_sv 90 89
SV
8 1:-1 2:-0.99999504 3:-0.99999504 4:0.70796573 5:-0.17006615 6:-0.92091642 7:-0.73770806 8:-0.76466407 9:-1 10:0.78075291 11:0.26147016 12:-1 13:-0.79824702 14:-1 15:-0.98715133 16:-0.97165494 17:-0.98803711 18:-0.96588208 19:-1 20:-1 21:-0.99365296 22:-0.93323068 23:-1 24:-1 25:-0.99725996 26:-0.99559754 27:-0.99744967 28:-0.98937499 29:-1 30:-1 31:-1 32:-1 33:-1 34:-1 35:-0.99999987 36:-1 37:-1 38:-1 39:-1 40:-0.9999998 41:-1 42:-0.99999993 43:-1 44:-0.99999999 45:-1 46:-0.99999999 47:-0.99999999 48:-0.99999998 49:-0.99999991 50:-0.99999876 51:-1 52:-0.99999973 53:-1 54:-1 55:-0.99999995 56:-1 57:-0.99999998 58:-1 59:-1 60:-0.99724994 61:-0.99973018 
8 1:-1 2:-0.99999568 3:-0.99999553 4:0.70802805 5:-0.23551313 6:-0.93989715 7:0.66145705 8:-0.7456698 9:-1 10:0.77717291 11:0.26983253 12:-1 13:-0.80635151 14:-1 15:-0.99575503 16:-0.98499123 17:-0.99867062 18:-0.9854866 19:-1 20:-1 21:-0.97859797 22:-0.92254089 23:-0.97845021 24:-0.91823171 25:-1 26:-1 27:-0.97004228 28:-0.92506276 29:-1 30:-1 31:-0.98618128 32:-0.96115864 33:-0.98844371 34:-0.9717076 35:-0.99999993 36:-0.99999551 37:-0.99999954 38:-0.99999982 39:-0.99999855 40:-0.9999997 41:-0.99999922 42:-0.99999961 43:-0.99999995 44:-0.99999998 45:-0.99999995 46:-1 47:-0.99999995 48:-0.99999992 49:-0.99999986 50:-0.99999753 51:-1 52:-0.99999919 53:-0.99999639 54:-0.99999897 55:-0.99999979 56:-0.99999992 57:-0.99999991 58:-1 59:-1 60:-0.99600439 61:-0.99940434 
8 1:-1 2:-0.99999592 3:-0.9999957 4:0.70807892 5:-0.22098165 6:-0.95749263 7:0.31759676 8:-0.91169655 9:-1 10:0.78029157 11:0.26368439 12:-1 13:-0.80468444 14:-1 15:-0.98327409 16:-0.96523818 17:-0.99036651 18:-0.94751835 19:-1 20:-1 21:-0.98617031 22:-0.95573981 23:-1 24:-1 25:-0.98056718 26:-0.92944637 27:-0.97747287 28:-0.92515474 29:-1 30:-1 31:-0.95501935 32:-0.91397329 33:-0.98027632 34:-0.97785509 35:-0.9999998 36:-0.99999888 37:-0.99999972 38:-0.99999972 39:-0.99999913 40:-0.9999998 41:-0.99999843 42:-0.9999998 43:-0.99999994 44:-0.99999992 45:-0.99999995 46:-0.99999999 47:-1 48:-0.99999995 49:-0.99999995 50:-0.99999969 51:-1 52:-0.99999919 53:-0.99999964 54:-0.99999949 55:-0.99999995 56:-0.99999996 57:-1 58:-1 59:-1 60:-0.99588032 61:-0.99955146 
8 1:-1 2:-0.99999643 3:-0.99999613 4:0.70812363 5:-0.228267 6:-0.96884181 7:0.41325998 8:-0.82037955 9:-1 10:0.78098358 11:0.26188603 12:-1 13:-0.80205134 14:-1 15:-0.99501133 16:-0.98990741 17:-0.99246222 18:-0.98385202 19:-1 20:-1 21:-0.97697625 22:-0.95959606 23:-0.98315157 24:-0.93811786 25:-1 26:-1 27:-0.98207638 28:-0.91372801 29:-1 30:-1 31:-0.9904073 32:-0.97248048 33:-0.9845183 34:-0.9790209 35:-0.99999995 36:-0.99999439 37:-0.99999982 38:-0.99999982 39:-0.99999913 40:-0.99999901 41:-0.99999941 42:-0.99999987 43:-0.99999998 44:-0.99999998 45:-0.99999998 46:-1 47:-0.99999995 48:-0.99999993 49:-0.99999995 50:-0.99999938 51:-1 52:-0.99999893 53:-0.99999783 54:-0.99999897 55:-0.99999989 56:-0.99999996 57:-1 58:-0.99999996 59:-1 60:-0.99569231 61:-0.99940792 
8 1:-1 2:-0.99999643 3:-0.99999634 4:0.70814569 5:-0.2180775 6:-0.97407023 7:0.23368157 8:-0.92587277 9:-1 10:0.78054992 11:0.26223446 12:-1 13:-0.80031589 14:-1 15:-0.95598036 16:-0.98866012 17:-0.97640617 18:-0.96845655 19:-1 20:-1 21:-0.99104593 22:-0.94389911 23:-1 24:-1 25:-0.98545183 26:-0.9299067 27:-0.97717707 28:-0.93507867 29:-1 30:-1 31:-0.97410495 32:-0.9173224 33:-0.99280039 34:-0.98480981 35:-0.99999995 36:-0.99999776 37:-0.99999982 38:-0.99999908 39:-1 40:-0.9999996 41:-0.99999902 42:-0.99999967 43:-0.99999998 44:-0.99999987 45:-0.99999995 46:-1 47:-1 48:-0.99999998 49:-1 50:-0.99999938 51:-1 52:-0.99999919 53:-0.99999892 54:-0.99999949 55:-1 56:-0.99999996 57:-0.99999994 58:-0.99999987 59:-1 60:-0.9953768 61:-0.99941094 
8 1:-0.99999749 2:-0.99986183 3:-0.99985997 4:0.70571723 5:-0.24145868 6:-0.88411756 7:0.098169227 8:-0.50274409 9:-0.99999947 10:-0.10950806 11:0.51569038 12:-0.99999899 13:0.096097907 14:-0.99999929 15:-0.78803587 16:-0.81859061 17:-0.81929317 18:-0.71958567 19:-0.82348065 20:-0.71134576 21:-0.80069619 22:-0.6592262 23:-0.79398127 24:-0.65880463 25:-0.82681125 26:-0.71650211 27:-0.77006663 28:-0.64533867 29:-0.80876382 30:-0.75943209 31:-0.78329495 32:-0.69256074 33:-0.78365118 34:-0.80029235 35:-0.99993919 36:-0.99978232 37:-0.99994071 38:-0.99993763 39:-0.99993491 40:-0.9999877 41:-0.99990632 42:-0.99994965 43:-0.99998108 44:-0.99996926 45:-0.99997053 46:-0.99998629 47:-0.99998702 48:-0.99997457 49:-0.99997558 50:-0.99992929 51:-0.99999933 52:-0.99987563 53:-0.99989334 54:-0.99979839 55:-0.99997121 56:-0.99996075 57:-0.99998428 58:-0.99996312 59:-0.99999896 60:-0.95427617 61:-0.98033299 
8 1:-0.99999687 2:-0.9998768 3:-0.99987059 4:0.70612307 5:-0.25762197 6:-0.89774793 7:0.13767405 8:-0.48645649 9:-0.99999921 10:-0.10950793 11:0.51569042 12:-0.99999877 13:0.096097474 14:-0.99999913 15:-0.70655277 16:-0.83196641 17:-0.75160568 18:-0.71530297 19:-0.82348065 20:-0.71134576 21:-0.78109271 22:-0.69069805 23:-0.82394569 24:-0.74709895 25:-0.79702056 26:-0.63029178 27:-0.80104719 28:-0.62699057 29:-0.80876382 30:-0.75943209 31:-0.74417184 32:-0.61620515 33:-0.77208821 34:-0.79979235 35:-0.99992814 36:-0.99961906 37:-0.99991106 38:-0.99995842 39:-0.99990237 40:-0.99990163 41:-0.99981265 42:-0.9998993 43:-0.99998108 44:-0.99996926 45:-0.99998526 46:-0.99998629 47:-0.99998702 48:-0.99998092 49:-0.99997558 50:-0.99982369 51:-0.99999799 52:-0.99995836 53:-0.99992889 54:-0.99971774 55:-0.99997121 56:-0.99999019 57:-0.99998428 58:-0.99995083 59:-0.99999896 60:-0.94926165 61:-0.98028551 
8 1:-0.99999705 2:-0.99988295 3:-0.99988181 4:0.70644345 5:-0.23070752 6:-0.90732324 7:0.045210497 8:-0.50659506 9:-0.9999994 10:-0.10950837 11:0.5156907 12:-0.99999899 13:0.096097556 14:-0.99999929 15:-0.72723781 16:-0.82826143 17:-0.78098331 18:-0.69741217 19:-0.82348065 20:-0.71134576 21:-0.80646739 22:-0.66610404 23:-0.82394569 24:-0.74709895 25:-0.79883722 26:-0.62002093 27:-0.78441726 28:-0.64808666 29:-0.80876382 30:-0.75943209 31:-0.76192081 32:-0.62065396 33:-0.79056824 34:-0.80835825 35:-0.99997233 36:-0.99983674 37:-0.99995553 38:-0.9997713 39:-0.99996746 40:-0.99993852 41:-0.99981265 42:-0.9998993 43:-0.99998581 44:-0.99994621 45:-0.99997053 46:-0.99999452 47:-0.99999567 48:-0.99998728 49:-0.99998779 50:-0.99989409 51:-0.99999732 52:-0.99983426 53:-0.99985778 54:-0.99987903 55:-0.9999856 56:-0.99998038 57:-0.99996856 58:-0.99995083 59:-0.99999792 60:-0.94976452 61:-0.97688459 
8 1:-0.99999631 2:-0.99989705 3:-0.99989067 4:0.70661567 5:-0.23805803 6:-0.91129544 7:0.065046084 8:-0.4971996 9:-0.99999908 10:-0.10950917 11:0.51569022 12:-0.99999858 13:0.096098248 14:-0.99999904 15:-0.80503993 16:-0.84342237 17:-0.75517572 18:-0.6642278 19:-0.76633478 20:-0.6199432 21:-0.82351773 22:-0.74099216 23:-0.78487731 24:-0.6734759 25:-0.81242094 26:-0.61267254 27:-0.81232015 28:-0.67211336 29:-0.78012725 30:-0.67403293 31:-0.74018332 32:-0.60907697 33:-0.76547337 34:-0.79167169 35:-0.999895 36:-0.99978232 37:-0.99994071 38:-0.99989604 39:-0.99977219 40:-0.99988934 41:-0.99971897 42:-0.99991608 43:-0.9999527 44:-0.99998079 45:-0.99998895 46:-0.99999452 47:-0.99997404 48:-0.99997457 49:-0.99998779 50:-0.99985889 51:-0.99999665 52:-0.99991699 53:-0.99989334 54:-0.99991935 55:-0.99997121 56:-0.99999019 57:-0.99999214 58:-0.99990166 59:-0.99999844 60:-0.9470736 61:-0.98063979 
8 1:-0.99999565 2:-0.99991566 3:-0.9999041 4:0.70695788 5:-0.2226721 6:-0.91993759 7:0.014539787 8:-0.50620845 9:-0.9999988 10:-0.10950821 11:0.51569088 12:-0.99999776 13:0.096098528 14:-0.99999845 15:-0.75536175 16:-0.75191987 17:-0.81115529 18:-0.71334249 19:-0.77881439 20:-0.6202548 21:-0.79880764 22:-0.65837837 23:-0.80898677 24:-0.65368122 25:-0.82681125 26:-0.71650211 27:-0.78966314 28:-0.64999115 29:-0.74357689 30:-0.66106609 31:-0.78185095 32:-0.67732386 33:-0.79393936 34:-0.80935223 35:-0.99987291 36:-0.99994558 37:-0.99985176 38:-0.99981288 39:-0.99983728 40:-0.99988934 41:-0.99984387 42:-0.99981538 43:-0.99995743 44:-0.99997695 45:-0.99999263 46:-0.99999178 47:-0.99999567 48:-0.99998728 49:-0.99993895 50:-0.99978849 51:-0.99999732 52:-0.99975152 53:-0.99982223 54:-0.99987903 55:-0.99995681 56:-0.99999019 57:-0.99998428 58:-0.99997542 59:-0.99999532 60:-0.94622114 61:-0.98073665 
8 1:-0.99999473 2:-0.99991532 3:-0.9999104 4:0.70706402 5:-0.22471504 6:-0.92225419 7:0.01903668 8:-0.50604781 9:-0.99999883 10:-0.10950765 11:0.5156886 12:-0.99999731 13:0.096097895 14:-0.99999814 15:-0.75568258 16:-0.75302814 17:-0.79073116 18:-0.69793858 19:-0.78714908 20:-0.65129905 21:-0.78950442 22:-0.67248146 23:-0.79416755 24:-0.6555441 25:-0.82681125 26:-0.71650211 27:-0.79472015 28:-0.64181476 29:-0.74896631 30:-0.63262505 31:-0.78833075 32:-0.65017256 33:-0.78780776 34:-0.80292718 35:-0.99985634 36:-0.99989116 37:-0.99988141 38:-0.99985446 39:-0.99973965 40:-0.99987704 41:-0.99953162 42:-0.9997986 43:-0.99994797 44:-0.99996542 45:-0.99998158 46:-0.99998903 47:-0.99998702 48:-0.99998092 49:-0.99995116 50:-0.99989409 51:-0.99999598 52:-0.99987563 53:-0.99971557 54:-0.99979839 55:-0.99997121 56:-0.99998038 57:-0.99999214 58:-0.99996312 59:-0.99999636 60:-0.95158184 61:-0.98170489 
8 1:-0.99999443 2:-0.99992682 3:-0.99992094 4:0.70725139 5:-0.2173277 6:-0.92592475 7:-0.0018531253 8:-0.50957497 9:-0.99999855 10:-0.10950964 11:0.51569015 12:-0.99999741 13:0.096099171 14:-0.99999816 15:-0.68181071 16:-0.74034838 17:-0.73617503 18:-0.70908433 19:-0.77991728 20:-0.6389595 21:-0.79901654 22:-0.66714727 23:-0.82394569 24:-0.74709895 25:-0.798128 26:-0.62215256 27:-0.7895809 28:-0.64564501 29:-0.73918707 30:-0.65427649 31:-0.78231145 32:-0.65490833 33:-0.79160382 34:-0.80203858 35:-0.99986739 36:-0.99961906 37:-0.99994071 38:-0.9997713 39:-0.99973965 40:-0.99987704 41:-0.99968774 42:-0.99993287 43:-0.99993851 44:-0.99996542 45:-0.99996316 46:-0.99997807 47:-0.99997837 48:-0.9999301 49:-0.99995116 50:-0.99985889 51:-0.99999531 52:-0.99983426 53:-0.99982223 54:-0.99983871 55:-0.99995681 56:-0.99997057 57:-0.99998428 58:-0.99998771 59:-0.99999792 60:-0.95635911 61:-0.98218527 
8 1:-0.99999362 2:-0.99993339 3:-0.99992827 4:0.70731291 5:-0.22413793 6:-0.92655837 7:0.017115089 8:-0.50449706 9:-0.99999853 10:-0.10950777 11:0.51569119 12:-0.99999732 13:0.096096249 14:-0.99999813 15:-0.69825158 16:-0.74112743 17:-0.80139739 18:-0.67549008 19:-0.78921254 20:-0.63107832 21:-0.7975423 22:-0.66081645 23:-0.82394569 24:-0.74709895 25:-0.81066671 26:-0.61123987 27:-0.79305958 28:-0.63792699 29:-0.73733376 30:-0.62759362 31:-0.74984327 32:-0.61858044 33:-0.78358969 34:-0.79985903 35:-0.99982873 36:-0.99934696 37:-0.99977764 38:-0.99987525 39:-0.99941422 40:-0.99985245 41:-0.99950039 42:-0.99983216 43:-0.99993378 44:-0.99996542 45:-0.99998526 46:-0.99998081 47:-0.99996539 48:-0.99997457 49:-0.99995116 50:-0.99982369 51:-0.99999464 52:-0.99983426 53:-0.99992889 54:-0.99991935 55:-0.9999856 56:-0.99999019 57:-0.99999214 58:-0.99998771 59:-0.99999896 60:-0.96340109 61:-0.98641961 
8 1:-0.99997479 2:-0.99998758 3:-0.99998767 4:0.70787398 5:-0.20977512 6:-0.92482268 7:0.013013506 8:-0.50881104 9:-0.99999669 10:-0.1095103 11:0.51569085 12:-0.99999558 13:0.096096397 14:-0.99999673 15:-0.78038986 16:-0.82354829 17:-0.77337834 18:-0.66735582 19:-0.78197147 20:-0.62737113 21:-0.78916249 22:-0.65418748 23:-0.7918868 24:-0.65739784 25:-0.78317239 26:-0.60873394 27:-0.79008599 28:-0.64840303 29:-0.7355003 30:-0.63207306 31:-0.74120618 32:-0.60833121 33:-0.77638935 34:-0.772172 35:-0.99987843 36:-0.9997279 37:-0.99986659 38:-0.99991684 39:-0.99970711 40:-0.99990163 41:-0.99962529 42:-0.99986573 43:-0.99991959 44:-0.99989626 45:-0.99984157 46:-0.99985197 47:-0.99971878 48:-0.99972045 49:-0.99968256 50:-0.99947169 51:-0.99998391 52:-0.99838636 53:-0.99843561 54:-0.99834677 55:-0.99958248 56:-0.99952904 57:-0.99979561 58:-0.99952061 59:-0.99997402 60:-0.95930137 61:-0.97081737 
8 1:-0.99996638 2:-0.99999 3:-0.99999008 4:0.70791431 5:-0.20782999 6:-0.9237436 7:0.0055268949 8:-0.51142305 9:-0.99999532 10:-0.10950468 11:0.51569057 12:-0.99999496 13:0.09610183 14:-0.99999599 15:-0.792227 16:-0.82558668 17:-0.8014289 18:-0.66013869 19:-0.77981653 20:-0.61572371 21:-0.79278955 22:-0.65796349 23:-0.79084843 24:-0.65052991 25:-0.78029549 26:-0.60667085 27:-0.7966907 28:-0.6475313 29:-0.76063992 30:-0.63566073 31:-0.74478838 32:-0.59219641 33:-0.76609484 34:-0.75112903 35:-0.9999171 36:-0.99961906 37:-0.99988141 38:-0.99983367 39:-0.99986983 40:-0.99985245 41:-0.99915691 42:-0.99958041 43:-0.99986755 44:-0.99991932 45:-0.99984894 46:-0.99984923 47:-0.99974474 48:-0.99945998 49:-0.99924303 50:-0.9987325 51:-0.99997855 52:-0.99863457 53:-0.99918225 54:-0.99846774 55:-0.9994529 56:-0.99953885 57:-0.99964626 58:-0.9995329 59:-0.99992258 60:-0.95809172 61:-0.9698368 
8 1:-0.99995341 2:-0.99999259 3:-0.99999305 4:0.70797246 5:-0.2046419 6:-0.92105152 7:-0.01597565 8:-0.51376064 9:-0.99999194 10:-0.10951164 11:0.51569588 12:-0.99999426 13:0.096100389 14:-0.99999514 15:-0.70648313 16:-0.79463999 17:-0.75054988 18:-0.6581476 19:-0.76095303 20:-0.61379522 21:-0.76780676 22:-0.65252397 23:-0.77261971 24:-0.65536617 25:-0.78691112 26:-0.60915028 27:-0.77958658 28:-0.63579408 29:-0.73587276 30:-0.63641011 31:-0.74032727 32:-0.58040997 33:-0.76390686 34:-0.74036951 35:-0.99980663 36:-0.99923812 37:-0.99986659 38:-0.99972972 39:-0.99957693 40:-0.99974179 41:-0.99918813 42:-0.99946292 43:-0.99988174 44:-0.9998809 45:-0.99989315 46:-0.99980263 47:-0.99962792 48:-0.99936469 49:-0.99908432 50:-0.9977469 51:-0.99997051 52:-0.99867594 53:-0.99925336 54:-0.99858871 55:-0.9994817 56:-0.99955848 57:-0.99968556 58:-0.99937311 59:-0.99982385 60:-0.95396496 61:-0.96875051 
8 1:-0.99995462 2:-0.99999448 3:-0.99999542 4:0.70804756 5:-0.20502172 6:-0.91868835 7:0.0033574354 8:-0.51203137 9:-0.99999414 10:-0.10951026 11:0.51569013 12:-0.99999661 13:0.096093942 14:-0.99999706 15:-0.77360987 16:-0.82671805 17:-0.78035641 18:-0.70945388 19:-0.78893259 20:-0.61814965 21:-0.78272979 22:-0.65521366 23:-0.77071213 24:-0.65369782 25:-0.78090189 26:-0.62385449 27:-0.7826079 28:-0.65040974 29:-0.7472753 30:-0.66627321 31:-0.76309409 32:-0.60230236 33:-0.72357925 34:-0.72978681 35:-0.99983425 36:-0.9994558 37:-0.99982212 38:-0.99987525 39:-0.99938167 40:-0.99987704 41:-0.99925059 42:-0.99953006 43:-0.99978241 44:-0.99959658 45:-0.99947314 46:-0.99962445 47:-0.99969282 48:-0.99966963 49:-0.99941396 50:-0.9981341 51:-0.99996917 52:-0.99867594 53:-0.99918225 54:-0.99866935 55:-0.99536407 56:-0.99999019 57:-0.99999214 58:-0.99998771 59:-0.99999896 60:-0.95711696 61:-0.96855257 
8 1:-0.99994556 2:-0.99999526 3:-0.99999638 4:0.70809939 5:-0.20360537 6:-0.918138 7:-0.016945762 8:-0.51313291 9:-0.99999297 10:-0.10950115 11:0.51569535 12:-0.99999603 13:0.09609816 14:-0.99999681 15:-0.75246585 16:-0.83135284 17:-0.75055816 18:-0.70394486 19:-0.7617966 20:-0.67369159 21:-0.77633117 22:-0.69625891 23:-0.77626996 24:-0.68452399 25:-0.77696874 26:-0.63841293 27:-0.77932217 28:-0.67294508 29:-0.76349671 30:-0.69317593 31:-0.74453752 32:-0.59603487 33:-0.71401942 34:-0.73543653 35:-0.99990605 36:-0.99923812 37:-0.99971835 38:-0.9995218 39:-0.99934913 40:-0.9996926 41:-0.99862607 42:-0.99922795 43:-0.99978241 44:-0.99969264 45:-0.99968683 46:-0.99972587 47:-0.99945486 48:-0.99925669 49:-0.99904769 50:-0.9978877 51:-0.99996649 52:-0.99760036 53:-0.99765342 54:-0.99733871 55:-0.99936652 56:-0.99949961 57:-0.99962267 58:-0.99950832 59:-0.99990751 60:-0.95860794 61:-0.97223443 
8 1:-0.9999401 2:-0.99999605 3:-0.99999727 4:0.70817887 5:-0.20273505 6:-0.91685772 7:-0.04149048 8:-0.51546897 9:-0.99999525 10:-0.10949172 11:0.5156863 12:-0.99999717 13:0.096094477 14:-0.99999754 15:-0.75007377 16:-0.79013888 17:-0.77371476 18:-0.66240304 19:-0.76909513 20:-0.62739285 21:-0.7755033 22:-0.66188607 23:-0.77212402 24:-0.6610521 25:-0.77320502 26:-0.65506859 27:-0.77071461 28:-0.68323479 29:-0.75233275 30:-0.69596729 31:-0.75817135 32:-0.65740973 33:-0.74572097 34:-0.78430774 35:-0.99995576 36:-0.99978232 37:-0.99995553 38:-0.99983367 39:-0.9994793 40:-0.99933603 41:-0.99906323 42:-0.99954684 43:-0.99981552 44:-0.99973106 45:-0.99960209 46:-0.99968475 47:-0.99957168 48:-0.99972681 49:-0.99949943 50:-0.9988029 51:-0.9999504 52:-0.99784857 53:-0.99793785 54:-0.99798387 55:-0.99915056 56:-0.99953885 57:-0.99957551 58:-0.99921331 59:-0.99974435 60:-0.95624232 61:-0.96713915 
8 1:-0.99993623 2:-0.99999622 3:-0.99999746 4:0.70823127 5:-0.20279857 6:-0.91656142 7:-0.035046076 8:-0.51513553 9:-0.99999342 10:-0.10951175 11:0.51569018 12:-0.99999714 13:0.096094642 14:-0.99999731 15:-0.77528909 16:-0.81841406 17:-0.76572305 18:-0.67594254 19:-0.76825055 20:-0.63680552 21:-0.77208703 22:-0.67576218 23:-0.76491444 24:-0.70697806 25:-0.76549333 26:-0.66854912 27:-0.77206349 28:-0.67964748 29:-0.74851644 30:-0.7179622 31:-0.73847638 32:-0.66849606 33:-0.70165355 34:-0.75990851 35:-0.99996681 36:-0.9997279 37:-0.99986659 38:-0.99945943 39:-0.99928404 40:-0.99943439 41:-0.9985324 42:-0.99914403 43:-0.99965942 44:-0.99976179 45:-0.99981947 46:-0.99983278 47:-0.99981396 48:-0.99970775 49:-0.99943838 50:-0.9982397 51:-0.99994437 52:-0.99751763 53:-0.99800896 54:-0.99766129 55:-0.99906418 56:-0.99961735 57:-0.99956765 58:-0.99936081 59:-0.99966484 60:-0.95484081 61:-0.9658897 
8 1:-0.99994382 2:-0.99999573 3:-0.99999715 4:0.70832728 5:-0.20273143 6:-0.91399646 7:-0.035112533 8:-0.51442202 9:-0.99999454 10:-0.10950949 11:0.51569092 12:-0.99999683 13:0.096098252 14:-0.99999747 15:-0.75600825 16:-0.80204101 17:-0.77778489 18:-0.66992981 19:-0.77692376 20:-0.62368834 21:-0.77044669 22:-0.66879623 23:-0.77160574 24:-0.67095581 25:-0.77324361 26:-0.6441927 27:-0.77346022 28:-0.67822352 29:-0.75088194 30:-0.68721303 31:-0.73438214 32:-0.64685101 33:-0.69612854 34:-0.7997703 35:-0.99993919 36:-0.99961906 37:-0.99988141 38:-0.99935548 39:-0.99921895 40:-0.99964342 41:-0.99831382 42:-0.99919438 43:-0.99977768 44:-0.99977332 45:-0.99973104 46:-0.99980263 47:-0.99959764 48:-0.99944727 49:-0.9991942 50:-0.9970077 51:-0.99995107 52:-0.99731078 53:-0.99761786 54:-0.99733871 55:-0.99928014 56:-0.99972527 57:-0.99977989 58:-0.99972958 59:-0.99981553 60:-0.95596894 61:-0.96996172 
8 1:-0.99994673 2:-0.99999499 3:-0.99999612 4:0.70842235 5:-0.2028918 6:-0.91162852 7:-0.040805483 8:-0.51532062 9:-0.99999396 10:-0.10951196 11:0.51568965 12:-0.99999597 13:0.096095482 14:-0.99999652 15:-0.71944682 16:-0.8062346 17:-0.74945961 18:-0.66792696 19:-0.74556788 20:-0.62586718 21:-0.77115296 22:-0.65518079 23:-0.77561416 24:-0.66084094 25:-0.78628909 26:-0.62461717 27:-0.78875293 28:-0.64938842 29:-0.75469401 30:-0.65583764 31:-0.75807977 32:-0.61693223 33:-0.79218781 34:-0.77442844 35:-0.99997785 36:-0.9997279 37:-0.99989623 38:-0.99979209 39:-0.99964202 40:-0.99976638 41:-0.99940671 42:-0.99958041 43:-0.99981079 44:-0.99979637 45:-0.99977157 46:-0.9997341 47:-0.99942458 48:-0.99925033 49:-0.9991942 50:-0.9969373 51:-0.99994839 52:-0.99797268 53:-0.99811562 54:-0.99709677 55:-0.99912177 56:-0.99945055 57:-0.99936326 58:-0.99912727 59:-0.99989971 60:-0.96187619 61:-0.96941829 
8 1:-0.99995613 2:-0.99999373 3:-0.99999481 4:0.70849111 5:-0.20168426 6:-0.91260396 7:-0.017801862 8:-0.51491256 9:-0.99999527 10:-0.10951278 11:0.51568907 12:-0.9999955 13:0.096099365 14:-0.99999637 15:-0.76308001 16:-0.79818166 17:-0.79884229 18:-0.66039452 19:-0.79181544 20:-0.62100861 21:-0.79246887 22:-0.66232742 23:-0.77592757 24:-0.66757693 25:-0.79054763 26:-0.60281876 27:-0.79279116 28:-0.64107726 29:-0.76297792 30:-0.64376716 31:-0.77094407 32:-0.60570818 33:-0.76272637 34:-0.74049064 35:-0.99996681 36:-0.99934696 37:-0.99985176 38:-0.99975051 39:-0.99954439 40:-0.9994098 41:-0.99868852 42:-0.99906011 43:-0.99960266 44:-0.99953895 45:-0.9996721 46:-0.99977796 47:-0.9997707 48:-0.99969504 49:-0.99931629 50:-0.9985917 51:-0.99997319 52:-0.99797268 53:-0.99854227 54:-0.98762097 55:-0.9999856 56:-0.99999019 57:-0.99999214 58:-0.99998771 59:-0.99999896 60:-0.95828198 61:-0.96804466 
8 1:-0.99996693 2:-0.99999139 3:-0.99999259 4:0.70857351 5:-0.19902773 6:-0.91379792 7:0.011685299 8:-0.51199672 9:-0.99999613 10:-0.10950801 11:0.51569297 12:-0.99999599 13:0.096098271 14:-0.99999683 15:-0.76690722 16:-0.82149163 17:-0.7942972 18:-0.70356671 19:-0.79486003 20:-0.63135961 21:-0.79446796 22:-0.66018944 23:-0.78726485 24:-0.6578835 25:-0.7900382 26:-0.60843856 27:-0.78608165 28:-0.60567647 29:-0.77103879 30:-0.6221554 31:-0.77083143 32:-0.59341309 33:-0.77254926 34:-0.7546401 35:-0.99997785 36:-0.9997279 37:-0.99980729 38:-0.99987525 39:-0.99977219 40:-0.99977868 41:-0.99953162 42:-0.99976503 43:-0.99987701 44:-0.99990395 45:-0.99987105 46:-0.9998602 47:-0.99983559 48:-0.99952351 49:-0.99918199 50:-0.9978173 51:-0.99998794 52:-0.99892415 53:-0.99879115 54:-0.99883065 55:-0.99966886 56:-0.99962716 57:-0.99974845 58:-0.99950832 59:-0.99988568 60:-0.96021946 61:-0.96704247 
8 1:-0.99997656 2:-0.99998913 3:-0.9999902 4:0.70863503 5:-0.19816847 6:-0.91565043 7:0.010471678 8:-0.51235185 9:-0.99999808 10:-0.10951023 11:0.51569088 12:-0.99999663 13:0.096096436 14:-0.99999751 15:-0.77125716 16:-0.8219915 17:-0.81213152 18:-0.70824772 19:-0.80187267 20:-0.66163178 21:-0.79521597 22:-0.67270472 23:-0.78646114 24:-0.66730739 25:-0.80017787 26:-0.62388605 27:-0.79363096 28:-0.65480462 29:-0.77776187 30:-0.66498533 31:-0.77950424 32:-0.6304183 33:-0.7761536 34:-0.7762154 35:-0.9999889 36:-0.99989116 37:-0.99989623 38:-0.99989604 39:-0.99990237 40:-0.99985245 41:-0.99965652 42:-0.99971468 43:-0.99991012 44:-0.99995774 45:-0.99985631 46:-0.99987116 47:-0.999788 48:-0.9997141 49:-0.99952384 50:-0.9989437 51:-0.99998056 52:-0.99888278 53:-0.99896893 54:-0.99915323 55:-0.99956808 56:-0.99965659 57:-0.99980348 58:-0.99944686 59:-0.99995791 60:-0.96197495 61:-0.96893177 
8 1:-0.99997283 2:-0.99998582 3:-0.99998616 4:0.70874494 5:-0.20247786 6:-0.91368292 7:-0.035415351 8:-0.51263201 9:-0.99999473 10:-0.10951386 11:0.51569484 12:-0.99999302 13:0.09609867 14:-0.99999494 15:-0.74825815 16:-0.81742338 17:-0.73285059 18:-0.65207664 19:-0.75373695 20:-0.6096357 21:-0.78254699 22:-0.63754929 23:-0.78990452 24:-0.65015604 25:-0.78964232 26:-0.59953126 27:-0.78999925 28:-0.60140701 29:-0.76954989 30:-0.62215607 31:-0.77232631 32:-0.60508396 33:-0.75849079 34:-0.78389052 35:-0.99992814 36:-0.99934696 37:-0.99983694 38:-0.99983367 39:-0.99951185 40:-0.99980327 41:-0.99931304 42:-0.99956362 43:-0.99978714 44:-0.99983095 45:-0.99990052 46:-0.99986294 47:-0.9996409 48:-0.99964422 49:-0.99971919 50:-0.99936609 51:-0.99998391 52:-0.99884142 53:-0.99886226 54:-0.99866935 55:-0.99955368 56:-0.99964678 57:-0.99979561 58:-0.99964353 59:-0.99997246 60:-0.95861719 61:-0.97300108 
8 1:-0.99997604 2:-0.99998369 3:-0.99998289 4:0.70878166 5:-0.20161318 6:-0.91690726 7:-0.029628205 8:-0.51308967 9:-0.99999603 10:-0.10949009 11:0.51568519 12:-0.99999306 13:0.096100704 14:-0.99999507 15:-0.69638603 16:-0.79281516 17:-0.75394398 18:-0.65499778 19:-0.78555766 20:-0.60813206 21:-0.79814589 22:-0.64808071 23:-0.78754328 24:-0.64627989 25:-0.79417575 26:-0.58820588 27:-0.79618542 28:-0.59918534 29:-0.76707986 30:-0.62109707 31:-0.76169024 32:-0.60574821 33:-0.76947518 34:-0.7902989 35:-0.9998232 36:-0.99923812 37:-0.99980729 38:-0.99960497 39:-0.99915387 40:-0.99949587 41:-0.99887588 42:-0.99906011 43:-0.99978241 44:-0.99981558 45:-0.99985631 46:-0.9999205 47:-0.99988751 48:-0.9997141 49:-0.9994628 50:-0.9986621 51:-0.99997721 52:-0.99851047 53:-0.99936002 54:-0.99959677 55:-0.99985603 56:-0.99995094 57:-0.9999607 58:-0.99997542 59:-0.99999896 60:-0.95738942 61:-0.97514157 
8 1:-0.99998286 2:-0.99997852 3:-0.99997836 4:0.70879668 5:-0.19349836 6:-0.92208446 7:0.014270733 8:-0.50988255 9:-0.99999793 10:-0.10950696 11:0.51568891 12:-0.999995 13:0.096097242 14:-0.99999644 15:-0.78971962 16:-0.82212873 17:-0.78889563 18:-0.70335681 19:-0.7723562 20:-0.63862229 21:-0.78685839 22:-0.66033377 23:-0.79026127 24:-0.65413732 25:-0.79034791 26:-0.57506359 27:-0.79873466 28:-0.6003576 29:-0.7780772 30:-0.63678295 31:-0.77014634 32:-0.67494915 33:-0.76161723 34:-0.7914554 35:-0.99980663 36:-0.99956464 37:-0.99977764 38:-0.99985446 39:-0.99957693 40:-0.99984015 41:-0.99943794 42:-0.99971468 43:-0.99987701 44:-0.99984632 45:-0.99984894 46:-0.99994517 47:-0.99983992 48:-0.99986657 49:-0.99968256 50:-0.99911969 51:-0.99996917 52:-0.99946194 53:-0.99900448 54:-0.99947581 55:-0.99985603 56:-0.99990188 57:-0.99998428 58:-0.99996312 59:-0.99999896 60:-0.9600701 61:-0.97677841 
8 1:-0.99998503 2:-0.99997727 3:-0.99997442 4:0.70882282 5:-0.20009079 6:-0.92396809 7:-0.02493364 8:-0.51187537 9:-0.99999754 10:-0.10950643 11:0.51568763 12:-0.99999508 13:0.096095939 14:-0.99999663 15:-0.71299246 16:-0.81599614 17:-0.73697274 18:-0.67218334 19:-0.77803013 20:-0.63161464 21:-0.788944 22:-0.65550066 23:-0.80334131 24:-0.65547086 25:-0.79971161 26:-0.60329428 27:-0.78726716 28:-0.59896175 29:-0.78560171 30:-0.65039684 31:-0.79373133 32:-0.66157923 33:-0.77692448 34:-0.79567303 35:-0.99982873 36:-0.99929254 37:-0.99982212 38:-0.99970892 39:-0.99960948 40:-0.99981556 41:-0.99928181 42:-0.99969789 43:-0.99996216 44:-0.99991547 45:-0.99993737 46:-0.99993969 47:-0.99987886 48:-0.99994916 49:-0.99975582 50:-0.9990141 51:-0.99998257 52:-0.9992551 53:-0.9987556 54:-0.99915323 55:-0.99976964 56:-0.9999117 57:-0.99996856 58:-0.99997542 59:-0.99999584 60:-0.95731688 61:-0.97747985 
8 1:-0.99998658 2:-0.99996889 3:-0.99996774 4:0.70882966 5:-0.20035429 6:-0.92775297 7:-0.028807669 8:-0.51349368 9:-0.99999785 10:-0.10950784 11:0.51568974 12:-0.99999534 13:0.096097661 14:-0.99999672 15:-0.72477943 16:-0.78579749 17:-0.76639091 18:-0.64935545 19:-0.78314052 20:-0.60959155 21:-0.80174337 22:-0.64551344 23:-0.79791169 24:-0.64857938 25:-0.80418499 26:-0.58833307 27:-0.78021999 28:-0.60269509 29:-0.77635342 30:-0.65537044 31:-0.77224791 32:-0.67680413 33:-0.77620169 34:-0.78684324 35:-0.9998453 36:-0.99978232 37:-0.99985176 38:-0.99987525 39:-0.99977219 40:-0.99984015 41:-0.99940671 42:-0.99959719 43:-0.99986755 44:-0.99989242 45:-0.99992263 46:-0.9999534 47:-0.99986588 48:-0.99984751 49:-0.99968256 50:-0.99922529 51:-0.99998727 52:-0.99937921 53:-0.99946669 54:-0.99955645 55:-0.99988482 56:-0.99997057 57:-0.99998428 58:-0.99997542 59:-0.9999974 60:-0.9623453 61:-0.97820003 
8 1:-0.99998902 2:-0.99996365 3:-0.999961 4:0.70874263 5:-0.20546908 6:-0.9338038 7:-0.045226836 8:-0.51271027 9:-0.99999808 10:-0.10950866 11:0.51569008 12:-0.99999603 13:0.096098426 14:-0.99999723 15:-0.72494648 16:-0.78011685 17:-0.75594485 18:-0.63741273 19:-0.79423174 20:-0.60669124 21:-0.80324807 22:-0.6473552 23:-0.79660993 24:-0.64884115 25:-0.81138229 26:-0.61419507 27:-0.76873126 28:-0.62031234 29:-0.75166577 30:-0.64602542 31:-0.7953917 32:-0.65244067 33:-0.77396426 34:-0.78987215 35:-0.99988396 36:-0.99956464 37:-0.99977764 38:-0.99970892 39:-0.99951185 40:-0.99985245 41:-0.99915691 42:-0.99974824 43:-0.99991959 44:-0.99993469 45:-0.99993737 46:-0.99996985 47:-0.99995674 48:-0.99994916 49:-0.99982907 50:-0.99968289 51:-0.99998928 52:-0.99942057 53:-0.99968001 54:-0.99951613 55:-0.99981284 56:-0.99987245 57:-0.99996856 58:-0.99988937 59:-0.99999896 60:-0.95622314 61:-0.97915915 
8 1:-0.99999189 2:-0.99996081 3:-0.99995752 4:0.70865729 5:-0.19649589 6:-0.93723712 7:-0.02551279 8:-0.51286577 9:-0.99999891 10:-0.1095082 11:0.51569117 12:-0.99999714 13:0.096096117 14:-0.99999804 15:-0.75227688 16:-0.81136768 17:-0.77131203 18:-0.69023884 19:-0.8091954 20:-0.66171236 21:-0.79100831 22:-0.67726606 23:-0.79146997 24:-0.65989214 25:-0.78846597 26:-0.61395414 27:-0.76950329 28:-0.63061358 29:-0.75663732 30:-0.67888498 31:-0.78041649 32:-0.65989213 33:-0.78829429 34:-0.79258087 35:-0.99993367 36:-0.9997279 37:-0.99991106 38:-0.99985446 39:-0.99967456 40:-0.99990163 41:-0.99953162 42:-0.99981538 43:-0.99993378 44:-0.9998809 45:-0.99993737 46:-0.99994243 47:-0.99993078 48:-0.9999301 49:-0.99987791 50:-0.99971809 51:-0.99999732 52:-0.99966878 53:-0.99975112 54:-0.99983871 55:-0.99985603 56:-0.99995094 57:-0.99999214 58:-0.99998771 59:-0.99999896 60:-0.96470022 61:-0.97993737 
8 1:-0.99999174 2:-0.99995494 3:-0.99995119 4:0.70859997 5:-0.20661574 6:-0.93862387 7:-0.043825648 8:-0.51185677 9:-0.99999785 10:-0.10950635 11:0.51569045 12:-0.99999685 13:0.09609735 14:-0.99999772 15:-0.68225086 16:-0.7975195 17:-0.74074753 18:-0.67750887 19:-0.76511135 20:-0.64027501 21:-0.76470282 22:-0.66613389 23:-0.78700374 24:-0.66317398 25:-0.78374578 26:-0.62290427 27:-0.74385001 28:-0.59952753 29:-0.73947313 30:-0.65321086 31:-0.76443821 32:-0.65976615 33:-0.78774364 34:-0.7917733 35:-0.99991157 36:-0.99961906 37:-0.99991106 38:-0.99985446 39:-0.99980474 40:-0.99982786 41:-0.99965652 42:-0.99968111 43:-0.9999527 44:-0.99990779 45:-0.99991526 46:-0.99995066 47:-0.99994808 48:-0.99994281 49:-0.99993895 50:-0.99975329 51:-0.99999196 52:-0.99950331 53:-0.99975112 54:-0.99955645 55:-0.99994241 56:-0.99998038 57:-0.99999214 58:-0.99998771 59:-0.99999792 60:-0.9650214 61:-0.9814941 
8 1:-0.99999244 2:-0.99994895 3:-0.99994476 4:0.70864493 5:-0.20489403 6:-0.93869632 7:-0.041218936 8:-0.51351472 9:-0.99999878 10:-0.10950781 11:0.51569045 12:-0.99999734 13:0.09609771 14:-0.99999815 15:-0.77290535 16:-0.79899154 17:-0.79532626 18:-0.66379221 19:-0.78788996 20:-0.61484002 21:-0.79348475 22:-0.64947839 23:-0.79760133 24:-0.65086065 25:-0.80760074 26:-0.60588055 27:-0.76926616 28:-0.62126401 29:-0.76414145 30:-0.68376848 31:-0.76736809 32:-0.67402618 33:-0.77437596 34:-0.79385363 35:-0.99985082 36:-0.99978232 37:-0.99994071 38:-0.99979209 39:-0.99967456 40:-0.99987704 41:-0.99978142 42:-0.99983216 43:-0.99991012 44:-0.99995005 45:-0.99993737 46:-0.99995066 47:-0.99996971 48:-0.99992375 49:-0.99991454 50:-0.99978849 51:-0.99999062 52:-0.99979289 53:-0.99968001 54:-0.99979839 55:-0.99992801 56:-0.99997057 57:-0.99998428 58:-0.99996312 59:-0.99999896 60:-0.96382313 61:-0.98277487 
8 1:-0.99999348 2:-0.99994579 3:-0.99994131 4:0.70870865 5:-0.20448984 6:-0.93766606 7:-0.040838888 8:-0.51364548 9:-0.99999888 10:-0.10950837 11:0.51569124 12:-0.999998 13:0.096097589 14:-0.99999859 15:-0.76356481 16:-0.79823588 17:-0.81824659 18:-0.71006772 19:-0.80347556 20:-0.61329672 21:-0.81055869 22:-0.6445754 23:-0.8011486 24:-0.64826773 25:-0.80172588 26:-0.601541 27:-0.77586796 28:-0.60728069 29:-0.75520771 30:-0.69812666 31:-0.79354919 32:-0.69182577 33:-0.79143435 34:-0.80548924 35:-0.99988396 36:-0.99983674 37:-0.99988141 38:-0.99979209 39:-0.99993491 40:-0.99991393 41:-0.9997502 42:-0.9998993 43:-0.99996689 44:-0.99997311 45:-0.9999521 46:-0.99995888 47:-0.99993943 48:-0.99993645 49:-0.99991454 50:-0.99964769 51:-0.99999799 52:-0.99954468 53:-0.99964446 54:-0.99987903 55:-0.99991362 56:-0.99995094 57:-0.99997642 58:-0.99996312 59:-0.99999532 60:-0.96258662 61:-0.98243213 
8 1:-0.99999547 2:-0.99994247 3:-0.99993873 4:0.7087724 5:-0.21264995 6:-0.93663068 7:-0.055194512 8:-0.51175424 9:-0.99999922 10:-0.10950886 11:0.51569037 12:-0.99999893 13:0.096097345 14:-0.99999925 15:-0.79366569 16:-0.82796128 17:-0.81785668 18:-0.70945441 19:-0.81293352 20:-0.67179674 21:-0.82351773 22:-0.74099216 23:-0.81332124 24:-0.65862615 25:-0.8043924 26:-0.60849462 27:-0.82752261 28:-0.73988437 29:-0.79553 30:-0.69290244 31:-0.76390889 32:-0.60434519 33:-0.78107754 34:-0.79621261 35:-0.99991157 36:-0.99978232 37:-0.99995553 38:-0.99991684 39:-0.99986983 40:-0.99990163 41:-0.99981265 42:-0.99983216 43:-0.99989593 44:-0.99998847 45:-0.99997789 46:-0.99999452 47:-0.99999135 48:-0.99994916 49:-0.99982907 50:-0.99989409 51:-0.99999464 52:-0.99975152 53:-0.9996089 54:-0.99995968 55:-0.9999856 56:-0.99999019 57:-0.99999214 58:-0.99998771 59:-0.99999896 60:-0.95990582 61:-0.98102765 
8 1:-0.99999532 2:-0.99993529 3:-0.99993204 4:0.70888889 5:-0.21313763 6:-0.93443842 7:-0.057758081 8:-0.51271775 9:-0.99999913 10:-0.10950777 11:0.51569072 12:-0.99999867 13:0.096097794 14:-0.99999904 15:-0.77646811 16:-0.80053625 17:-0.78199957 18:-0.65836331 19:-0.79867319 20:-0.60889188 21:-0.82351773 22:-0.74099216 23:-0.80367354 24:-0.65477229 25:-0.80257277 26:-0.60191774 27:-0.82752261 28:-0.73988437 29:-0.76053549 30:-0.63964273 31:-0.75856141 32:-0.6211511 33:-0.78268386 34:-0.79683844 35:-0.99993367 36:-0.99983674 37:-0.99994071 38:-0.99981288 39:-0.99983728 40:-0.99991393 41:-0.99968774 42:-0.99986573 43:-0.99991012 44:-0.99996158 45:-0.99997421 46:-0.99999178 47:-0.99996106 48:-0.99994281 49:-0.99991454 50:-0.99975329 51:-0.99999799 52:-0.99979289 53:-0.99989334 54:-0.99987903 55:-0.9999856 56:-0.99999019 57:-0.99999214 58:-0.99996312 59:-0.99999896 60:-0.96367269 61:-0.98251427 
8 1:-0.99999443 2:-0.99993394 3:-0.99992738 4:0.70891379 5:-0.20128642 6:-0.93439312 7:-0.035360076 8:-0.51039383 9:-0.9999987 10:-0.10950729 11:0.51569045 12:-0.99999824 13:0.096098165 14:-0.9999988 15:-0.73395655 16:-0.79785964 17:-0.79646257 18:-0.65565949 19:-0.82348065 20:-0.71134576 21:-0.80795607 22:-0.65244926 23:-0.7972369 24:-0.65242344 25:-0.79962159 26:-0.60271846 27:-0.82752261 28:-0.73988437 29:-0.74518381 30:-0.62591753 31:-0.7527627 32:-0.62667227 33:-0.78070209 34:-0.79557496 35:-0.99987843 36:-0.99967348 37:-0.99992588 38:-0.99983367 39:-0.99957693 40:-0.99986475 41:-0.99968774 42:-0.99988251 43:-0.99992905 44:-0.99993853 45:-0.99998895 46:-0.99999178 47:-0.99997404 48:-0.99992375 49:-0.99992675 50:-0.99982369 51:-0.99999464 52:-0.99975152 53:-0.99992889 54:-0.99991935 55:-0.99995681 56:-0.99999019 57:-0.99999214 58:-0.99998771 59:-0.99999844 60:-0.96073753 61:-0.98362351 
8 1:-0.99999513 2:-0.99992463 3:-0.9999203 4:0.70891175 5:-0.2097938 6:-0.93522472 7:-0.04978938 8:-0.51195964 9:-0.99999903 10:-0.10950809 11:0.51569095 12:-0.99999845 13:0.096097762 14:-0.99999892 15:-0.72575849 16:-0.80342931 17:-0.77835676 18:-0.67062146 19:-0.80768807 20:-0.60885843 21:-0.82017141 22:-0.71714798 23:-0.80312074 24:-0.65355295 25:-0.7882923 26:-0.569461 27:-0.82752261 28:-0.73988437 29:-0.76119943 30:-0.64198848 31:-0.77708806 32:-0.67456307 33:-0.78892249 34:-0.80194893 35:-0.99990053 36:-0.99994558 37:-0.99994071 38:-0.99989604 39:-0.99967456 40:-0.99990163 41:-0.99943794 42:-0.99978181 43:-0.9999527 44:-0.99996542 45:-0.99997789 46:-0.99999452 47:-0.99998269 48:-0.99995551 49:-0.99989012 50:-0.99985889 51:-0.99999732 52:-0.99983426 53:-0.99971557 54:-0.99991935 55:-0.9999856 56:-0.99999019 57:-0.99999214 58:-0.99996312 59:-0.99999792 60:-0.95646528 61:-0.98114082 
8 1:-0.99999517 2:-0.99991888 3:-0.99991088 4:0.70896079 5:-0.20606497 6:-0.93477594 7:-0.043342568 8:-0.51192389 9:-0.99999877 10:-0.10950819 11:0.51569038 12:-0.99999829 13:0.096097311 14:-0.99999879 15:-0.73116806 16:-0.80157342 17:-0.79219996 18:-0.65307919 19:-0.81339654 20:-0.66290499 21:-0.81324545 22:-0.67349091 23:-0.80078468 24:-0.65640496 25:-0.79480164 26:-0.57195451 27:-0.82752261 28:-0.73988437 29:-0.72834421 30:-0.63127679 31:-0.7758256 32:-0.67550341 33:-0.77902104 34:-0.80274987 35:-0.99986186 36:-0.99983674 37:-0.99995553 38:-0.99983367 39:-0.99970711 40:-0.99990163 41:-0.99959407 42:-0.99981538 43:-0.99996689 44:-0.99997311 45:-0.99997789 46:-0.9999671 47:-0.99999135 48:-0.99998728 49:-0.99992675 50:-0.99957729 51:-0.99999665 52:-0.99975152 53:-0.99992889 54:-0.99995968 55:-0.9999856 56:-0.99999019 57:-0.99999214 58:-0.99998771 59:-0.99999844 60:-0.9592217 61:-0.9835768 
8 1:-0.99999543 2:-0.99991371 3:-0.99990518 4:0.70903594 5:-0.20871967 6:-0.93372883 7:-0.047914489 8:-0.51256109 9:-0.99999892 10:-0.10950824 11:0.51569058 12:-0.99999836 13:0.096096663 14:-0.99999883 15:-0.74056835 16:-0.80091179 17:-0.78902349 18:-0.66631418 19:-0.80197749 20:-0.6107647 21:-0.82351773 22:-0.74099216 23:-0.80433531 24:-0.64811874 25:-0.79091199 26:-0.57764258 27:-0.82752261 28:-0.73988437 29:-0.73305127 30:-0.6432234 31:-0.77238446 32:-0.6714275 33:-0.7926992 34:-0.81031878 35:-0.99988396 36:-0.99978232 37:-0.99991106 38:-0.99989604 39:-0.99964202 40:-0.99992623 41:-0.99968774 42:-0.9997986 43:-0.99997635 44:-0.99997695 45:-0.99997421 46:-0.99998081 47:-0.99999135 48:-0.99996187 49:-0.99993895 50:-0.99968289 51:-0.99999531 52:-0.99979289 53:-0.99992889 54:-0.99983871 55:-0.9999856 56:-0.99999019 57:-0.99999214 58:-0.99996312 59:-0.99999896 60:-0.95581127 61:-0.98246672 
8 1:-0.9999962 2:-0.99990545 3:-0.99989837 4:0.7089312 5:-0.21693323 6:-0.93631918 7:-0.056970474 8:-0.51178332 9:-0.99999913 10:-0.10950826 11:0.51569103 12:-0.99999895 13:0.096097547 14:-0.99999923 15:-0.79682768 16:-0.83042645 17:-0.79565892 18:-0.63380991 19:-0.82348065 20:-0.71134576 21:-0.80429408 22:-0.64738698 23:-0.80258967 24:-0.65118902 25:-0.82681125 26:-0.71650211 27:-0.80318834 28:-0.60970331 29:-0.80876382 30:-0.75943209 31:-0.74980001 32:-0.60042289 33:-0.77668193 34:-0.79812913 35:-0.99993367 36:-0.99989116 37:-0.99992588 38:-0.99991684 39:-0.99977219 40:-0.99990163 41:-0.99978142 42:-0.99993287 43:-0.9999527 44:-0.99997311 45:-0.99997053 46:-0.99999452 47:-0.99997837 48:-0.99997457 49:-0.99995116 50:-0.99954209 51:-0.99999531 52:-0.99991699 53:-0.99982223 54:-0.99991935 55:-0.9999856 56:-0.99999019 57:-0.99998428 58:-0.99998771 59:-0.99999792 60:-0.95498129 61:-0.97940837 
8 1:-0.99999639 2:-0.99990154 3:-0.99989554 4:0.70882362 5:-0.22058193 6:-0.93819246 7:-0.057569022 8:-0.51080189 9:-0.99999918 10:-0.10950772 11:0.51569005 12:-0.99999903 13:0.096097487 14:-0.99999928 15:-0.79569939 16:-0.83034922 17:-0.7860052 18:-0.63877922 19:-0.82348065 20:-0.71134576 21:-0.80139128 22:-0.64611519 23:-0.79921399 24:-0.65084544 25:-0.82681125 26:-0.71650211 27:-0.79118346 28:-0.60204818 29:-0.80876382 30:-0.75943209 31:-0.76318913 32:-0.62873223 33:-0.79334543 34:-0.80565222 35:-0.99998338 36:-0.99978232 37:-0.99994071 38:-0.99993763 39:-0.99993491 40:-0.99990163 41:-0.9997502 42:-0.99988251 43:-0.99995743 44:-0.99997695 45:-0.99997421 46:-0.99998355 47:-0.99997837 48:-0.99997457 49:-0.99995116 50:-0.99971809 51:-0.99999866 52:-0.99979289 53:-0.99968001 54:-0.99971774 55:-0.9999856 56:-0.99999019 57:-0.9999607 58:-0.99998771 59:-0.99999844 60:-0.95600561 61:-0.97566387 
8 1:-0.99999628 2:-0.99989843 3:-0.99989216 4:0.70871162 5:-0.21887472 6:-0.93978566 7:-0.051860791 8:-0.51114823 9:-0.99999918 10:-0.1095083 11:0.51569059 12:-0.99999893 13:0.096097619 14:-0.99999923 15:-0.79586835 16:-0.82960655 17:-0.78129163 18:-0.64350251 19:-0.82348065 20:-0.71134576 21:-0.79067395 22:-0.64480544 23:-0.80508288 24:-0.64866142 25:-0.82681125 26:-0.71650211 27:-0.78423624 28:-0.60606395 29:-0.80876382 30:-0.75943209 31:-0.75865251 32:-0.62799308 33:-0.77862032 34:-0.80091665 35:-0.99995576 36:-0.99983674 37:-0.99995553 38:-0.99993763 39:-0.99980474 40:-0.99992623 41:-0.99971897 42:-0.99984895 43:-0.9999527 44:-0.99995774 45:-0.99998895 46:-0.99999178 47:-0.99998702 48:-0.99996822 49:-0.99997558 50:-0.99961249 51:-0.99999464 52:-0.99971015 53:-0.99992889 54:-0.99987903 55:-0.9999856 56:-0.99999019 57:-0.99999214 58:-0.99993854 59:-0.99999896 60:-0.95656863 61:-0.97831062 
8 1:-0.99999653 2:-0.99990154 3:-0.99989154 4:0.70872378 5:-0.20951318 6:-0.93966386 7:-0.043980019 8:-0.51212731 9:-0.99999915 10:-0.1095086 11:0.51568996 12:-0.99999905 13:0.096096642 14:-0.99999932 15:-0.79059374 16:-0.79071578 17:-0.82443503 18:-0.73967222 19:-0.81053397 20:-0.61090706 21:-0.82351773 22:-0.74099216 23:-0.803145 24:-0.6537338 25:-0.79747857 26:-0.59127543 27:-0.82752261 28:-0.73988437 29:-0.73060696 30:-0.65840164 31:-0.80781349 32:-0.73291193 33:-0.77866811 34:-0.80139498 35:-0.9999171 36:-0.99989116 37:-0.99995553 38:-0.99991684 39:-0.99990237 40:-0.99988934 41:-0.99978142 42:-0.99993287 43:-0.99997162 44:-0.99997311 45:-0.99997421 46:-0.99998629 47:-0.99997837 48:-0.99999363 49:-0.99995116 50:-0.99950689 51:-0.99999665 52:-0.99991699 53:-0.99989334 54:-0.99987903 55:-0.99995681 56:-0.99998038 57:-0.99999214 58:-0.99998771 59:-0.99999896 60:-0.95718657 61:-0.98098662 
8 1:-0.99999657 2:-0.99990191 3:-0.99989159 4:0.70874005 5:-0.20660396 6:-0.93942386 7:-0.041560393 8:-0.51252785 9:-0.99999913 10:-0.10950804 11:0.51569079 12:-0.99999907 13:0.096097361 14:-0.99999933 15:-0.78743666 16:-0.79022017 17:-0.82443503 18:-0.73967222 19:-0.81124926 20:-0.61861681 21:-0.82351773 22:-0.74099216 23:-0.80389626 24:-0.65413313 25:-0.81386085 26:-0.6257513 27:-0.81229 28:-0.7092205 29:-0.72298397 30:-0.65239562 31:-0.80781349 32:-0.73291193 33:-0.77919942 34:-0.80133674 35:-0.99992262 36:-0.99994558 37:-0.99994071 38:-0.99993763 39:-0.99977219 40:-0.99993852 41:-0.9997502 42:-0.99991608 43:-0.99997635 44:-0.99996926 45:-0.99996684 46:-0.99999726 47:-0.99998269 48:-0.99998092 49:-0.99992675 50:-0.99971809 51:-0.99999531 52:-0.99979289 53:-0.99982223 54:-0.99991935 55:-0.99997121 56:-0.99999019 57:-0.99999214 58:-0.99998771 59:-0.99999896 60:-0.95734737 61:-0.98052717 
8 1:-0.9999965 2:-0.99990179 3:-0.99989163 4:0.70870918 5:-0.20600473 6:-0.93980293 7:-0.040841764 8:-0.51250121 9:-0.99999913 10:-0.10950797 11:0.5156908 12:-0.99999908 13:0.096097368 14:-0.99999934 15:-0.79391387 16:-0.79449522 17:-0.82443503 18:-0.73967222 19:-0.80844897 20:-0.61225651 21:-0.82351773 22:-0.74099216 23:-0.79396792 24:-0.64716541 25:-0.7947739 26:-0.57746606 27:-0.82752261 28:-0.73988437 29:-0.72797134 30:-0.65334366 31:-0.80781349 32:-0.73291193 33:-0.77947517 34:-0.8014451 35:-0.99992262 36:-0.99989116 37:-0.99998518 38:-0.99985446 39:-0.99993491 40:-0.99995082 41:-0.9998751 42:-0.99983216 43:-0.99999054 44:-0.99998079 45:-0.99998526 46:-0.99998355 47:-0.99999135 48:-0.99994281 49:-0.99995116 50:-0.99989409 51:-0.99999799 52:-0.99979289 53:-0.99985778 54:-0.99971774 55:-0.99994241 56:-0.99993132 57:-0.9999607 58:-0.99997542 59:-0.99999844 60:-0.9579229 61:-0.98099588 
8 1:-0.99999676 2:-0.99989527 3:-0.99988967 4:0.70877112 5:-0.21291946 6:-0.93917525 7:-0.047644013 8:-0.51339664 9:-0.99999929 10:-0.1095079 11:0.51569027 12:-0.99999916 13:0.096097617 14:-0.99999939 15:-0.77570021 16:-0.78937639 17:-0.82443503 18:-0.73967222 19:-0.810453 20:-0.61085719 21:-0.82351773 22:-0.74099216 23:-0.80415021 24:-0.65373432 25:-0.8193081 26:-0.63879417 27:-0.80974452 28:-0.61718298 29:-0.76038302 30:-0.64712712 31:-0.80781349 32:-0.73291193 33:-0.78330662 34:-0.80060171 35:-0.99996681 36:-0.99994558 37:-0.99998518 38:-0.99997921 39:-0.99986983 40:-0.99992623 41:-0.99990632 42:-0.99991608 43:-0.9999527 44:-0.99998463 45:-0.99998158 46:-0.99998629 47:-0.99998702 48:-0.99997457 49:-0.99992675 50:-0.99996449 51:-0.99999732 52:-0.99975152 53:-0.99992889 54:-0.99979839 55:-0.99988482 56:-0.99997057 57:-0.99993711 58:-0.99996312 59:-0.99999584 60:-0.96249708 61:-0.97886456 
8 1:-0.99999683 2:-0.99989755 3:-0.99988976 4:0.70878272 5:-0.21250363 6:-0.93911171 7:-0.04746107 8:-0.51337627 9:-0.99999934 10:-0.10950838 11:0.51569051 12:-0.99999919 13:0.096097501 14:-0.99999942 15:-0.79286297 16:-0.79448107 17:-0.82443503 18:-0.73967222 19:-0.80918151 20:-0.61233758 21:-0.82351773 22:-0.74099216 23:-0.80193353 24:-0.65364893 25:-0.80865549 26:-0.57800012 27:-0.82752261 28:-0.73988437 29:-0.74682211 30:-0.66861833 31:-0.80781349 32:-0.73291193 33:-0.78592147 34:-0.80062111 35:-0.99998338 36:-0.99989116 37:-0.99998518 38:-0.99993763 39:-0.99990237 40:-0.99996311 41:-0.9997502 42:-0.99988251 43:-0.99997635 44:-0.99998079 45:-0.99999263 46:-0.99998629 47:-0.99998269 48:-0.99996187 49:-0.99995116 50:-0.99989409 51:-0.99999732 52:-0.99987563 53:-0.99985778 54:-0.99975806 55:-0.99994241 56:-0.99992151 57:-0.9999607 58:-0.99996312 59:-0.99999532 60:-0.96335336 61:-0.97857227 
8 1:-0.99999672 2:-0.99989329 3:-0.99988947 4:0.70880745 5:-0.21527756 6:-0.93879766 7:-0.050643169 8:-0.51302771 9:-0.99999934 10:-0.10950887 11:0.5156902 12:-0.99999915 13:0.096097641 14:-0.99999939 15:-0.78205747 16:-0.79075736 17:-0.82443503 18:-0.73967222 19:-0.80958663 20:-0.61187998 21:-0.82351773 22:-0.74099216 23:-0.79984722 24:-0.64782007 25:-0.81116667 26:-0.59270956 27:-0.82513198 28:-0.7337557 29:-0.79601749 30:-0.70852395 31:-0.80781349 32:-0.73291193 33:-0.78498269 34:-0.80043559 35:-0.99997785 36:-0.99983674 37:-0.99995553 38:-0.99993763 39:-0.99986983 40:-0.99991393 41:-0.99978142 42:-0.99988251 43:-0.99997162 44:-0.99998079 45:-0.99999263 46:-0.99996436 47:-0.99999567 48:-0.99997457 49:-0.99993895 50:-0.99985889 51:-0.99999531 52:-0.99971015 53:-0.99978667 54:-0.99967742 55:-0.99997121 56:-0.99999019 57:-0.99999214 58:-0.99998771 59:-0.99999896 60:-0.96230813 61:-0.97838631 
8 1:-0.99999683 2:-0.99989348 3:-0.99988975 4:0.70880844 5:-0.21598318 6:-0.93877239 7:-0.05140778 8:-0.51292922 9:-0.99999936 10:-0.1095078 11:0.51569044 12:-0.9999992 13:0.096097577 14:-0.99999942 15:-0.78999372 16:-0.79009229 17:-0.82443503 18:-0.73967222 19:-0.80893186 20:-0.6104488 21:-0.82351773 22:-0.74099216 23:-0.79925731 24:-0.64653064 25:-0.81013695 26:-0.57796234 27:-0.82752261 28:-0.73988437 29:-0.80164373 30:-0.71888094 31:-0.80781349 32:-0.73291193 33:-0.78517084 34:-0.80070004 35:-0.99998338 36:-0.99978232 37:-0.99994071 38:-0.99995842 39:-0.99986983 40:-0.99991393 41:-0.99978142 42:-0.99994965 43:-0.99997162 44:-0.99999232 45:-0.99996684 46:-0.99998355 47:-0.99998269 48:-0.99997457 49:-0.99996337 50:-0.99989409 51:-0.99999665 52:-0.99975152 53:-0.9996089 54:-0.99987903 55:-0.99989922 56:-0.99997057 57:-0.99999214 58:-0.99998771 59:-0.99999896 60:-0.96193384 61:-0.97827463 
8 1:-0.99999665 2:-0.99989968 3:-0.99989015 4:0.70879308 5:-0.21019199 6:-0.93888018 7:-0.045402783 8:-0.51314946 9:-0.99999924 10:-0.1095085 11:0.51569109 12:-0.99999912 13:0.096097213 14:-0.99999937 15:-0.7738283 16:-0.78920599 17:-0.82443503 18:-0.73967222 19:-0.80786483 20:-0.61121218 21:-0.82351773 22:-0.74099216 23:-0.8032658 24:-0.65378933 25:-0.82055774 26:-0.63883253 27:-0.8176439 28:-0.61756828 29:-0.73625728 30:-0.64681617 31:-0.80781349 32:-0.73291193 33:-0.78203341 34:-0.80054023 35:-0.99995576 36:-0.99994558 37:-0.99998518 38:-0.99991684 39:-0.99986983 40:-0.99992623 41:-0.9998751 42:-0.9998993 43:-0.99997635 44:-0.99998079 45:-0.99999263 46:-0.99998081 47:-0.99997404 48:-0.99997457 49:-0.99995116 50:-0.99982369 51:-0.99999799 52:-0.99995836 53:-0.99978667 54:-0.99979839 55:-0.99987042 56:-0.99995094 57:-0.99996856 58:-0.99992625 59:-0.99999792 60:-0.96047726 61:-0.97931697 
8 1:-0.99999679 2:-0.99989329 3:-0.99988971 4:0.70881559 5:-0.21203978 6:-0.93865929 7:-0.047551463 8:-0.51390776 9:-0.99999934 10:-0.10950807 11:0.51569075 12:-0.99999919 13:0.096097559 14:-0.99999941 15:-0.79063875 16:-0.7940953 17:-0.82443503 18:-0.73967222 19:-0.80823206 20:-0.61150179 21:-0.82351773 22:-0.74099216 23:-0.80246476 24:-0.65307733 25:-0.80641031 26:-0.57083907 27:-0.82752261 28:-0.73988437 29:-0.79747049 30:-0.70821284 31:-0.80781349 32:-0.73291193 33:-0.78384882 34:-0.80013187 35:-0.9999889 36:-0.99989116 37:-0.99997035 38:-0.99991684 39:-0.99980474 40:-0.99996311 41:-0.99993755 42:-0.99991608 43:-0.99993378 44:-0.99999616 45:-0.99998895 46:-0.99998629 47:-0.99999135 48:-0.99996187 49:-0.99996337 50:-0.99989409 51:-0.99999799 52:-0.99979289 53:-0.99982223 54:-0.99983871 55:-0.99994241 56:-0.99993132 57:-0.99997642 58:-0.99993854 59:-0.99999376 60:-0.96387935 61:-0.97838582 
8 1:-0.99999687 2:-0.99989329 3:-0.99988959 4:0.7088243 5:-0.2116586 6:-0.93858822 7:-0.047290656 8:-0.5140207 9:-0.99999938 10:-0.10950863 11:0.5156907 12:-0.9999992 13:0.096097597 14:-0.99999942 15:-0.79460538 16:-0.79434261 17:-0.82443503 18:-0.73967222 19:-0.80943175 20:-0.61847714 21:-0.82351773 22:-0.74099216 23:-0.80252663 24:-0.65371355 25:-0.80917419 26:-0.57818698 27:-0.82752261 28:-0.73988437 29:-0.79887269 30:-0.70775314 31:-0.80781349 32:-0.73291193 33:-0.78578158 34:-0.80067735 35:-0.9999889 36:-0.99978232 37:-0.99991106 38:-0.99991684 39:-0.99990237 40:-0.99992623 41:-0.99981265 42:-0.99991608 43:-0.99998108 44:-0.99999232 45:-0.99998158 46:-0.99998903 47:-0.99998702 48:-0.99996822 49:-0.99997558 50:-0.99982369 51:-0.99999665 52:-0.99987563 53:-0.99992889 54:-0.99983871 55:-0.99994241 56:-0.9999117 57:-0.9999607 58:-0.99993854 59:-0.99999688 60:-0.96462916 61:-0.97791984 
8 1:-0.99999672 2:-0.99989968 3:-0.99988997 4:0.70880553 5:-0.20800641 6:-0.93875668 7:-0.043360865 8:-0.51351495 9:-0.99999927 10:-0.10950836 11:0.5156909 12:-0.99999915 13:0.096097506 14:-0.99999939 15:-0.79284469 16:-0.79415553 17:-0.82443503 18:-0.73967222 19:-0.81074406 20:-0.61789808 21:-0.82351773 22:-0.74099216 23:-0.80185419 24:-0.65331982 25:-0.80652056 26:-0.57770375 27:-0.82752261 28:-0.73988437 29:-0.73147845 30:-0.6566296 31:-0.80781349 32:-0.73291193 33:-0.78382732 34:-0.80063213 35:-0.99997233 36:-0.99994558 37:-0.99998518 38:-0.99991684 39:-0.99986983 40:-0.99991393 41:-0.99990632 42:-0.99991608 43:-0.9999527 44:-0.99999616 45:-0.99998158 46:-0.99998903 47:-0.99997404 48:-0.99999363 49:-0.99995116 50:-0.99971809 51:-0.99999732 52:-0.99983426 53:-0.99982223 54:-0.99979839 55:-0.99988482 56:-0.99997057 57:-0.99997642 58:-0.99995083 59:-0.99999584 60:-0.96188289 61:-0.97863198 
8 1:-0.99999672 2:-0.99989918 3:-0.99989006 4:0.70880258 5:-0.20799246 6:-0.93880036 7:-0.043324099 8:-0.51350216 9:-0.99999927 10:-0.10950877 11:0.5156904 12:-0.99999915 13:0.096097489 14:-0.99999939 15:-0.79030773 16:-0.79441659 17:-0.82443503 18:-0.73967222 19:-0.81067109 20:-0.61859237 21:-0.82351773 22:-0.74099216 23:-0.80499213 24:-0.65424366 25:-0.80721748 26:-0.57784481 27:-0.82752261 28:-0.73988437 29:-0.73454485 30:-0.65685198 31:-0.80781349 32:-0.73291193 33:-0.78517479 34:-0.80034158 35:-0.99997233 36:-0.99994558 37:-0.99998518 38:-0.99997921 39:-0.99980474 40:-0.99990163 41:-0.99990632 42:-0.99988251 43:-0.99997635 44:-0.99998847 45:-0.99997053 46:-0.99999178 47:-0.99998269 48:-0.99997457 49:-0.99996337 50:-0.99982369 51:-0.99999598 52:-0.99983426 53:-0.99982223 54:-0.99975806 55:-0.99992801 56:-0.99995094 57:-0.9999607 58:-0.99993854 59:-0.9999974 60:-0.96265491 61:-0.97883584 
8 1:-0.99999687 2:-0.99989341 3:-0.9998898 4:0.70882167 5:-0.21165821 6:-0.93861511 7:-0.047266659 8:-0.51392783 9:-0.99999937 10:-0.10950848 11:0.51569064 12:-0.9999992 13:0.096097552 14:-0.99999942 15:-0.78913424 16:-0.79424589 17:-0.82443503 18:-0.73967222 19:-0.80874155 20:-0.61813781 21:-0.82351773 22:-0.74099216 23:-0.80499045 24:-0.65369388 25:-0.80481349 26:-0.57769704 27:-0.82752261 28:-0.73988437 29:-0.79986875 30:-0.70834365 31:-0.80781349 32:-0.73291193 33:-0.78382553 34:-0.80050405 35:-0.99997785 36:-0.99956464 37:-0.99995553 38:-0.99993763 39:-0.99980474 40:-0.99992623 41:-0.99984387 42:-0.99994965 43:-0.99999054 44:-0.99997311 45:-0.99999632 46:-0.99999178 47:-0.99997837 48:-0.99997457 49:-0.99996337 50:-0.99989409 51:-0.99999598 52:-0.99995836 53:-0.99978667 54:-0.99975806 55:-0.99991362 56:-0.99998038 57:-0.99995283 58:-0.99991396 59:-0.99999844 60:-0.96513192 61:-0.97811151 
8 1:-0.99999683 2:-0.99989348 3:-0.99988982 4:0.7088063 5:-0.21478782 6:-0.93881856 7:-0.050166298 8:-0.51334332 9:-0.99999937 10:-0.10950836 11:0.51569113 12:-0.99999919 13:0.096097584 14:-0.99999941 15:-0.78895318 16:-0.79070097 17:-0.82443503 18:-0.73967222 19:-0.80939463 20:-0.61175123 21:-0.82351773 22:-0.74099216 23:-0.80241338 24:-0.65426016 25:-0.80940559 26:-0.57798327 27:-0.82752261 28:-0.73988437 29:-0.80335798 30:-0.71405855 31:-0.80781349 32:-0.73291193 33:-0.78574374 34:-0.80070332 35:-0.99998338 36:-0.99983674 37:-0.99995553 38:-0.99989604 39:-0.99986983 40:-0.99996311 41:-0.99971897 42:-0.99991608 43:-0.99998108 44:-0.99998079 45:-0.99997421 46:-0.99998629 47:-0.99997837 48:-0.99996822 49:-0.99997558 50:-0.99989409 51:-0.99999464 52:-0.99983426 53:-0.99975112 54:-0.99975806 55:-0.99994241 56:-0.99995094 57:-0.99998428 58:-0.99998771 59:-0.99999896 60:-0.96392888 61:-0.97822051 
8 1:-0.99999676 2:-0.99989335 3:-0.99988963 4:0.70879954 5:-0.21337096 6:-0.9388638 7:-0.048598934 8:-0.51367795 9:-0.99999933 10:-0.10950825 11:0.51569066 12:-0.99999918 13:0.096097605 14:-0.9999994 15:-0.78557548 16:-0.79042933 17:-0.82443503 18:-0.73967222 19:-0.80717673 20:-0.61046024 21:-0.82351773 22:-0.74099216 23:-0.80515693 24:-0.65331089 25:-0.80715381 26:-0.57149342 27:-0.82752261 28:-0.73988437 29:-0.79737583 30:-0.70781931 31:-0.80781349 32:-0.73291193 33:-0.78612014 34:-0.80057039 35:-0.99998338 36:-0.99983674 37:-0.99995553 38:-0.99997921 39:-0.99983728 40:-0.99991393 41:-0.99990632 42:-0.9998993 43:-0.99997162 44:-0.99998463 45:-0.99999263 46:-0.99998355 47:-0.99997837 48:-0.99996822 49:-0.99995116 50:-0.99989409 51:-0.99999799 52:-0.99975152 53:-0.99982223 54:-0.99995968 55:-0.99984163 56:-0.99998038 57:-0.99993711 58:-0.99997542 59:-0.99999584 60:-0.96319677 61:-0.97883813 
8 1:-0.99999661 2:-0.9998993 3:-0.99988961 4:0.70861949 5:-0.20944391 6:-0.94075374 7:-0.042581456 8:-0.51260726 9:-0.99999919 10:-0.10950781 11:0.51569079 12:-0.99999909 13:0.096098077 14:-0.99999935 15:-0.7678108 16:-0.79112115 17:-0.82443503 18:-0.73967222 19:-0.80832112 20:-0.61100319 21:-0.82351773 22:-0.74099216 23:-0.80126823 24:-0.65240625 25:-0.82436853 26:-0.70363271 27:-0.79554112 28:-0.61677638 29:-0.73598088 30:-0.66369824 31:-0.80423736 32:-0.71992876 33:-0.78319245 34:-0.80108868 35:-0.99994471 36:-0.99989116 37:-0.99995553 38:-0.99987525 39:-0.99990237 40:-0.99990163 41:-0.99965652 42:-0.99986573 43:-0.99998581 44:-0.99996926 45:-0.99998526 46:-0.99999178 47:-0.99998269 48:-0.99996187 49:-0.99992675 50:-0.99975329 51:-0.99999732 52:-0.99979289 53:-0.99982223 54:-0.99987903 55:-0.99997121 56:-0.99999019 57:-0.99999214 58:-0.99998771 59:-0.99999896 60:-0.95719436 61:-0.97960774 
8 1:-0.99999657 2:-0.9999003 3:-0.99988975 4:0.70860111 5:-0.20611007 6:-0.94088805 7:-0.040243663 8:-0.51196756 9:-0.99999912 10:-0.10950822 11:0.51569063 12:-0.99999903 13:0.096098077 14:-0.99999931 15:-0.77819743 16:-0.79046766 17:-0.82443503 18:-0.73967222 19:-0.81009005 20:-0.60994009 21:-0.82351773 22:-0.74099216 23:-0.79870702 24:-0.65196853 25:-0.8098247 26:-0.64434857 27:-0.79484445 28:-0.69197086 29:-0.72789073 30:-0.66952366 31:-0.8030704 32:-0.72007101 33:-0.78020054 34:-0.79646518 35:-0.99992262 36:-0.99983674 37:-0.99997035 38:-0.99989604 39:-0.99986983 40:-0.99995082 41:-0.99984387 42:-0.99988251 43:-0.9999527 44:-0.99998463 45:-0.99997789 46:-0.99998081 47:-0.99996971 48:-0.99998728 49:-0.99992675 50:-0.99985889 51:-0.99999531 52:-0.99983426 53:-0.99978667 54:-0.99991935 55:-0.99995681 56:-0.99999019 57:-0.99999214 58:-0.99998771 59:-0.99999896 60:-0.95726971 61:-0.98067717 
8 1:-0.99999661 2:-0.99989918 3:-0.99988934 4:0.70863154 5:-0.20479478 6:-0.94059551 7:-0.039507803 8:-0.51134004 9:-0.99999907 10:-0.10950865 11:0.51569039 12:-0.99999905 13:0.096097064 14:-0.99999933 15:-0.79723755 16:-0.79363224 17:-0.82443503 18:-0.73967222 19:-0.81261207 20:-0.61008613 21:-0.82351773 22:-0.74099216 23:-0.79963097 24:-0.65191389 25:-0.78792373 26:-0.58941462 27:-0.82752261 28:-0.73988437 29:-0.723114 30:-0.65765257 31:-0.80224324 32:-0.71946754 33:-0.77990067 34:-0.80091579 35:-0.9999171 36:-0.99978232 37:-0.99997035 38:-0.99991684 39:-0.99986983 40:-0.99988934 41:-0.99993755 42:-0.9997986 43:-0.99998581 44:-0.99997695 45:-0.99997789 46:-0.99998903 47:-0.99996971 48:-0.99996822 49:-0.99998779 50:-0.99985889 51:-0.99999598 52:-0.99958605 53:-0.99985778 54:-0.99995968 55:-0.99997121 56:-0.99999019 57:-0.99999214 58:-0.99998771 59:-0.99999896 60:-0.9555028 61:-0.98084617 
8 1:-0.99999661 2:-0.99989824 3:-0.99988848 4:0.70867826 5:-0.2052911 6:-0.94019941 7:-0.040041828 8:-0.51140343 9:-0.9999991 10:-0.10950845 11:0.5156908 12:-0.99999906 13:0.096098201 14:-0.99999934 15:-0.78586122 16:-0.79685878 17:-0.82443503 18:-0.73967222 19:-0.81006665 20:-0.61645862 21:-0.82351773 22:-0.74099216 23:-0.79715514 24:-0.65190614 25:-0.80756292 26:-0.61712052 27:-0.81986737 28:-0.71549703 29:-0.72685337 30:-0.66282255 31:-0.80196566 32:-0.72606864 33:-0.78264293 34:-0.80061689 35:-0.99992814 36:-0.99989116 37:-0.99997035 38:-0.99989604 39:-0.99986983 40:-0.99988934 41:-0.9997502 42:-0.99994965 43:-0.99996689 44:-0.99998079 45:-0.99998158 46:-0.99998903 47:-0.99996971 48:-0.99997457 49:-0.99995116 50:-0.99992929 51:-0.99999665 52:-0.99983426 53:-0.99985778 54:-0.99959677 55:-0.99994241 56:-0.99999019 57:-0.99999214 58:-0.99998771 59:-0.99999896 60:-0.9558964 61:-0.98031542 
8 1:-0.99999653 2:-0.99989641 3:-0.99988675 4:0.70877506 5:-0.20510173 6:-0.93913749 7:-0.040256853 8:-0.51147343 9:-0.99999907 10:-0.10950822 11:0.51569069 12:-0.99999901 13:0.096097713 14:-0.9999993 15:-0.78056678 16:-0.79641813 17:-0.82443503 18:-0.73967222 19:-0.80673483 20:-0.61638542 21:-0.82351773 22:-0.74099216 23:-0.79797322 24:-0.65121724 25:-0.79783342 26:-0.58089643 27:-0.82752261 28:-0.73988437 29:-0.71601261 30:-0.64367353 31:-0.80781349 32:-0.73291193 33:-0.77519663 34:-0.79567244 35:-0.99992262 36:-0.9997279 37:-0.99997035 38:-0.99997921 39:-0.99980474 40:-0.99995082 41:-0.9997502 42:-0.99994965 43:-0.99997635 44:-0.99996542 45:-0.99998526 46:-0.99998081 47:-0.99998269 48:-0.99995551 49:-0.99996337 50:-0.99992929 51:-0.99999866 52:-0.99987563 53:-0.99989334 54:-0.99979839 55:-0.99988482 56:-0.99995094 57:-0.99997642 58:-0.99998771 59:-0.99999792 60:-0.95855026 61:-0.98188682 
8 1:-0.99999657 2:-0.99989495 3:-0.99988544 4:0.70884426 5:-0.20596593 6:-0.93826391 7:-0.041395172 8:-0.51240679 9:-0.9999991 10:-0.10950859 11:0.51569106 12:-0.99999904 13:0.096097599 14:-0.99999931 15:-0.77645029 16:-0.79588989 17:-0.82443503 18:-0.73967222 19:-0.80795186 20:-0.61450046 21:-0.82351773 22:-0.74099216 23:-0.80735186 24:-0.65740942 25:-0.79666042 26:-0.57246933 27:-0.82752261 28:-0.73988437 29:-0.72072751 30:-0.65430093 31:-0.80781349 32:-0.73291193 33:-0.78115472 34:-0.8002834 35:-0.99992262 36:-0.99983674 37:-0.99995553 38:-0.99995842 39:-0.99986983 40:-0.99996311 41:-0.9998751 42:-0.99988251 43:-0.99997162 44:-0.99998079 45:-0.99997421 46:-0.99999178 47:-0.99997404 48:-0.99996822 49:-0.99995116 50:-0.99989409 51:-0.99999665 52:-0.99987563 53:-0.99989334 54:-0.99967742 55:-0.99989922 56:-0.99998038 57:-0.99996856 58:-0.99998771 59:-0.9999974 60:-0.95882837 61:-0.98167715 
8 1:-0.99999665 2:-0.99989296 3:-0.99988361 4:0.70887411 5:-0.2076206 6:-0.93791403 7:-0.043261334 8:-0.51320733 9:-0.99999916 10:-0.10950872 11:0.51569065 12:-0.99999906 13:0.096097648 14:-0.99999931 15:-0.77023926 16:-0.79217602 17:-0.82443503 18:-0.73967222 19:-0.80034886 20:-0.61402183 21:-0.82351773 22:-0.74099216 23:-0.80475783 24:-0.65681535 25:-0.80262397 26:-0.5720085 27:-0.82752261 28:-0.73988437 29:-0.725545 30:-0.64838309 31:-0.80781349 32:-0.73291193 33:-0.78347468 34:-0.79975175 35:-0.99993367 36:-0.99994558 37:-0.99991106 38:-0.99995842 39:-0.99977219 40:-0.99992623 41:-0.99984387 42:-0.99993287 43:-0.99998581 44:-0.99998079 45:-0.99996684 46:-0.99998629 47:-0.99997837 48:-0.99998092 49:-0.99992675 50:-0.99996449 51:-0.99999732 52:-0.99966878 53:-0.99975112 54:-0.99971774 55:-0.99995681 56:-0.99998038 57:-0.99999214 58:-0.99998771 59:-0.99999896 60:-0.95654369 61:-0.98026251 
8 1:-0.99999665 2:-0.99989335 3:-0.99988336 4:0.70880667 5:-0.2055144 6:-0.93884023 7:-0.040707109 8:-0.512423 9:-0.99999913 10:-0.10950822 11:0.515691 12:-0.99999906 13:0.096097303 14:-0.99999933 15:-0.79365896 16:-0.79219464 17:-0.82443503 18:-0.73967222 19:-0.80941147 20:-0.61373927 21:-0.82351773 22:-0.74099216 23:-0.80211041 24:-0.65606081 25:-0.80449084 26:-0.57904688 27:-0.82752261 28:-0.73988437 29:-0.72082043 30:-0.64803726 31:-0.80781349 32:-0.73291193 33:-0.78155027 34:-0.80332036 35:-0.99992814 36:-0.99989116 37:-0.99995553 38:-0.99993763 39:-0.99990237 40:-0.99995082 41:-0.99990632 42:-0.99991608 43:-0.99998108 44:-0.99997311 45:-0.99998895 46:-0.99998629 47:-0.99998702 48:-0.99996187 49:-0.99993895 50:-0.99989409 51:-0.99999531 52:-0.99979289 53:-0.99989334 54:-0.99975806 55:-0.99995681 56:-0.99995094 57:-0.99997642 58:-0.99996312 59:-0.99999584 60:-0.95842088 61:-0.9807225 
8 1:-0.99999661 2:-0.99989206 3:-0.99988272 4:0.70874739 5:-0.20967564 6:-0.93958313 7:-0.043931132 8:-0.51287968 9:-0.99999918 10:-0.10950726 11:0.51569059 12:-0.99999906 13:0.096098104 14:-0.99999932 15:-0.78510023 16:-0.79247715 17:-0.82443503 18:-0.73967222 19:-0.80594994 20:-0.60712158 21:-0.82351773 22:-0.74099216 23:-0.80105617 24:-0.65041146 25:-0.80354816 26:-0.57922142 27:-0.82752261 28:-0.73988437 29:-0.72849932 30:-0.64286987 31:-0.80781349 32:-0.73291193 33:-0.77723905 34:-0.79609684 35:-0.99992262 36:-0.99989116 37:-0.99995553 38:-0.99993763 39:-0.99993491 40:-0.99990163 41:-0.9998751 42:-0.99991608 43:-0.99997635 44:-0.99998463 45:-0.99998895 46:-0.99998081 47:-0.99998269 48:-0.99996187 49:-0.99990233 50:-0.99985889 51:-0.99999665 52:-0.99979289 53:-0.99985778 54:-0.99979839 55:-0.99997121 56:-0.99995094 57:-0.99997642 58:-0.99996312 59:-0.99999896 60:-0.9590997 61:-0.98123034 
8 1:-0.99999668 2:-0.99989141 3:-0.99988282 4:0.70873114 5:-0.20621655 6:-0.93979696 7:-0.040924171 8:-0.51361867 9:-0.99999923 10:-0.10950709 11:0.51569037 12:-0.99999907 13:0.096097335 14:-0.99999933 15:-0.79081109 16:-0.79611743 17:-0.82443503 18:-0.73967222 19:-0.81095811 20:-0.61433642 21:-0.82351773 22:-0.74099216 23:-0.79780045 24:-0.65693134 25:-0.80460761 26:-0.57949002 27:-0.82752261 28:-0.73988437 29:-0.73476142 30:-0.64798152 31:-0.80781349 32:-0.73291193 33:-0.77980293 34:-0.79604568 35:-0.99993367 36:-0.99983674 37:-0.99992588 38:-0.99993763 39:-0.99996746 40:-0.99995082 41:-0.99990632 42:-0.99981538 43:-0.99999527 44:-0.99998847 45:-0.99997789 46:-0.99998903 47:-0.99997837 48:-0.99997457 49:-0.99993895 50:-0.99978849 51:-0.99999665 52:-0.99975152 53:-0.99985778 54:-0.99979839 55:-0.99992801 56:-0.99999019 57:-0.99995283 58:-0.99998771 59:-0.9999974 60:-0.95865029 61:-0.98108188 
8 1:-0.99999665 2:-0.99989206 3:-0.99988287 4:0.70872995 5:-0.20771208 6:-0.93976412 7:-0.042137705 8:-0.51371637 9:-0.99999921 10:-0.10950784 11:0.51569071 12:-0.99999906 13:0.096097557 14:-0.99999932 15:-0.77425445 16:-0.79269607 17:-0.82443503 18:-0.73967222 19:-0.80907554 20:-0.61528279 21:-0.82351773 22:-0.74099216 23:-0.80409556 24:-0.65702228 25:-0.81166448 26:-0.60144222 27:-0.82163499 28:-0.70886223 29:-0.73221954 30:-0.64865279 31:-0.80781349 32:-0.73291193 33:-0.78255251 34:-0.79957822 35:-0.99992814 36:-0.99989116 37:-0.99998518 38:-0.99991684 39:-0.99983728 40:-0.99993852 41:-0.99996877 42:-0.9998993 43:-0.99997162 44:-0.99998079 45:-0.99998526 46:-0.99999178 47:-0.99998269 48:-0.99997457 49:-0.99993895 50:-0.99975329 51:-0.99999665 52:-0.99979289 53:-0.99992889 54:-0.99979839 55:-0.99994241 56:-0.99994113 57:-0.99996856 58:-0.99997542 59:-0.99999636 60:-0.9588345 61:-0.98094227 
3.547104201091139 1:-0.99999665 2:-0.99989206 3:-0.99988273 4:0.70873458 5:-0.20939763 6:-0.93976779 7:-0.043556194 8:-0.51324875 9:-0.99999923 10:-0.10950732 11:0.51569057 12:-0.99999905 13:0.096097309 14:-0.99999931 15:-0.78590723 16:-0.79264246 17:-0.82443503 18:-0.73967222 19:-0.81142863 20:-0.60757233 21:-0.82351773 22:-0.74099216 23:-0.7968703 24:-0.65012834 25:-0.80311402 26:-0.57967802 27:-0.82752261 28:-0.73988437 29:-0.73034917 30:-0.64845463 31:-0.80781349 32:-0.73291193 33:-0.78114242 34:-0.79583314 35:-0.99992262 36:-0.99983674 37:-0.99995553 38:-0.99995842 39:-0.99983728 40:-0.99997541 41:-0.9998751 42:-0.99986573 43:-0.99999054 44:-0.99998463 45:-0.99997421 46:-0.99998903 47:-0.99999135 48:-0.99996187 49:-0.99993895 50:-0.99982369 51:-0.99999665 52:-0.99975152 53:-0.99992889 54:-0.99971774 55:-0.99991362 56:-0.99999019 57:-0.9999607 58:-0.99996312 59:-0.99999792 60:-0.95828174 61:-0.98124893 
8 1:-0.99999668 2:-0.99989206 3:-0.99988298 4:0.70872687 5:-0.20807911 6:-0.93982583 7:-0.042413964 8:-0.51338822 9:-0.99999922 10:-0.1095083 11:0.51569054 12:-0.99999906 13:0.096097545 14:-0.99999932 15:-0.7750399 16:-0.79249889 17:-0.82443503 18:-0.73967222 19:-0.8100372 20:-0.61514948 21:-0.82351773 22:-0.74099216 23:-0.80464836 24:-0.65688945 25:-0.81913079 26:-0.62923407 27:-0.81747714 28:-0.70271504 29:-0.73356539 30:-0.65449564 31:-0.80574056 32:-0.71977438 33:-0.78348359 34:-0.7999212 35:-0.99993367 36:-0.99983674 37:-0.99997035 38:-0.99991684 39:-0.99993491 40:-0.99997541 41:-0.99981265 42:-0.99988251 43:-0.99998581 44:-0.99998079 45:-0.99998158 46:-0.99999452 47:-0.99998269 48:-0.99996187 49:-0.99990233 50:-0.99992929 51:-0.99999665 52:-0.99971015 53:-0.99989334 54:-0.99983871 55:-0.99995681 56:-0.99992151 57:-0.99999214 58:-0.99993854 59:-0.9999974 60:-0.95961819 61:-0.98088031 
8 1:-0.99999668 2:-0.99989206 3:-0.99988299 4:0.70873854 5:-0.20864458 6:-0.9397066 7:-0.042986908 8:-0.51365214 9:-0.99999924 10:-0.10950772 11:0.51569019 12:-0.99999907 13:0.096097887 14:-0.99999933 15:-0.78518381 16:-0.79178985 17:-0.82443503 18:-0.73967222 19:-0.81040772 20:-0.61512837 21:-0.82351773 22:-0.74099216 23:-0.80116548 24:-0.65672795 25:-0.80842674 26:-0.58720052 27:-0.82716941 28:-0.73349922 29:-0.73292105 30:-0.65422779 31:-0.80781349 32:-0.73291193 33:-0.78601761 34:-0.79985656 35:-0.99993367 36:-0.99989116 37:-0.99997035 38:-0.99989604 39:-0.99993491 40:-0.99993852 41:-0.99990632 42:-0.9998993 43:-0.99999054 44:-0.99997695 45:-0.99998526 46:-0.99998903 47:-0.99997404 48:-0.99998728 49:-0.99990233 50:-0.99978849 51:-0.99999665 52:-0.99983426 53:-0.99985778 54:-0.99983871 55:-0.99992801 56:-0.99996075 57:-0.99996856 58:-0.99992625 59:-0.99999844 60:-0.95935339 61:-0.98066324 
8 1:-0.99999679 2:-0.99989206 3:-0.99988303 4:0.70874064 5:-0.21099191 6:-0.93972384 7:-0.044967472 8:-0.51332235 9:-0.99999928 10:-0.10950805 11:0.51569069 12:-0.9999991 13:0.096097653 14:-0.99999935 15:-0.78565206 16:-0.79210565 17:-0.82443503 18:-0.73967222 19:-0.81005681 20:-0.61477063 21:-0.82351773 22:-0.74099216 23:-0.80314575 24:-0.65644625 25:-0.80319462 26:-0.5794134 27:-0.82752261 28:-0.73988437 29:-0.73750984 30:-0.66042266 31:-0.80781349 32:-0.73291193 33:-0.7817847 34:-0.79959947 35:-0.99993919 36:-0.99994558 37:-0.99997035 38:-0.99993763 39:-0.99990237 40:-0.99993852 41:-0.99984387 42:-0.99991608 43:-0.99999054 44:-0.99998463 45:-0.99997789 46:-0.99998629 47:-0.99998702 48:-0.99998092 49:-0.99992675 50:-0.99975329 51:-0.99999799 52:-0.99971015 53:-0.99989334 54:-0.99979839 55:-0.99997121 56:-0.99990188 57:-0.99998428 58:-0.99996312 59:-0.9999974 60:-0.96033002 61:-0.98031136 
8 1:-0.98598714 2:-0.92974589 3:-0.92502817 4:0.57911484 5:-0.40696521 6:-0.59785927 7:0.2125981 8:0.048527066 9:-0.99882808 10:-3.7252903e-09 11:-1.1175871e-08 12:-0.99651187 13:-2.1420419e-07 14:-0.99704265 15:-0.54083818 16:-0.57022179 17:-0.54921663 18:-0.45357613 19:-0.58056581 20:-0.46284573 21:-0.48148754 22:-0.38926565 23:-0.50339157 24:-0.32968932 25:-0.58290735 26:-0.46715651 27:-0.50883242 28:-0.25274301 29:-0.56296739 30:-0.51136397 31:-0.52277684 32:-0.41280978 33:-0.49573437 34:-0.51769966 35:-0.98827667 36:-0.95330739 37:-0.98859316 38:-0.98347107 39:-0.97826087 40:-0.96057348 41:-0.98126464 42:-0.98814229 43:-0.99434496 44:-0.9938335 45:-0.9923882 46:-0.99682288 47:-0.98882682 48:-0.98815166 49:-0.99286987 50:-0.98130841 51:-0.99837398 52:-0.96969697 53:-0.96428571 54:-0.96774194 55:-0.98941799 56:-0.99372057 57:-0.99725652 58:-0.99307958 59:-0.99720963 60:0.17567371 61:0.075331716 
8 1:-0.98138017 2:-0.93513276 3:-0.93185444 4:0.59552009 5:-0.36202747 6:-0.6350917 7:0.16780974 8:0.038831759 9:-0.99853081 10:3.054738e-07 11:2.1792948e-07 12:-0.99482336 13:1.1958182e-06 14:-0.99561516 15:-0.51364245 16:-0.51227976 17:-0.53767708 18:-0.37197859 19:-0.58056581 20:-0.46284573 21:-0.52079113 22:-0.34138038 23:-0.5388743 24:-0.31123654 25:-0.58290735 26:-0.46715651 27:-0.49538952 28:-0.3189397 29:-0.56296739 30:-0.51136397 31:-0.39124546 32:-0.24427642 33:-0.46759275 34:-0.50174486 35:-0.96248535 36:-0.9766537 37:-0.99239544 38:-0.95041322 39:-0.96195652 40:-0.97491039 41:-0.96252927 42:-0.96837945 43:-0.99057493 44:-0.98150051 45:-0.99048525 46:-0.99364575 47:-0.99553073 48:-0.99526066 49:-0.99286987 50:-0.98753894 51:-0.99837398 52:-0.98787879 53:-0.97959184 54:-0.95483871 55:-0.98941799 56:-0.99686028 57:-0.99451303 58:-0.98961938 59:-0.99581444 60:0.27517467 61:-0.11182198 
8 1:-0.97082254 2:-0.95818608 3:-0.95468901 4:0.64082457 5:-0.22548904 6:-0.72288565 7:0.054153308 8:0.013709869 9:-0.99733365 10:2.0116568e-06 11:2.8386712e-06 12:-0.9911729 13:1.8998981e-07 14:-0.99228158 15:-0.33209788 16:-0.35304193 17:-0.45007789 18:-0.40583929 19:-0.55658879 20:-0.31053174 21:-0.55684492 22:-0.32958237 23:-0.57973176 24:-0.49694126 25:-0.53408321 26:-0.28033753 27:-0.4903291 28:-0.30225797 29:-0.39984976 30:-0.26225814 31:-0.46815635 32:-0.27457079 33:-0.49574727 34:-0.51432224 35:-0.95310668 36:-0.95330739 37:-0.9581749 38:-0.94490358 39:-0.95652174 40:-0.96057348 41:-0.95316159 42:-0.96047431 43:-0.97737983 44:-0.97738952 45:-0.98287345 46:-0.99046863 47:-0.98659218 48:-0.97630332 49:-0.97860962 50:-0.96884735 51:-0.99430894 52:-0.98787879 53:-0.98979592 54:-0.98709677 55:-0.99647266 56:-0.99372057 57:-0.99451303 58:-0.98961938 59:-0.99720963 60:0.064305352 61:-0.19830874 
8 1:-0.98138017 2:-0.96137048 3:-0.95981066 4:0.64666713 5:-0.33240755 6:-0.73189509 7:0.12456983 8:0.051208865 9:-0.9984705 10:3.7858263e-07 11:-9.8068267e-07 12:-0.99465986 13:-4.209578e-07 14:-0.99556928 15:-0.26228152 16:-0.52355246 17:-0.57406402 18:-0.45846517 19:-0.51832065 20:-0.4065027 21:-0.5877257 22:-0.49789195 23:-0.53394307 24:-0.34023802 25:-0.53621088 26:-0.27947588 27:-0.51703151 28:-0.30327399 29:-0.49225076 30:-0.38887482 31:-0.48790559 32:-0.38409514 33:-0.49805259 34:-0.51430629 35:-0.98593201 36:-0.9688716 37:-0.98479087 38:-0.97245179 39:-0.96195652 40:-0.97849462 41:-0.97189696 42:-0.97628459 43:-0.98491989 44:-0.98150051 45:-0.99429115 46:-0.99205719 47:-0.98659218 48:-0.98815166 49:-0.97860962 50:-0.95638629 51:-0.99674797 52:-0.96969697 53:-0.98979592 54:-0.98064516 55:-0.99294533 56:-0.99058085 57:-0.98902606 58:-0.99653979 59:-0.99720963 60:-0.057485218 61:-0.13017187 
0.1809116543236229 1:-0.74143392 2:-0.99689726 3:-0.99753322 4:0.68679611 5:-0.1491051 6:-0.68046986 7:0.04413835 8:0.0076589547 9:-0.98673657 10:-5.0067902e-06 11:6.6021457e-06 12:-0.98508988 13:1.937151e-07 14:-0.98501478 15:-0.44260656 16:-0.56627571 17:-0.42515673 18:-0.42415358 19:-0.48719409 20:-0.37922306 21:-0.48324948 22:-0.33530075 23:-0.47078068 24:-0.31991061 25:-0.47448617 26:-0.29584104 27:-0.48221135 28:-0.31571302 29:-0.45471945 30:-0.33662349 31:-0.44701622 32:-0.21429276 33:-0.37298538 34:-0.349954 35:-0.91559203 36:-0.83657588 37:-0.92395437 38:-0.91735537 39:-0.88586957 40:-0.91756272 41:-0.84543326 42:-0.80632411 43:-0.85673892 44:-0.73278519 45:-0.69933398 46:-0.82843527 47:-0.86815642 48:-0.81042654 49:-0.771836 50:-0.68847352 51:-0.93414634 52:-0.58787879 53:-0.76530612 54:-0.63870968 55:-0.39682541 56:-0.99686028 57:-0.99725652 58:-0.99653979 59:-0.99790722 60:0.047003058 61:0.33933704 
0.0835197149630055 1:-0.72185431 2:-0.99756049 3:-0.99825328 4:0.69191995 5:-0.14280847 6:-0.67996951 7:0.019346096 8:0.003214387 9:-0.99052337 10:-1.9222498e-06 11:-2.6449561e-07 12:-0.99060026 13:-3.8854778e-06 14:-0.99012572 15:-0.48440281 16:-0.49090193 17:-0.49503274 18:-0.35091412 19:-0.46049811 20:-0.2973033 21:-0.47076628 22:-0.35572713 23:-0.46704096 24:-0.38565124 25:-0.43772169 26:-0.33715272 27:-0.45503227 28:-0.37341099 29:-0.4250806 30:-0.37805747 31:-0.4399216 32:-0.26495213 33:-0.39460755 34:-0.41544725 35:-0.95779602 36:-0.93774319 37:-0.96577947 38:-0.89531681 39:-0.88043478 40:-0.82437276 41:-0.79859485 42:-0.73517787 43:-0.9472196 44:-0.89105858 45:-0.92007612 46:-0.88085782 47:-0.92625698 48:-0.84834123 49:-0.8003565 50:-0.6635514 51:-0.95203252 52:-0.61212121 53:-0.62244898 54:-0.51612903 55:-0.8271605 56:0.58241758 57:-0.99725652 58:-0.99307958 59:-0.99651203 60:0.12332382 61:0.58855247 
8 1:-0.66791439 2:-0.9977372 3:-0.99847823 4:0.69635031 5:-0.14111961 6:-0.67314643 7:0.0044017662 8:0.0023908515 9:-0.98699214 10:-3.97861e-06 11:-1.0337681e-06 12:-0.9891587 13:-3.2484531e-06 14:-0.98756051 15:-0.49266584 16:-0.54013867 17:-0.44179122 18:-0.36927828 19:-0.44933152 20:-0.32413442 21:-0.46309805 22:-0.36651614 23:-0.43881525 24:-0.41713469 25:-0.43523464 26:-0.37702731 27:-0.45675312 28:-0.3766075 29:-0.42528389 30:-0.42713128 31:-0.40338075 32:-0.36063846 33:-0.32792352 34:-0.41947902 35:-0.98593201 36:-0.96108949 37:-0.96577947 38:-0.85674931 39:-0.88043478 40:-0.83512544 41:-0.77985948 42:-0.79841898 43:-0.86427898 44:-0.87255909 45:-0.90675547 46:-0.9030977 47:-0.90391061 48:-0.89099526 49:-0.83600712 50:-0.68847352 51:-0.93252032 52:-0.63636364 53:-0.71428571 54:-0.62580645 55:-0.77072311 56:-0.87755102 57:-0.84910836 58:-0.82006921 59:-0.55005232 60:0.12754196 61:0.58354925 
1.133029309686624 1:-0.6995873 2:-0.99734998 3:-0.99813939 4:0.70382595 5:-0.14076163 6:-0.65150611 7:0.0031563316 8:0.0055166194 9:-0.98525146 10:-3.1292439e-07 11:4.7683716e-06 12:-0.98516767 13:-1.3932586e-06 14:-0.98550471 15:-0.39964283 16:-0.49873733 17:-0.42774595 18:-0.35308438 19:-0.45835428 20:-0.2859238 21:-0.46046958 22:-0.3332031 23:-0.44942086 24:-0.34857077 25:-0.44730432 26:-0.31995509 27:-0.45456118 28:-0.35467522 29:-0.41358786 30:-0.33775226 31:-0.34545675 32:-0.28261505 33:-0.3018422 34:-0.50702806 35:-0.94841735 36:-0.87548638 37:-0.94296578 38:-0.91184573 39:-0.88586957 40:-0.86021505 41:-0.72833724 42:-0.65612649 43:-0.8265787 44:-0.81500513 45:-0.80589915 46:-0.83002383 47:-0.78100558 48:-0.74881516 49:-0.73262031 50:-0.50778816 51:-0.95447154 52:-0.76363636 53:-0.80612245 54:-0.83870968 55:-0.93650794 56:-0.91836735 57:-0.95610425 58:-0.93425606 59:-0.7704918 60:0.12449122 61:0.26498317 
8 1:-0.93377484 2:-0.98051551 3:-0.97932995 4:0.73027662 5:-0.17042912 6:-0.7379708 7:-0.025625698 8:0.010190624 9:-0.99405694 10:-9.2387199e-07 11:7.5250864e-07 12:-0.98278064 13:-4.2468309e-07 14:-0.98481406 15:-0.22982902 16:-0.39509002 17:-0.40967255 18:-0.29300207 19:-0.45571088 20:-0.27471499 21:-0.51078825 22:-0.30012473 23:-0.50234508 24:-0.29952467 25:-0.51374609 26:-0.25100444 27:-0.48586874 28:-0.24128307 29:-0.48527031 30:-0.27561754 31:-0.47475943 32:-0.28397479 33:-0.47572831 34:-0.49502643 35:-0.95545135 36:-0.92217899 37:-0.96958175 38:-0.92837466 39:-0.94021739 40:-0.90681003 41:-0.90163934 42:-0.8853755 43:-0.95664467 44:-0.93627955 45:-0.98667935 46:-0.96981732 47:-0.9575419 48:-0.95971564 49:-0.91800356 50:-0.84423676 51:-0.98861789 52:-0.8969697 53:-0.94897959 54:-0.93548387 55:-0.98589065 56:-0.97802198 57:-0.99176955 58:-0.99653979 59:-0.99860481 60:0.024779281 61:0.053841986 
8 1:-0.96064882 2:-0.97563241 3:-0.97348919 4:0.71900898 5:-0.088661871 6:-0.78165165 7:0.023093248 8:0.011102309 9:-0.99730362 10:-1.5348196e-06 11:1.0165386e-06 12:-0.99028543 13:1.0635704e-06 14:-0.99166751 15:-0.51667833 16:-0.54448228 17:-0.57018101 18:-0.43295064 19:-0.54751331 20:-0.37600708 21:-0.55547431 22:-0.39725505 23:-0.50175029 24:-0.33133527 25:-0.50389481 26:-0.28536124 27:-0.40586413 28:-0.2572524 29:-0.29515574 30:-0.26554955 31:-0.48395992 32:-0.35684502 33:-0.53729063 34:-0.50227599 35:-0.93669402 36:-0.9844358 37:-0.98859316 38:-0.95592287 39:-0.97282609 40:-0.97849462 41:-0.94379391 42:-0.93280633 43:-0.96418473 44:-0.96094553 45:-0.96574691 46:-0.96346307 47:-0.97541899 48:-0.97630332 49:-0.96434937 50:-0.96261682 51:-0.99430894 52:-0.97575758 53:-0.97959184 54:-0.96774194 55:-0.98941799 56:-0.98744113 57:-0.99451303 58:-0.99307958 59:-0.99860481 60:-0.11549117 61:-0.15574846 
8 1:-0.95796142 2:-0.97149736 3:-0.96926885 4:0.71783462 5:-0.12980784 6:-0.78598522 7:0.0040132632 8:0.0094067072 9:-0.99647319 10:-3.1106174e-06 11:2.3022294e-06 12:-0.98953473 13:-3.054738e-07 14:-0.99102067 15:-0.32741985 16:-0.49366632 17:-0.39423227 18:-0.36178913 19:-0.45434367 20:-0.31687507 21:-0.46931129 22:-0.33945332 23:-0.51399811 24:-0.31662322 25:-0.50039045 26:-0.26646488 27:-0.42403817 28:-0.22968091 29:-0.43552108 30:-0.29938387 31:-0.48784475 32:-0.35146376 33:-0.51786947 34:-0.50001656 35:-0.95545135 36:-0.9688716 37:-0.97338403 38:-0.97796143 39:-0.9673913 40:-0.96415771 41:-0.92974239 42:-0.92094862 43:-0.97926484 44:-0.95683453 45:-0.96003806 46:-0.97299444 47:-0.98882682 48:-0.98341232 49:-0.95365419 50:-0.95638629 51:-0.99268293 52:-0.93939394 53:-0.93877551 54:-0.94193548 55:-0.98941799 56:-0.98430141 57:-0.99451303 58:-0.99653979 59:-0.99651203 60:-0.090407195 61:-0.12216304 
8 1:-0.96314426 2:-0.96850548 3:-0.96573387 4:0.72255108 5:-0.17106233 6:-0.78142464 7:-0.011687634 8:0.0063418918 9:-0.99771534 10:-4.3213367e-07 11:1.3299286e-06 12:-0.9908954 13:7.0780516e-08 14:-0.99221882 15:-0.47723966 16:-0.49461227 17:-0.53293978 18:-0.33325361 19:-0.53021595 20:-0.27796342 21:-0.53654075 22:-0.3082025 23:-0.52637659 24:-0.31441731 25:-0.52146632 26:-0.25548037 27:-0.4712637 28:-0.24453578 29:-0.4550019 30:-0.37676358 31:-0.48457624 32:-0.40198359 33:-0.51372222 34:-0.52237481 35:-0.93669402 36:-0.9922179 37:-0.97338403 38:-0.95592287 39:-0.95652174 40:-0.96415771 41:-0.9765808 42:-0.97233202 43:-0.96795476 44:-0.97122302 45:-0.95242626 46:-0.98570294 47:-0.97318436 48:-0.98815166 49:-0.98217469 50:-0.90654206 51:-0.99349593 52:-0.95151515 53:-0.95408163 54:-0.98064516 55:-0.98236332 56:-0.99372057 57:-0.99176955 58:-0.99653979 59:-0.99860481 60:-0.1162954 61:-0.20525017 
8 1:-0.97523755 2:-0.96131104 3:-0.9600968 4:0.73403535 5:-0.27060077 6:-0.76407562 7:-0.062297024 8:0.023513867 9:-0.99828953 10:1.6391277e-07 11:5.1781535e-07 12:-0.99498082 13:1.3038516e-07 14:-0.99560648 15:-0.53026438 16:-0.56240038 17:-0.48436884 18:-0.35244852 19:-0.49670165 20:-0.30519694 21:-0.50880793 22:-0.30995507 23:-0.52174756 24:-0.3061624 25:-0.58290735 26:-0.46715651 27:-0.51231599 28:-0.28835461 29:-0.46708226 30:-0.25429042 31:-0.50144771 32:-0.41944202 33:-0.51564409 34:-0.53861199 35:-0.98124267 36:-0.9766537 37:-0.97718631 38:-0.97796143 39:-0.95652174 40:-0.98207885 41:-0.94847775 42:-0.95652174 43:-0.97737983 44:-0.95889003 45:-0.98667935 46:-0.99205719 47:-0.98882682 48:-0.97867299 49:-0.97860962 50:-0.9376947 51:-0.99756098 52:-0.98181818 53:-0.9744898 54:-0.98064516 55:-0.99294533 56:-0.99372057 57:-0.99451303 58:-0.99653979 59:-0.99860481 60:-0.14180291 61:-0.15445184 
1.15437034834159 1:-0.97063058 2:-0.96119204 3:-0.95774566 4:0.73603523 5:-0.12962713 6:-0.76200343 7:0.00546605 8:0.0091160135 9:-0.99758696 10:1.6018748e-07 11:6.2584877e-07 12:-0.99355453 13:-3.6135316e-07 14:-0.99450433 15:-0.44629066 16:-0.48472098 17:-0.54583113 18:-0.32752099 19:-0.55359136 20:-0.27192913 21:-0.57948612 22:-0.3880568 23:-0.51615361 24:-0.31024784 25:-0.51946156 26:-0.24539837 27:-0.59042589 28:-0.49743621 29:-0.39805695 30:-0.2504179 31:-0.38761778 32:-0.27058619 33:-0.50072676 34:-0.5128667 35:-0.94607269 36:-0.95330739 37:-0.97338403 38:-0.95041322 39:-0.95652174 40:-0.97132616 41:-0.97189696 42:-0.97628459 43:-0.98868992 44:-0.96711202 45:-0.9847764 46:-0.9872915 47:-0.98659218 48:-0.98341232 49:-0.98930481 50:-0.95638629 51:-0.99430894 52:-0.95151515 53:-0.96428571 54:-0.96129032 55:-0.99647266 56:-0.9811617 57:-0.98902606 58:-0.99307958 59:-0.99860481 60:-0.046960326 61:-0.27297803 
7.402716917492671 1:-0.98118821 2:-0.94104132 3:-0.93733654 4:0.731291 5:-0.24068168 6:-0.78123604 7:-0.027793068 8:0.011350547 9:-0.99837968 10:5.4761767e-07 11:-1.3108365e-06 12:-0.99631134 13:-1.0174699e-07 14:-0.99668167 15:-0.53963383 16:-0.57131961 17:-0.49039304 18:-0.2948574 19:-0.58056581 20:-0.46284573 21:-0.53410857 22:-0.30680591 23:-0.52069346 24:-0.30547835 25:-0.58290735 26:-0.46715651 27:-0.50283788 28:-0.22095165 29:-0.56296739 30:-0.51136397 31:-0.45975846 32:-0.28394718 33:-0.53447518 34:-0.53008347 35:-0.992966 36:-0.9688716 37:-0.98479087 38:-0.98347107 39:-0.98913043 40:-0.97132616 41:-0.96252927 42:-0.97233202 43:-0.98303487 44:-0.98766701 45:-0.98667935 46:-0.99046863 47:-0.98882682 48:-0.99052133 49:-0.98573975 50:-0.95015576 51:-0.99837398 52:-0.96969697 53:-0.95408163 54:-0.95483871 55:-0.99647266 56:-0.99686028 57:-0.98628258 58:-0.99653979 59:-0.99790722 60:0.097398541 61:0.12706993 
8 1:-0.98061234 2:-0.93917902 3:-0.93531118 4:0.72468434 5:-0.23112368 6:-0.78919719 7:-0.019633587 8:0.010634496 9:-0.99837583 10:-9.6857548e-08 11:-1.960434e-07 12:-0.99593528 13:4.4703484e-08 14:-0.99641197 15:-0.54002265 16:-0.56937935 17:-0.47909798 18:-0.30431596 19:-0.58056581 20:-0.46284573 21:-0.50813815 22:-0.30416802 23:-0.53470339 24:-0.30113401 25:-0.58290735 26:-0.46715651 27:-0.48609304 28:-0.22900686 29:-0.56296739 30:-0.51136397 31:-0.44940895 32:-0.28252159 33:-0.50130436 34:-0.51863324 35:-0.98124267 36:-0.9766537 37:-0.98859316 38:-0.98347107 39:-0.9673913 40:-0.97849462 41:-0.95784543 42:-0.96442688 43:-0.98114986 44:-0.97738952 45:-0.99429115 46:-0.99523431 47:-0.99329609 48:-0.98815166 49:-0.99286987 50:-0.93146417 51:-0.99349593 52:-0.95757576 53:-0.98979592 54:-0.98064516 55:-0.99647266 56:-0.99686028 57:-0.99725652 58:-0.98269896 59:-0.99860481 60:0.082828598 61:0.0034598796 
-8 1:-0.99999997 2:-0.99999973 3:-0.99999937 4:0.70827006 5:-0.19948767 6:-0.9537699 7:-0.15761522 8:-0.032609707 9:-0.99999949 10:-1 11:1 12:-0.99999986 13:1 14:-0.99999991 15:-0.61432483 16:-0.69240901 17:-0.65019945 18:-0.48844034 19:-0.6469613 20:-0.42269152 21:-0.65338249 22:-0.49168827 23:-0.64789138 24:-0.49419791 25:-0.65362249 26:-0.43300423 27:-0.65759555 28:-0.48934065 29:-0.66497137 30:-0.51886418 31:-0.75600644 32:-0.46582386 33:-0.83446585 34:-0.65779654 35:-0.9999889 36:-0.99996185 37:-0.99997035 38:-0.99998513 39:-0.99995787 40:-0.99997541 41:-0.99993755 42:-0.99996898 43:-0.99999775 44:-0.99999806 45:-0.99999861 46:-0.99999904 47:-0.99999665 48:-0.99999567 49:-0.99998759 50:-0.99994257 51:-0.99999998 52:-0.99999839 53:-1 54:-1 55:-1 56:-1 57:-1 58:-1 59:-1 60:-0.99747378 61:-0.99969594 
-8 1:-0.99999999 2:-0.99999974 3:-0.99999979 4:0.70842287 5:-0.20353388 6:-0.92247175 7:0.0060116505 8:-0.99997417 9:-0.99999999 10:0.7768592 11:0.42072047 12:-1 13:-0.80780484 14:-1 15:-0.92713915 16:-0.99443572 17:-0.9029227 18:-0.99090413 19:-0.90932317 20:-0.98632327 21:-0.91726987 22:-0.99029604 23:-0.91570777 24:-0.98791127 25:-0.91621751 26:-0.98860727 27:-0.91324014 28:-0.99042811 29:-0.89359748 30:-0.99162024 31:-0.88780926 32:-0.98779264 33:-0.92002709 34:-0.99391271 35:-0.99999975 36:-0.99999439 37:-0.99999991 38:-0.99999954 39:-0.99999971 40:-1 41:-1 42:-1 43:-1 44:-1 45:-1 46:-1 47:-0.99999994 48:-0.99999938 49:-0.99999645 50:-0.99993145 51:-0.99999988 52:-0.99991699 53:-0.99992889 54:-0.99995839 55:-0.99999657 56:-0.99999884 57:-0.99999991 58:-0.99999991 59:-1 60:-0.99841153 61:-0.99919018 
-8 1:-0.99999999 2:-0.99999933 3:-0.99999903 4:0.70851985 5:-0.19621153 6:-0.90419748 7:0.39072937 8:-0.8213328 9:-0.99999996 10:0.64236944 11:0.43186467 12:-0.99999999 13:-0.14774231 14:-0.99999999 15:-0.76447394 16:-0.96495904 17:-0.79254113 18:-0.94097415 19:-0.78989925 20:-0.93472017 21:-0.79710241 22:-0.94261135 23:-0.79426821 24:-0.94252062 25:-0.79964279 26:-0.83509702 27:-0.80209109 28:-0.82039749 29:-0.76532746 30:-0.83958422 31:-0.76648745 32:-0.81337944 33:-0.85152519 34:-0.87554058 35:-0.99999845 36:-0.99999215 37:-0.99999357 38:-0.99995842 39:-0.9999506 40:-0.99999674 41:-0.99999804 42:-0.9999998 43:-0.9999999 44:-0.99999972 45:-0.99999937 46:-0.99999972 47:-0.99999944 48:-0.99999938 49:-0.99999932 50:-0.99999629 51:-1 52:-0.99999946 53:-0.99999892 54:-0.99999923 55:-0.99999989 56:-1 57:-1 58:-1 59:-1 60:-0.99810475 61:-0.99979677 
-8 1:-0.99999742 2:-0.99994158 3:-0.99994011 4:0.70711714 5:-0.25856045 6:-0.91491015 7:0.17198778 8:-0.45436397 9:-0.99999956 10:-0.10950788 11:0.51569072 12:-0.99999942 13:0.096097701 14:-0.99999959 15:-0.79698373 16:-0.83339751 17:-0.8169029 18:-0.71424429 19:-0.82348065 20:-0.71134576 21:-0.81860996 22:-0.7201899 23:-0.82394569 24:-0.74709895 25:-0.81393311 26:-0.64384834 27:-0.81664305 28:-0.70518539 29:-0.80876382 30:-0.75943209 31:-0.79416924 32:-0.65430291 33:-0.77262759 34:-0.80652306 35:-0.9998453 36:-0.99989116 37:-0.99998518 38:-0.99997921 39:-0.99993491 40:-0.9999877 41:-0.99990632 42:-0.99996643 43:-0.99999054 44:-0.99999616 45:-0.99998158 46:-0.99998903 47:-0.99997404 48:-0.99999363 49:-0.99998779 50:-0.99996449 51:-0.99999933 52:-0.99987563 53:-0.99996445 54:-0.99991935 55:-0.99988482 56:-0.99996075 57:-0.99995283 58:-0.99997542 59:-0.99999688 60:-0.94793165 61:-0.98298379 
-8 1:-0.99999768 2:-0.99994144 3:-0.99994089 4:0.70707356 5:-0.28123794 6:-0.91236969 7:0.27237325 8:-0.39338558 9:-0.99999958 10:-0.10950819 11:0.51569065 12:-0.99999971 13:0.096097571 14:-0.99999979 15:-0.80110104 16:-0.83325002 17:-0.82443503 18:-0.73967222 19:-0.81178433 20:-0.63754813 21:-0.82351773 22:-0.74099216 23:-0.82394569 24:-0.74709895 25:-0.8191483 26:-0.68432058 27:-0.82752261 28:-0.73988437 29:-0.77159465 30:-0.6833151 31:-0.80781349 32:-0.73291193 33:-0.77807869 34:-0.79193811 35:-0.99981216 36:-0.99989116 37:-0.99998518 38:-0.99995842 39:-0.99996746 40:-0.99997541 41:-0.99993755 42:-0.99998322 43:-0.99998581 44:-0.99999616 45:-0.99999632 46:-0.99999452 47:-0.99999567 48:-0.99999363 49:-0.99998779 50:-0.99992929 51:-0.99999799 52:-0.99983426 53:-0.99978667 54:-0.99987903 55:-0.99987042 56:-0.99999019 57:-0.99999214 58:-0.99998771 59:-0.99999896 60:-0.94209242 61:-0.98478773 
-8 1:-0.99999779 2:-0.99994111 3:-0.9999412 4:0.70708402 5:-0.2859537 6:-0.9127355 7:0.28981449 8:-0.37783922 9:-0.99999959 10:-0.10950822 11:0.51569088 12:-0.99999974 13:0.096097581 14:-0.9999998 15:-0.80503993 16:-0.84342237 17:-0.82443503 18:-0.73967222 19:-0.81479344 20:-0.64733687 21:-0.82351773 22:-0.74099216 23:-0.82394569 24:-0.74709895 25:-0.8223213 26:-0.68534005 27:-0.82752261 28:-0.73988437 29:-0.76962088 30:-0.68333893 31:-0.80781349 32:-0.73291193 33:-0.79097073 34:-0.78080611 35:-0.99980111 36:-0.99994558 37:-0.99998518 38:-0.99997921 39:-0.99996746 40:-0.9999877 41:-0.99990632 42:-0.99996643 43:-0.99999527 44:-0.99999232 45:-0.99999632 46:-0.99999726 47:-0.99998702 48:-0.99999363 49:-0.99998779 50:-0.99996449 51:-0.99999933 52:-0.99995836 53:-0.99989334 54:-0.99991935 55:-0.99997121 56:-0.99999019 57:-0.99993711 58:-0.99997542 59:-0.99999636 60:-0.94408194 61:-0.98660518 
-8 1:-0.99999797 2:-0.99994163 3:-0.99994138 4:0.70708489 5:-0.28840299 6:-0.91271659 7:0.30017787 8:-0.36902746 9:-0.9999996 10:-0.10950824 11:0.51569057 12:-0.99999978 13:0.096097566 14:-0.99999983 15:-0.79769607 16:-0.81808305 17:-0.82443503 18:-0.73967222 19:-0.82348065 20:-0.71134576 21:-0.81633955 22:-0.71472542 23:-0.82394569 24:-0.74709895 25:-0.82681125 26:-0.71650211 27:-0.78928693 28:-0.66274327 29:-0.80876382 30:-0.75943209 31:-0.80781349 32:-0.73291193 33:-0.78834508 34:-0.78609811 35:-0.99981216 36:-0.99989116 37:-0.99998518 38:-0.99997921 39:-0.99993491 40:-0.99997541 41:-0.99993755 42:-0.99998322 43:-0.99999527 44:-0.99999616 45:-0.99999263 46:-0.99999726 47:-0.99999135 48:-0.99999363 49:-0.99996337 50:-0.99996449 51:-0.99999799 52:-0.99995836 53:-0.99992889 54:-0.99991935 55:-0.99992801 56:-0.99995094 57:-0.99999214 58:-0.99998771 59:-0.99999896 60:-0.9440251 61:-0.98747073 
-8 1:-0.99999805 2:-0.9999412 3:-0.99994115 4:0.70707231 5:-0.28910768 6:-0.91221226 7:0.30523084 8:-0.36686982 9:-0.99999961 10:-0.1095082 11:0.5156908 12:-0.99999979 13:0.09609758 14:-0.99999985 15:-0.79805328 16:-0.82076052 17:-0.82443503 18:-0.73967222 19:-0.82348065 20:-0.71134576 21:-0.81783504 22:-0.71263331 23:-0.82394569 24:-0.74709895 25:-0.82681125 26:-0.71650211 27:-0.78932631 28:-0.66566153 29:-0.80876382 30:-0.75943209 31:-0.80781349 32:-0.73291193 33:-0.76975783 34:-0.79283482 35:-0.99981768 36:-0.99989116 37:-0.99998518 38:-0.99997921 39:-0.99993491 40:-0.99997541 41:-0.99996877 42:-0.99998322 43:-0.99999527 44:-0.99999232 45:-0.99999632 46:-0.99999726 47:-0.99999567 48:-0.99998728 49:-0.99997558 50:-0.99992929 51:-0.99999933 52:-0.99987563 53:-0.99992889 54:-0.99995968 55:-0.99991362 56:-0.99995094 57:-0.99999214 58:-0.99998771 59:-0.99999896 60:-0.94256936 61:-0.98705857 
-8 1:-0.99999812 2:-0.99994101 3:-0.9999413 4:0.70707702 5:-0.29346483 6:-0.91236667 7:0.32202753 8:-0.35146899 9:-0.99999962 10:-0.10950823 11:0.51569069 12:-0.99999981 13:0.096097567 14:-0.99999986 15:-0.80158039 16:-0.82572627 17:-0.82443503 18:-0.73967222 19:-0.82348065 20:-0.71134576 21:-0.81960206 22:-0.71753498 23:-0.82394569 24:-0.74709895 25:-0.82681125 26:-0.71650211 27:-0.79180738 28:-0.6618753 29:-0.80876382 30:-0.75943209 31:-0.80781349 32:-0.73291193 33:-0.7935823 34:-0.78151459 35:-0.99980111 36:-0.99994558 37:-0.99998518 38:-0.99997921 39:-0.99996746 40:-0.9999877 41:-0.99990632 42:-0.99998322 43:-0.99999527 44:-0.99999232 45:-0.99999632 46:-0.99999726 47:-0.99999567 48:-0.99999363 49:-0.99998779 50:-0.99992929 51:-0.99999933 52:-0.99995836 53:-0.99992889 54:-0.99987903 55:-0.99997121 56:-0.99999019 57:-0.99997642 58:-0.99996312 59:-0.99999792 60:-0.94906556 61:-0.98994377 
-8 1:-0.99999816 2:-0.99994111 3:-0.99994136 4:0.70708 5:-0.2938652 6:-0.91249807 7:0.32309759 8:-0.34992213 9:-0.99999963 10:-0.10950827 11:0.51569065 12:-0.99999981 13:0.096097564 14:-0.99999986 15:-0.80084887 16:-0.82545582 17:-0.82443503 18:-0.73967222 19:-0.82348065 20:-0.71134576 21:-0.82101748 22:-0.72279958 23:-0.82394569 24:-0.74709895 25:-0.82681125 26:-0.71650211 27:-0.79047245 28:-0.66161201 29:-0.80876382 30:-0.75943209 31:-0.80781349 32:-0.73291193 33:-0.79315596 34:-0.7827412 35:-0.99980111 36:-0.99994558 37:-0.99998518 38:-0.99997921 39:-0.99996746 40:-0.99997541 41:-0.99993755 42:-0.99998322 43:-0.99999054 44:-0.99999616 45:-0.99999632 46:-0.99999726 47:-0.99999567 48:-0.99998728 49:-0.99998779 50:-0.99992929 51:-0.99999799 52:-0.99995836 53:-0.99992889 54:-0.99991935 55:-0.99995681 56:-0.99997057 57:-0.99999214 58:-0.99998771 59:-0.99999896 60:-0.94804044 61:-0.9901182 
-8 1:-0.99999805 2:-0.99994092 3:-0.99994135 4:0.70707533 5:-0.29130781 6:-0.91225763 7:0.31434977 8:-0.35933584 9:-0.99999963 10:-0.10950828 11:0.51569056 12:-0.99999978 13:0.096097552 14:-0.99999984 15:-0.79958071 16:-0.8203564 17:-0.82443503 18:-0.73967222 19:-0.82348065 20:-0.71134576 21:-0.82100369 22:-0.72371024 23:-0.82394569 24:-0.74709895 25:-0.82681125 26:-0.71650211 27:-0.79203758 28:-0.66216424 29:-0.80876382 30:-0.75943209 31:-0.80781349 32:-0.73291193 33:-0.79344373 34:-0.77922202 35:-0.99979559 36:-0.99994558 37:-0.99998518 38:-0.99997921 39:-0.99996746 40:-0.9999877 41:-0.99996877 42:-0.99996643 43:-0.99999054 44:-0.99999616 45:-0.99999632 46:-0.99999726 47:-0.99999135 48:-0.99999363 49:-0.99998779 50:-0.99996449 51:-0.99999933 52:-0.99995836 53:-0.99989334 54:-0.99991935 55:-0.9999856 56:-0.99999019 57:-0.99997642 58:-0.99996312 59:-0.99999636 60:-0.94596761 61:-0.98897815 
-8 1:-0.99999805 2:-0.99994073 3:-0.99994127 4:0.70706339 5:-0.28985763 6:-0.91167607 7:0.31170747 8:-0.36481397 9:-0.99999964 10:-0.10950824 11:0.51569065 12:-0.99999978 13:0.096097625 14:-0.99999983 15:-0.79754738 16:-0.81495037 17:-0.82443503 18:-0.73967222 19:-0.82348065 20:-0.71134576 21:-0.82129777 22:-0.71855682 23:-0.82394569 24:-0.74709895 25:-0.82681125 26:-0.71650211 27:-0.82194176 28:-0.67104744 29:-0.80876382 30:-0.75943209 31:-0.80781349 32:-0.73291193 33:-0.79399287 34:-0.77858251 35:-0.99980111 36:-0.99994558 37:-0.99998518 38:-0.99997921 39:-0.99996746 40:-0.99997541 41:-0.99996877 42:-0.99998322 43:-0.99999527 44:-0.99999616 45:-0.99999263 46:-0.99999726 47:-0.99999567 48:-0.99999363 49:-0.99997558 50:-0.99992929 51:-0.99999866 52:-0.99991699 53:-0.99992889 54:-0.99983871 55:-0.99994241 56:-0.99996075 57:-0.99999214 58:-0.99998771 59:-0.99999896 60:-0.94320447 61:-0.9878724 
-8 1:-0.99999808 2:-0.99994073 3:-0.9999413 4:0.70707001 5:-0.29189067 6:-0.91200453 7:0.31793483 8:-0.35720312 9:-0.99999962 10:-0.10950822 11:0.51569075 12:-0.99999979 13:0.096097569 14:-0.99999985 15:-0.79806892 16:-0.82047801 17:-0.82443503 18:-0.73967222 19:-0.82348065 20:-0.71134576 21:-0.81933702 22:-0.72408722 23:-0.82394569 24:-0.74709895 25:-0.82681125 26:-0.71650211 27:-0.79187503 28:-0.66205609 29:-0.80876382 30:-0.75943209 31:-0.80781349 32:-0.73291193 33:-0.79358353 34:-0.78150171 35:-0.99980111 36:-0.99994558 37:-0.99997035 38:-0.99997921 39:-0.99996746 40:-0.9999877 41:-0.99993755 42:-0.99998322 43:-0.99999527 44:-0.99999232 45:-0.99999632 46:-0.99999726 47:-0.99999567 48:-0.99999363 49:-0.99998779 50:-0.99992929 51:-0.99999933 52:-0.99991699 53:-0.99992889 54:-0.99995968 55:-0.99997121 56:-0.99999019 57:-0.99998428 58:-0.99995083 59:-0.99999688 60:-0.9468743 61:-0.98932522 
-8 1:-0.99999808 2:-0.99994064 3:-0.9999413 4:0.70706169 5:-0.29244667 6:-0.91155315 7:0.32270267 8:-0.35542901 9:-0.99999962 10:-0.10950823 11:0.51569069 12:-0.9999998 13:0.096097576 14:-0.99999985 15:-0.79853917 16:-0.82580007 17:-0.82443503 18:-0.73967222 19:-0.82348065 20:-0.71134576 21:-0.82065736 22:-0.71861755 23:-0.82394569 24:-0.74709895 25:-0.82681125 26:-0.71650211 27:-0.79145158 28:-0.66017416 29:-0.80876382 30:-0.75943209 31:-0.80781349 32:-0.73291193 33:-0.79253293 34:-0.78228158 35:-0.99980111 36:-0.99989116 37:-0.99998518 38:-0.99997921 39:-0.99993491 40:-0.9999877 41:-0.99996877 42:-0.99998322 43:-0.99999054 44:-0.99999616 45:-0.99999632 46:-0.99999726 47:-0.99999567 48:-0.99998092 49:-0.99998779 50:-0.99989409 51:-0.99999866 52:-0.99995836 53:-0.99996445 54:-0.99987903 55:-0.99992801 56:-0.99999019 57:-0.99999214 58:-0.99998771 59:-0.99999844 60:-0.94613346 61:-0.98922601 
-8 1:-0.99999812 2:-0.99994064 3:-0.99994137 4:0.7070753 5:-0.29278584 6:-0.91223067 7:0.32031706 8:-0.35402515 9:-0.99999962 10:-0.10950825 11:0.5156907 12:-0.9999998 13:0.096097566 14:-0.99999985 15:-0.79754501 16:-0.82592981 17:-0.82443503 18:-0.73967222 19:-0.82348065 20:-0.71134576 21:-0.81870309 22:-0.72408734 23:-0.82394569 24:-0.74709895 25:-0.82681125 26:-0.71650211 27:-0.79378712 28:-0.66036824 29:-0.80876382 30:-0.75943209 31:-0.80781349 32:-0.73291193 33:-0.79660989 34:-0.78231472 35:-0.99980111 36:-0.99989116 37:-0.99998518 38:-0.99997921 39:-0.99996746 40:-0.99997541 41:-0.99996877 42:-0.99998322 43:-0.99999527 44:-0.99999232 45:-0.99999632 46:-0.99999726 47:-0.99999567 48:-0.99999363 49:-0.99998779 50:-0.99989409 51:-0.99999933 52:-0.99995836 53:-0.99992889 54:-0.99995968 55:-0.99997121 56:-0.99999019 57:-0.99997642 58:-0.99996312 59:-0.9999974 60:-0.94866862 61:-0.98994377 
-8 1:-0.9999969 2:-0.99994073 3:-0.99994122 4:0.70709592 5:-0.29048581 6:-0.91342998 7:0.30422697 8:-0.3626288 9:-0.99999958 10:-0.10950821 11:0.51569061 12:-0.99999968 13:0.096097602 14:-0.99999976 15:-0.79778855 16:-0.81788369 17:-0.82443503 18:-0.73967222 19:-0.82348065 20:-0.71134576 21:-0.8197472 22:-0.72316977 23:-0.82394569 24:-0.74709895 25:-0.82681125 26:-0.71650211 27:-0.79093592 28:-0.6601124 29:-0.80876382 30:-0.75943209 31:-0.80781349 32:-0.73291193 33:-0.79298912 34:-0.78008472 35:-0.99968512 36:-0.99983674 37:-0.99998518 38:-0.99997921 39:-0.99993491 40:-0.9999877 41:-0.99996877 42:-0.99996643 43:-0.99999527 44:-0.99999616 45:-0.99999632 46:-0.99999726 47:-0.99999567 48:-0.99998728 49:-0.99997558 50:-0.99992929 51:-0.99999866 52:-0.99995836 53:-0.99985778 54:-0.99987903 55:-0.99985603 56:-0.99995094 57:-0.99999214 58:-0.99998771 59:-0.99999896 60:-0.94358475 61:-0.98840231 
-8 1:-0.99999819 2:-0.99994073 3:-0.99994158 4:0.70707788 5:-0.29632658 6:-0.9122637 7:0.33489552 8:-0.34045473 9:-0.99999963 10:-0.10950822 11:0.51569071 12:-0.99999983 13:0.09609757 14:-0.99999987 15:-0.80165214 16:-0.82808652 17:-0.82443503 18:-0.73967222 19:-0.82348065 20:-0.71134576 21:-0.81970258 22:-0.72366357 23:-0.82394569 24:-0.74709895 25:-0.82681125 26:-0.71650211 27:-0.79450389 28:-0.65875204 29:-0.80876382 30:-0.75943209 31:-0.80781349 32:-0.73291193 33:-0.79270793 34:-0.77857538 35:-0.99980111 36:-0.99983674 37:-0.99998518 38:-0.99997921 39:-0.99993491 40:-0.9999877 41:-0.99996877 42:-0.99998322 43:-0.99999054 44:-0.99999616 45:-0.99999632 46:-0.99999726 47:-0.99999567 48:-0.99998728 49:-0.99996337 50:-0.99996449 51:-0.99999933 52:-0.99991699 53:-0.99996445 54:-0.99991935 55:-0.99995681 56:-0.99998038 57:-0.99999214 58:-0.99998771 59:-0.99999896 60:-0.95218486 61:-0.99157444 
-8 1:-0.99999841 2:-0.99994025 3:-0.99994174 4:0.70707447 5:-0.30221659 6:-0.91202981 7:0.36044591 8:-0.31699983 9:-0.99999964 10:-0.1095082 11:0.5156907 12:-0.99999988 13:0.096097578 14:-0.99999991 15:-0.80258709 16:-0.83294964 17:-0.82443503 18:-0.73967222 19:-0.82348065 20:-0.71134576 21:-0.82351773 22:-0.74099216 23:-0.8188807 24:-0.67349261 25:-0.82296734 26:-0.71249171 27:-0.82752261 28:-0.73988437 29:-0.80876382 30:-0.75943209 31:-0.80781349 32:-0.73291193 33:-0.79496686 34:-0.78292652 35:-0.99982873 36:-0.9997279 37:-0.99997035 38:-0.99995842 39:-0.99996746 40:-0.9999877 41:-0.99993755 42:-0.99998322 43:-0.99999527 44:-0.99999616 45:-0.99999632 46:-0.99999726 47:-0.99999567 48:-0.99999363 49:-0.99998779 50:-0.99996449 51:-0.99999866 52:-0.99995836 53:-0.99996445 54:-0.99995968 55:-0.9999856 56:-0.99998038 57:-0.99999214 58:-0.99996312 59:-0.99999896 60:-0.96367479 61:-0.99422212 
-8 1:-0.99983574 2:-0.99998758 3:-0.99997696 4:0.70757107 5:-0.19509575 6:-0.88507971 7:-0.096346759 8:-0.38951901 9:-0.99899084 10:-0.10886459 11:0.51567833 12:-0.99947315 13:0.095941713 14:-0.99956923 15:-0.12882138 16:-0.43279856 17:-0.16496371 18:-0.055010307 19:-0.16214803 20:0.07430849 21:-0.18576404 22:-0.062241392 23:-0.1692511 24:-0.059631019 25:-0.16581469 26:0.054848372 27:-0.19012621 28:-0.0057720147 29:-0.20181871 30:-0.063099606 31:-0.36435406 32:-0.010383518 33:-0.53117194 34:-0.36492768 35:-0.99531067 36:-0.9844358 37:-0.99648678 38:-0.99430324 39:-0.98913043 40:-0.99283154 41:-0.99063232 42:-0.99509915 43:-0.99836806 44:-0.99882049 45:-0.99842311 46:-0.99950931 47:-0.99977935 48:-0.99998092 49:-0.99998779 50:-0.99996449 51:-0.99999933 52:-0.99995836 53:-0.99996445 54:-0.99995968 55:-0.9999856 56:-0.99999019 57:-0.99999214 58:-0.99998771 59:-0.99999896 60:-0.97113498 61:-0.9875474 
-8 1:-0.99994983 2:-0.9999876 3:-0.99999015 4:0.70895228 5:-0.20280119 6:-0.84982947 7:-0.03834908 8:-0.51626972 9:-0.99997204 10:-0.10951012 11:0.51569236 12:-0.99998622 13:0.096099737 14:-0.99998574 15:-0.67603354 16:-0.83454248 17:-0.64261342 18:-0.7236873 19:-0.64642767 20:-0.69458906 21:-0.66498776 22:-0.72723258 23:-0.66477008 24:-0.72986093 25:-0.66450924 26:-0.70125477 27:-0.66709945 28:-0.7253982 29:-0.62061462 30:-0.74823405 31:-0.6096618 32:-0.71622011 33:-0.66443577 34:-0.82031851 35:-0.99988396 36:-0.9997279 37:-0.99992588 38:-0.99993763 39:-0.99993491 40:-0.9999877 41:-0.99996877 42:-0.99998322 43:-0.99999527 44:-0.99999616 45:-0.99999632 46:-0.99999726 47:-0.99996971 48:-0.99991104 49:-0.99940175 50:-0.99369892 51:-0.99987466 52:-0.988127 53:-0.99232027 54:-0.99141129 55:-0.9984019 56:-0.99955848 57:-0.99977989 58:-0.99995083 59:-0.99999896 60:-0.98069088 61:-0.96878394 
-8 1:-0.99999775 2:-0.99994451 3:-0.99994466 4:0.70765394 5:-0.092099622 6:-0.93472433 7:-0.27563525 8:-0.25494615 9:-0.99999972 10:-0.10950854 11:0.51569066 12:-0.99999931 13:0.096097575 14:-0.99999953 15:-0.80463197 16:-0.83363245 17:-0.82443503 18:-0.73967222 19:-0.82348065 20:-0.71134576 21:-0.82332392 22:-0.72077624 23:-0.80545629 24:-0.4230189 25:-0.81787834 26:-0.49429831 27:-0.80302499 28:-0.42987028 29:-0.79181178 30:-0.54188748 31:-0.78454283 32:-0.4850516 33:-0.77306079 34:-0.66406267 35:-0.99999442 36:-0.99994558 37:-0.99998518 38:-0.99997921 39:-0.99996746 40:-0.9999877 41:-0.99996877 42:-0.99998322 43:-0.99999527 44:-0.99999616 45:-0.99999632 46:-0.99999726 47:-0.99999567 48:-0.99999363 49:-0.99998779 50:-0.99996449 51:-0.99999933 52:-0.99995836 53:-0.99996445 54:-0.99995968 55:-0.9999856 56:-0.99999019 57:-0.99999214 58:-0.99998771 59:-0.9999683 60:-0.99689416 61:-0.99887679 
